svm_type c_svc
kernel_type rbf
gamma 0.25
nr_class 2
total_sv 1206
rho 1.38065
label 1 -1
probA -4.10228
probB -0.651103
nr_sv 546 660
SV
512 1:1 2:1 3:0 4:0 5:0 6:0 7:1 8:0 9:0 10:1 11:0 12:0 13:1 14:0 15:0 16:1 17:0 18:0 19:1 20:0 21:0 22:1 23:0 24:0 25:1 26:0.11188433 27:1 28:0 
512 1:1 2:1 3:0 4:0 5:1 6:0 7:0 8:0 9:1 10:0 11:0 12:1 13:0 14:0 15:0 16:1 17:0 18:0 19:1 20:0 21:0 22:1 23:0 24:0 25:1 26:0.35202447 27:0.2 28:0.66222222 
512 1:1 2:1 3:0 4:0 5:1 6:0 7:0 8:1 9:0 10:0 11:0 12:1 13:0 14:0 15:0 16:1 17:0 18:0 19:1 20:0 21:0 22:1 23:0 24:0 25:1 26:0.15157056 27:1 28:0 
505.6454066351359 1:1 2:0 3:1 4:0 5:1 6:0 7:0 8:1 9:0 10:0 11:1 12:0 13:0 14:0 15:1 16:0 17:0 18:0 19:1 20:0 21:0 22:1 23:0 24:0 25:1 26:0.26378044 27:0.4 28:0.66756614 
512 1:1 2:1 3:0 4:0 5:0 6:1 7:0 8:0 9:0 10:1 11:0 12:0 13:1 14:0 15:0 16:1 17:0 18:0 19:1 20:0 21:0 22:1 23:0 24:0 25:1 26:0.00125 27:0 28:0 
512 1:1 2:1 3:0 4:0 5:0 6:0 7:1 8:0 9:0 10:1 11:0 12:0 13:1 14:0 15:0 16:1 17:0 18:0 19:1 20:0 21:0 22:1 23:0 24:0 25:1 26:0.00125 27:1 28:0 
3.698527986841628 1:1 2:0 3:1 4:0 5:1 6:0 7:0 8:1 9:0 10:0 11:1 12:0 13:0 14:0 15:1 16:0 17:1 18:0 19:0 20:1 21:0 22:0 23:0 24:1 25:0 26:0.28357223 27:0.41666667 28:0.66756614 
512 1:1 2:1 3:0 4:0 5:1 6:0 7:0 8:0 9:0 10:1 11:0 12:0 13:1 14:0 15:0 16:1 17:0 18:0 19:1 20:0 21:0 22:1 23:0 24:0 25:1 26:0.39816844 27:1 28:0 
512 1:1 2:1 3:0 4:0 5:1 6:0 7:0 8:0 9:1 10:0 11:0 12:1 13:0 14:0 15:0 16:1 17:0 18:0 19:1 20:0 21:0 22:1 23:0 24:0 25:1 26:0.21180791 27:0.2 28:0 
1.86176790341089 1:1 2:1 3:0 4:0 5:1 6:0 7:0 8:1 9:0 10:0 11:1 12:0 13:0 14:1 15:0 16:0 17:0 18:1 19:0 20:0 21:1 22:0 23:1 24:0 25:0 26:0.29579729 27:0.6 28:0.97142857 
512 1:1 2:1 3:0 4:0 5:1 6:0 7:0 8:0 9:0 10:1 11:0 12:0 13:1 14:0 15:0 16:1 17:0 18:0 19:1 20:0 21:0 22:1 23:0 24:0 25:1 26:0.29049671 27:1 28:0 
512 1:1 2:1 3:0 4:0 5:1 6:0 7:0 8:1 9:0 10:0 11:0 12:1 13:0 14:1 15:0 16:0 17:0 18:0 19:1 20:0 21:0 22:1 23:0 24:0 25:1 26:0.053972822 27:0.71428571 28:0 
512 1:1 2:0 3:1 4:0 5:1 6:0 7:0 8:1 9:0 10:0 11:1 12:0 13:0 14:0 15:1 16:0 17:0 18:0 19:1 20:0 21:0 22:1 23:0 24:0 25:1 26:0.061382595 27:0.2 28:0 
512 1:1 2:1 3:0 4:0 5:1 6:0 7:0 8:0 9:0 10:1 11:0 12:0 13:1 14:0 15:0 16:1 17:0 18:0 19:1 20:0 21:0 22:1 23:0 24:0 25:1 26:0.12444491 27:1 28:0 
214.8732326929809 1:1 2:0 3:1 4:0 5:1 6:0 7:0 8:1 9:0 10:0 11:1 12:0 13:0 14:1 15:0 16:0 17:0 18:0 19:1 20:0 21:0 22:1 23:0 24:0 25:1 26:0.19509353 27:0.83333333 28:0 
512 1:1 2:1 3:0 4:0 5:1 6:0 7:0 8:0 9:0 10:1 11:0 12:0 13:1 14:0 15:0 16:1 17:0 18:0 19:1 20:0 21:0 22:1 23:0 24:0 25:1 26:0.24454202 27:1 28:0 
512 1:1 2:1 3:0 4:0 5:1 6:0 7:0 8:0 9:0 10:1 11:0 12:0 13:1 14:0 15:0 16:1 17:0 18:0 19:1 20:0 21:0 22:1 23:0 24:0 25:1 26:0.23691151 27:1 28:0 
512 1:1 2:1 3:0 4:0 5:1 6:0 7:0 8:0 9:0 10:1 11:0 12:0 13:1 14:0 15:0 16:1 17:0 18:0 19:1 20:0 21:0 22:1 23:0 24:0 25:1 26:0.20263329 27:1 28:0 
512 1:1 2:1 3:0 4:0 5:1 6:0 7:0 8:0 9:0 10:1 11:0 12:0 13:1 14:0 15:0 16:1 17:0 18:0 19:1 20:0 21:0 22:1 23:0 24:0 25:1 26:0.41072828 27:1 28:0 
512 1:1 2:1 3:0 4:0 5:1 6:0 7:0 8:0 9:0 10:1 11:0 12:0 13:1 14:0 15:0 16:1 17:0 18:0 19:1 20:0 21:0 22:1 23:0 24:0 25:1 26:0.29536924 27:1 28:0 
512 1:1 2:1 3:0 4:0 5:1 6:0 7:0 8:1 9:0 10:0 11:0 12:1 13:0 14:0 15:0 16:1 17:0 18:0 19:1 20:0 21:0 22:1 23:0 24:0 25:1 26:0.1600088 27:1 28:0 
512 1:1 2:1 3:0 4:0 5:1 6:0 7:0 8:0 9:0 10:1 11:0 12:0 13:1 14:0 15:0 16:1 17:0 18:0 19:1 20:0 21:0 22:1 23:0 24:0 25:1 26:0.67605293 27:1 28:0 
512 1:1 2:1 3:0 4:0 5:1 6:0 7:0 8:0 9:0 10:1 11:0 12:0 13:1 14:0 15:0 16:1 17:0 18:0 19:1 20:0 21:0 22:1 23:0 24:0 25:1 26:0.20240457 27:1 28:0 
512 1:1 2:1 3:0 4:0 5:1 6:0 7:0 8:0 9:0 10:1 11:0 12:0 13:1 14:0 15:0 16:1 17:0 18:0 19:1 20:0 21:0 22:1 23:0 24:0 25:1 26:0.15084067 27:1 28:0 
512 1:1 2:1 3:0 4:0 5:1 6:0 7:0 8:0 9:1 10:0 11:0 12:1 13:0 14:0 15:1 16:0 17:0 18:0 19:1 20:0 21:0 22:1 23:0 24:0 25:1 26:0.21588406 27:0 28:0.68333333 
512 1:1 2:1 3:0 4:0 5:1 6:0 7:0 8:0 9:0 10:1 11:0 12:0 13:1 14:0 15:0 16:1 17:0 18:0 19:1 20:0 21:0 22:1 23:0 24:0 25:1 26:0.00125 27:1 28:0 
512 1:1 2:1 3:0 4:0 5:1 6:0 7:0 8:0 9:0 10:1 11:0 12:0 13:1 14:0 15:0 16:1 17:0 18:0 19:1 20:0 21:0 22:1 23:0 24:0 25:1 26:0.11827988 27:1 28:0 
512 1:1 2:1 3:0 4:0 5:1 6:0 7:0 8:0 9:0 10:1 11:0 12:0 13:1 14:0 15:0 16:1 17:0 18:0 19:1 20:0 21:0 22:1 23:0 24:0 25:1 26:0.00125 27:1 28:0 
512 1:1 2:1 3:0 4:0 5:1 6:0 7:0 8:0 9:0 10:1 11:0 12:0 13:1 14:0 15:0 16:1 17:0 18:0 19:1 20:0 21:0 22:1 23:0 24:0 25:1 26:0.00125 27:1 28:0 
512 1:1 2:1 3:0 4:0 5:1 6:0 7:0 8:0 9:0 10:1 11:0 12:0 13:1 14:0 15:0 16:1 17:0 18:0 19:1 20:0 21:0 22:1 23:0 24:0 25:1 26:0.42993298 27:1 28:0 
1.769785529238467 1:1 2:1 3:0 4:0 5:1 6:0 7:0 8:0 9:0 10:1 11:0 12:0 13:1 14:0 15:0 16:1 17:1 18:0 19:0 20:0 21:1 22:0 23:0 24:0 25:1 26:0.16028726 27:1 28:0 
512 1:1 2:1 3:0 4:0 5:1 6:0 7:0 8:1 9:0 10:0 11:0 12:1 13:0 14:0 15:1 16:0 17:0 18:0 19:1 20:0 21:0 22:1 23:0 24:0 25:1 26:0.053906523 27:0.33333333 28:0 
164.1249177499328 1:1 2:1 3:0 4:0 5:1 6:0 7:0 8:1 9:0 10:0 11:1 12:0 13:0 14:0 15:1 16:0 17:0 18:0 19:1 20:0 21:0 22:1 23:0 24:0 25:1 26:0.26975226 27:0.66666667 28:0.77777778 
512 1:1 2:1 3:0 4:0 5:1 6:0 7:0 8:0 9:0 10:1 11:0 12:0 13:1 14:0 15:0 16:1 17:0 18:0 19:1 20:0 21:0 22:1 23:0 24:0 25:1 26:0.19846119 27:1 28:0 
512 1:1 2:1 3:0 4:0 5:1 6:0 7:0 8:0 9:1 10:0 11:0 12:1 13:0 14:1 15:0 16:0 17:0 18:0 19:1 20:0 21:0 22:1 23:0 24:0 25:1 26:0.28467101 27:0.33333333 28:0.93333333 
512 1:1 2:1 3:0 4:0 5:1 6:0 7:0 8:1 9:0 10:0 11:0 12:1 13:0 14:0 15:0 16:1 17:0 18:0 19:1 20:0 21:0 22:1 23:0 24:0 25:1 26:0.18720609 27:1 28:0 
512 1:1 2:1 3:0 4:0 5:1 6:0 7:0 8:0 9:0 10:1 11:0 12:0 13:1 14:0 15:0 16:1 17:0 18:0 19:1 20:0 21:0 22:1 23:0 24:0 25:1 26:0.10308184 27:1 28:0 
512 1:1 2:1 3:0 4:0 5:1 6:0 7:0 8:0 9:0 10:1 11:0 12:0 13:1 14:0 15:0 16:1 17:0 18:0 19:1 20:0 21:0 22:1 23:0 24:0 25:1 26:0.49268579 27:1 28:0 
512 1:1 2:1 3:0 4:0 5:0 6:1 7:0 8:0 9:1 10:0 11:0 12:1 13:0 14:0 15:0 16:1 17:0 18:0 19:1 20:0 21:0 22:1 23:0 24:0 25:1 26:0.00125 27:-0.5 28:0 
512 1:1 2:1 3:0 4:0 5:1 6:0 7:0 8:0 9:0 10:1 11:0 12:0 13:1 14:0 15:0 16:1 17:0 18:0 19:1 20:0 21:0 22:1 23:0 24:0 25:1 26:0.30032006 27:1 28:0 
512 1:1 2:1 3:0 4:0 5:1 6:0 7:0 8:0 9:0 10:1 11:0 12:0 13:1 14:0 15:0 16:1 17:0 18:0 19:1 20:0 21:0 22:1 23:0 24:0 25:1 26:0.17636736 27:1 28:0 
512 1:1 2:1 3:0 4:0 5:1 6:0 7:0 8:0 9:0 10:1 11:0 12:0 13:1 14:0 15:0 16:1 17:0 18:0 19:1 20:0 21:0 22:1 23:0 24:0 25:1 26:0.27685732 27:1 28:0 
512 1:1 2:1 3:0 4:0 5:1 6:0 7:0 8:0 9:0 10:1 11:0 12:0 13:1 14:0 15:0 16:1 17:0 18:0 19:1 20:0 21:0 22:1 23:0 24:0 25:1 26:0.00125 27:1 28:0 
512 1:1 2:1 3:0 4:0 5:1 6:0 7:0 8:0 9:1 10:0 11:0 12:1 13:0 14:0 15:0 16:1 17:0 18:0 19:1 20:0 21:0 22:1 23:0 24:0 25:1 26:0.22584844 27:0.2 28:0 
512 1:1 2:1 3:0 4:0 5:1 6:0 7:0 8:1 9:0 10:0 11:0 12:1 13:0 14:0 15:1 16:0 17:0 18:0 19:1 20:0 21:0 22:1 23:0 24:0 25:1 26:0.21653514 27:0.64444444 28:0 
512 1:1 2:1 3:0 4:0 5:1 6:0 7:0 8:1 9:0 10:0 11:0 12:1 13:0 14:0 15:0 16:1 17:0 18:0 19:1 20:0 21:0 22:1 23:0 24:0 25:1 26:0.10343698 27:0.86666667 28:0 
512 1:1 2:1 3:0 4:0 5:1 6:0 7:0 8:0 9:0 10:1 11:0 12:0 13:1 14:0 15:0 16:1 17:0 18:0 19:1 20:0 21:0 22:1 23:0 24:0 25:1 26:0.14656299 27:1 28:0 
512 1:1 2:1 3:0 4:0 5:1 6:0 7:0 8:1 9:0 10:0 11:0 12:1 13:0 14:0 15:0 16:1 17:0 18:0 19:1 20:0 21:0 22:1 23:0 24:0 25:1 26:0.187521 27:1 28:0 
512 1:1 2:1 3:0 4:0 5:1 6:0 7:0 8:0 9:0 10:1 11:0 12:0 13:1 14:0 15:0 16:1 17:0 18:0 19:1 20:0 21:0 22:1 23:0 24:0 25:1 26:0.17590009 27:1 28:0 
512 1:1 2:1 3:0 4:0 5:1 6:0 7:0 8:0 9:0 10:1 11:0 12:0 13:1 14:0 15:0 16:1 17:0 18:0 19:1 20:0 21:0 22:1 23:0 24:0 25:1 26:0.29137975 27:1 28:0 
512 1:1 2:1 3:0 4:0 5:1 6:0 7:0 8:0 9:1 10:0 11:0 12:1 13:0 14:0 15:0 16:1 17:0 18:0 19:1 20:0 21:0 22:1 23:0 24:0 25:1 26:0.21712413 27:0.2 28:0 
512 1:1 2:1 3:0 4:0 5:1 6:0 7:0 8:0 9:0 10:1 11:0 12:0 13:1 14:0 15:0 16:1 17:0 18:0 19:1 20:0 21:0 22:1 23:0 24:0 25:1 26:0.14159679 27:1 28:0 
512 1:1 2:1 3:0 4:0 5:1 6:0 7:0 8:0 9:0 10:1 11:0 12:0 13:1 14:0 15:0 16:1 17:0 18:0 19:1 20:0 21:0 22:1 23:0 24:0 25:1 26:0.48736402 27:1 28:0 
512 1:1 2:1 3:0 4:0 5:1 6:0 7:0 8:0 9:0 10:1 11:0 12:0 13:1 14:0 15:0 16:1 17:0 18:0 19:1 20:0 21:0 22:1 23:0 24:0 25:1 26:0.00125 27:1 28:0 
512 1:1 2:1 3:0 4:0 5:1 6:0 7:0 8:0 9:0 10:1 11:0 12:0 13:1 14:0 15:0 16:1 17:0 18:0 19:1 20:0 21:0 22:1 23:0 24:0 25:1 26:0.00125 27:1 28:0 
512 1:1 2:1 3:0 4:0 5:1 6:0 7:0 8:0 9:0 10:1 11:0 12:0 13:1 14:0 15:0 16:1 17:0 18:0 19:1 20:0 21:0 22:1 23:0 24:0 25:1 26:0.51758826 27:1 28:0 
512 1:1 2:1 3:0 4:0 5:1 6:0 7:0 8:0 9:1 10:0 11:0 12:1 13:0 14:0 15:0 16:1 17:0 18:0 19:1 20:0 21:0 22:1 23:0 24:0 25:1 26:0.00125 27:0.2 28:0 
512 1:1 2:1 3:0 4:0 5:1 6:0 7:0 8:0 9:0 10:1 11:0 12:0 13:1 14:0 15:0 16:1 17:0 18:0 19:1 20:0 21:0 22:1 23:0 24:0 25:1 26:0.39816844 27:1 28:0 
512 1:1 2:1 3:0 4:0 5:1 6:0 7:0 8:0 9:0 10:1 11:0 12:0 13:1 14:0 15:0 16:1 17:0 18:0 19:1 20:0 21:0 22:1 23:0 24:0 25:1 26:0.21538901 27:1 28:0 
512 1:1 2:1 3:0 4:0 5:1 6:0 7:0 8:0 9:0 10:1 11:0 12:0 13:1 14:0 15:0 16:1 17:0 18:0 19:1 20:0 21:0 22:1 23:0 24:0 25:1 26:0.1139465 27:1 28:0 
459.4876125771606 1:1 2:1 3:0 4:0 5:1 6:0 7:0 8:1 9:0 10:0 11:0 12:1 13:0 14:1 15:0 16:0 17:0 18:0 19:1 20:0 21:0 22:1 23:0 24:0 25:1 26:0.29563132 27:0.71428571 28:0.57142857 
512 1:1 2:0 3:1 4:0 5:1 6:0 7:0 8:1 9:0 10:0 11:0 12:1 13:0 14:0 15:1 16:0 17:0 18:0 19:1 20:0 21:0 22:1 23:0 24:0 25:1 26:0.00125 27:-0.2 28:0 
512 1:1 2:1 3:0 4:0 5:1 6:0 7:0 8:0 9:0 10:1 11:0 12:0 13:1 14:0 15:0 16:1 17:0 18:0 19:1 20:0 21:0 22:1 23:0 24:0 25:1 26:0.25610569 27:1 28:0 
512 1:1 2:1 3:0 4:0 5:1 6:0 7:0 8:0 9:1 10:0 11:0 12:1 13:0 14:1 15:0 16:0 17:0 18:0 19:1 20:0 21:0 22:1 23:0 24:0 25:1 26:0.19833955 27:0.33333333 28:0.51111111 
512 1:1 2:1 3:0 4:0 5:1 6:0 7:0 8:0 9:0 10:1 11:0 12:0 13:1 14:0 15:0 16:1 17:0 18:0 19:1 20:0 21:0 22:1 23:0 24:0 25:1 26:0.15502031 27:1 28:0 
512 1:1 2:1 3:0 4:0 5:1 6:0 7:0 8:0 9:0 10:1 11:0 12:0 13:1 14:0 15:0 16:1 17:0 18:0 19:1 20:0 21:0 22:1 23:0 24:0 25:1 26:0.00125 27:1 28:0 
512 1:1 2:1 3:0 4:0 5:1 6:0 7:0 8:0 9:0 10:1 11:0 12:0 13:1 14:0 15:0 16:1 17:0 18:0 19:1 20:0 21:0 22:1 23:0 24:0 25:1 26:0.00125 27:1 28:0 
512 1:1 2:1 3:0 4:0 5:1 6:0 7:0 8:0 9:0 10:1 11:0 12:0 13:1 14:0 15:0 16:1 17:0 18:0 19:1 20:0 21:0 22:1 23:0 24:0 25:1 26:0.28129271 27:1 28:0 
512 1:1 2:1 3:0 4:0 5:1 6:0 7:0 8:0 9:0 10:1 11:0 12:0 13:1 14:0 15:0 16:1 17:0 18:0 19:1 20:0 21:0 22:1 23:0 24:0 25:1 26:0.1456296 27:1 28:0 
512 1:1 2:1 3:0 4:0 5:1 6:0 7:0 8:0 9:0 10:1 11:0 12:0 13:1 14:0 15:0 16:1 17:0 18:0 19:1 20:0 21:0 22:1 23:0 24:0 25:1 26:0.22309849 27:1 28:0 
512 1:1 2:1 3:0 4:0 5:1 6:0 7:0 8:0 9:1 10:0 11:0 12:1 13:0 14:0 15:0 16:1 17:0 18:0 19:1 20:0 21:0 22:1 23:0 24:0 25:1 26:0.11226561 27:0.2 28:0 
512 1:1 2:1 3:0 4:0 5:1 6:0 7:0 8:1 9:0 10:0 11:0 12:1 13:0 14:0 15:0 16:1 17:0 18:0 19:1 20:0 21:0 22:1 23:0 24:0 25:1 26:0.21051638 27:0.96 28:0 
512 1:1 2:1 3:0 4:0 5:0 6:0 7:1 8:0 9:0 10:1 11:0 12:0 13:1 14:0 15:0 16:1 17:0 18:0 19:1 20:0 21:0 22:1 23:0 24:0 25:1 26:0.00125 27:1 28:0 
512 1:1 2:1 3:0 4:0 5:1 6:0 7:0 8:0 9:0 10:1 11:0 12:0 13:1 14:0 15:0 16:1 17:0 18:0 19:1 20:0 21:0 22:1 23:0 24:0 25:1 26:0.13259271 27:1 28:0 
512 1:1 2:1 3:0 4:0 5:1 6:0 7:0 8:0 9:0 10:1 11:0 12:0 13:1 14:0 15:0 16:1 17:0 18:0 19:1 20:0 21:0 22:1 23:0 24:0 25:1 26:0.27880275 27:1 28:0 
512 1:1 2:1 3:0 4:0 5:1 6:0 7:0 8:0 9:1 10:0 11:0 12:1 13:0 14:1 15:0 16:0 17:0 18:0 19:1 20:0 21:0 22:1 23:0 24:0 25:1 26:0.018033458 27:0.33333333 28:0 
512 1:1 2:1 3:0 4:0 5:1 6:0 7:0 8:0 9:0 10:1 11:0 12:0 13:1 14:0 15:0 16:1 17:0 18:0 19:1 20:0 21:0 22:1 23:0 24:0 25:1 26:0.043652233 27:1 28:0 
512 1:1 2:1 3:0 4:0 5:1 6:0 7:0 8:0 9:0 10:1 11:0 12:0 13:1 14:0 15:0 16:1 17:0 18:0 19:1 20:0 21:0 22:1 23:0 24:0 25:1 26:0.22416565 27:1 28:0 
512 1:1 2:1 3:0 4:0 5:0 6:1 7:0 8:1 9:0 10:0 11:1 12:0 13:0 14:0 15:1 16:0 17:0 18:0 19:1 20:0 21:0 22:1 23:0 24:0 25:1 26:0.086823329 27:0.2 28:0 
5.309989637202833 1:1 2:1 3:0 4:0 5:1 6:0 7:0 8:1 9:0 10:0 11:0 12:1 13:0 14:0 15:0 16:1 17:0 18:0 19:1 20:0 21:0 22:1 23:0 24:0 25:1 26:0.15224676 27:1 28:0 
512 1:1 2:1 3:0 4:0 5:1 6:0 7:0 8:0 9:0 10:1 11:0 12:0 13:1 14:0 15:0 16:1 17:0 18:0 19:1 20:0 21:0 22:1 23:0 24:0 25:1 26:0.00125 27:1 28:0 
512 1:1 2:1 3:0 4:0 5:1 6:0 7:0 8:0 9:0 10:1 11:0 12:0 13:1 14:0 15:0 16:1 17:0 18:0 19:1 20:0 21:0 22:1 23:0 24:0 25:1 26:0.33128956 27:1 28:0 
512 1:1 2:1 3:0 4:0 5:1 6:0 7:0 8:0 9:0 10:1 11:0 12:0 13:1 14:0 15:0 16:1 17:0 18:0 19:1 20:0 21:0 22:1 23:0 24:0 25:1 26:0.22388838 27:1 28:0 
512 1:1 2:1 3:0 4:0 5:1 6:0 7:0 8:0 9:1 10:0 11:0 12:1 13:0 14:0 15:0 16:1 17:0 18:0 19:1 20:0 21:0 22:1 23:0 24:0 25:1 26:0.37737256 27:0.2 28:0 
512 1:1 2:1 3:0 4:0 5:1 6:0 7:0 8:0 9:1 10:0 11:0 12:1 13:0 14:1 15:0 16:0 17:0 18:0 19:1 20:0 21:0 22:1 23:0 24:0 25:1 26:0.022712825 27:0.33333333 28:0 
512 1:1 2:1 3:0 4:0 5:1 6:0 7:0 8:0 9:1 10:0 11:0 12:1 13:0 14:1 15:0 16:0 17:0 18:0 19:1 20:0 21:0 22:1 23:0 24:0 25:1 26:0.047483187 27:0.33333333 28:0 
512 1:1 2:1 3:0 4:0 5:1 6:0 7:0 8:0 9:0 10:1 11:0 12:0 13:1 14:0 15:0 16:1 17:0 18:0 19:1 20:0 21:0 22:1 23:0 24:0 25:1 26:0.22029276 27:1 28:0 
512 1:1 2:1 3:0 4:0 5:1 6:0 7:0 8:0 9:1 10:0 11:0 12:1 13:0 14:0 15:0 16:1 17:0 18:0 19:1 20:0 21:0 22:1 23:0 24:0 25:1 26:0.33120394 27:0.2 28:0 
512 1:1 2:1 3:0 4:0 5:1 6:0 7:0 8:0 9:0 10:1 11:0 12:0 13:1 14:0 15:0 16:1 17:0 18:0 19:1 20:0 21:0 22:1 23:0 24:0 25:1 26:0.67569113 27:1 28:0 
512 1:1 2:0 3:1 4:0 5:1 6:0 7:0 8:1 9:0 10:0 11:1 12:0 13:0 14:1 15:0 16:0 17:0 18:0 19:1 20:0 21:0 22:1 23:0 24:0 25:1 26:0.22646058 27:0.83333333 28:0.98958333 
512 1:1 2:1 3:0 4:0 5:1 6:0 7:0 8:0 9:1 10:0 11:0 12:1 13:0 14:0 15:0 16:1 17:0 18:0 19:1 20:0 21:0 22:1 23:0 24:0 25:1 26:0.20343004 27:0.2 28:0 
512 1:1 2:1 3:0 4:0 5:1 6:0 7:0 8:0 9:0 10:1 11:0 12:0 13:1 14:0 15:0 16:1 17:0 18:0 19:1 20:0 21:0 22:1 23:0 24:0 25:1 26:0.2025421 27:1 28:0 
512 1:1 2:1 3:0 4:0 5:1 6:0 7:0 8:0 9:0 10:1 11:0 12:0 13:1 14:0 15:0 16:1 17:0 18:0 19:1 20:0 21:0 22:1 23:0 24:0 25:1 26:0.20884971 27:1 28:0 
512 1:1 2:1 3:0 4:0 5:1 6:0 7:0 8:0 9:0 10:1 11:0 12:0 13:1 14:0 15:0 16:1 17:0 18:0 19:1 20:0 21:0 22:1 23:0 24:0 25:1 26:0.18044333 27:1 28:0 
512 1:1 2:1 3:0 4:0 5:1 6:0 7:0 8:0 9:0 10:1 11:0 12:0 13:1 14:0 15:0 16:1 17:0 18:0 19:1 20:0 21:0 22:1 23:0 24:0 25:1 26:0.37100309 27:1 28:0 
512 1:1 2:1 3:0 4:0 5:1 6:0 7:0 8:0 9:0 10:1 11:0 12:0 13:1 14:0 15:0 16:1 17:0 18:0 19:1 20:0 21:0 22:1 23:0 24:0 25:1 26:0.17701241 27:1 28:0 
512 1:1 2:1 3:0 4:0 5:1 6:0 7:0 8:0 9:0 10:1 11:0 12:0 13:1 14:0 15:0 16:1 17:0 18:0 19:1 20:0 21:0 22:1 23:0 24:0 25:1 26:0.30158108 27:1 28:0 
8.563662101984262 1:1 2:1 3:0 4:0 5:0 6:1 7:0 8:1 9:0 10:0 11:0 12:1 13:0 14:0 15:1 16:0 17:0 18:0 19:1 20:0 21:0 22:1 23:0 24:0 25:1 26:0.19595851 27:0.13333333 28:0.73939394 
512 1:1 2:1 3:0 4:0 5:1 6:0 7:0 8:1 9:0 10:0 11:1 12:0 13:0 14:0 15:1 16:0 17:0 18:0 19:1 20:0 21:0 22:1 23:0 24:0 25:1 26:0.1096647 27:0.66666667 28:0 
512 1:1 2:1 3:0 4:0 5:1 6:0 7:0 8:0 9:0 10:1 11:0 12:0 13:1 14:0 15:0 16:1 17:0 18:0 19:1 20:0 21:0 22:1 23:0 24:0 25:1 26:0.56327927 27:1 28:0 
512 1:1 2:1 3:0 4:0 5:1 6:0 7:0 8:0 9:0 10:1 11:0 12:0 13:1 14:0 15:0 16:1 17:0 18:0 19:1 20:0 21:0 22:1 23:0 24:0 25:1 26:0.31238514 27:1 28:0 
512 1:1 2:1 3:0 4:0 5:1 6:0 7:0 8:0 9:0 10:1 11:0 12:0 13:1 14:0 15:0 16:1 17:0 18:0 19:1 20:0 21:0 22:1 23:0 24:0 25:1 26:0.19718988 27:1 28:0 
2.185124792417394 1:1 2:1 3:0 4:0 5:1 6:0 7:0 8:1 9:0 10:0 11:1 12:0 13:0 14:1 15:0 16:0 17:0 18:0 19:1 20:0 21:0 22:1 23:0 24:1 25:0 26:0.52605993 27:0.75 28:0.97727273 
512 1:1 2:1 3:0 4:0 5:1 6:0 7:0 8:0 9:0 10:1 11:0 12:0 13:1 14:0 15:0 16:1 17:0 18:0 19:1 20:0 21:0 22:1 23:0 24:0 25:1 26:0.2455342 27:1 28:0 
512 1:1 2:1 3:0 4:0 5:1 6:0 7:0 8:0 9:0 10:1 11:0 12:0 13:1 14:0 15:0 16:1 17:0 18:0 19:1 20:0 21:0 22:1 23:0 24:0 25:1 26:0.31704646 27:1 28:0 
512 1:1 2:1 3:0 4:0 5:1 6:0 7:0 8:0 9:0 10:1 11:0 12:0 13:1 14:0 15:0 16:1 17:0 18:0 19:1 20:0 21:0 22:1 23:0 24:0 25:1 26:0.37322158 27:1 28:0 
1.634376201800683 1:1 2:1 3:0 4:0 5:1 6:0 7:0 8:1 9:0 10:0 11:0 12:1 13:0 14:0 15:1 16:0 17:1 18:0 19:0 20:1 21:0 22:0 23:0 24:0 25:1 26:0.38935634 27:0.5 28:0 
86.41800442090098 1:1 2:1 3:0 4:0 5:1 6:0 7:0 8:1 9:0 10:0 11:1 12:0 13:0 14:0 15:0 16:1 17:0 18:0 19:1 20:0 21:0 22:1 23:0 24:0 25:1 26:0.27299419 27:1 28:0 
512 1:1 2:1 3:0 4:0 5:1 6:0 7:0 8:0 9:0 10:1 11:0 12:0 13:1 14:0 15:0 16:1 17:0 18:0 19:1 20:0 21:0 22:1 23:0 24:0 25:1 26:0.23553148 27:1 28:0 
512 1:1 2:1 3:0 4:0 5:1 6:0 7:0 8:0 9:0 10:1 11:0 12:0 13:1 14:0 15:0 16:1 17:0 18:0 19:1 20:0 21:0 22:1 23:0 24:0 25:1 26:0.11084961 27:1 28:0 
512 1:1 2:1 3:0 4:0 5:1 6:0 7:0 8:0 9:0 10:1 11:0 12:0 13:1 14:0 15:0 16:1 17:0 18:0 19:1 20:0 21:0 22:1 23:0 24:0 25:1 26:0.22290152 27:1 28:0 
512 1:1 2:1 3:0 4:0 5:1 6:0 7:0 8:0 9:0 10:1 11:0 12:0 13:1 14:0 15:0 16:1 17:0 18:0 19:1 20:0 21:0 22:1 23:0 24:0 25:1 26:0.24360006 27:1 28:0 
512 1:1 2:1 3:0 4:0 5:1 6:0 7:0 8:0 9:0 10:1 11:0 12:0 13:1 14:0 15:0 16:1 17:0 18:0 19:1 20:0 21:0 22:1 23:0 24:0 25:1 26:0.30264267 27:1 28:0 
512 1:1 2:1 3:0 4:0 5:1 6:0 7:0 8:0 9:0 10:1 11:0 12:0 13:1 14:0 15:0 16:1 17:0 18:0 19:1 20:0 21:0 22:1 23:0 24:0 25:1 26:0.20752689 27:1 28:0 
512 1:1 2:1 3:0 4:0 5:1 6:0 7:0 8:0 9:0 10:1 11:0 12:0 13:1 14:0 15:0 16:1 17:0 18:0 19:1 20:0 21:0 22:1 23:0 24:0 25:1 26:0.47350135 27:1 28:0 
512 1:1 2:1 3:0 4:0 5:1 6:0 7:0 8:1 9:0 10:0 11:0 12:1 13:0 14:0 15:0 16:1 17:0 18:0 19:1 20:0 21:0 22:1 23:0 24:0 25:1 26:0.093367405 27:0.92 28:0 
512 1:1 2:1 3:0 4:0 5:1 6:0 7:0 8:1 9:0 10:0 11:0 12:1 13:0 14:1 15:0 16:0 17:0 18:0 19:1 20:0 21:0 22:1 23:0 24:0 25:1 26:0.10063896 27:0.92380952 28:0 
10.0375064631205 1:1 2:1 3:0 4:0 5:1 6:0 7:0 8:0 9:1 10:0 11:0 12:1 13:0 14:1 15:0 16:0 17:1 18:0 19:0 20:0 21:1 22:0 23:0 24:1 25:0 26:0.29422495 27:0.11111111 28:0 
512 1:1 2:1 3:0 4:0 5:0 6:1 7:0 8:0 9:0 10:1 11:0 12:0 13:1 14:0 15:0 16:1 17:0 18:0 19:1 20:0 21:0 22:1 23:0 24:0 25:1 26:0.00125 27:0 28:0 
512 1:1 2:1 3:0 4:0 5:1 6:0 7:0 8:0 9:0 10:1 11:0 12:0 13:1 14:0 15:0 16:1 17:0 18:0 19:1 20:0 21:0 22:1 23:0 24:0 25:1 26:0.13196889 27:1 28:0 
512 1:1 2:1 3:0 4:0 5:1 6:0 7:0 8:0 9:0 10:1 11:0 12:0 13:1 14:0 15:0 16:1 17:0 18:0 19:1 20:0 21:0 22:1 23:0 24:0 25:1 26:0.11404854 27:1 28:0 
512 1:1 2:1 3:0 4:0 5:1 6:0 7:0 8:0 9:1 10:0 11:0 12:1 13:0 14:1 15:0 16:0 17:0 18:0 19:1 20:0 21:0 22:1 23:0 24:0 25:1 26:0.24473371 27:0.33333333 28:0 
512 1:1 2:1 3:0 4:0 5:1 6:0 7:0 8:0 9:0 10:1 11:0 12:0 13:1 14:0 15:0 16:1 17:0 18:0 19:1 20:0 21:0 22:1 23:0 24:0 25:1 26:0.24876429 27:1 28:0 
512 1:1 2:1 3:0 4:0 5:1 6:0 7:0 8:0 9:0 10:1 11:0 12:0 13:1 14:0 15:0 16:1 17:0 18:0 19:1 20:0 21:0 22:1 23:0 24:0 25:1 26:0.00125 27:1 28:0 
512 1:1 2:1 3:0 4:0 5:1 6:0 7:0 8:0 9:0 10:1 11:0 12:0 13:1 14:0 15:0 16:1 17:0 18:0 19:1 20:0 21:0 22:1 23:0 24:0 25:1 26:0.2278439 27:1 28:0 
512 1:1 2:1 3:0 4:0 5:1 6:0 7:0 8:0 9:0 10:1 11:0 12:0 13:1 14:0 15:0 16:1 17:0 18:0 19:1 20:0 21:0 22:1 23:0 24:0 25:1 26:0.12892509 27:1 28:0 
259.7918273477763 1:1 2:1 3:0 4:0 5:1 6:0 7:0 8:1 9:0 10:0 11:1 12:0 13:0 14:0 15:1 16:0 17:0 18:0 19:1 20:0 21:0 22:1 23:0 24:0 25:1 26:0.11257978 27:0.66666667 28:0 
512 1:1 2:1 3:0 4:0 5:1 6:0 7:0 8:0 9:0 10:1 11:0 12:0 13:1 14:0 15:0 16:1 17:0 18:0 19:1 20:0 21:0 22:1 23:0 24:0 25:1 26:0.22125553 27:1 28:0 
140.3365157929072 1:1 2:0 3:1 4:0 5:0 6:1 7:0 8:1 9:0 10:0 11:1 12:0 13:0 14:1 15:0 16:0 17:0 18:0 19:1 20:0 21:0 22:1 23:0 24:0 25:1 26:0.1726972 27:0.5 28:0.79761905 
512 1:1 2:1 3:0 4:0 5:1 6:0 7:0 8:0 9:0 10:1 11:0 12:0 13:1 14:0 15:0 16:1 17:0 18:0 19:1 20:0 21:0 22:1 23:0 24:0 25:1 26:0.11814191 27:1 28:0 
512 1:1 2:1 3:0 4:0 5:1 6:0 7:0 8:0 9:1 10:0 11:0 12:1 13:0 14:0 15:1 16:0 17:0 18:0 19:1 20:0 21:0 22:1 23:0 24:0 25:1 26:0.19662665 27:0 28:0.68333333 
512 1:1 2:1 3:0 4:0 5:1 6:0 7:0 8:0 9:0 10:1 11:0 12:0 13:1 14:0 15:0 16:1 17:0 18:0 19:1 20:0 21:0 22:1 23:0 24:0 25:1 26:0.00125 27:1 28:0 
512 1:1 2:1 3:0 4:0 5:1 6:0 7:0 8:0 9:0 10:1 11:0 12:0 13:1 14:0 15:0 16:1 17:0 18:0 19:1 20:0 21:0 22:1 23:0 24:0 25:1 26:0.14528406 27:1 28:0 
512 1:1 2:1 3:0 4:0 5:1 6:0 7:0 8:0 9:0 10:1 11:0 12:0 13:1 14:0 15:0 16:1 17:0 18:0 19:1 20:0 21:0 22:1 23:0 24:0 25:1 26:0.15708323 27:1 28:0 
512 1:1 2:1 3:0 4:0 5:1 6:0 7:0 8:0 9:0 10:1 11:0 12:0 13:1 14:0 15:0 16:1 17:0 18:0 19:1 20:0 21:0 22:1 23:0 24:0 25:1 26:0.10596856 27:1 28:0 
512 1:1 2:1 3:0 4:0 5:1 6:0 7:0 8:0 9:0 10:1 11:0 12:0 13:1 14:0 15:0 16:1 17:0 18:0 19:1 20:0 21:0 22:1 23:0 24:0 25:1 26:0.25601748 27:1 28:0 
512 1:1 2:1 3:0 4:0 5:1 6:0 7:0 8:0 9:0 10:1 11:0 12:0 13:1 14:0 15:0 16:1 17:0 18:0 19:1 20:0 21:0 22:1 23:0 24:0 25:1 26:0.13061546 27:1 28:0 
512 1:1 2:1 3:0 4:0 5:1 6:0 7:0 8:0 9:1 10:0 11:0 12:1 13:0 14:0 15:0 16:1 17:0 18:0 19:1 20:0 21:0 22:1 23:0 24:0 25:1 26:0.27256215 27:0.2 28:0 
512 1:1 2:1 3:0 4:0 5:1 6:0 7:0 8:0 9:0 10:1 11:0 12:0 13:1 14:0 15:0 16:1 17:0 18:0 19:1 20:0 21:0 22:1 23:0 24:0 25:1 26:0.063393623 27:1 28:0 
512 1:1 2:1 3:0 4:0 5:1 6:0 7:0 8:0 9:0 10:1 11:0 12:0 13:1 14:0 15:0 16:1 17:0 18:0 19:1 20:0 21:0 22:1 23:0 24:0 25:1 26:0.2468341 27:1 28:0 
512 1:1 2:1 3:0 4:0 5:1 6:0 7:0 8:0 9:1 10:0 11:0 12:1 13:0 14:0 15:0 16:1 17:0 18:0 19:1 20:0 21:0 22:1 23:0 24:0 25:1 26:0.18727425 27:0.2 28:0 
512 1:1 2:0 3:1 4:0 5:0 6:1 7:0 8:1 9:0 10:0 11:1 12:0 13:0 14:1 15:0 16:0 17:0 18:0 19:1 20:0 21:0 22:1 23:0 24:0 25:1 26:0.34149382 27:0.33333333 28:0.83928571 
512 1:1 2:1 3:0 4:0 5:1 6:0 7:0 8:0 9:0 10:1 11:0 12:0 13:1 14:0 15:0 16:1 17:0 18:0 19:1 20:0 21:0 22:1 23:0 24:0 25:1 26:0.12382306 27:1 28:0 
512 1:1 2:1 3:0 4:0 5:1 6:0 7:0 8:0 9:0 10:1 11:0 12:0 13:1 14:0 15:0 16:1 17:0 18:0 19:1 20:0 21:0 22:1 23:0 24:0 25:1 26:0.25867087 27:1 28:0 
512 1:1 2:1 3:0 4:0 5:1 6:0 7:0 8:0 9:0 10:1 11:0 12:0 13:1 14:0 15:0 16:1 17:0 18:0 19:1 20:0 21:0 22:1 23:0 24:0 25:1 26:0.00125 27:1 28:0 
512 1:1 2:1 3:0 4:0 5:1 6:0 7:0 8:0 9:0 10:1 11:0 12:0 13:1 14:0 15:0 16:1 17:0 18:0 19:1 20:0 21:0 22:1 23:0 24:0 25:1 26:0.30152524 27:1 28:0 
512 1:1 2:1 3:0 4:0 5:1 6:0 7:0 8:0 9:0 10:1 11:0 12:0 13:1 14:0 15:0 16:1 17:0 18:0 19:1 20:0 21:0 22:1 23:0 24:0 25:1 26:0.51316428 27:1 28:0 
512 1:1 2:1 3:0 4:0 5:1 6:0 7:0 8:0 9:1 10:0 11:0 12:1 13:0 14:0 15:0 16:1 17:0 18:0 19:1 20:0 21:0 22:1 23:0 24:0 25:1 26:0.23394458 27:0.2 28:0 
512 1:1 2:1 3:0 4:0 5:1 6:0 7:0 8:0 9:1 10:0 11:0 12:1 13:0 14:0 15:0 16:1 17:0 18:0 19:1 20:0 21:0 22:1 23:0 24:0 25:1 26:0.21777022 27:0.2 28:0 
512 1:1 2:1 3:0 4:0 5:1 6:0 7:0 8:0 9:0 10:1 11:0 12:0 13:1 14:0 15:0 16:1 17:0 18:0 19:1 20:0 21:0 22:1 23:0 24:0 25:1 26:0.32413334 27:1 28:0 
512 1:1 2:1 3:0 4:0 5:1 6:0 7:0 8:0 9:0 10:1 11:0 12:0 13:1 14:0 15:0 16:1 17:0 18:0 19:1 20:0 21:0 22:1 23:0 24:0 25:1 26:0.1457032 27:1 28:0 
327.8517512646632 1:1 2:1 3:0 4:0 5:1 6:0 7:0 8:1 9:0 10:0 11:0 12:1 13:0 14:1 15:0 16:0 17:0 18:0 19:1 20:0 21:0 22:1 23:0 24:0 25:1 26:0.056966495 27:0.99047619 28:0 
512 1:1 2:1 3:0 4:0 5:1 6:0 7:0 8:0 9:0 10:1 11:0 12:0 13:1 14:0 15:0 16:1 17:0 18:0 19:1 20:0 21:0 22:1 23:0 24:0 25:1 26:0.16015813 27:1 28:0 
512 1:1 2:1 3:0 4:0 5:1 6:0 7:0 8:0 9:0 10:1 11:0 12:0 13:1 14:0 15:0 16:1 17:0 18:0 19:1 20:0 21:0 22:1 23:0 24:0 25:1 26:0.13900675 27:1 28:0 
512 1:1 2:1 3:0 4:0 5:1 6:0 7:0 8:0 9:1 10:0 11:0 12:1 13:0 14:0 15:0 16:1 17:0 18:0 19:1 20:0 21:0 22:1 23:0 24:0 25:1 26:0.12155689 27:0.2 28:0 
512 1:1 2:1 3:0 4:0 5:1 6:0 7:0 8:0 9:0 10:1 11:0 12:0 13:1 14:0 15:0 16:1 17:0 18:0 19:1 20:0 21:0 22:1 23:0 24:0 25:1 26:0.07065969 27:1 28:0 
500.9490007327603 1:1 2:1 3:0 4:0 5:1 6:0 7:0 8:1 9:0 10:0 11:1 12:0 13:0 14:0 15:0 16:1 17:0 18:0 19:1 20:0 21:0 22:1 23:0 24:0 25:1 26:0.47729549 27:1 28:0 
512 1:1 2:1 3:0 4:0 5:1 6:0 7:0 8:0 9:0 10:1 11:0 12:0 13:1 14:0 15:0 16:1 17:0 18:0 19:1 20:0 21:0 22:1 23:0 24:0 25:1 26:0.21673076 27:1 28:0 
512 1:1 2:0 3:1 4:0 5:0 6:0 7:1 8:0 9:0 10:1 11:0 12:0 13:1 14:0 15:0 16:1 17:0 18:0 19:1 20:0 21:0 22:1 23:0 24:0 25:1 26:0.00125 27:-1 28:0 
512 1:1 2:1 3:0 4:0 5:1 6:0 7:0 8:0 9:1 10:0 11:0 12:1 13:0 14:1 15:0 16:0 17:0 18:0 19:1 20:0 21:0 22:1 23:0 24:0 25:1 26:0.19685723 27:0.33333333 28:0 
512 1:1 2:1 3:0 4:0 5:1 6:0 7:0 8:0 9:0 10:1 11:0 12:0 13:1 14:0 15:0 16:1 17:0 18:0 19:1 20:0 21:0 22:1 23:0 24:0 25:1 26:0.11212028 27:1 28:0 
512 1:1 2:1 3:0 4:0 5:1 6:0 7:0 8:0 9:0 10:1 11:0 12:0 13:1 14:0 15:0 16:1 17:0 18:0 19:1 20:0 21:0 22:1 23:0 24:0 25:1 26:0.17458321 27:1 28:0 
512 1:1 2:1 3:0 4:0 5:0 6:0 7:1 8:0 9:0 10:1 11:0 12:0 13:1 14:0 15:0 16:1 17:0 18:0 19:1 20:0 21:0 22:1 23:0 24:0 25:1 26:0.081302308 27:1 28:0 
512 1:1 2:1 3:0 4:0 5:1 6:0 7:0 8:0 9:0 10:1 11:0 12:0 13:1 14:0 15:0 16:1 17:0 18:0 19:1 20:0 21:0 22:1 23:0 24:0 25:1 26:0.50059229 27:1 28:0 
81.09630205734862 1:1 2:1 3:0 4:0 5:1 6:0 7:0 8:1 9:0 10:0 11:0 12:1 13:0 14:0 15:0 16:1 17:0 18:0 19:1 20:0 21:0 22:1 23:0 24:0 25:1 26:0.10998271 27:1 28:0 
4.579334880729426 1:1 2:0 3:1 4:0 5:0 6:1 7:0 8:1 9:0 10:0 11:1 12:0 13:0 14:1 15:0 16:0 17:1 18:0 19:0 20:1 21:0 22:0 23:1 24:0 25:0 26:0.47341979 27:0.7 28:0.95454545 
512 1:1 2:1 3:0 4:0 5:1 6:0 7:0 8:0 9:0 10:1 11:0 12:0 13:1 14:0 15:0 16:1 17:0 18:0 19:1 20:0 21:0 22:1 23:0 24:0 25:1 26:0.45741895 27:1 28:0 
512 1:1 2:1 3:0 4:0 5:1 6:0 7:0 8:0 9:0 10:1 11:0 12:0 13:1 14:0 15:0 16:1 17:0 18:0 19:1 20:0 21:0 22:1 23:0 24:0 25:1 26:0.26319814 27:1 28:0 
512 1:1 2:1 3:0 4:0 5:1 6:0 7:0 8:0 9:0 10:1 11:0 12:0 13:1 14:0 15:0 16:1 17:0 18:0 19:1 20:0 21:0 22:1 23:0 24:0 25:1 26:0.29046029 27:1 28:0 
512 1:1 2:1 3:0 4:0 5:1 6:0 7:0 8:0 9:1 10:0 11:0 12:1 13:0 14:0 15:0 16:1 17:0 18:0 19:1 20:0 21:0 22:1 23:0 24:0 25:1 26:0.13030168 27:0.2 28:0 
512 1:1 2:1 3:0 4:0 5:1 6:0 7:0 8:0 9:0 10:1 11:0 12:0 13:1 14:0 15:0 16:1 17:0 18:0 19:1 20:0 21:0 22:1 23:0 24:0 25:1 26:0.21523508 27:1 28:0 
512 1:1 2:1 3:0 4:0 5:1 6:0 7:0 8:0 9:1 10:0 11:0 12:1 13:0 14:0 15:0 16:1 17:0 18:0 19:1 20:0 21:0 22:1 23:0 24:0 25:1 26:0.10275134 27:0.2 28:0 
512 1:1 2:1 3:0 4:0 5:1 6:0 7:0 8:0 9:0 10:1 11:0 12:0 13:1 14:0 15:0 16:1 17:0 18:0 19:1 20:0 21:0 22:1 23:0 24:0 25:1 26:0.35007229 27:1 28:0 
512 1:1 2:1 3:0 4:0 5:1 6:0 7:0 8:0 9:0 10:1 11:0 12:0 13:1 14:0 15:0 16:1 17:0 18:0 19:1 20:0 21:0 22:1 23:0 24:0 25:1 26:0.1763975 27:1 28:0 
512 1:1 2:1 3:0 4:0 5:1 6:0 7:0 8:0 9:0 10:1 11:0 12:0 13:1 14:0 15:0 16:1 17:0 18:0 19:1 20:0 21:0 22:1 23:0 24:0 25:1 26:0.10339129 27:1 28:0 
512 1:1 2:1 3:0 4:0 5:1 6:0 7:0 8:1 9:0 10:0 11:0 12:1 13:0 14:1 15:0 16:0 17:0 18:0 19:1 20:0 21:0 22:1 23:0 24:0 25:1 26:0.24928319 27:0.71428571 28:0 
1.199580272665369 1:1 2:1 3:0 4:0 5:1 6:0 7:0 8:1 9:0 10:0 11:0 12:1 13:0 14:0 15:1 16:0 17:1 18:0 19:0 20:0 21:1 22:0 23:1 24:0 25:0 26:0.19630328 27:0.8 28:0 
512 1:1 2:1 3:0 4:0 5:1 6:0 7:0 8:0 9:0 10:1 11:0 12:0 13:1 14:0 15:0 16:1 17:0 18:0 19:1 20:0 21:0 22:1 23:0 24:0 25:1 26:0.5121128 27:1 28:0 
512 1:1 2:1 3:0 4:0 5:1 6:0 7:0 8:1 9:0 10:0 11:0 12:1 13:0 14:1 15:0 16:0 17:0 18:0 19:1 20:0 21:0 22:1 23:0 24:0 25:1 26:0.22244081 27:0.94285714 28:0 
512 1:1 2:1 3:0 4:0 5:1 6:0 7:0 8:0 9:0 10:1 11:0 12:0 13:1 14:0 15:0 16:1 17:0 18:0 19:1 20:0 21:0 22:1 23:0 24:0 25:1 26:0.1709363 27:1 28:0 
512 1:1 2:1 3:0 4:0 5:1 6:0 7:0 8:0 9:0 10:1 11:0 12:0 13:1 14:0 15:0 16:1 17:0 18:0 19:1 20:0 21:0 22:1 23:0 24:0 25:1 26:0.047206629 27:1 28:0 
512 1:1 2:1 3:0 4:0 5:1 6:0 7:0 8:0 9:0 10:1 11:0 12:0 13:1 14:0 15:0 16:1 17:0 18:0 19:1 20:0 21:0 22:1 23:0 24:0 25:1 26:0.17102557 27:1 28:0 
512 1:1 2:1 3:0 4:0 5:1 6:0 7:0 8:0 9:0 10:1 11:0 12:0 13:1 14:0 15:0 16:1 17:0 18:0 19:1 20:0 21:0 22:1 23:0 24:0 25:1 26:0.00125 27:1 28:0 
512 1:1 2:1 3:0 4:0 5:1 6:0 7:0 8:0 9:0 10:1 11:0 12:0 13:1 14:0 15:0 16:1 17:0 18:0 19:1 20:0 21:0 22:1 23:0 24:0 25:1 26:0.44831428 27:1 28:0 
512 1:1 2:0 3:1 4:0 5:1 6:0 7:0 8:0 9:0 10:1 11:0 12:0 13:1 14:0 15:0 16:1 17:0 18:0 19:1 20:0 21:0 22:1 23:0 24:0 25:1 26:0.00125 27:0 28:0 
512 1:1 2:1 3:0 4:0 5:1 6:0 7:0 8:0 9:0 10:1 11:0 12:0 13:1 14:0 15:0 16:1 17:0 18:0 19:1 20:0 21:0 22:1 23:0 24:0 25:1 26:0.27208087 27:1 28:0 
512 1:1 2:1 3:0 4:0 5:1 6:0 7:0 8:0 9:0 10:1 11:0 12:0 13:1 14:0 15:0 16:1 17:0 18:0 19:1 20:0 21:0 22:1 23:0 24:0 25:1 26:0.15419134 27:1 28:0 
512 1:1 2:1 3:0 4:0 5:1 6:0 7:0 8:0 9:1 10:0 11:0 12:1 13:0 14:0 15:0 16:1 17:0 18:0 19:1 20:0 21:0 22:1 23:0 24:0 25:1 26:0.15258498 27:0.2 28:0 
512 1:1 2:1 3:0 4:0 5:1 6:0 7:0 8:0 9:1 10:0 11:0 12:1 13:0 14:0 15:1 16:0 17:0 18:0 19:1 20:0 21:0 22:1 23:0 24:0 25:1 26:0.13916151 27:0 28:0.66666667 
512 1:1 2:1 3:0 4:0 5:1 6:0 7:0 8:0 9:0 10:1 11:0 12:0 13:1 14:0 15:0 16:1 17:0 18:0 19:1 20:0 21:0 22:1 23:0 24:0 25:1 26:0.18836273 27:1 28:0 
512 1:1 2:1 3:0 4:0 5:1 6:0 7:0 8:0 9:0 10:1 11:0 12:0 13:1 14:0 15:0 16:1 17:0 18:0 19:1 20:0 21:0 22:1 23:0 24:0 25:1 26:0.34041083 27:1 28:0 
512 1:1 2:1 3:0 4:0 5:1 6:0 7:0 8:0 9:1 10:0 11:0 12:1 13:0 14:1 15:0 16:0 17:0 18:0 19:1 20:0 21:0 22:1 23:0 24:0 25:1 26:0.46264374 27:0.33333333 28:0.99286988 
512 1:1 2:1 3:0 4:0 5:1 6:0 7:0 8:0 9:0 10:1 11:0 12:0 13:1 14:0 15:0 16:1 17:0 18:0 19:1 20:0 21:0 22:1 23:0 24:0 25:1 26:0.16583441 27:1 28:0 
1.144518696252288 1:1 2:1 3:0 4:0 5:1 6:0 7:0 8:1 9:0 10:0 11:1 12:0 13:0 14:0 15:1 16:0 17:1 18:0 19:0 20:0 21:1 22:0 23:0 24:1 25:0 26:0.20928188 27:0.33333333 28:0.82142857 
178.7833674057583 1:1 2:1 3:0 4:0 5:1 6:0 7:0 8:1 9:0 10:0 11:0 12:1 13:0 14:0 15:0 16:1 17:0 18:0 19:1 20:0 21:0 22:1 23:0 24:0 25:1 26:0.13165495 27:1 28:0 
512 1:1 2:0 3:1 4:0 5:0 6:1 7:0 8:0 9:0 10:1 11:0 12:0 13:1 14:0 15:0 16:1 17:0 18:0 19:1 20:0 21:0 22:1 23:0 24:0 25:1 26:0.00125 27:-1 28:0 
512 1:1 2:1 3:0 4:0 5:1 6:0 7:0 8:0 9:0 10:1 11:0 12:0 13:1 14:0 15:0 16:1 17:0 18:0 19:1 20:0 21:0 22:1 23:0 24:0 25:1 26:0.21471424 27:1 28:0 
512 1:1 2:1 3:0 4:0 5:1 6:0 7:0 8:0 9:0 10:1 11:0 12:0 13:1 14:0 15:0 16:1 17:0 18:0 19:1 20:0 21:0 22:1 23:0 24:0 25:1 26:0.24689648 27:1 28:0 
512 1:1 2:1 3:0 4:0 5:1 6:0 7:0 8:0 9:1 10:0 11:0 12:1 13:0 14:0 15:1 16:0 17:0 18:0 19:1 20:0 21:0 22:1 23:0 24:0 25:1 26:0.10861458 27:0 28:0 
512 1:1 2:1 3:0 4:0 5:0 6:1 7:0 8:1 9:0 10:0 11:0 12:1 13:0 14:0 15:0 16:1 17:0 18:0 19:1 20:0 21:0 22:1 23:0 24:0 25:1 26:0.079998791 27:0 28:0 
512 1:1 2:1 3:0 4:0 5:1 6:0 7:0 8:0 9:1 10:0 11:0 12:1 13:0 14:0 15:0 16:1 17:0 18:0 19:1 20:0 21:0 22:1 23:0 24:0 25:1 26:0.26172432 27:0.2 28:0 
512 1:1 2:1 3:0 4:0 5:1 6:0 7:0 8:1 9:0 10:0 11:0 12:1 13:0 14:0 15:1 16:0 17:0 18:0 19:1 20:0 21:0 22:1 23:0 24:0 25:1 26:0.04187756 27:0.66666667 28:0 
512 1:1 2:1 3:0 4:0 5:1 6:0 7:0 8:0 9:0 10:1 11:0 12:0 13:1 14:0 15:0 16:1 17:0 18:0 19:1 20:0 21:0 22:1 23:0 24:0 25:1 26:0.44373289 27:1 28:0 
512 1:1 2:1 3:0 4:0 5:1 6:0 7:0 8:1 9:0 10:0 11:0 12:1 13:0 14:1 15:0 16:0 17:0 18:0 19:1 20:0 21:0 22:1 23:0 24:0 25:1 26:0.05638117 27:0.71428571 28:0 
512 1:1 2:1 3:0 4:0 5:1 6:0 7:0 8:0 9:1 10:0 11:0 12:1 13:0 14:0 15:1 16:0 17:0 18:0 19:1 20:0 21:0 22:1 23:0 24:0 25:1 26:0.11593667 27:0 28:0 
512 1:1 2:1 3:0 4:0 5:1 6:0 7:0 8:0 9:0 10:1 11:0 12:0 13:1 14:0 15:0 16:1 17:0 18:0 19:1 20:0 21:0 22:1 23:0 24:0 25:1 26:0.24807905 27:1 28:0 
512 1:1 2:1 3:0 4:0 5:1 6:0 7:0 8:0 9:0 10:1 11:0 12:0 13:1 14:0 15:0 16:1 17:0 18:0 19:1 20:0 21:0 22:1 23:0 24:0 25:1 26:0.33491927 27:1 28:0 
512 1:1 2:1 3:0 4:0 5:1 6:0 7:0 8:0 9:1 10:0 11:0 12:1 13:0 14:0 15:0 16:1 17:0 18:0 19:1 20:0 21:0 22:1 23:0 24:0 25:1 26:0.099223122 27:0.2 28:0 
512 1:1 2:1 3:0 4:0 5:1 6:0 7:0 8:0 9:0 10:1 11:0 12:0 13:1 14:0 15:0 16:1 17:0 18:0 19:1 20:0 21:0 22:1 23:0 24:0 25:1 26:0.58182526 27:1 28:0 
512 1:1 2:1 3:0 4:0 5:1 6:0 7:0 8:0 9:0 10:1 11:0 12:0 13:1 14:0 15:0 16:1 17:0 18:0 19:1 20:0 21:0 22:1 23:0 24:0 25:1 26:0.20403142 27:1 28:0 
512 1:1 2:1 3:0 4:0 5:1 6:0 7:0 8:0 9:1 10:0 11:0 12:1 13:0 14:0 15:0 16:1 17:0 18:0 19:1 20:0 21:0 22:1 23:0 24:0 25:1 26:0.21621269 27:0.2 28:0 
512 1:1 2:1 3:0 4:0 5:1 6:0 7:0 8:0 9:1 10:0 11:0 12:1 13:0 14:1 15:0 16:0 17:0 18:0 19:1 20:0 21:0 22:1 23:0 24:0 25:1 26:0.30199331 27:0.33333333 28:0.88148148 
512 1:1 2:1 3:0 4:0 5:1 6:0 7:0 8:0 9:0 10:1 11:0 12:0 13:1 14:0 15:0 16:1 17:0 18:0 19:1 20:0 21:0 22:1 23:0 24:0 25:1 26:0.63715047 27:1 28:0 
11.74288691018863 1:1 2:1 3:0 4:0 5:1 6:0 7:0 8:0 9:1 10:0 11:0 12:1 13:0 14:0 15:0 16:1 17:1 18:0 19:0 20:0 21:1 22:0 23:1 24:0 25:0 26:0.21642713 27:0.55555556 28:0 
512 1:1 2:1 3:0 4:0 5:1 6:0 7:0 8:0 9:1 10:0 11:0 12:1 13:0 14:0 15:0 16:1 17:0 18:0 19:1 20:0 21:0 22:1 23:0 24:0 25:1 26:0.11333681 27:0.2 28:0 
512 1:1 2:1 3:0 4:0 5:1 6:0 7:0 8:0 9:0 10:1 11:0 12:0 13:1 14:0 15:0 16:1 17:0 18:0 19:1 20:0 21:0 22:1 23:0 24:0 25:1 26:0.22877991 27:1 28:0 
512 1:1 2:1 3:0 4:0 5:1 6:0 7:0 8:0 9:1 10:0 11:0 12:1 13:0 14:0 15:0 16:1 17:0 18:0 19:1 20:0 21:0 22:1 23:0 24:0 25:1 26:0.24529994 27:0.2 28:0 
25.38374452007193 1:1 2:1 3:0 4:0 5:1 6:0 7:0 8:1 9:0 10:0 11:1 12:0 13:0 14:0 15:0 16:1 17:0 18:0 19:1 20:0 21:0 22:1 23:0 24:0 25:1 26:0.10656815 27:1 28:0.67857143 
512 1:1 2:1 3:0 4:0 5:1 6:0 7:0 8:0 9:0 10:1 11:0 12:0 13:1 14:0 15:0 16:1 17:0 18:0 19:1 20:0 21:0 22:1 23:0 24:0 25:1 26:0.25634566 27:1 28:0 
512 1:1 2:1 3:0 4:0 5:1 6:0 7:0 8:0 9:0 10:1 11:0 12:0 13:1 14:0 15:0 16:1 17:0 18:0 19:1 20:0 21:0 22:1 23:0 24:0 25:1 26:0.19236921 27:1 28:0 
512 1:1 2:1 3:0 4:0 5:1 6:0 7:0 8:0 9:0 10:1 11:0 12:0 13:1 14:0 15:0 16:1 17:0 18:0 19:1 20:0 21:0 22:1 23:0 24:0 25:1 26:0.11244069 27:1 28:0 
1.850057058779239 1:1 2:1 3:0 4:0 5:1 6:0 7:0 8:1 9:0 10:0 11:1 12:0 13:0 14:1 15:0 16:0 17:0 18:1 19:0 20:0 21:1 22:0 23:0 24:0 25:1 26:0.43542576 27:0.55555556 28:0.89463341 
512 1:1 2:1 3:0 4:0 5:1 6:0 7:0 8:0 9:1 10:0 11:0 12:1 13:0 14:0 15:0 16:1 17:0 18:0 19:1 20:0 21:0 22:1 23:0 24:0 25:1 26:0.17281045 27:0.2 28:0 
512 1:1 2:1 3:0 4:0 5:1 6:0 7:0 8:0 9:0 10:1 11:0 12:0 13:1 14:0 15:0 16:1 17:0 18:0 19:1 20:0 21:0 22:1 23:0 24:0 25:1 26:0.79688489 27:1 28:0 
512 1:1 2:1 3:0 4:0 5:1 6:0 7:0 8:1 9:0 10:0 11:0 12:1 13:0 14:1 15:0 16:0 17:0 18:0 19:1 20:0 21:0 22:1 23:0 24:0 25:1 26:0.19325151 27:0.71428571 28:0 
512 1:1 2:1 3:0 4:0 5:1 6:0 7:0 8:0 9:0 10:1 11:0 12:0 13:1 14:0 15:0 16:1 17:0 18:0 19:1 20:0 21:0 22:1 23:0 24:0 25:1 26:0.5079065 27:1 28:0 
512 1:1 2:1 3:0 4:0 5:1 6:0 7:0 8:0 9:0 10:1 11:0 12:0 13:1 14:0 15:0 16:1 17:0 18:0 19:1 20:0 21:0 22:1 23:0 24:0 25:1 26:0.46677047 27:1 28:0 
512 1:1 2:1 3:0 4:0 5:1 6:0 7:0 8:1 9:0 10:0 11:0 12:1 13:0 14:0 15:0 16:1 17:0 18:0 19:1 20:0 21:0 22:1 23:0 24:0 25:1 26:0.11501585 27:0.94666667 28:0 
512 1:1 2:1 3:0 4:0 5:1 6:0 7:0 8:1 9:0 10:0 11:0 12:1 13:0 14:0 15:1 16:0 17:0 18:0 19:1 20:0 21:0 22:1 23:0 24:0 25:1 26:0.096400507 27:0.64444444 28:0 
1.629139038379924 1:1 2:1 3:0 4:0 5:0 6:0 7:1 8:1 9:0 10:0 11:1 12:0 13:0 14:0 15:0 16:1 17:0 18:0 19:1 20:0 21:0 22:1 23:0 24:0 25:1 26:0.54696929 27:1 28:0 
512 1:1 2:1 3:0 4:0 5:0 6:1 7:0 8:0 9:0 10:1 11:0 12:0 13:1 14:0 15:0 16:1 17:0 18:0 19:1 20:0 21:0 22:1 23:0 24:0 25:1 26:0.00125 27:0 28:0 
512 1:1 2:1 3:0 4:0 5:1 6:0 7:0 8:0 9:0 10:1 11:0 12:0 13:1 14:0 15:0 16:1 17:0 18:0 19:1 20:0 21:0 22:1 23:0 24:0 25:1 26:0.18179139 27:1 28:0 
318.0533654843487 1:1 2:1 3:0 4:0 5:1 6:0 7:0 8:1 9:0 10:0 11:1 12:0 13:0 14:1 15:0 16:0 17:0 18:0 19:1 20:0 21:0 22:1 23:0 24:0 25:1 26:0.20911509 27:1 28:0 
512 1:1 2:0 3:1 4:0 5:1 6:0 7:0 8:1 9:0 10:0 11:1 12:0 13:0 14:1 15:0 16:0 17:0 18:0 19:1 20:0 21:0 22:1 23:0 24:0 25:1 26:0.49598908 27:0.66666667 28:0.95238095 
512 1:1 2:1 3:0 4:0 5:1 6:0 7:0 8:0 9:0 10:1 11:0 12:0 13:1 14:0 15:0 16:1 17:0 18:0 19:1 20:0 21:0 22:1 23:0 24:0 25:1 26:0.76128072 27:1 28:0 
512 1:1 2:1 3:0 4:0 5:1 6:0 7:0 8:0 9:0 10:1 11:0 12:0 13:1 14:0 15:0 16:1 17:0 18:0 19:1 20:0 21:0 22:1 23:0 24:0 25:1 26:0.51418483 27:1 28:0 
512 1:1 2:1 3:0 4:0 5:1 6:0 7:0 8:0 9:1 10:0 11:0 12:1 13:0 14:0 15:0 16:1 17:0 18:0 19:1 20:0 21:0 22:1 23:0 24:0 25:1 26:0.20207539 27:0.2 28:0 
399.9576797110111 1:1 2:1 3:0 4:0 5:1 6:0 7:0 8:1 9:0 10:0 11:0 12:1 13:0 14:1 15:0 16:0 17:0 18:0 19:1 20:0 21:0 22:1 23:0 24:0 25:1 26:0.50110579 27:0.83809524 28:0 
512 1:1 2:1 3:0 4:0 5:1 6:0 7:0 8:0 9:0 10:1 11:0 12:0 13:1 14:0 15:0 16:1 17:0 18:0 19:1 20:0 21:0 22:1 23:0 24:0 25:1 26:0.46721816 27:1 28:0 
512 1:1 2:1 3:0 4:0 5:1 6:0 7:0 8:0 9:0 10:1 11:0 12:0 13:1 14:0 15:0 16:1 17:0 18:0 19:1 20:0 21:0 22:1 23:0 24:0 25:1 26:0.3981384 27:1 28:0 
512 1:1 2:1 3:0 4:0 5:1 6:0 7:0 8:0 9:0 10:1 11:0 12:0 13:1 14:0 15:0 16:1 17:0 18:0 19:1 20:0 21:0 22:1 23:0 24:0 25:1 26:0.36630076 27:1 28:0 
512 1:1 2:1 3:0 4:0 5:1 6:0 7:0 8:0 9:0 10:1 11:0 12:0 13:1 14:0 15:0 16:1 17:0 18:0 19:1 20:0 21:0 22:1 23:0 24:0 25:1 26:0.21145329 27:1 28:0 
512 1:1 2:1 3:0 4:0 5:1 6:0 7:0 8:0 9:0 10:1 11:0 12:0 13:1 14:0 15:0 16:1 17:0 18:0 19:1 20:0 21:0 22:1 23:0 24:0 25:1 26:0.31383842 27:1 28:0 
512 1:1 2:1 3:0 4:0 5:1 6:0 7:0 8:0 9:0 10:1 11:0 12:0 13:1 14:0 15:0 16:1 17:0 18:0 19:1 20:0 21:0 22:1 23:0 24:0 25:1 26:0.29850593 27:1 28:0 
512 1:1 2:1 3:0 4:0 5:1 6:0 7:0 8:0 9:0 10:1 11:0 12:0 13:1 14:0 15:0 16:1 17:0 18:0 19:1 20:0 21:0 22:1 23:0 24:0 25:1 26:0.35564891 27:1 28:0 
512 1:1 2:1 3:0 4:0 5:1 6:0 7:0 8:1 9:0 10:0 11:0 12:1 13:0 14:0 15:0 16:1 17:0 18:0 19:1 20:0 21:0 22:1 23:0 24:0 25:1 26:0.059934977 27:0.77333333 28:0 
512 1:1 2:1 3:0 4:0 5:1 6:0 7:0 8:1 9:0 10:0 11:0 12:1 13:0 14:0 15:0 16:1 17:0 18:0 19:1 20:0 21:0 22:1 23:0 24:0 25:1 26:0.18237515 27:0.96 28:0 
512 1:1 2:1 3:0 4:0 5:1 6:0 7:0 8:1 9:0 10:0 11:1 12:0 13:0 14:1 15:0 16:0 17:0 18:0 19:1 20:0 21:0 22:1 23:0 24:0 25:1 26:0.2024602 27:1 28:0 
0.3205958422102864 1:1 2:0 3:1 4:0 5:1 6:0 7:0 8:1 9:0 10:0 11:1 12:0 13:0 14:0 15:0 16:1 17:1 18:0 19:0 20:1 21:0 22:0 23:1 24:0 25:0 26:0.37651792 27:0.91666667 28:0 
512 1:1 2:1 3:0 4:0 5:1 6:0 7:0 8:0 9:0 10:1 11:0 12:0 13:1 14:0 15:0 16:1 17:0 18:0 19:1 20:0 21:0 22:1 23:0 24:0 25:1 26:0.10822587 27:1 28:0 
512 1:1 2:1 3:0 4:0 5:1 6:0 7:0 8:0 9:0 10:1 11:0 12:0 13:1 14:0 15:0 16:1 17:0 18:0 19:1 20:0 21:0 22:1 23:0 24:0 25:1 26:0.27778915 27:1 28:0 
512 1:1 2:1 3:0 4:0 5:1 6:0 7:0 8:0 9:0 10:1 11:0 12:0 13:1 14:0 15:0 16:1 17:0 18:0 19:1 20:0 21:0 22:1 23:0 24:0 25:1 26:0.48092347 27:1 28:0 
512 1:1 2:1 3:0 4:0 5:1 6:0 7:0 8:0 9:0 10:1 11:0 12:0 13:1 14:0 15:0 16:1 17:0 18:0 19:1 20:0 21:0 22:1 23:0 24:0 25:1 26:0.42098513 27:1 28:0 
512 1:1 2:1 3:0 4:0 5:1 6:0 7:0 8:1 9:0 10:0 11:0 12:1 13:0 14:0 15:0 16:1 17:0 18:0 19:1 20:0 21:0 22:1 23:0 24:0 25:1 26:0.1407475 27:1 28:0 
512 1:1 2:0 3:1 4:0 5:0 6:0 7:1 8:0 9:0 10:1 11:0 12:0 13:1 14:0 15:0 16:1 17:0 18:0 19:1 20:0 21:0 22:1 23:0 24:0 25:1 26:0.00125 27:-1 28:0 
512 1:1 2:1 3:0 4:0 5:1 6:0 7:0 8:0 9:1 10:0 11:0 12:1 13:0 14:1 15:0 16:0 17:0 18:0 19:1 20:0 21:0 22:1 23:0 24:0 25:1 26:0.50704974 27:0.33333333 28:0.98834499 
512 1:1 2:1 3:0 4:0 5:1 6:0 7:0 8:0 9:0 10:1 11:0 12:0 13:1 14:0 15:0 16:1 17:0 18:0 19:1 20:0 21:0 22:1 23:0 24:0 25:1 26:0.00125 27:1 28:0 
512 1:1 2:1 3:0 4:0 5:1 6:0 7:0 8:0 9:0 10:1 11:0 12:0 13:1 14:0 15:0 16:1 17:0 18:0 19:1 20:0 21:0 22:1 23:0 24:0 25:1 26:0.32483929 27:1 28:0 
512 1:1 2:1 3:0 4:0 5:1 6:0 7:0 8:0 9:0 10:1 11:0 12:0 13:1 14:0 15:0 16:1 17:0 18:0 19:1 20:0 21:0 22:1 23:0 24:0 25:1 26:0.49175692 27:1 28:0 
512 1:1 2:1 3:0 4:0 5:1 6:0 7:0 8:0 9:0 10:1 11:0 12:0 13:1 14:0 15:0 16:1 17:0 18:0 19:1 20:0 21:0 22:1 23:0 24:0 25:1 26:0.32954919 27:1 28:0 
1.798208007836578 1:1 2:0 3:0 4:1 5:1 6:0 7:0 8:0 9:0 10:1 11:0 12:0 13:1 14:0 15:0 16:1 17:1 18:0 19:0 20:1 21:0 22:0 23:0 24:0 25:1 26:0.21357732 27:1 28:0 
512 1:1 2:1 3:0 4:0 5:1 6:0 7:0 8:0 9:0 10:1 11:0 12:0 13:1 14:0 15:0 16:1 17:0 18:0 19:1 20:0 21:0 22:1 23:0 24:0 25:1 26:0.34187856 27:1 28:0 
512 1:1 2:1 3:0 4:0 5:1 6:0 7:0 8:0 9:1 10:0 11:0 12:1 13:0 14:0 15:0 16:1 17:0 18:0 19:1 20:0 21:0 22:1 23:0 24:0 25:1 26:0.27033639 27:0.2 28:0 
512 1:1 2:1 3:0 4:0 5:1 6:0 7:0 8:0 9:0 10:1 11:0 12:0 13:1 14:0 15:0 16:1 17:0 18:0 19:1 20:0 21:0 22:1 23:0 24:0 25:1 26:0.23007391 27:1 28:0 
512 1:1 2:1 3:0 4:0 5:1 6:0 7:0 8:0 9:0 10:1 11:0 12:0 13:1 14:0 15:0 16:1 17:0 18:0 19:1 20:0 21:0 22:1 23:0 24:0 25:1 26:0.00125 27:1 28:0 
512 1:1 2:0 3:1 4:0 5:1 6:0 7:0 8:1 9:0 10:0 11:1 12:0 13:0 14:1 15:0 16:0 17:0 18:0 19:1 20:0 21:0 22:1 23:0 24:0 25:1 26:0.49415725 27:0.66666667 28:0.94444444 
512 1:1 2:1 3:0 4:0 5:1 6:0 7:0 8:0 9:0 10:1 11:0 12:0 13:1 14:0 15:0 16:1 17:0 18:0 19:1 20:0 21:0 22:1 23:0 24:0 25:1 26:0.28681383 27:1 28:0 
512 1:1 2:1 3:0 4:0 5:1 6:0 7:0 8:0 9:0 10:1 11:0 12:0 13:1 14:0 15:0 16:1 17:0 18:0 19:1 20:0 21:0 22:1 23:0 24:0 25:1 26:0.2412283 27:1 28:0 
512 1:1 2:1 3:0 4:0 5:1 6:0 7:0 8:0 9:0 10:1 11:0 12:0 13:1 14:0 15:0 16:1 17:0 18:0 19:1 20:0 21:0 22:1 23:0 24:0 25:1 26:0.35121334 27:1 28:0 
512 1:1 2:1 3:0 4:0 5:1 6:0 7:0 8:1 9:0 10:0 11:0 12:1 13:0 14:0 15:0 16:1 17:0 18:0 19:1 20:0 21:0 22:1 23:0 24:0 25:1 26:0.14386421 27:0.6 28:0 
512 1:1 2:1 3:0 4:0 5:1 6:0 7:0 8:0 9:1 10:0 11:0 12:1 13:0 14:0 15:0 16:1 17:0 18:0 19:1 20:0 21:0 22:1 23:0 24:0 25:1 26:0.17637178 27:0.2 28:0 
512 1:1 2:1 3:0 4:0 5:1 6:0 7:0 8:0 9:0 10:1 11:0 12:0 13:1 14:0 15:0 16:1 17:0 18:0 19:1 20:0 21:0 22:1 23:0 24:0 25:1 26:0.00125 27:1 28:0 
512 1:1 2:1 3:0 4:0 5:1 6:0 7:0 8:1 9:0 10:0 11:0 12:1 13:0 14:0 15:0 16:1 17:0 18:0 19:1 20:0 21:0 22:1 23:0 24:0 25:1 26:0.30319014 27:0.6 28:0 
512 1:1 2:1 3:0 4:0 5:1 6:0 7:0 8:0 9:0 10:1 11:0 12:0 13:1 14:0 15:0 16:1 17:0 18:0 19:1 20:0 21:0 22:1 23:0 24:0 25:1 26:0.080371097 27:1 28:0 
512 1:1 2:1 3:0 4:0 5:1 6:0 7:0 8:0 9:0 10:1 11:0 12:0 13:1 14:0 15:0 16:1 17:0 18:0 19:1 20:0 21:0 22:1 23:0 24:0 25:1 26:0.14515999 27:1 28:0 
149.3892299590302 1:1 2:0 3:1 4:0 5:1 6:0 7:0 8:1 9:0 10:0 11:1 12:0 13:0 14:1 15:0 16:0 17:1 18:0 19:0 20:1 21:0 22:0 23:1 24:0 25:0 26:0.42650279 27:0.9 28:0.98047619 
512 1:1 2:1 3:0 4:0 5:1 6:0 7:0 8:0 9:0 10:1 11:0 12:0 13:1 14:0 15:0 16:1 17:0 18:0 19:1 20:0 21:0 22:1 23:0 24:0 25:1 26:0.21585801 27:1 28:0 
168.8034283851146 1:1 2:1 3:0 4:0 5:1 6:0 7:0 8:1 9:0 10:0 11:0 12:1 13:0 14:1 15:0 16:0 17:0 18:0 19:1 20:0 21:0 22:1 23:0 24:0 25:1 26:0.083800741 27:0.71428571 28:0.67857143 
512 1:1 2:1 3:0 4:0 5:1 6:0 7:0 8:0 9:0 10:1 11:0 12:0 13:1 14:0 15:0 16:1 17:0 18:0 19:1 20:0 21:0 22:1 23:0 24:0 25:1 26:0.27208874 27:1 28:0 
512 1:1 2:1 3:0 4:0 5:1 6:0 7:0 8:0 9:0 10:1 11:0 12:0 13:1 14:0 15:0 16:1 17:0 18:0 19:1 20:0 21:0 22:1 23:0 24:0 25:1 26:0.57512164 27:1 28:0 
148.5357765331021 1:1 2:1 3:0 4:0 5:1 6:0 7:0 8:1 9:0 10:0 11:1 12:0 13:0 14:1 15:0 16:0 17:0 18:0 19:1 20:0 21:0 22:1 23:0 24:0 25:1 26:0.51452732 27:1 28:0.98639456 
512 1:1 2:1 3:0 4:0 5:1 6:0 7:0 8:0 9:0 10:1 11:0 12:0 13:1 14:0 15:0 16:1 17:0 18:0 19:1 20:0 21:0 22:1 23:0 24:0 25:1 26:0.27727818 27:1 28:0 
512 1:1 2:1 3:0 4:0 5:1 6:0 7:0 8:0 9:1 10:0 11:0 12:1 13:0 14:1 15:0 16:0 17:0 18:0 19:1 20:0 21:0 22:1 23:0 24:0 25:1 26:0.24698766 27:0.33333333 28:0.9047619 
512 1:1 2:1 3:0 4:0 5:1 6:0 7:0 8:0 9:0 10:1 11:0 12:0 13:1 14:0 15:0 16:1 17:0 18:0 19:1 20:0 21:0 22:1 23:0 24:0 25:1 26:0.17477067 27:1 28:0 
512 1:1 2:1 3:0 4:0 5:1 6:0 7:0 8:0 9:0 10:1 11:0 12:0 13:1 14:0 15:0 16:1 17:0 18:0 19:1 20:0 21:0 22:1 23:0 24:0 25:1 26:0.21887693 27:1 28:0 
512 1:1 2:1 3:0 4:0 5:1 6:0 7:0 8:1 9:0 10:0 11:0 12:1 13:0 14:0 15:0 16:1 17:0 18:0 19:1 20:0 21:0 22:1 23:0 24:0 25:1 26:0.28775385 27:0.6 28:0 
2.534810433069163 1:1 2:1 3:0 4:0 5:1 6:0 7:0 8:1 9:0 10:0 11:1 12:0 13:0 14:1 15:0 16:0 17:0 18:1 19:0 20:0 21:1 22:0 23:0 24:1 25:0 26:0.54340428 27:0.4 28:0.98333333 
512 1:1 2:1 3:0 4:0 5:1 6:0 7:0 8:0 9:0 10:1 11:0 12:0 13:1 14:0 15:0 16:1 17:0 18:0 19:1 20:0 21:0 22:1 23:0 24:0 25:1 26:0.16186495 27:1 28:0 
512 1:1 2:1 3:0 4:0 5:1 6:0 7:0 8:0 9:0 10:1 11:0 12:0 13:1 14:0 15:0 16:1 17:0 18:0 19:1 20:0 21:0 22:1 23:0 24:0 25:1 26:0.26817164 27:1 28:0 
512 1:1 2:0 3:1 4:0 5:1 6:0 7:0 8:1 9:0 10:0 11:1 12:0 13:0 14:1 15:0 16:0 17:1 18:0 19:0 20:0 21:1 22:0 23:1 24:0 25:0 26:0.48803771 27:0.8 28:0.98333333 
0.3939020592785881 1:1 2:1 3:0 4:0 5:0 6:0 7:1 8:1 9:0 10:0 11:1 12:0 13:0 14:0 15:1 16:0 17:1 18:0 19:0 20:1 21:0 22:0 23:1 24:0 25:0 26:0.077326372 27:0.75 28:0 
512 1:1 2:1 3:0 4:0 5:1 6:0 7:0 8:0 9:0 10:1 11:0 12:0 13:1 14:0 15:0 16:1 17:0 18:0 19:1 20:0 21:0 22:1 23:0 24:0 25:1 26:0.14359692 27:1 28:0 
512 1:1 2:1 3:0 4:0 5:1 6:0 7:0 8:0 9:0 10:1 11:0 12:0 13:1 14:0 15:0 16:1 17:0 18:0 19:1 20:0 21:0 22:1 23:0 24:0 25:1 26:0.375404 27:1 28:0 
512 1:1 2:1 3:0 4:0 5:1 6:0 7:0 8:0 9:0 10:1 11:0 12:0 13:1 14:0 15:0 16:1 17:0 18:0 19:1 20:0 21:0 22:1 23:0 24:0 25:1 26:0.033422802 27:1 28:0 
512 1:1 2:1 3:0 4:0 5:1 6:0 7:0 8:0 9:0 10:1 11:0 12:0 13:1 14:0 15:0 16:1 17:0 18:0 19:1 20:0 21:0 22:1 23:0 24:0 25:1 26:0.23614459 27:1 28:0 
2.620012494756784 1:1 2:1 3:0 4:0 5:1 6:0 7:0 8:0 9:1 10:0 11:0 12:1 13:0 14:1 15:0 16:0 17:1 18:0 19:0 20:1 21:0 22:0 23:1 24:0 25:0 26:0.6334213 27:0.6 28:0 
512 1:1 2:1 3:0 4:0 5:1 6:0 7:0 8:0 9:0 10:1 11:0 12:0 13:1 14:0 15:0 16:1 17:0 18:0 19:1 20:0 21:0 22:1 23:0 24:0 25:1 26:0.22658627 27:1 28:0 
512 1:1 2:1 3:0 4:0 5:1 6:0 7:0 8:0 9:0 10:1 11:0 12:0 13:1 14:0 15:0 16:1 17:0 18:0 19:1 20:0 21:0 22:1 23:0 24:0 25:1 26:0.32811233 27:1 28:0 
512 1:1 2:1 3:0 4:0 5:1 6:0 7:0 8:0 9:0 10:1 11:0 12:0 13:1 14:0 15:0 16:1 17:0 18:0 19:1 20:0 21:0 22:1 23:0 24:0 25:1 26:0.24375303 27:1 28:0 
512 1:1 2:1 3:0 4:0 5:1 6:0 7:0 8:1 9:0 10:0 11:0 12:1 13:0 14:0 15:0 16:1 17:0 18:0 19:1 20:0 21:0 22:1 23:0 24:0 25:1 26:0.17830101 27:0.92 28:0 
512 1:1 2:1 3:0 4:0 5:1 6:0 7:0 8:1 9:0 10:0 11:0 12:1 13:0 14:0 15:0 16:1 17:0 18:0 19:1 20:0 21:0 22:1 23:0 24:0 25:1 26:0.063915074 27:0.86666667 28:0 
512 1:1 2:1 3:0 4:0 5:1 6:0 7:0 8:0 9:1 10:0 11:0 12:1 13:0 14:0 15:0 16:1 17:0 18:0 19:1 20:0 21:0 22:1 23:0 24:0 25:1 26:0.12131205 27:0.2 28:0 
512 1:1 2:1 3:0 4:0 5:1 6:0 7:0 8:0 9:0 10:1 11:0 12:0 13:1 14:0 15:0 16:1 17:0 18:0 19:1 20:0 21:0 22:1 23:0 24:0 25:1 26:0.23586166 27:1 28:0 
512 1:1 2:1 3:0 4:0 5:1 6:0 7:0 8:0 9:0 10:1 11:0 12:0 13:1 14:0 15:0 16:1 17:0 18:0 19:1 20:0 21:0 22:1 23:0 24:0 25:1 26:0.27944815 27:1 28:0 
512 1:1 2:1 3:0 4:0 5:1 6:0 7:0 8:0 9:0 10:1 11:0 12:0 13:1 14:0 15:0 16:1 17:0 18:0 19:1 20:0 21:0 22:1 23:0 24:0 25:1 26:0.42687929 27:1 28:0 
512 1:1 2:1 3:0 4:0 5:1 6:0 7:0 8:0 9:1 10:0 11:0 12:1 13:0 14:0 15:1 16:0 17:0 18:0 19:1 20:0 21:0 22:1 23:0 24:0 25:1 26:0.29902631 27:0 28:0 
512 1:1 2:1 3:0 4:0 5:1 6:0 7:0 8:1 9:0 10:0 11:0 12:1 13:0 14:1 15:0 16:0 17:0 18:0 19:1 20:0 21:0 22:1 23:0 24:0 25:1 26:0.25459525 27:0.71428571 28:0 
512 1:1 2:1 3:0 4:0 5:1 6:0 7:0 8:0 9:0 10:1 11:0 12:0 13:1 14:0 15:0 16:1 17:0 18:0 19:1 20:0 21:0 22:1 23:0 24:0 25:1 26:0.1121461 27:1 28:0 
512 1:1 2:1 3:0 4:0 5:1 6:0 7:0 8:0 9:0 10:1 11:0 12:0 13:1 14:0 15:0 16:1 17:0 18:0 19:1 20:0 21:0 22:1 23:0 24:0 25:1 26:0.25792134 27:1 28:0 
512 1:1 2:1 3:0 4:0 5:1 6:0 7:0 8:0 9:0 10:1 11:0 12:0 13:1 14:0 15:0 16:1 17:0 18:0 19:1 20:0 21:0 22:1 23:0 24:0 25:1 26:0.090527296 27:1 28:0 
512 1:1 2:1 3:0 4:0 5:1 6:0 7:0 8:0 9:1 10:0 11:0 12:1 13:0 14:1 15:0 16:0 17:0 18:0 19:1 20:0 21:0 22:1 23:0 24:0 25:1 26:0.05410324 27:0.33333333 28:0 
512 1:1 2:1 3:0 4:0 5:1 6:0 7:0 8:1 9:0 10:0 11:0 12:1 13:0 14:0 15:0 16:1 17:0 18:0 19:1 20:0 21:0 22:1 23:0 24:0 25:1 26:0.00125 27:0.97333333 28:0 
512 1:1 2:1 3:0 4:0 5:1 6:0 7:0 8:0 9:0 10:1 11:0 12:0 13:1 14:0 15:0 16:1 17:0 18:0 19:1 20:0 21:0 22:1 23:0 24:0 25:1 26:0.049006671 27:1 28:0 
512 1:1 2:1 3:0 4:0 5:1 6:0 7:0 8:0 9:1 10:0 11:0 12:1 13:0 14:1 15:0 16:0 17:0 18:0 19:1 20:0 21:0 22:1 23:0 24:0 25:1 26:0.41874695 27:0.33333333 28:0.90505051 
512 1:1 2:1 3:0 4:0 5:1 6:0 7:0 8:0 9:0 10:1 11:0 12:0 13:1 14:0 15:0 16:1 17:0 18:0 19:1 20:0 21:0 22:1 23:0 24:0 25:1 26:0.22922416 27:1 28:0 
512 1:1 2:0 3:1 4:0 5:1 6:0 7:0 8:0 9:0 10:1 11:0 12:0 13:1 14:0 15:0 16:1 17:0 18:0 19:1 20:0 21:0 22:1 23:0 24:0 25:1 26:0.00125 27:0 28:0 
512 1:1 2:1 3:0 4:0 5:1 6:0 7:0 8:0 9:1 10:0 11:0 12:1 13:0 14:0 15:0 16:1 17:0 18:0 19:1 20:0 21:0 22:1 23:0 24:0 25:1 26:0.30863944 27:0.2 28:0 
512 1:1 2:1 3:0 4:0 5:0 6:1 7:0 8:1 9:0 10:0 11:0 12:1 13:0 14:0 15:1 16:0 17:0 18:0 19:1 20:0 21:0 22:1 23:0 24:0 25:1 26:0.051756453 27:-0.04 28:0 
512 1:1 2:1 3:0 4:0 5:1 6:0 7:0 8:0 9:0 10:1 11:0 12:0 13:1 14:0 15:0 16:1 17:0 18:0 19:1 20:0 21:0 22:1 23:0 24:0 25:1 26:0.38031334 27:1 28:0 
512 1:1 2:1 3:0 4:0 5:0 6:1 7:0 8:0 9:1 10:0 11:0 12:1 13:0 14:0 15:0 16:1 17:0 18:0 19:1 20:0 21:0 22:1 23:0 24:0 25:1 26:0.00125 27:-0.5 28:0 
512 1:1 2:1 3:0 4:0 5:1 6:0 7:0 8:0 9:0 10:1 11:0 12:0 13:1 14:0 15:0 16:1 17:0 18:0 19:1 20:0 21:0 22:1 23:0 24:0 25:1 26:0.53582567 27:1 28:0 
512 1:1 2:1 3:0 4:0 5:1 6:0 7:0 8:0 9:0 10:1 11:0 12:0 13:1 14:0 15:0 16:1 17:0 18:0 19:1 20:0 21:0 22:1 23:0 24:0 25:1 26:0.085695289 27:1 28:0 
512 1:1 2:1 3:0 4:0 5:1 6:0 7:0 8:0 9:0 10:1 11:0 12:0 13:1 14:0 15:0 16:1 17:0 18:0 19:1 20:0 21:0 22:1 23:0 24:0 25:1 26:0.77716607 27:1 28:0 
512 1:1 2:1 3:0 4:0 5:1 6:0 7:0 8:0 9:0 10:1 11:0 12:0 13:1 14:0 15:0 16:1 17:0 18:0 19:1 20:0 21:0 22:1 23:0 24:0 25:1 26:0.35135019 27:1 28:0 
512 1:1 2:1 3:0 4:0 5:1 6:0 7:0 8:0 9:0 10:1 11:0 12:0 13:1 14:0 15:0 16:1 17:0 18:0 19:1 20:0 21:0 22:1 23:0 24:0 25:1 26:0.20466603 27:1 28:0 
512 1:1 2:1 3:0 4:0 5:1 6:0 7:0 8:0 9:0 10:1 11:0 12:0 13:1 14:0 15:0 16:1 17:0 18:0 19:1 20:0 21:0 22:1 23:0 24:0 25:1 26:0.22149384 27:1 28:0 
512 1:1 2:1 3:0 4:0 5:1 6:0 7:0 8:0 9:0 10:1 11:0 12:0 13:1 14:0 15:0 16:1 17:0 18:0 19:1 20:0 21:0 22:1 23:0 24:0 25:1 26:0.16232276 27:1 28:0 
512 1:1 2:1 3:0 4:0 5:1 6:0 7:0 8:0 9:0 10:1 11:0 12:0 13:1 14:0 15:0 16:1 17:0 18:0 19:1 20:0 21:0 22:1 23:0 24:0 25:1 26:0.17862815 27:1 28:0 
512 1:1 2:1 3:0 4:0 5:1 6:0 7:0 8:0 9:0 10:1 11:0 12:0 13:1 14:0 15:0 16:1 17:0 18:0 19:1 20:0 21:0 22:1 23:0 24:0 25:1 26:0.23818052 27:1 28:0 
512 1:1 2:1 3:0 4:0 5:1 6:0 7:0 8:0 9:0 10:1 11:0 12:0 13:1 14:0 15:0 16:1 17:0 18:0 19:1 20:0 21:0 22:1 23:0 24:0 25:1 26:0.47156671 27:1 28:0 
512 1:1 2:1 3:0 4:0 5:1 6:0 7:0 8:0 9:0 10:1 11:0 12:0 13:1 14:0 15:0 16:1 17:0 18:0 19:1 20:0 21:0 22:1 23:0 24:0 25:1 26:0.20770882 27:1 28:0 
512 1:1 2:1 3:0 4:0 5:1 6:0 7:0 8:0 9:0 10:1 11:0 12:0 13:1 14:0 15:0 16:1 17:0 18:0 19:1 20:0 21:0 22:1 23:0 24:0 25:1 26:0.23891529 27:1 28:0 
512 1:1 2:0 3:1 4:0 5:1 6:0 7:0 8:1 9:0 10:0 11:1 12:0 13:0 14:0 15:0 16:1 17:0 18:0 19:1 20:0 21:0 22:1 23:0 24:0 25:1 26:0.13650803 27:0.75 28:0 
512 1:1 2:1 3:0 4:0 5:0 6:1 7:0 8:0 9:0 10:1 11:0 12:0 13:1 14:0 15:0 16:1 17:0 18:0 19:1 20:0 21:0 22:1 23:0 24:0 25:1 26:0.00125 27:0 28:0 
512 1:1 2:1 3:0 4:0 5:1 6:0 7:0 8:0 9:0 10:1 11:0 12:0 13:1 14:0 15:0 16:1 17:0 18:0 19:1 20:0 21:0 22:1 23:0 24:0 25:1 26:0.27630302 27:1 28:0 
512 1:1 2:1 3:0 4:0 5:1 6:0 7:0 8:0 9:0 10:1 11:0 12:0 13:1 14:0 15:0 16:1 17:0 18:0 19:1 20:0 21:0 22:1 23:0 24:0 25:1 26:0.21011946 27:1 28:0 
512 1:1 2:1 3:0 4:0 5:1 6:0 7:0 8:0 9:1 10:0 11:0 12:1 13:0 14:0 15:0 16:1 17:0 18:0 19:1 20:0 21:0 22:1 23:0 24:0 25:1 26:0.05644922 27:0.2 28:0 
512 1:1 2:1 3:0 4:0 5:1 6:0 7:0 8:0 9:0 10:1 11:0 12:0 13:1 14:0 15:0 16:1 17:0 18:0 19:1 20:0 21:0 22:1 23:0 24:0 25:1 26:0.00125 27:1 28:0 
512 1:1 2:1 3:0 4:0 5:1 6:0 7:0 8:0 9:1 10:0 11:0 12:1 13:0 14:0 15:1 16:0 17:0 18:0 19:1 20:0 21:0 22:1 23:0 24:0 25:1 26:0.40840986 27:0 28:0.77283951 
512 1:1 2:1 3:0 4:0 5:1 6:0 7:0 8:0 9:0 10:1 11:0 12:0 13:1 14:0 15:0 16:1 17:0 18:0 19:1 20:0 21:0 22:1 23:0 24:0 25:1 26:0.18651982 27:1 28:0 
512 1:1 2:1 3:0 4:0 5:1 6:0 7:0 8:0 9:1 10:0 11:0 12:1 13:0 14:0 15:0 16:1 17:0 18:0 19:1 20:0 21:0 22:1 23:0 24:0 25:1 26:0.13028346 27:0.2 28:0 
0.4756837206156029 1:1 2:1 3:0 4:0 5:0 6:1 7:0 8:1 9:0 10:0 11:1 12:0 13:0 14:1 15:0 16:0 17:1 18:0 19:0 20:1 21:0 22:0 23:0 24:1 25:0 26:0.070628405 27:0.55555556 28:0 
512 1:1 2:1 3:0 4:0 5:1 6:0 7:0 8:0 9:0 10:1 11:0 12:0 13:1 14:0 15:0 16:1 17:0 18:0 19:1 20:0 21:0 22:1 23:0 24:0 25:1 26:0.25610116 27:1 28:0 
512 1:1 2:1 3:0 4:0 5:1 6:0 7:0 8:0 9:0 10:1 11:0 12:0 13:1 14:0 15:0 16:1 17:0 18:0 19:1 20:0 21:0 22:1 23:0 24:0 25:1 26:0.252161 27:1 28:0 
512 1:1 2:0 3:0 4:1 5:1 6:0 7:0 8:0 9:0 10:1 11:0 12:0 13:1 14:0 15:0 16:1 17:0 18:1 19:0 20:0 21:1 22:0 23:0 24:0 25:1 26:0.027466796 27:-0.33333333 28:0 
512 1:1 2:0 3:0 4:1 5:1 6:0 7:0 8:0 9:0 10:1 11:0 12:0 13:1 14:0 15:0 16:1 17:0 18:1 19:0 20:0 21:1 22:0 23:0 24:0 25:1 26:0.00125 27:-0.33333333 28:0 
512 1:1 2:1 3:0 4:0 5:1 6:0 7:0 8:0 9:0 10:1 11:0 12:0 13:1 14:0 15:0 16:1 17:0 18:0 19:1 20:0 21:0 22:1 23:0 24:0 25:1 26:0.43633899 27:1 28:0 
20.26463243702548 1:1 2:0 3:1 4:0 5:1 6:0 7:0 8:1 9:0 10:0 11:1 12:0 13:0 14:1 15:0 16:0 17:1 18:0 19:0 20:1 21:0 22:0 23:1 24:0 25:0 26:0.6571824 27:0.9 28:0 
512 1:1 2:1 3:0 4:0 5:1 6:0 7:0 8:0 9:0 10:1 11:0 12:0 13:1 14:0 15:0 16:1 17:0 18:0 19:1 20:0 21:0 22:1 23:0 24:0 25:1 26:0.16748461 27:1 28:0 
512 1:1 2:1 3:0 4:0 5:1 6:0 7:0 8:0 9:0 10:1 11:0 12:0 13:1 14:0 15:0 16:1 17:0 18:0 19:1 20:0 21:0 22:1 23:0 24:0 25:1 26:0.46769556 27:1 28:0 
512 1:1 2:1 3:0 4:0 5:1 6:0 7:0 8:0 9:1 10:0 11:0 12:1 13:0 14:0 15:0 16:1 17:0 18:0 19:1 20:0 21:0 22:1 23:0 24:0 25:1 26:0.039579969 27:0.2 28:0 
512 1:1 2:1 3:0 4:0 5:1 6:0 7:0 8:0 9:1 10:0 11:0 12:1 13:0 14:0 15:0 16:1 17:0 18:0 19:1 20:0 21:0 22:1 23:0 24:0 25:1 26:0.2410506 27:0.2 28:0 
512 1:1 2:1 3:0 4:0 5:1 6:0 7:0 8:0 9:0 10:1 11:0 12:0 13:1 14:0 15:0 16:1 17:0 18:0 19:1 20:0 21:0 22:1 23:0 24:0 25:1 26:0.27279195 27:1 28:0 
512 1:1 2:0 3:0 4:1 5:1 6:0 7:0 8:0 9:0 10:1 11:0 12:0 13:1 14:0 15:0 16:1 17:0 18:0 19:1 20:0 21:0 22:1 23:0 24:0 25:1 26:0.00125 27:1 28:0 
512 1:1 2:1 3:0 4:0 5:1 6:0 7:0 8:1 9:0 10:0 11:0 12:1 13:0 14:0 15:0 16:1 17:0 18:0 19:1 20:0 21:0 22:1 23:0 24:0 25:1 26:0.16221374 27:1 28:0 
274.7456926786284 1:1 2:1 3:0 4:0 5:1 6:0 7:0 8:1 9:0 10:0 11:1 12:0 13:0 14:0 15:0 16:1 17:0 18:0 19:1 20:0 21:0 22:1 23:0 24:0 25:1 26:0.42159033 27:1 28:0 
512 1:1 2:1 3:0 4:0 5:1 6:0 7:0 8:0 9:0 10:1 11:0 12:0 13:1 14:0 15:0 16:1 17:0 18:0 19:1 20:0 21:0 22:1 23:0 24:0 25:1 26:0.16941558 27:1 28:0 
512 1:1 2:1 3:0 4:0 5:1 6:0 7:0 8:0 9:0 10:1 11:0 12:0 13:1 14:0 15:0 16:1 17:0 18:0 19:1 20:0 21:0 22:1 23:0 24:0 25:1 26:0.61509776 27:1 28:0 
512 1:1 2:1 3:0 4:0 5:1 6:0 7:0 8:0 9:1 10:0 11:0 12:1 13:0 14:1 15:0 16:0 17:0 18:0 19:1 20:0 21:0 22:1 23:0 24:0 25:1 26:0.41784456 27:0.33333333 28:0.81777778 
512 1:1 2:0 3:1 4:0 5:0 6:1 7:0 8:0 9:0 10:1 11:0 12:0 13:1 14:0 15:0 16:1 17:0 18:0 19:1 20:0 21:0 22:1 23:0 24:0 25:1 26:0.00125 27:-1 28:0 
512 1:1 2:1 3:0 4:0 5:1 6:0 7:0 8:0 9:0 10:1 11:0 12:0 13:1 14:0 15:0 16:1 17:0 18:0 19:1 20:0 21:0 22:1 23:0 24:0 25:1 26:0.24561414 27:1 28:0 
512 1:1 2:1 3:0 4:0 5:1 6:0 7:0 8:0 9:0 10:1 11:0 12:0 13:1 14:0 15:0 16:1 17:0 18:0 19:1 20:0 21:0 22:1 23:0 24:0 25:1 26:0.00125 27:1 28:0 
512 1:1 2:1 3:0 4:0 5:1 6:0 7:0 8:0 9:1 10:0 11:0 12:1 13:0 14:0 15:1 16:0 17:0 18:0 19:1 20:0 21:0 22:1 23:0 24:0 25:1 26:0.00125 27:0 28:0 
512 1:1 2:1 3:0 4:0 5:1 6:0 7:0 8:1 9:0 10:0 11:0 12:1 13:0 14:1 15:0 16:0 17:0 18:0 19:1 20:0 21:0 22:1 23:0 24:0 25:1 26:0.072538868 27:0.71428571 28:0 
512 1:1 2:1 3:0 4:0 5:1 6:0 7:0 8:1 9:0 10:0 11:0 12:1 13:0 14:0 15:0 16:1 17:0 18:0 19:1 20:0 21:0 22:1 23:0 24:0 25:1 26:0.042042293 27:0.94666667 28:0 
512 1:1 2:1 3:0 4:0 5:1 6:0 7:0 8:1 9:0 10:0 11:0 12:1 13:0 14:1 15:0 16:0 17:0 18:0 19:1 20:0 21:0 22:1 23:0 24:0 25:1 26:0.4397698 27:0.73333333 28:0 
512 1:1 2:0 3:1 4:0 5:1 6:0 7:0 8:1 9:0 10:0 11:1 12:0 13:0 14:1 15:0 16:0 17:0 18:0 19:1 20:0 21:0 22:1 23:0 24:0 25:1 26:0.16408595 27:0.66666667 28:0 
512 1:1 2:1 3:0 4:0 5:1 6:0 7:0 8:0 9:0 10:1 11:0 12:0 13:1 14:0 15:0 16:1 17:0 18:0 19:1 20:0 21:0 22:1 23:0 24:0 25:1 26:0.19378586 27:1 28:0 
512 1:1 2:1 3:0 4:0 5:1 6:0 7:0 8:0 9:0 10:1 11:0 12:0 13:1 14:0 15:0 16:1 17:0 18:0 19:1 20:0 21:0 22:1 23:0 24:0 25:1 26:0.62359703 27:1 28:0 
512 1:1 2:1 3:0 4:0 5:1 6:0 7:0 8:0 9:0 10:1 11:0 12:0 13:1 14:0 15:0 16:1 17:0 18:0 19:1 20:0 21:0 22:1 23:0 24:0 25:1 26:0.00125 27:1 28:0 
512 1:1 2:1 3:0 4:0 5:1 6:0 7:0 8:0 9:0 10:1 11:0 12:0 13:1 14:0 15:0 16:1 17:0 18:0 19:1 20:0 21:0 22:1 23:0 24:0 25:1 26:0.6356675 27:1 28:0 
512 1:1 2:1 3:0 4:0 5:1 6:0 7:0 8:1 9:0 10:0 11:0 12:1 13:0 14:1 15:0 16:0 17:0 18:0 19:1 20:0 21:0 22:1 23:0 24:0 25:1 26:0.063526809 27:0.71428571 28:0 
68.19183161458112 1:1 2:1 3:0 4:0 5:0 6:1 7:0 8:1 9:0 10:0 11:1 12:0 13:0 14:0 15:1 16:0 17:0 18:0 19:1 20:0 21:0 22:1 23:0 24:0 25:1 26:0.25056621 27:0.2 28:0.4 
512 1:1 2:1 3:0 4:0 5:1 6:0 7:0 8:0 9:0 10:1 11:0 12:0 13:1 14:0 15:0 16:1 17:0 18:0 19:1 20:0 21:0 22:1 23:0 24:0 25:1 26:0.26736629 27:1 28:0 
31.00704587926779 1:1 2:1 3:0 4:0 5:1 6:0 7:0 8:1 9:0 10:0 11:0 12:1 13:0 14:1 15:0 16:0 17:1 18:0 19:0 20:0 21:1 22:0 23:1 24:0 25:0 26:0.41132495 27:0.79393939 28:0.87645688 
512 1:1 2:1 3:0 4:0 5:1 6:0 7:0 8:0 9:1 10:0 11:0 12:1 13:0 14:1 15:0 16:0 17:0 18:0 19:1 20:0 21:0 22:1 23:0 24:0 25:1 26:0.28891012 27:0.33333333 28:0.84126984 
512 1:1 2:1 3:0 4:0 5:1 6:0 7:0 8:0 9:0 10:1 11:0 12:0 13:1 14:0 15:0 16:1 17:0 18:0 19:1 20:0 21:0 22:1 23:0 24:0 25:1 26:0.33065686 27:1 28:0 
512 1:1 2:1 3:0 4:0 5:1 6:0 7:0 8:0 9:0 10:1 11:0 12:0 13:1 14:0 15:0 16:1 17:0 18:0 19:1 20:0 21:0 22:1 23:0 24:0 25:1 26:0.57839847 27:1 28:0 
471.3852111221688 1:1 2:1 3:0 4:0 5:1 6:0 7:0 8:1 9:0 10:0 11:1 12:0 13:0 14:1 15:0 16:0 17:0 18:0 19:1 20:0 21:0 22:1 23:0 24:0 25:1 26:0.21772799 27:1 28:0 
225.5886735448503 1:1 2:0 3:1 4:0 5:1 6:0 7:0 8:1 9:0 10:0 11:1 12:0 13:0 14:1 15:0 16:0 17:0 18:0 19:1 20:0 21:0 22:1 23:0 24:0 25:1 26:0.27037749 27:0.83333333 28:0.98484848 
512 1:1 2:1 3:0 4:0 5:1 6:0 7:0 8:0 9:0 10:1 11:0 12:0 13:1 14:0 15:0 16:1 17:0 18:0 19:1 20:0 21:0 22:1 23:0 24:0 25:1 26:0.081499539 27:1 28:0 
512 1:1 2:1 3:0 4:0 5:1 6:0 7:0 8:0 9:0 10:1 11:0 12:0 13:1 14:0 15:0 16:1 17:0 18:0 19:1 20:0 21:0 22:1 23:0 24:0 25:1 26:0.21209708 27:1 28:0 
345.5273265153738 1:1 2:1 3:0 4:0 5:1 6:0 7:0 8:1 9:0 10:0 11:1 12:0 13:0 14:1 15:0 16:0 17:0 18:0 19:1 20:0 21:0 22:1 23:0 24:0 25:1 26:0.55056494 27:1 28:0.98 
512 1:1 2:1 3:0 4:0 5:1 6:0 7:0 8:0 9:1 10:0 11:0 12:1 13:0 14:1 15:0 16:0 17:0 18:0 19:1 20:0 21:0 22:1 23:0 24:0 25:1 26:0.087715343 27:0.33333333 28:0 
460.1490694094922 1:1 2:1 3:0 4:0 5:1 6:0 7:0 8:1 9:0 10:0 11:0 12:1 13:0 14:0 15:0 16:1 17:0 18:0 19:1 20:0 21:0 22:1 23:0 24:0 25:1 26:0.17408268 27:1 28:0 
512 1:1 2:1 3:0 4:0 5:1 6:0 7:0 8:0 9:0 10:1 11:0 12:0 13:1 14:0 15:0 16:1 17:0 18:0 19:1 20:0 21:0 22:1 23:0 24:0 25:1 26:0.26711348 27:1 28:0 
512 1:1 2:1 3:0 4:0 5:1 6:0 7:0 8:0 9:0 10:1 11:0 12:0 13:1 14:0 15:0 16:1 17:0 18:0 19:1 20:0 21:0 22:1 23:0 24:0 25:1 26:0.18850006 27:1 28:0 
512 1:1 2:1 3:0 4:0 5:1 6:0 7:0 8:0 9:0 10:1 11:0 12:0 13:1 14:0 15:0 16:1 17:0 18:0 19:1 20:0 21:0 22:1 23:0 24:0 25:1 26:0.00125 27:1 28:0 
512 1:1 2:1 3:0 4:0 5:1 6:0 7:0 8:0 9:0 10:1 11:0 12:0 13:1 14:0 15:0 16:1 17:0 18:0 19:1 20:0 21:0 22:1 23:0 24:0 25:1 26:0.19443709 27:1 28:0 
512 1:1 2:1 3:0 4:0 5:1 6:0 7:0 8:0 9:1 10:0 11:0 12:1 13:0 14:0 15:0 16:1 17:0 18:0 19:1 20:0 21:0 22:1 23:0 24:0 25:1 26:0.18804306 27:0.2 28:0 
512 1:1 2:1 3:0 4:0 5:1 6:0 7:0 8:1 9:0 10:0 11:0 12:1 13:0 14:1 15:0 16:0 17:0 18:0 19:1 20:0 21:0 22:1 23:0 24:0 25:1 26:0.49268267 27:0.71428571 28:0 
512 1:1 2:1 3:0 4:0 5:1 6:0 7:0 8:0 9:1 10:0 11:0 12:1 13:0 14:1 15:0 16:0 17:0 18:0 19:1 20:0 21:0 22:1 23:0 24:0 25:1 26:0.43012744 27:0.33333333 28:0.96078431 
512 1:1 2:1 3:0 4:0 5:1 6:0 7:0 8:0 9:0 10:1 11:0 12:0 13:1 14:0 15:0 16:1 17:0 18:0 19:1 20:0 21:0 22:1 23:0 24:0 25:1 26:0.52050453 27:1 28:0 
512 1:1 2:1 3:0 4:0 5:1 6:0 7:0 8:0 9:0 10:1 11:0 12:0 13:1 14:0 15:0 16:1 17:0 18:0 19:1 20:0 21:0 22:1 23:0 24:0 25:1 26:0.21757714 27:1 28:0 
13.5394396416388 1:1 2:1 3:0 4:0 5:1 6:0 7:0 8:1 9:0 10:0 11:1 12:0 13:0 14:1 15:0 16:0 17:0 18:0 19:1 20:0 21:0 22:1 23:0 24:0 25:1 26:0.19654839 27:1 28:0 
144.3633574757634 1:1 2:1 3:0 4:0 5:1 6:0 7:0 8:1 9:0 10:0 11:1 12:0 13:0 14:1 15:0 16:0 17:0 18:0 19:1 20:0 21:0 22:1 23:0 24:0 25:1 26:0.48957595 27:1 28:0.97460317 
323.3025387879368 1:1 2:1 3:0 4:0 5:0 6:1 7:0 8:1 9:0 10:0 11:1 12:0 13:0 14:1 15:0 16:0 17:0 18:0 19:1 20:0 21:0 22:1 23:0 24:0 25:1 26:0.16172628 27:0.66666667 28:0 
512 1:1 2:0 3:0 4:1 5:1 6:0 7:0 8:0 9:0 10:1 11:0 12:0 13:1 14:0 15:0 16:1 17:0 18:0 19:1 20:0 21:0 22:1 23:0 24:0 25:1 26:0.00125 27:1 28:0 
512 1:1 2:1 3:0 4:0 5:1 6:0 7:0 8:1 9:0 10:0 11:0 12:1 13:0 14:0 15:0 16:1 17:0 18:0 19:1 20:0 21:0 22:1 23:0 24:0 25:1 26:0.042042293 27:0.94666667 28:0 
1.718119320722823 1:1 2:0 3:0 4:1 5:1 6:0 7:0 8:0 9:1 10:0 11:0 12:1 13:0 14:1 15:0 16:0 17:1 18:0 19:0 20:1 21:0 22:0 23:1 24:0 25:0 26:0.51091379 27:0.5 28:0.93917749 
512 1:1 2:1 3:0 4:0 5:1 6:0 7:0 8:1 9:0 10:0 11:1 12:0 13:0 14:0 15:1 16:0 17:0 18:0 19:1 20:0 21:0 22:1 23:0 24:0 25:1 26:0.099429622 27:0.66666667 28:0 
512 1:1 2:1 3:0 4:0 5:1 6:0 7:0 8:0 9:0 10:1 11:0 12:0 13:1 14:0 15:0 16:1 17:0 18:0 19:1 20:0 21:0 22:1 23:0 24:0 25:1 26:0.10211062 27:1 28:0 
512 1:1 2:1 3:0 4:0 5:1 6:0 7:0 8:0 9:0 10:1 11:0 12:0 13:1 14:0 15:0 16:1 17:0 18:0 19:1 20:0 21:0 22:1 23:0 24:0 25:1 26:0.45617777 27:1 28:0 
512 1:1 2:1 3:0 4:0 5:0 6:0 7:1 8:0 9:0 10:1 11:0 12:0 13:1 14:0 15:0 16:1 17:0 18:0 19:1 20:0 21:0 22:1 23:0 24:0 25:1 26:0.00125 27:1 28:0 
54.98771936825177 1:1 2:1 3:0 4:0 5:1 6:0 7:0 8:1 9:0 10:0 11:1 12:0 13:0 14:1 15:0 16:0 17:0 18:0 19:1 20:0 21:0 22:1 23:0 24:0 25:1 26:0.5413993 27:1 28:0.98809524 
0.1000211746601402 1:1 2:1 3:0 4:0 5:1 6:0 7:0 8:0 9:0 10:1 11:0 12:0 13:1 14:0 15:0 16:1 17:1 18:0 19:0 20:1 21:0 22:0 23:0 24:0 25:1 26:0.38587025 27:1 28:0 
512 1:1 2:1 3:0 4:0 5:1 6:0 7:0 8:1 9:0 10:0 11:0 12:1 13:0 14:1 15:0 16:0 17:0 18:0 19:1 20:0 21:0 22:1 23:0 24:0 25:1 26:0.068725221 27:0.71428571 28:0 
512 1:1 2:1 3:0 4:0 5:1 6:0 7:0 8:1 9:0 10:0 11:1 12:0 13:0 14:0 15:1 16:0 17:0 18:0 19:1 20:0 21:0 22:1 23:0 24:0 25:1 26:0.083400585 27:0.66666667 28:0 
512 1:1 2:1 3:0 4:0 5:1 6:0 7:0 8:0 9:0 10:1 11:0 12:0 13:1 14:0 15:0 16:1 17:0 18:0 19:1 20:0 21:0 22:1 23:0 24:0 25:1 26:0.78976715 27:1 28:0 
512 1:1 2:1 3:0 4:0 5:1 6:0 7:0 8:0 9:0 10:1 11:0 12:0 13:1 14:0 15:0 16:1 17:0 18:0 19:1 20:0 21:0 22:1 23:0 24:0 25:1 26:0.046290707 27:1 28:0 
512 1:1 2:1 3:0 4:0 5:1 6:0 7:0 8:0 9:0 10:1 11:0 12:0 13:1 14:0 15:0 16:1 17:0 18:0 19:1 20:0 21:0 22:1 23:0 24:0 25:1 26:0.67761588 27:1 28:0 
512 1:1 2:1 3:0 4:0 5:1 6:0 7:0 8:0 9:0 10:1 11:0 12:0 13:1 14:0 15:0 16:1 17:0 18:0 19:1 20:0 21:0 22:1 23:0 24:0 25:1 26:0.25649863 27:1 28:0 
512 1:1 2:1 3:0 4:0 5:1 6:0 7:0 8:0 9:0 10:1 11:0 12:0 13:1 14:0 15:0 16:1 17:0 18:0 19:1 20:0 21:0 22:1 23:0 24:0 25:1 26:0.031222446 27:1 28:0 
1.920513490271807 1:1 2:1 3:0 4:0 5:1 6:0 7:0 8:0 9:1 10:0 11:0 12:1 13:0 14:0 15:0 16:1 17:1 18:0 19:0 20:1 21:0 22:0 23:0 24:1 25:0 26:0.062348444 27:0.25 28:0 
512 1:1 2:1 3:0 4:0 5:1 6:0 7:0 8:0 9:0 10:1 11:0 12:0 13:1 14:0 15:0 16:1 17:0 18:0 19:1 20:0 21:0 22:1 23:0 24:0 25:1 26:0.60630363 27:1 28:0 
512 1:1 2:1 3:0 4:0 5:0 6:1 7:0 8:1 9:0 10:0 11:1 12:0 13:0 14:0 15:1 16:0 17:0 18:0 19:1 20:0 21:0 22:1 23:0 24:0 25:1 26:0.13294034 27:0.2 28:0 
512 1:1 2:1 3:0 4:0 5:1 6:0 7:0 8:0 9:0 10:1 11:0 12:0 13:1 14:0 15:0 16:1 17:0 18:0 19:1 20:0 21:0 22:1 23:0 24:0 25:1 26:0.094780095 27:1 28:0 
512 1:1 2:1 3:0 4:0 5:1 6:0 7:0 8:1 9:0 10:0 11:0 12:1 13:0 14:0 15:0 16:1 17:0 18:0 19:1 20:0 21:0 22:1 23:0 24:0 25:1 26:0.058378324 27:0.6 28:0 
1.925025695615528 1:1 2:1 3:0 4:0 5:1 6:0 7:0 8:1 9:0 10:0 11:1 12:0 13:0 14:0 15:1 16:0 17:0 18:1 19:0 20:0 21:1 22:0 23:1 24:0 25:0 26:0.41238961 27:0.33333333 28:0.775 
512 1:1 2:1 3:0 4:0 5:1 6:0 7:0 8:0 9:1 10:0 11:0 12:1 13:0 14:0 15:1 16:0 17:0 18:0 19:1 20:0 21:0 22:1 23:0 24:0 25:1 26:0.44848311 27:0 28:0.75555556 
512 1:1 2:1 3:0 4:0 5:1 6:0 7:0 8:0 9:1 10:0 11:0 12:1 13:0 14:0 15:0 16:1 17:0 18:0 19:1 20:0 21:0 22:1 23:0 24:0 25:1 26:0.056156609 27:0.2 28:0 
69.34334239424943 1:1 2:1 3:0 4:0 5:1 6:0 7:0 8:0 9:1 10:0 11:0 12:1 13:0 14:0 15:0 16:1 17:1 18:0 19:0 20:0 21:1 22:0 23:1 24:0 25:0 26:0.23617817 27:0.33333333 28:0 
512 1:1 2:1 3:0 4:0 5:1 6:0 7:0 8:1 9:0 10:0 11:1 12:0 13:0 14:0 15:1 16:0 17:0 18:0 19:1 20:0 21:0 22:1 23:0 24:0 25:1 26:0.084717207 27:0.66666667 28:0 
512 1:1 2:1 3:0 4:0 5:1 6:0 7:0 8:1 9:0 10:0 11:0 12:1 13:0 14:1 15:0 16:0 17:0 18:0 19:1 20:0 21:0 22:1 23:0 24:0 25:1 26:0.088073112 27:0.71428571 28:0 
512 1:1 2:1 3:0 4:0 5:1 6:0 7:0 8:1 9:0 10:0 11:1 12:0 13:0 14:1 15:0 16:0 17:0 18:0 19:1 20:0 21:0 22:1 23:0 24:0 25:1 26:0.52578872 27:1 28:0.98666667 
512 1:1 2:1 3:0 4:0 5:1 6:0 7:0 8:0 9:0 10:1 11:0 12:0 13:1 14:0 15:0 16:1 17:0 18:0 19:1 20:0 21:0 22:1 23:0 24:0 25:1 26:0.15685914 27:1 28:0 
381.3424888614741 1:1 2:1 3:0 4:0 5:1 6:0 7:0 8:0 9:0 10:1 11:0 12:0 13:1 14:0 15:0 16:1 17:0 18:0 19:1 20:0 21:0 22:1 23:0 24:0 25:1 26:0.51919425 27:1 28:0.88571429 
512 1:1 2:1 3:0 4:0 5:1 6:0 7:0 8:0 9:0 10:1 11:0 12:0 13:1 14:0 15:0 16:1 17:0 18:0 19:1 20:0 21:0 22:1 23:0 24:0 25:1 26:0.066015229 27:1 28:0 
512 1:1 2:1 3:0 4:0 5:0 6:0 7:1 8:0 9:0 10:1 11:0 12:0 13:1 14:0 15:0 16:1 17:0 18:0 19:1 20:0 21:0 22:1 23:0 24:0 25:1 26:0.076918565 27:1 28:0 
512 1:1 2:1 3:0 4:0 5:1 6:0 7:0 8:0 9:0 10:1 11:0 12:0 13:1 14:0 15:0 16:1 17:0 18:0 19:1 20:0 21:0 22:1 23:0 24:0 25:1 26:0.75917971 27:1 28:0 
182.9697341568199 1:1 2:1 3:0 4:0 5:1 6:0 7:0 8:1 9:0 10:0 11:1 12:0 13:0 14:1 15:0 16:0 17:0 18:0 19:1 20:0 21:0 22:1 23:0 24:0 25:1 26:0.23418957 27:1 28:0 
512 1:1 2:1 3:0 4:0 5:1 6:0 7:0 8:0 9:1 10:0 11:0 12:1 13:0 14:1 15:0 16:0 17:0 18:0 19:1 20:0 21:0 22:1 23:0 24:0 25:1 26:0.34281355 27:0.33333333 28:0.96078431 
512 1:1 2:1 3:0 4:0 5:1 6:0 7:0 8:0 9:0 10:1 11:0 12:0 13:1 14:0 15:0 16:1 17:0 18:0 19:1 20:0 21:0 22:1 23:0 24:0 25:1 26:0.4212555 27:1 28:0 
86.00773181417058 1:1 2:0 3:0 4:1 5:1 6:0 7:0 8:1 9:0 10:0 11:1 12:0 13:0 14:1 15:0 16:0 17:0 18:0 19:1 20:0 21:0 22:1 23:0 24:0 25:1 26:0.5575949 27:1 28:0.66666667 
512 1:1 2:1 3:0 4:0 5:1 6:0 7:0 8:1 9:0 10:0 11:0 12:1 13:0 14:0 15:1 16:0 17:0 18:0 19:1 20:0 21:0 22:1 23:0 24:0 25:1 26:0.029118393 27:0.33333333 28:0.40833333 
512 1:1 2:1 3:0 4:0 5:1 6:0 7:0 8:0 9:0 10:1 11:0 12:0 13:1 14:0 15:0 16:1 17:0 18:0 19:1 20:0 21:0 22:1 23:0 24:0 25:1 26:0.13690463 27:1 28:0.66666667 
146.4252526763144 1:1 2:1 3:0 4:0 5:1 6:0 7:0 8:1 9:0 10:0 11:1 12:0 13:0 14:0 15:0 16:1 17:0 18:0 19:1 20:0 21:0 22:1 23:0 24:0 25:1 26:0.036890738 27:1 28:0 
9.240548708709154 1:1 2:0 3:1 4:0 5:1 6:0 7:0 8:1 9:0 10:0 11:0 12:1 13:0 14:1 15:0 16:0 17:1 18:0 19:0 20:1 21:0 22:0 23:1 24:0 25:0 26:0.40740436 27:0.7 28:0.92962963 
512 1:1 2:1 3:0 4:0 5:1 6:0 7:0 8:0 9:1 10:0 11:0 12:1 13:0 14:1 15:0 16:0 17:0 18:1 19:0 20:0 21:1 22:0 23:1 24:0 25:0 26:0.028918998 27:0.11111111 28:0 
512 1:1 2:1 3:0 4:0 5:1 6:0 7:0 8:0 9:1 10:0 11:0 12:1 13:0 14:0 15:0 16:1 17:0 18:0 19:1 20:0 21:0 22:1 23:0 24:0 25:1 26:0.019442387 27:0.2 28:0 
512 1:1 2:1 3:0 4:0 5:1 6:0 7:0 8:0 9:0 10:1 11:0 12:0 13:1 14:0 15:0 16:1 17:0 18:0 19:1 20:0 21:0 22:1 23:0 24:0 25:1 26:0.056076664 27:1 28:0.66666667 
512 1:1 2:1 3:0 4:0 5:1 6:0 7:0 8:0 9:0 10:1 11:0 12:0 13:1 14:0 15:0 16:1 17:0 18:0 19:1 20:0 21:0 22:1 23:0 24:0 25:1 26:0.032400966 27:1 28:0 
512 1:1 2:1 3:0 4:0 5:1 6:0 7:0 8:0 9:0 10:1 11:0 12:0 13:1 14:0 15:0 16:1 17:0 18:0 19:1 20:0 21:0 22:1 23:0 24:0 25:1 26:0.17416768 27:1 28:0 
76.81991374411419 1:1 2:0 3:0 4:1 5:1 6:0 7:0 8:1 9:0 10:0 11:1 12:0 13:0 14:1 15:0 16:0 17:0 18:0 19:1 20:0 21:0 22:1 23:0 24:0 25:1 26:0.65103275 27:1 28:1 
512 1:1 2:1 3:0 4:0 5:1 6:0 7:0 8:0 9:1 10:0 11:0 12:1 13:0 14:1 15:0 16:0 17:0 18:0 19:1 20:0 21:0 22:1 23:0 24:0 25:1 26:0.2722531 27:0.33333333 28:0 
512 1:1 2:1 3:0 4:0 5:1 6:0 7:0 8:0 9:1 10:0 11:0 12:1 13:0 14:0 15:0 16:1 17:0 18:0 19:1 20:0 21:0 22:1 23:0 24:0 25:1 26:0.00125 27:0.2 28:0 
512 1:1 2:1 3:0 4:0 5:1 6:0 7:0 8:1 9:0 10:0 11:1 12:0 13:0 14:0 15:1 16:0 17:0 18:0 19:1 20:0 21:0 22:1 23:0 24:0 25:1 26:0.084476285 27:0.66666667 28:0 
512 1:1 2:1 3:0 4:0 5:1 6:0 7:0 8:0 9:0 10:1 11:0 12:0 13:1 14:0 15:0 16:1 17:0 18:0 19:1 20:0 21:0 22:1 23:0 24:0 25:1 26:0.87477374 27:1 28:0 
512 1:1 2:1 3:0 4:0 5:1 6:0 7:0 8:0 9:0 10:1 11:0 12:0 13:1 14:0 15:0 16:1 17:0 18:0 19:1 20:0 21:0 22:1 23:0 24:0 25:1 26:0.78603333 27:1 28:0 
512 1:1 2:1 3:0 4:0 5:1 6:0 7:0 8:1 9:0 10:0 11:0 12:1 13:0 14:0 15:1 16:0 17:0 18:0 19:1 20:0 21:0 22:1 23:0 24:0 25:1 26:0.00125 27:0.33333333 28:0.15555556 
1.800555418066731 1:1 2:0 3:0 4:1 5:1 6:0 7:0 8:1 9:0 10:0 11:1 12:0 13:0 14:0 15:1 16:0 17:0 18:0 19:1 20:0 21:0 22:1 23:0 24:0 25:1 26:0.015783314 27:0.5 28:0.62109788 
113.4256216291455 1:1 2:1 3:0 4:0 5:1 6:0 7:0 8:1 9:0 10:0 11:1 12:0 13:0 14:0 15:1 16:0 17:0 18:0 19:1 20:0 21:0 22:1 23:0 24:0 25:1 26:0.20715618 27:0.66666667 28:0.85714286 
512 1:1 2:1 3:0 4:0 5:1 6:0 7:0 8:0 9:0 10:1 11:0 12:0 13:1 14:0 15:0 16:1 17:0 18:0 19:1 20:0 21:0 22:1 23:0 24:0 25:1 26:0.23586166 27:1 28:0 
512 1:1 2:1 3:0 4:0 5:1 6:0 7:0 8:1 9:0 10:0 11:0 12:1 13:0 14:0 15:1 16:0 17:0 18:0 19:1 20:0 21:0 22:1 23:0 24:0 25:1 26:0.031828497 27:0.57777778 28:0.19259259 
512 1:1 2:1 3:0 4:0 5:1 6:0 7:0 8:0 9:0 10:1 11:0 12:0 13:1 14:0 15:0 16:1 17:0 18:0 19:1 20:0 21:0 22:1 23:0 24:0 25:1 26:0.26218709 27:1 28:0 
391.2631498136853 1:1 2:0 3:0 4:1 5:1 6:0 7:0 8:1 9:0 10:0 11:1 12:0 13:0 14:1 15:0 16:0 17:0 18:0 19:1 20:0 21:0 22:1 23:0 24:0 25:1 26:0.52636194 27:1 28:0.96818182 
234.3505988568267 1:1 2:1 3:0 4:0 5:0 6:1 7:0 8:1 9:0 10:0 11:1 12:0 13:0 14:1 15:0 16:0 17:0 18:0 19:1 20:0 21:0 22:1 23:0 24:0 25:1 26:0.10509074 27:0.66666667 28:0 
1.323465432576167 1:0 2:0 3:0 4:1 5:1 6:0 7:0 8:1 9:0 10:0 11:1 12:0 13:0 14:1 15:0 16:0 17:0 18:0 19:1 20:0 21:0 22:1 23:0 24:0 25:1 26:0.00125 27:1 28:0.82115942 
512 1:1 2:1 3:0 4:0 5:0 6:0 7:1 8:0 9:0 10:1 11:0 12:0 13:1 14:0 15:0 16:1 17:0 18:0 19:1 20:0 21:0 22:1 23:0 24:0 25:1 26:0.0096482625 27:1 28:0 
28.89033336375912 1:1 2:0 3:0 4:1 5:1 6:0 7:0 8:1 9:0 10:0 11:1 12:0 13:0 14:1 15:0 16:0 17:0 18:0 19:1 20:0 21:0 22:1 23:0 24:0 25:1 26:0.31730863 27:1 28:1 
512 1:1 2:1 3:0 4:0 5:1 6:0 7:0 8:0 9:0 10:1 11:0 12:0 13:1 14:0 15:0 16:1 17:0 18:0 19:1 20:0 21:0 22:1 23:0 24:0 25:1 26:0.3693313 27:1 28:0 
512 1:1 2:1 3:0 4:0 5:1 6:0 7:0 8:0 9:0 10:1 11:0 12:0 13:1 14:0 15:0 16:1 17:0 18:0 19:1 20:0 21:0 22:1 23:0 24:0 25:1 26:0.041500706 27:1 28:0 
512 1:1 2:1 3:0 4:0 5:1 6:0 7:0 8:0 9:0 10:1 11:0 12:0 13:1 14:0 15:0 16:1 17:0 18:0 19:1 20:0 21:0 22:1 23:0 24:0 25:1 26:0.37138036 27:1 28:0 
512 1:1 2:1 3:0 4:0 5:1 6:0 7:0 8:0 9:0 10:1 11:0 12:0 13:1 14:0 15:0 16:1 17:0 18:0 19:1 20:0 21:0 22:1 23:0 24:0 25:1 26:0.049874555 27:1 28:0.57142857 
124.7258821233931 1:1 2:1 3:0 4:0 5:1 6:0 7:0 8:1 9:0 10:0 11:1 12:0 13:0 14:0 15:1 16:0 17:0 18:0 19:1 20:0 21:0 22:1 23:0 24:0 25:1 26:0.080517568 27:0.66666667 28:0 
512 1:1 2:0 3:1 4:0 5:1 6:0 7:0 8:1 9:0 10:0 11:1 12:0 13:0 14:1 15:0 16:0 17:1 18:0 19:0 20:1 21:0 22:0 23:1 24:0 25:0 26:0.56217539 27:0.8 28:0.92727273 
512 1:1 2:1 3:0 4:0 5:1 6:0 7:0 8:0 9:0 10:1 11:0 12:0 13:1 14:0 15:0 16:1 17:0 18:0 19:1 20:0 21:0 22:1 23:0 24:0 25:1 26:0.69148684 27:1 28:0 
512 1:1 2:1 3:0 4:0 5:1 6:0 7:0 8:0 9:0 10:1 11:0 12:0 13:1 14:0 15:0 16:1 17:0 18:0 19:1 20:0 21:0 22:1 23:0 24:0 25:1 26:0.40594587 27:1 28:0 
512 1:1 2:1 3:0 4:0 5:1 6:0 7:0 8:0 9:0 10:1 11:0 12:0 13:1 14:0 15:0 16:1 17:0 18:0 19:1 20:0 21:0 22:1 23:0 24:0 25:1 26:0.022547372 27:1 28:0 
512 1:1 2:1 3:0 4:0 5:1 6:0 7:0 8:0 9:1 10:0 11:0 12:1 13:0 14:1 15:0 16:0 17:0 18:0 19:1 20:0 21:0 22:1 23:0 24:0 25:1 26:0.22043698 27:0.33333333 28:0.82857143 
512 1:1 2:1 3:0 4:0 5:1 6:0 7:0 8:0 9:1 10:0 11:0 12:1 13:0 14:0 15:0 16:1 17:0 18:0 19:1 20:0 21:0 22:1 23:0 24:0 25:1 26:0.19665077 27:0.2 28:0 
512 1:1 2:1 3:0 4:0 5:1 6:0 7:0 8:0 9:0 10:1 11:0 12:0 13:1 14:0 15:0 16:1 17:0 18:0 19:1 20:0 21:0 22:1 23:0 24:0 25:1 26:0.059309229 27:1 28:0 
512 1:1 2:1 3:0 4:0 5:1 6:0 7:0 8:0 9:0 10:1 11:0 12:0 13:1 14:0 15:0 16:1 17:0 18:0 19:1 20:0 21:0 22:1 23:0 24:0 25:1 26:0.18736215 27:1 28:0 
512 1:1 2:1 3:0 4:0 5:1 6:0 7:0 8:0 9:0 10:1 11:0 12:0 13:1 14:0 15:0 16:1 17:0 18:0 19:1 20:0 21:0 22:1 23:0 24:0 25:1 26:0.1408681 27:1 28:0 
512 1:1 2:1 3:0 4:0 5:1 6:0 7:0 8:0 9:0 10:1 11:0 12:0 13:1 14:0 15:0 16:1 17:0 18:0 19:1 20:0 21:0 22:1 23:0 24:0 25:1 26:0.5681572 27:1 28:0 
512 1:1 2:1 3:0 4:0 5:1 6:0 7:0 8:0 9:0 10:1 11:0 12:0 13:1 14:0 15:0 16:1 17:0 18:0 19:1 20:0 21:0 22:1 23:0 24:0 25:1 26:0.14352077 27:1 28:0 
512 1:1 2:1 3:0 4:0 5:1 6:0 7:0 8:1 9:0 10:0 11:1 12:0 13:0 14:0 15:1 16:0 17:0 18:0 19:1 20:0 21:0 22:1 23:0 24:0 25:1 26:0.22452295 27:0.66666667 28:0.83838384 
512 1:1 2:1 3:0 4:0 5:1 6:0 7:0 8:0 9:0 10:1 11:0 12:0 13:1 14:0 15:0 16:1 17:0 18:0 19:1 20:0 21:0 22:1 23:0 24:0 25:1 26:0.21516585 27:1 28:0 
512 1:1 2:1 3:0 4:0 5:1 6:0 7:0 8:0 9:0 10:1 11:0 12:0 13:1 14:0 15:0 16:1 17:0 18:0 19:1 20:0 21:0 22:1 23:0 24:0 25:1 26:0.069005594 27:1 28:0 
512 1:1 2:1 3:0 4:0 5:1 6:0 7:0 8:1 9:0 10:0 11:0 12:1 13:0 14:0 15:1 16:0 17:0 18:0 19:1 20:0 21:0 22:1 23:0 24:0 25:1 26:0.4713456 27:0.66666667 28:0 
512 1:1 2:1 3:0 4:0 5:1 6:0 7:0 8:0 9:0 10:1 11:0 12:0 13:1 14:0 15:0 16:1 17:0 18:0 19:1 20:0 21:0 22:1 23:0 24:0 25:1 26:0.24807905 27:1 28:0 
512 1:1 2:1 3:0 4:0 5:1 6:0 7:0 8:0 9:1 10:0 11:0 12:1 13:0 14:0 15:0 16:1 17:0 18:0 19:1 20:0 21:0 22:1 23:0 24:0 25:1 26:0.060837977 27:0.2 28:0 
512 1:1 2:1 3:0 4:0 5:1 6:0 7:0 8:0 9:1 10:0 11:0 12:1 13:0 14:0 15:0 16:1 17:0 18:0 19:1 20:0 21:0 22:1 23:0 24:0 25:1 26:0.00125 27:0.2 28:0 
231.8727562708713 1:1 2:0 3:0 4:1 5:1 6:0 7:0 8:1 9:0 10:0 11:1 12:0 13:0 14:1 15:0 16:0 17:0 18:0 19:1 20:0 21:0 22:1 23:0 24:0 25:1 26:0.43036085 27:1 28:0.86507937 
512 1:1 2:1 3:0 4:0 5:1 6:0 7:0 8:1 9:0 10:0 11:0 12:1 13:0 14:1 15:0 16:0 17:0 18:0 19:1 20:0 21:0 22:1 23:0 24:0 25:1 26:0.30794215 27:0.71428571 28:0 
512 1:1 2:1 3:0 4:0 5:1 6:0 7:0 8:1 9:0 10:0 11:1 12:0 13:0 14:0 15:1 16:0 17:0 18:0 19:1 20:0 21:0 22:1 23:0 24:0 25:1 26:0.08910583 27:0.66666667 28:0 
512 1:1 2:1 3:0 4:0 5:1 6:0 7:0 8:0 9:0 10:1 11:0 12:0 13:1 14:0 15:0 16:1 17:0 18:0 19:1 20:0 21:0 22:1 23:0 24:0 25:1 26:0.13201229 27:1 28:0 
512 1:1 2:1 3:0 4:0 5:1 6:0 7:0 8:1 9:0 10:0 11:0 12:1 13:0 14:1 15:0 16:0 17:0 18:0 19:1 20:0 21:0 22:1 23:0 24:0 25:1 26:0.050572596 27:0.99047619 28:0 
512 1:1 2:0 3:0 4:1 5:1 6:0 7:0 8:1 9:0 10:0 11:1 12:0 13:0 14:1 15:0 16:0 17:0 18:0 19:1 20:0 21:0 22:1 23:0 24:0 25:1 26:0.29445153 27:1 28:1 
512 1:1 2:1 3:0 4:0 5:1 6:0 7:0 8:0 9:0 10:1 11:0 12:0 13:1 14:0 15:0 16:1 17:0 18:0 19:1 20:0 21:0 22:1 23:0 24:0 25:1 26:0.61947095 27:1 28:0 
512 1:1 2:1 3:0 4:0 5:0 6:0 7:1 8:0 9:0 10:1 11:0 12:0 13:1 14:0 15:0 16:1 17:0 18:0 19:1 20:0 21:0 22:1 23:0 24:0 25:1 26:0.00125 27:1 28:0 
512 1:1 2:1 3:0 4:0 5:1 6:0 7:0 8:0 9:0 10:1 11:0 12:0 13:1 14:0 15:0 16:1 17:0 18:0 19:1 20:0 21:0 22:1 23:0 24:0 25:1 26:0.27698615 27:1 28:0 
512 1:1 2:1 3:0 4:0 5:1 6:0 7:0 8:1 9:0 10:0 11:1 12:0 13:0 14:1 15:0 16:0 17:0 18:0 19:1 20:0 21:0 22:1 23:0 24:0 25:1 26:0.51364475 27:1 28:0.97142857 
0.8549750800171958 1:1 2:0 3:0 4:1 5:1 6:0 7:0 8:1 9:0 10:0 11:1 12:0 13:0 14:0 15:0 16:1 17:0 18:0 19:1 20:0 21:0 22:1 23:0 24:0 25:1 26:0.021867825 27:1 28:0 
512 1:1 2:1 3:0 4:0 5:1 6:0 7:0 8:0 9:0 10:1 11:0 12:0 13:1 14:0 15:0 16:1 17:0 18:0 19:1 20:0 21:0 22:1 23:0 24:0 25:1 26:0.43633899 27:1 28:0 
512 1:1 2:1 3:0 4:0 5:1 6:0 7:0 8:1 9:0 10:0 11:0 12:1 13:0 14:0 15:0 16:1 17:0 18:0 19:1 20:0 21:0 22:1 23:0 24:0 25:1 26:0.036326446 27:0.86666667 28:0 
0.1009071160382083 1:1 2:1 3:0 4:0 5:1 6:0 7:0 8:0 9:1 10:0 11:0 12:1 13:0 14:0 15:1 16:0 17:1 18:0 19:0 20:1 21:0 22:0 23:0 24:1 25:0 26:0.45116344 27:0.11111111 28:0.92380952 
512 1:1 2:1 3:0 4:0 5:1 6:0 7:0 8:1 9:0 10:0 11:1 12:0 13:0 14:0 15:1 16:0 17:0 18:0 19:1 20:0 21:0 22:1 23:0 24:0 25:1 26:0.082893729 27:0.66666667 28:0 
512 1:1 2:1 3:0 4:0 5:1 6:0 7:0 8:0 9:1 10:0 11:0 12:1 13:0 14:0 15:0 16:1 17:0 18:0 19:1 20:0 21:0 22:1 23:0 24:0 25:1 26:0.23653336 27:0.2 28:0 
3.442054729875026 1:1 2:1 3:0 4:0 5:1 6:0 7:0 8:1 9:0 10:0 11:0 12:1 13:0 14:1 15:0 16:0 17:0 18:1 19:0 20:0 21:1 22:0 23:1 24:0 25:0 26:0.50165808 27:0.6 28:0.95757576 
512 1:1 2:1 3:0 4:0 5:1 6:0 7:0 8:0 9:0 10:1 11:0 12:0 13:1 14:0 15:0 16:1 17:0 18:0 19:1 20:0 21:0 22:1 23:0 24:0 25:1 26:0.00125 27:1 28:0 
471.1351700511654 1:1 2:0 3:0 4:1 5:1 6:0 7:0 8:1 9:0 10:0 11:1 12:0 13:0 14:1 15:0 16:0 17:0 18:0 19:1 20:0 21:0 22:1 23:0 24:0 25:1 26:0.36176047 27:1 28:0.96462585 
512 1:1 2:1 3:0 4:0 5:1 6:0 7:0 8:0 9:0 10:1 11:0 12:0 13:1 14:0 15:0 16:1 17:0 18:0 19:1 20:0 21:0 22:1 23:0 24:0 25:1 26:0.091651358 27:1 28:0 
512 1:1 2:1 3:0 4:0 5:1 6:0 7:0 8:0 9:1 10:0 11:0 12:1 13:0 14:0 15:0 16:1 17:0 18:0 19:1 20:0 21:0 22:1 23:0 24:0 25:1 26:0.61630732 27:0.2 28:0 
0.2207117943166854 1:1 2:1 3:0 4:0 5:0 6:1 7:0 8:1 9:0 10:0 11:1 12:0 13:0 14:1 15:0 16:0 17:0 18:1 19:0 20:0 21:1 22:0 23:1 24:0 25:0 26:0.45110232 27:0.33333333 28:0.4 
512 1:1 2:1 3:0 4:0 5:1 6:0 7:0 8:0 9:0 10:1 11:0 12:0 13:1 14:0 15:0 16:1 17:0 18:0 19:1 20:0 21:0 22:1 23:0 24:0 25:1 26:0.69211423 27:1 28:0 
512 1:1 2:0 3:0 4:1 5:1 6:0 7:0 8:1 9:0 10:0 11:1 12:0 13:0 14:1 15:0 16:0 17:0 18:0 19:1 20:0 21:0 22:1 23:0 24:0 25:1 26:0.31643033 27:1 28:0.96296296 
12.24757239137269 1:1 2:1 3:0 4:0 5:0 6:1 7:0 8:1 9:0 10:0 11:0 12:1 13:0 14:1 15:0 16:0 17:0 18:0 19:1 20:0 21:0 22:1 23:0 24:0 25:1 26:0.043773118 27:0.33333333 28:0.71428571 
3.392177108193286 1:1 2:1 3:0 4:0 5:1 6:0 7:0 8:0 9:0 10:1 11:0 12:0 13:1 14:0 15:0 16:1 17:0 18:0 19:1 20:0 21:0 22:1 23:1 24:0 25:0 26:0.049244512 27:1 28:0.8 
512 1:1 2:0 3:1 4:0 5:1 6:0 7:0 8:1 9:0 10:0 11:1 12:0 13:0 14:1 15:0 16:0 17:0 18:0 19:1 20:0 21:0 22:1 23:0 24:0 25:1 26:0.44917637 27:0.66666667 28:0.98148148 
158.2828798411127 1:1 2:1 3:0 4:0 5:1 6:0 7:0 8:1 9:0 10:0 11:0 12:1 13:0 14:0 15:0 16:1 17:0 18:0 19:1 20:0 21:0 22:1 23:0 24:0 25:1 26:0.25844303 27:0.92 28:0.95428571 
512 1:1 2:1 3:0 4:0 5:1 6:0 7:0 8:1 9:0 10:0 11:1 12:0 13:0 14:1 15:0 16:0 17:0 18:0 19:1 20:0 21:0 22:1 23:0 24:0 25:1 26:0.54123962 27:1 28:0.98181818 
512 1:1 2:1 3:0 4:0 5:1 6:0 7:0 8:0 9:1 10:0 11:0 12:1 13:0 14:0 15:0 16:1 17:0 18:0 19:1 20:0 21:0 22:1 23:0 24:0 25:1 26:0.045190111 27:0.2 28:0 
248.0325051726497 1:1 2:0 3:0 4:1 5:1 6:0 7:0 8:1 9:0 10:0 11:1 12:0 13:0 14:1 15:0 16:0 17:0 18:0 19:1 20:0 21:0 22:1 23:0 24:0 25:1 26:0.66425443 27:1 28:0.75 
512 1:1 2:0 3:1 4:0 5:1 6:0 7:0 8:0 9:0 10:1 11:0 12:0 13:1 14:0 15:0 16:1 17:0 18:0 19:1 20:0 21:0 22:1 23:0 24:0 25:1 26:0.00125 27:0 28:0 
512 1:1 2:1 3:0 4:0 5:0 6:0 7:1 8:0 9:0 10:1 11:0 12:0 13:1 14:0 15:0 16:1 17:0 18:0 19:1 20:0 21:0 22:1 23:0 24:0 25:1 26:0.00125 27:1 28:0 
512 1:1 2:1 3:0 4:0 5:0 6:1 7:0 8:0 9:0 10:1 11:0 12:0 13:1 14:0 15:0 16:1 17:0 18:0 19:1 20:0 21:0 22:1 23:0 24:0 25:1 26:0.00125 27:0 28:0 
102.0004295288602 1:1 2:1 3:0 4:0 5:1 6:0 7:0 8:0 9:1 10:0 11:0 12:1 13:0 14:0 15:0 16:1 17:0 18:0 19:1 20:0 21:0 22:1 23:0 24:0 25:1 26:0.41273674 27:0.2 28:0.88571429 
512 1:1 2:1 3:0 4:0 5:1 6:0 7:0 8:0 9:1 10:0 11:0 12:1 13:0 14:0 15:0 16:1 17:0 18:0 19:1 20:0 21:0 22:1 23:0 24:0 25:1 26:0.048990514 27:0.2 28:0 
512 1:1 2:1 3:0 4:0 5:1 6:0 7:0 8:0 9:0 10:1 11:0 12:0 13:1 14:0 15:0 16:1 17:0 18:0 19:1 20:0 21:0 22:1 23:0 24:0 25:1 26:0.17203525 27:1 28:0 
490.6600847553655 1:1 2:1 3:0 4:0 5:1 6:0 7:0 8:0 9:1 10:0 11:0 12:1 13:0 14:0 15:0 16:1 17:1 18:0 19:0 20:0 21:1 22:0 23:1 24:0 25:0 26:0.056756493 27:0.33333333 28:0 
82.28196580073691 1:1 2:0 3:1 4:0 5:1 6:0 7:0 8:1 9:0 10:0 11:1 12:0 13:0 14:1 15:0 16:0 17:0 18:0 19:1 20:0 21:0 22:1 23:0 24:0 25:1 26:0.63300639 27:0.83333333 28:0.98484848 
512 1:1 2:1 3:0 4:0 5:1 6:0 7:0 8:0 9:0 10:1 11:0 12:0 13:1 14:0 15:0 16:1 17:0 18:0 19:1 20:0 21:0 22:1 23:0 24:0 25:1 26:0.91269034 27:1 28:0 
512 1:1 2:1 3:0 4:0 5:1 6:0 7:0 8:0 9:0 10:1 11:0 12:0 13:1 14:0 15:0 16:1 17:0 18:0 19:1 20:0 21:0 22:1 23:0 24:0 25:1 26:0.25945261 27:1 28:0 
512 1:1 2:1 3:0 4:0 5:1 6:0 7:0 8:1 9:0 10:0 11:0 12:1 13:0 14:0 15:0 16:1 17:0 18:0 19:1 20:0 21:0 22:1 23:0 24:0 25:1 26:0.27797982 27:0.90666667 28:0 
512 1:1 2:1 3:0 4:0 5:1 6:0 7:0 8:0 9:1 10:0 11:0 12:1 13:0 14:0 15:0 16:1 17:0 18:0 19:1 20:0 21:0 22:1 23:0 24:0 25:1 26:0.040332861 27:0.2 28:0 
173.4953312342888 1:1 2:1 3:0 4:0 5:1 6:0 7:0 8:1 9:0 10:0 11:1 12:0 13:0 14:1 15:0 16:0 17:0 18:0 19:1 20:0 21:0 22:1 23:0 24:0 25:1 26:0.49981225 27:1 28:0.97802198 
512 1:1 2:1 3:0 4:0 5:1 6:0 7:0 8:0 9:0 10:1 11:0 12:0 13:1 14:0 15:0 16:1 17:0 18:0 19:1 20:0 21:0 22:1 23:0 24:0 25:1 26:0.71275079 27:1 28:0 
512 1:1 2:1 3:0 4:0 5:1 6:0 7:0 8:0 9:0 10:1 11:0 12:0 13:1 14:0 15:0 16:1 17:0 18:0 19:1 20:0 21:0 22:1 23:0 24:0 25:1 26:0.16353996 27:1 28:0 
21.33888372331666 1:1 2:1 3:0 4:0 5:1 6:0 7:0 8:1 9:0 10:0 11:0 12:1 13:0 14:0 15:1 16:0 17:0 18:0 19:1 20:0 21:0 22:1 23:0 24:0 25:1 26:0.39288032 27:0.33333333 28:0.75555556 
512 1:1 2:1 3:0 4:0 5:1 6:0 7:0 8:0 9:1 10:0 11:0 12:1 13:0 14:1 15:0 16:0 17:0 18:0 19:1 20:0 21:0 22:1 23:0 24:0 25:1 26:0.22414993 27:0.33333333 28:0.88571429 
512 1:1 2:1 3:0 4:0 5:1 6:0 7:0 8:0 9:0 10:1 11:0 12:0 13:1 14:0 15:0 16:1 17:0 18:0 19:1 20:0 21:0 22:1 23:0 24:0 25:1 26:0.5681572 27:1 28:0 
512 1:1 2:1 3:0 4:0 5:1 6:0 7:0 8:1 9:0 10:0 11:0 12:1 13:0 14:1 15:0 16:0 17:0 18:0 19:1 20:0 21:0 22:1 23:0 24:0 25:1 26:0.054829985 27:0.99047619 28:0 
34.36889154182903 1:1 2:0 3:1 4:0 5:1 6:0 7:0 8:1 9:0 10:0 11:1 12:0 13:0 14:1 15:0 16:0 17:1 18:0 19:0 20:1 21:0 22:0 23:1 24:0 25:0 26:0.65317625 27:0.9 28:0.96666667 
160.1474180604972 1:1 2:1 3:0 4:0 5:1 6:0 7:0 8:1 9:0 10:0 11:1 12:0 13:0 14:1 15:0 16:0 17:0 18:0 19:1 20:0 21:0 22:1 23:0 24:0 25:1 26:0.52586991 27:1 28:0.97916667 
0.5102983153690018 1:1 2:0 3:0 4:1 5:0 6:0 7:1 8:1 9:0 10:0 11:1 12:0 13:0 14:0 15:0 16:1 17:1 18:0 19:0 20:1 21:0 22:0 23:0 24:0 25:1 26:0.15732796 27:1 28:0 
512 1:1 2:1 3:0 4:0 5:1 6:0 7:0 8:0 9:0 10:1 11:0 12:0 13:1 14:0 15:0 16:1 17:0 18:0 19:1 20:0 21:0 22:1 23:0 24:0 25:1 26:0.056514561 27:1 28:0.8 
104.5778203095756 1:1 2:1 3:0 4:0 5:1 6:0 7:0 8:1 9:0 10:0 11:0 12:1 13:0 14:0 15:1 16:0 17:0 18:0 19:1 20:0 21:0 22:1 23:0 24:0 25:1 26:0.00125 27:0.6 28:0.40833333 
512 1:1 2:1 3:0 4:0 5:1 6:0 7:0 8:0 9:1 10:0 11:0 12:1 13:0 14:1 15:0 16:0 17:0 18:0 19:1 20:0 21:0 22:1 23:0 24:0 25:1 26:0.21804287 27:0.33333333 28:0 
512 1:1 2:1 3:0 4:0 5:1 6:0 7:0 8:0 9:0 10:1 11:0 12:0 13:1 14:0 15:0 16:1 17:0 18:0 19:1 20:0 21:0 22:1 23:0 24:0 25:1 26:0.31518999 27:1 28:0 
512 1:1 2:0 3:1 4:0 5:1 6:0 7:0 8:1 9:0 10:0 11:1 12:0 13:0 14:1 15:0 16:0 17:1 18:0 19:0 20:0 21:1 22:0 23:1 24:0 25:0 26:0.45395145 27:0.83333333 28:0.98958333 
165.2877395881772 1:1 2:1 3:0 4:0 5:1 6:0 7:0 8:1 9:0 10:0 11:0 12:1 13:0 14:0 15:0 16:1 17:0 18:0 19:1 20:0 21:0 22:1 23:0 24:0 25:1 26:0.40138555 27:0.98666667 28:0 
270.5704011789177 1:1 2:0 3:1 4:0 5:1 6:0 7:0 8:1 9:0 10:0 11:1 12:0 13:0 14:1 15:0 16:0 17:1 18:0 19:0 20:0 21:1 22:0 23:1 24:0 25:0 26:0.34140542 27:0.75333333 28:0.80153846 
512 1:1 2:1 3:0 4:0 5:1 6:0 7:0 8:0 9:1 10:0 11:0 12:1 13:0 14:0 15:0 16:1 17:0 18:1 19:0 20:0 21:1 22:0 23:1 24:0 25:0 26:0.21919703 27:0 28:0 
1.316335396719496 1:1 2:1 3:0 4:0 5:1 6:0 7:0 8:1 9:0 10:0 11:1 12:0 13:0 14:0 15:0 16:1 17:0 18:1 19:0 20:0 21:1 22:0 23:1 24:0 25:0 26:0.43986216 27:0.5 28:0.91388889 
18.02301986496235 1:1 2:1 3:0 4:0 5:1 6:0 7:0 8:1 9:0 10:0 11:1 12:0 13:0 14:0 15:1 16:0 17:0 18:0 19:1 20:0 21:0 22:1 23:0 24:0 25:1 26:0.25958663 27:0.66666667 28:0.83838384 
-0.03651958069876753 1:1 2:1 3:0 4:0 5:0 6:1 7:0 8:0 9:0 10:1 11:0 12:0 13:1 14:0 15:0 16:1 17:0 18:0 19:1 20:0 21:0 22:1 23:0 24:0 25:1 26:0.00125 27:0 28:0 
-0.5336694840751356 1:1 2:1 3:0 4:0 5:0 6:0 7:1 8:0 9:1 10:0 11:0 12:1 13:0 14:0 15:1 16:0 17:0 18:0 19:1 20:0 21:0 22:1 23:0 24:0 25:1 26:0.0019618706 27:-0.5 28:-0.875 
-512 1:1 2:1 3:0 4:0 5:1 6:0 7:0 8:0 9:0 10:1 11:0 12:0 13:1 14:0 15:0 16:1 17:0 18:0 19:1 20:0 21:0 22:1 23:0 24:0 25:1 26:0.3271012 27:1 28:0 
-512 1:1 2:1 3:0 4:0 5:1 6:0 7:0 8:0 9:0 10:1 11:0 12:0 13:1 14:0 15:0 16:1 17:0 18:0 19:1 20:0 21:0 22:1 23:0 24:0 25:1 26:0.25339228 27:1 28:0 
-512 1:1 2:1 3:0 4:0 5:1 6:0 7:0 8:0 9:0 10:1 11:0 12:0 13:1 14:0 15:0 16:1 17:0 18:0 19:1 20:0 21:0 22:1 23:0 24:0 25:1 26:0.012786725 27:1 28:0 
-512 1:1 2:1 3:0 4:0 5:1 6:0 7:0 8:0 9:0 10:1 11:0 12:0 13:1 14:0 15:0 16:1 17:0 18:0 19:1 20:0 21:0 22:1 23:0 24:0 25:1 26:0.14426816 27:1 28:0 
-512 1:1 2:1 3:0 4:0 5:1 6:0 7:0 8:0 9:0 10:1 11:0 12:0 13:1 14:0 15:0 16:1 17:0 18:0 19:1 20:0 21:0 22:1 23:0 24:0 25:1 26:0.21838659 27:1 28:0 
-512 1:1 2:0 3:1 4:0 5:1 6:0 7:0 8:1 9:0 10:0 11:1 12:0 13:0 14:0 15:0 16:1 17:0 18:0 19:1 20:0 21:0 22:1 23:0 24:0 25:1 26:0.19469886 27:0.75 28:0 
-512 1:1 2:1 3:0 4:0 5:1 6:0 7:0 8:0 9:0 10:1 11:0 12:0 13:1 14:0 15:0 16:1 17:0 18:0 19:1 20:0 21:0 22:1 23:0 24:0 25:1 26:0.33239931 27:1 28:0 
-184.0107319593369 1:1 2:1 3:0 4:0 5:1 6:0 7:0 8:0 9:0 10:1 11:0 12:0 13:1 14:0 15:0 16:1 17:0 18:0 19:1 20:0 21:0 22:1 23:0 24:0 25:1 26:0.013815645 27:1 28:0 
-512 1:1 2:1 3:0 4:0 5:1 6:0 7:0 8:0 9:0 10:1 11:0 12:0 13:1 14:0 15:0 16:1 17:0 18:0 19:1 20:0 21:0 22:1 23:0 24:0 25:1 26:0.26373783 27:1 28:0 
-512 1:1 2:1 3:0 4:0 5:1 6:0 7:0 8:0 9:0 10:1 11:0 12:0 13:1 14:0 15:0 16:1 17:0 18:0 19:1 20:0 21:0 22:1 23:0 24:0 25:1 26:0.023580013 27:1 28:0 
-484.5514052137626 1:1 2:1 3:0 4:0 5:1 6:0 7:0 8:0 9:0 10:1 11:0 12:0 13:1 14:0 15:0 16:1 17:0 18:0 19:1 20:0 21:0 22:1 23:0 24:0 25:1 26:0.016198721 27:1 28:0 
-512 1:1 2:1 3:0 4:0 5:1 6:0 7:0 8:0 9:0 10:1 11:0 12:0 13:1 14:0 15:0 16:1 17:0 18:0 19:1 20:0 21:0 22:1 23:0 24:0 25:1 26:0.21757178 27:1 28:0 
-0.4060289377890808 1:1 2:1 3:0 4:0 5:0 6:1 7:0 8:0 9:0 10:1 11:0 12:0 13:1 14:0 15:0 16:1 17:1 18:0 19:0 20:0 21:1 22:0 23:0 24:0 25:1 26:0.048635956 27:0.5 28:0 
-491.8137769273068 1:1 2:1 3:0 4:0 5:1 6:0 7:0 8:0 9:0 10:1 11:0 12:0 13:1 14:0 15:0 16:1 17:0 18:0 19:1 20:0 21:0 22:1 23:0 24:0 25:1 26:0.55998349 27:1 28:0 
-512 1:1 2:1 3:0 4:0 5:1 6:0 7:0 8:0 9:0 10:1 11:0 12:0 13:1 14:0 15:0 16:1 17:0 18:0 19:1 20:0 21:0 22:1 23:0 24:0 25:1 26:0.24498309 27:1 28:0 
-512 1:1 2:1 3:0 4:0 5:1 6:0 7:0 8:0 9:0 10:1 11:0 12:0 13:1 14:0 15:0 16:1 17:0 18:0 19:1 20:0 21:0 22:1 23:0 24:0 25:1 26:0.036798202 27:1 28:0 
-0.008037666666497103 1:1 2:0 3:1 4:0 5:1 6:0 7:0 8:0 9:0 10:1 11:0 12:0 13:1 14:0 15:0 16:1 17:0 18:0 19:1 20:0 21:0 22:1 23:0 24:0 25:1 26:0.00125 27:0 28:0 
-512 1:1 2:1 3:0 4:0 5:1 6:0 7:0 8:0 9:0 10:1 11:0 12:0 13:1 14:0 15:0 16:1 17:0 18:0 19:1 20:0 21:0 22:1 23:0 24:0 25:1 26:0.042937413 27:1 28:0 
-505.2325800060223 1:1 2:1 3:0 4:0 5:1 6:0 7:0 8:0 9:0 10:1 11:0 12:0 13:1 14:0 15:0 16:1 17:0 18:0 19:1 20:0 21:0 22:1 23:0 24:0 25:1 26:0.63645756 27:1 28:0 
-512 1:1 2:1 3:0 4:0 5:1 6:0 7:0 8:0 9:0 10:1 11:0 12:0 13:1 14:0 15:0 16:1 17:0 18:0 19:1 20:0 21:0 22:1 23:0 24:0 25:1 26:0.034381527 27:1 28:0 
-512 1:1 2:1 3:0 4:0 5:1 6:0 7:0 8:1 9:0 10:0 11:0 12:1 13:0 14:0 15:0 16:1 17:0 18:0 19:1 20:0 21:0 22:1 23:0 24:0 25:1 26:0.039387021 27:1 28:0 
-512 1:1 2:1 3:0 4:0 5:1 6:0 7:0 8:0 9:1 10:0 11:0 12:1 13:0 14:0 15:0 16:1 17:0 18:0 19:1 20:0 21:0 22:1 23:0 24:0 25:1 26:0.17751719 27:0.2 28:0 
-512 1:1 2:1 3:0 4:0 5:1 6:0 7:0 8:1 9:0 10:0 11:0 12:1 13:0 14:0 15:0 16:1 17:0 18:0 19:1 20:0 21:0 22:1 23:0 24:0 25:1 26:0.36328033 27:1 28:0 
-512 1:1 2:1 3:0 4:0 5:1 6:0 7:0 8:0 9:0 10:1 11:0 12:0 13:1 14:0 15:0 16:1 17:0 18:0 19:1 20:0 21:0 22:1 23:0 24:0 25:1 26:0.32776934 27:1 28:0 
-512 1:1 2:1 3:0 4:0 5:1 6:0 7:0 8:0 9:0 10:1 11:0 12:0 13:1 14:0 15:0 16:1 17:0 18:0 19:1 20:0 21:0 22:1 23:0 24:0 25:1 26:0.06213196 27:1 28:0 
-0.6182903035265443 1:1 2:1 3:0 4:0 5:1 6:0 7:0 8:0 9:0 10:1 11:0 12:0 13:1 14:0 15:0 16:1 17:0 18:0 19:1 20:0 21:0 22:1 23:0 24:0 25:1 26:0.062269989 27:1 28:0.16666667 
-512 1:1 2:1 3:0 4:0 5:1 6:0 7:0 8:1 9:0 10:0 11:0 12:1 13:0 14:0 15:0 16:1 17:0 18:0 19:1 20:0 21:0 22:1 23:0 24:0 25:1 26:0.028354179 27:1 28:0 
-512 1:1 2:1 3:0 4:0 5:1 6:0 7:0 8:0 9:0 10:1 11:0 12:0 13:1 14:0 15:0 16:1 17:0 18:0 19:1 20:0 21:0 22:1 23:0 24:0 25:1 26:0.49008399 27:1 28:0 
-19.67441551400303 1:1 2:1 3:0 4:0 5:1 6:0 7:0 8:0 9:0 10:1 11:0 12:0 13:1 14:0 15:0 16:1 17:0 18:0 19:1 20:0 21:0 22:1 23:0 24:0 25:1 26:0.028285488 27:1 28:0 
-512 1:1 2:1 3:0 4:0 5:1 6:0 7:0 8:0 9:0 10:1 11:0 12:0 13:1 14:0 15:0 16:1 17:0 18:0 19:1 20:0 21:0 22:1 23:0 24:0 25:1 26:0.2812416 27:1 28:0 
-60.88138456980173 1:1 2:1 3:0 4:0 5:1 6:0 7:0 8:0 9:1 10:0 11:0 12:1 13:0 14:0 15:1 16:0 17:0 18:0 19:1 20:0 21:0 22:1 23:0 24:0 25:1 26:0.0058945906 27:0 28:0.33333333 
-512 1:1 2:1 3:0 4:0 5:1 6:0 7:0 8:0 9:0 10:1 11:0 12:0 13:1 14:0 15:0 16:1 17:0 18:0 19:1 20:0 21:0 22:1 23:0 24:0 25:1 26:0.30500796 27:1 28:0 
-512 1:1 2:1 3:0 4:0 5:1 6:0 7:0 8:0 9:0 10:1 11:0 12:0 13:1 14:0 15:0 16:1 17:0 18:0 19:1 20:0 21:0 22:1 23:0 24:0 25:1 26:0.033185322 27:1 28:0 
-192.1436403994703 1:1 2:1 3:0 4:0 5:0 6:1 7:0 8:1 9:0 10:0 11:0 12:1 13:0 14:0 15:0 16:1 17:0 18:0 19:1 20:0 21:0 22:1 23:0 24:0 25:1 26:0.13392545 27:0 28:0 
-512 1:1 2:1 3:0 4:0 5:1 6:0 7:0 8:0 9:1 10:0 11:0 12:1 13:0 14:0 15:0 16:1 17:0 18:0 19:1 20:0 21:0 22:1 23:0 24:0 25:1 26:0.015210704 27:0.2 28:-0.094179894 
-2.786925257943283 1:1 2:1 3:0 4:0 5:0 6:1 7:0 8:1 9:0 10:0 11:1 12:0 13:0 14:0 15:0 16:1 17:0 18:0 19:1 20:0 21:0 22:1 23:0 24:0 25:1 26:0.01045099 27:0.5 28:0 
-243.3400401040422 1:1 2:1 3:0 4:0 5:0 6:1 7:0 8:1 9:0 10:0 11:1 12:0 13:0 14:0 15:1 16:0 17:0 18:0 19:1 20:0 21:0 22:1 23:0 24:0 25:1 26:0.017419774 27:0.2 28:0 
-412.2740683209851 1:1 2:1 3:0 4:0 5:1 6:0 7:0 8:0 9:0 10:1 11:0 12:0 13:1 14:0 15:0 16:1 17:0 18:0 19:1 20:0 21:0 22:1 23:0 24:0 25:1 26:0.17161894 27:1 28:0 
-512 1:1 2:1 3:0 4:0 5:1 6:0 7:0 8:0 9:0 10:1 11:0 12:0 13:1 14:0 15:0 16:1 17:0 18:0 19:1 20:0 21:0 22:1 23:0 24:0 25:1 26:0.032995526 27:1 28:0 
-167.3536460135076 1:1 2:1 3:0 4:0 5:1 6:0 7:0 8:1 9:0 10:0 11:1 12:0 13:0 14:0 15:1 16:0 17:0 18:0 19:1 20:0 21:0 22:1 23:0 24:0 25:1 26:0.023631396 27:0.66666667 28:-0.45185185 
-512 1:1 2:1 3:0 4:0 5:1 6:0 7:0 8:0 9:0 10:1 11:0 12:0 13:1 14:0 15:0 16:1 17:0 18:0 19:1 20:0 21:0 22:1 23:0 24:0 25:1 26:0.36160329 27:1 28:0 
-512 1:1 2:1 3:0 4:0 5:1 6:0 7:0 8:0 9:0 10:1 11:0 12:0 13:1 14:0 15:0 16:1 17:0 18:0 19:1 20:0 21:0 22:1 23:0 24:0 25:1 26:0.055069309 27:1 28:0 
-0.05747838385139905 1:1 2:0 3:1 4:0 5:1 6:0 7:0 8:0 9:0 10:1 11:0 12:0 13:1 14:0 15:0 16:1 17:0 18:0 19:1 20:0 21:0 22:1 23:0 24:0 25:1 26:0.00125 27:0 28:0 
-512 1:1 2:1 3:0 4:0 5:1 6:0 7:0 8:0 9:0 10:1 11:0 12:0 13:1 14:0 15:0 16:1 17:0 18:0 19:1 20:0 21:0 22:1 23:0 24:0 25:1 26:0.7775538 27:1 28:0 
-512 1:1 2:1 3:0 4:0 5:1 6:0 7:0 8:0 9:0 10:1 11:0 12:0 13:1 14:0 15:0 16:1 17:0 18:0 19:1 20:0 21:0 22:1 23:0 24:0 25:1 26:0.12235757 27:1 28:0 
-126.339006131488 1:1 2:1 3:0 4:0 5:1 6:0 7:0 8:0 9:0 10:1 11:0 12:0 13:1 14:0 15:0 16:1 17:0 18:0 19:1 20:0 21:0 22:1 23:0 24:0 25:1 26:0.81213266 27:1 28:0 
-512 1:1 2:1 3:0 4:0 5:1 6:0 7:0 8:0 9:0 10:1 11:0 12:0 13:1 14:0 15:0 16:1 17:0 18:0 19:1 20:0 21:0 22:1 23:0 24:0 25:1 26:0.23541619 27:1 28:0 
-507.8085438484896 1:1 2:1 3:0 4:0 5:1 6:0 7:0 8:0 9:0 10:1 11:0 12:0 13:1 14:0 15:0 16:1 17:0 18:0 19:1 20:0 21:0 22:1 23:0 24:0 25:1 26:0.23256309 27:1 28:0 
-512 1:1 2:1 3:0 4:0 5:1 6:0 7:0 8:0 9:0 10:1 11:0 12:0 13:1 14:0 15:0 16:1 17:0 18:0 19:1 20:0 21:0 22:1 23:0 24:0 25:1 26:0.086408332 27:1 28:0 
-512 1:1 2:1 3:0 4:0 5:1 6:0 7:0 8:0 9:0 10:1 11:0 12:0 13:1 14:0 15:0 16:1 17:0 18:0 19:1 20:0 21:0 22:1 23:0 24:0 25:1 26:0.15178792 27:1 28:0 
-512 1:1 2:1 3:0 4:0 5:1 6:0 7:0 8:0 9:0 10:1 11:0 12:0 13:1 14:0 15:0 16:1 17:0 18:0 19:1 20:0 21:0 22:1 23:0 24:0 25:1 26:0.34198627 27:1 28:0 
-0.2710941808043705 1:1 2:1 3:0 4:0 5:1 6:0 7:0 8:0 9:1 10:0 11:0 12:1 13:0 14:0 15:1 16:0 17:1 18:0 19:0 20:0 21:1 22:0 23:0 24:1 25:0 26:0.16009845 27:-0.11111111 28:0 
-512 1:1 2:1 3:0 4:0 5:1 6:0 7:0 8:0 9:0 10:1 11:0 12:0 13:1 14:0 15:0 16:1 17:0 18:0 19:1 20:0 21:0 22:1 23:0 24:0 25:1 26:0.015973907 27:1 28:0 
-512 1:1 2:1 3:0 4:0 5:1 6:0 7:0 8:0 9:0 10:1 11:0 12:0 13:1 14:0 15:0 16:1 17:0 18:0 19:1 20:0 21:0 22:1 23:0 24:0 25:1 26:0.013114157 27:1 28:0 
-512 1:1 2:1 3:0 4:0 5:1 6:0 7:0 8:0 9:0 10:1 11:0 12:0 13:1 14:0 15:0 16:1 17:0 18:0 19:1 20:0 21:0 22:1 23:0 24:0 25:1 26:0.25760147 27:1 28:0 
-512 1:1 2:1 3:0 4:0 5:1 6:0 7:0 8:1 9:0 10:0 11:0 12:1 13:0 14:0 15:0 16:1 17:0 18:0 19:1 20:0 21:0 22:1 23:0 24:0 25:1 26:0.058566123 27:1 28:0 
-1.600970395422632 1:1 2:0 3:1 4:0 5:1 6:0 7:0 8:0 9:0 10:1 11:0 12:0 13:1 14:0 15:1 16:0 17:0 18:0 19:1 20:0 21:0 22:1 23:0 24:0 25:1 26:0.00125 27:-0.33333333 28:-0.36666667 
-63.52191776588461 1:1 2:1 3:0 4:0 5:1 6:0 7:0 8:0 9:0 10:1 11:0 12:0 13:1 14:0 15:0 16:1 17:0 18:0 19:1 20:0 21:0 22:1 23:0 24:0 25:1 26:0.38489097 27:1 28:0 
-0.830049238328421 1:1 2:1 3:0 4:0 5:1 6:0 7:0 8:0 9:1 10:0 11:0 12:1 13:0 14:0 15:1 16:0 17:1 18:0 19:0 20:0 21:1 22:0 23:0 24:1 25:0 26:0.034508713 27:0.11111111 28:-0.072222222 
-162.9635422273817 1:1 2:1 3:0 4:0 5:1 6:0 7:0 8:0 9:1 10:0 11:0 12:1 13:0 14:0 15:0 16:1 17:0 18:0 19:1 20:0 21:0 22:1 23:0 24:0 25:1 26:0.38110164 27:0.2 28:0 
-512 1:1 2:1 3:0 4:0 5:1 6:0 7:0 8:0 9:0 10:1 11:0 12:0 13:1 14:0 15:0 16:1 17:0 18:0 19:1 20:0 21:0 22:1 23:0 24:0 25:1 26:0.09219256 27:1 28:0.1 
-512 1:1 2:1 3:0 4:0 5:1 6:0 7:0 8:0 9:0 10:1 11:0 12:0 13:1 14:0 15:0 16:1 17:0 18:0 19:1 20:0 21:0 22:1 23:0 24:0 25:1 26:0.30051073 27:1 28:0 
-512 1:1 2:1 3:0 4:0 5:1 6:0 7:0 8:1 9:0 10:0 11:0 12:1 13:0 14:0 15:0 16:1 17:0 18:0 19:1 20:0 21:0 22:1 23:0 24:0 25:1 26:0.18703333 27:1 28:0 
-512 1:1 2:1 3:0 4:0 5:1 6:0 7:0 8:0 9:0 10:1 11:0 12:0 13:1 14:0 15:0 16:1 17:0 18:0 19:1 20:0 21:0 22:1 23:0 24:0 25:1 26:0.39999732 27:1 28:0 
-0.08412891979301557 1:1 2:1 3:0 4:0 5:0 6:1 7:0 8:0 9:0 10:1 11:0 12:0 13:1 14:0 15:0 16:1 17:1 18:0 19:0 20:1 21:0 22:0 23:0 24:1 25:0 26:0.066584252 27:0.2 28:0 
-512 1:1 2:1 3:0 4:0 5:1 6:0 7:0 8:0 9:0 10:1 11:0 12:0 13:1 14:0 15:0 16:1 17:0 18:0 19:1 20:0 21:0 22:1 23:0 24:0 25:1 26:0.10263602 27:1 28:0 
-512 1:1 2:1 3:0 4:0 5:1 6:0 7:0 8:0 9:0 10:1 11:0 12:0 13:1 14:0 15:0 16:1 17:0 18:0 19:1 20:0 21:0 22:1 23:0 24:0 25:1 26:0.55898482 27:1 28:0 
-512 1:1 2:1 3:0 4:0 5:1 6:0 7:0 8:0 9:0 10:1 11:0 12:0 13:1 14:0 15:0 16:1 17:0 18:0 19:1 20:0 21:0 22:1 23:0 24:0 25:1 26:0.23044348 27:1 28:0 
-512 1:1 2:1 3:0 4:0 5:1 6:0 7:0 8:1 9:0 10:0 11:0 12:1 13:0 14:0 15:0 16:1 17:0 18:0 19:1 20:0 21:0 22:1 23:0 24:0 25:1 26:0.087063529 27:1 28:0 
-171.9176918698682 1:1 2:1 3:0 4:0 5:1 6:0 7:0 8:0 9:0 10:1 11:0 12:0 13:1 14:0 15:0 16:1 17:0 18:0 19:1 20:0 21:0 22:1 23:0 24:0 25:1 26:0.52227885 27:1 28:0 
-512 1:1 2:1 3:0 4:0 5:1 6:0 7:0 8:0 9:0 10:1 11:0 12:0 13:1 14:0 15:0 16:1 17:0 18:0 19:1 20:0 21:0 22:1 23:0 24:0 25:1 26:0.67802393 27:1 28:0 
-512 1:1 2:1 3:0 4:0 5:1 6:0 7:0 8:0 9:1 10:0 11:0 12:1 13:0 14:0 15:0 16:1 17:0 18:0 19:1 20:0 21:0 22:1 23:0 24:0 25:1 26:0.014253029 27:0.2 28:-0.075 
-512 1:1 2:1 3:0 4:0 5:1 6:0 7:0 8:1 9:0 10:0 11:1 12:0 13:0 14:0 15:1 16:0 17:0 18:0 19:1 20:0 21:0 22:1 23:0 24:0 25:1 26:0.027781 27:0.66666667 28:-0.17777778 
-512 1:1 2:1 3:0 4:0 5:1 6:0 7:0 8:0 9:0 10:1 11:0 12:0 13:1 14:0 15:0 16:1 17:0 18:0 19:1 20:0 21:0 22:1 23:0 24:0 25:1 26:0.2095619 27:1 28:0 
-512 1:1 2:1 3:0 4:0 5:1 6:0 7:0 8:1 9:0 10:0 11:1 12:0 13:0 14:0 15:1 16:0 17:0 18:0 19:1 20:0 21:0 22:1 23:0 24:0 25:1 26:0.072436213 27:0.66666667 28:0 
-8.277616869472549 1:1 2:1 3:0 4:0 5:0 6:0 7:1 8:0 9:0 10:1 11:0 12:0 13:1 14:0 15:0 16:1 17:0 18:0 19:1 20:0 21:0 22:1 23:0 24:0 25:1 26:0.11477235 27:1 28:0 
-512 1:1 2:1 3:0 4:0 5:1 6:0 7:0 8:0 9:1 10:0 11:0 12:1 13:0 14:0 15:1 16:0 17:0 18:0 19:1 20:0 21:0 22:1 23:0 24:0 25:1 26:0.02288482 27:0 28:0.12 
-7.397236764754577 1:1 2:1 3:0 4:0 5:0 6:0 7:1 8:0 9:0 10:1 11:0 12:0 13:1 14:0 15:0 16:1 17:0 18:0 19:1 20:0 21:0 22:1 23:0 24:0 25:1 26:0.4014799 27:1 28:0 
-512 1:1 2:1 3:0 4:0 5:1 6:0 7:0 8:0 9:0 10:1 11:0 12:0 13:1 14:0 15:0 16:1 17:0 18:0 19:1 20:0 21:0 22:1 23:0 24:0 25:1 26:0.44761154 27:1 28:0 
-512 1:1 2:1 3:0 4:0 5:1 6:0 7:0 8:0 9:0 10:1 11:0 12:0 13:1 14:0 15:0 16:1 17:0 18:0 19:1 20:0 21:0 22:1 23:0 24:0 25:1 26:0.38175955 27:1 28:0 
-3.250804942068315 1:1 2:1 3:0 4:0 5:0 6:0 7:1 8:0 9:0 10:1 11:0 12:0 13:1 14:0 15:0 16:1 17:0 18:0 19:1 20:0 21:0 22:1 23:0 24:0 25:1 26:0.2900624 27:1 28:0 
-20.61432744184738 1:1 2:0 3:1 4:0 5:0 6:1 7:0 8:0 9:0 10:1 11:0 12:0 13:1 14:0 15:0 16:1 17:0 18:0 19:1 20:0 21:0 22:1 23:0 24:0 25:1 26:0.0066982321 27:-1 28:-0.2 
-512 1:1 2:1 3:0 4:0 5:1 6:0 7:0 8:0 9:0 10:1 11:0 12:0 13:1 14:0 15:0 16:1 17:0 18:0 19:1 20:0 21:0 22:1 23:0 24:0 25:1 26:0.12191015 27:1 28:0 
-0.01221562551073861 1:1 2:1 3:0 4:0 5:0 6:1 7:0 8:0 9:0 10:1 11:0 12:0 13:1 14:0 15:0 16:1 17:0 18:0 19:1 20:0 21:0 22:1 23:0 24:0 25:1 26:0.00125 27:0 28:0 
-511.9599642039517 1:1 2:1 3:0 4:0 5:1 6:0 7:0 8:0 9:0 10:1 11:0 12:0 13:1 14:0 15:0 16:1 17:0 18:0 19:1 20:0 21:0 22:1 23:0 24:0 25:1 26:0.44456258 27:1 28:0 
-512 1:1 2:1 3:0 4:0 5:0 6:0 7:1 8:0 9:0 10:1 11:0 12:0 13:1 14:0 15:0 16:1 17:0 18:0 19:1 20:0 21:0 22:1 23:0 24:0 25:1 26:0.024108427 27:1 28:0 
-218.5247396786552 1:1 2:1 3:0 4:0 5:1 6:0 7:0 8:0 9:1 10:0 11:0 12:1 13:0 14:0 15:0 16:1 17:0 18:0 19:1 20:0 21:0 22:1 23:0 24:0 25:1 26:0.46627137 27:0.2 28:0 
-12.23796757840438 1:1 2:1 3:0 4:0 5:0 6:0 7:1 8:0 9:0 10:1 11:0 12:0 13:1 14:0 15:0 16:1 17:0 18:0 19:1 20:0 21:0 22:1 23:0 24:0 25:1 26:0.0092196707 27:1 28:0.066666667 
-0.001222936542118446 1:1 2:0 3:1 4:0 5:1 6:0 7:0 8:0 9:0 10:1 11:0 12:0 13:1 14:0 15:0 16:1 17:0 18:0 19:1 20:0 21:0 22:1 23:0 24:0 25:1 26:0.00125 27:0 28:0 
-512 1:1 2:1 3:0 4:0 5:1 6:0 7:0 8:0 9:0 10:1 11:0 12:0 13:1 14:0 15:0 16:1 17:0 18:0 19:1 20:0 21:0 22:1 23:0 24:0 25:1 26:0.34727582 27:1 28:0 
-512 1:1 2:1 3:0 4:0 5:1 6:0 7:0 8:0 9:0 10:1 11:0 12:0 13:1 14:0 15:0 16:1 17:0 18:0 19:1 20:0 21:0 22:1 23:0 24:0 25:1 26:0.28301248 27:1 28:0 
-512 1:1 2:1 3:0 4:0 5:1 6:0 7:0 8:0 9:0 10:1 11:0 12:0 13:1 14:0 15:0 16:1 17:0 18:0 19:1 20:0 21:0 22:1 23:0 24:0 25:1 26:0.18834564 27:1 28:0 
-512 1:1 2:0 3:0 4:1 5:1 6:0 7:0 8:0 9:0 10:1 11:0 12:0 13:1 14:0 15:0 16:1 17:0 18:1 19:0 20:0 21:1 22:0 23:0 24:0 25:1 26:0.010608478 27:-0.33333333 28:0 
-0.7465279207072365 1:1 2:1 3:0 4:0 5:1 6:0 7:0 8:1 9:0 10:0 11:0 12:1 13:0 14:0 15:1 16:0 17:1 18:0 19:0 20:0 21:1 22:0 23:0 24:1 25:0 26:0.019039745 27:0.11111111 28:0 
-0.6274935760378146 1:1 2:0 3:1 4:0 5:0 6:1 7:0 8:1 9:0 10:0 11:0 12:1 13:0 14:0 15:1 16:0 17:0 18:0 19:1 20:0 21:0 22:1 23:0 24:0 25:1 26:0.00125 27:-0.6 28:-0.6 
-409.8373777023344 1:1 2:0 3:1 4:0 5:1 6:0 7:0 8:1 9:0 10:0 11:0 12:1 13:0 14:0 15:1 16:0 17:0 18:0 19:1 20:0 21:0 22:1 23:0 24:0 25:1 26:0.00125 27:-0.2 28:0 
-512 1:1 2:1 3:0 4:0 5:1 6:0 7:0 8:0 9:0 10:1 11:0 12:0 13:1 14:0 15:0 16:1 17:0 18:0 19:1 20:0 21:0 22:1 23:0 24:0 25:1 26:0.17474747 27:1 28:0 
-0.006045523205120067 1:1 2:0 3:0 4:1 5:1 6:0 7:0 8:0 9:0 10:1 11:0 12:0 13:1 14:0 15:0 16:1 17:0 18:0 19:1 20:0 21:0 22:1 23:0 24:0 25:1 26:0.00125 27:1 28:0 
-512 1:1 2:1 3:0 4:0 5:1 6:0 7:0 8:0 9:0 10:1 11:0 12:0 13:1 14:0 15:0 16:1 17:0 18:0 19:1 20:0 21:0 22:1 23:0 24:0 25:1 26:0.15020695 27:1 28:0 
-0.06671491289520552 1:1 2:1 3:0 4:0 5:0 6:0 7:1 8:1 9:0 10:0 11:0 12:1 13:0 14:0 15:1 16:0 17:0 18:0 19:1 20:0 21:0 22:1 23:0 24:0 25:1 26:0.055578195 27:0.45 28:0 
-512 1:1 2:1 3:0 4:0 5:1 6:0 7:0 8:1 9:0 10:0 11:0 12:1 13:0 14:0 15:0 16:1 17:0 18:0 19:1 20:0 21:0 22:1 23:0 24:0 25:1 26:0.1408833 27:1 28:0 
-512 1:1 2:1 3:0 4:0 5:1 6:0 7:0 8:0 9:0 10:1 11:0 12:0 13:1 14:0 15:0 16:1 17:0 18:0 19:1 20:0 21:0 22:1 23:0 24:0 25:1 26:0.49891368 27:1 28:0 
-512 1:1 2:1 3:0 4:0 5:1 6:0 7:0 8:0 9:0 10:1 11:0 12:0 13:1 14:0 15:0 16:1 17:0 18:0 19:1 20:0 21:0 22:1 23:0 24:0 25:1 26:0.01609453 27:1 28:0 
-512 1:1 2:1 3:0 4:0 5:1 6:0 7:0 8:0 9:0 10:1 11:0 12:0 13:1 14:0 15:0 16:1 17:0 18:0 19:1 20:0 21:0 22:1 23:0 24:0 25:1 26:0.30316967 27:1 28:0 
-0.02436770185076751 1:1 2:0 3:1 4:0 5:1 6:0 7:0 8:1 9:0 10:0 11:1 12:0 13:0 14:0 15:1 16:0 17:0 18:1 19:0 20:0 21:1 22:0 23:0 24:1 25:0 26:0.017511355 27:-0.125 28:-0.48409091 
-512 1:1 2:1 3:0 4:0 5:1 6:0 7:0 8:0 9:1 10:0 11:0 12:1 13:0 14:0 15:1 16:0 17:0 18:0 19:1 20:0 21:0 22:1 23:0 24:0 25:1 26:0.23468684 27:0 28:0 
-511.7237720109861 1:1 2:0 3:0 4:1 5:1 6:0 7:0 8:0 9:0 10:1 11:0 12:0 13:1 14:0 15:0 16:1 17:0 18:0 19:1 20:0 21:0 22:1 23:0 24:0 25:1 26:0.00125 27:1 28:0 
-512 1:1 2:1 3:0 4:0 5:1 6:0 7:0 8:0 9:0 10:1 11:0 12:0 13:1 14:0 15:0 16:1 17:0 18:0 19:1 20:0 21:0 22:1 23:0 24:0 25:1 26:0.17100672 27:1 28:0 
-512 1:1 2:1 3:0 4:0 5:1 6:0 7:0 8:0 9:0 10:1 11:0 12:0 13:1 14:0 15:0 16:1 17:0 18:0 19:1 20:0 21:0 22:1 23:0 24:0 25:1 26:0.1532993 27:1 28:0 
-512 1:1 2:1 3:0 4:0 5:1 6:0 7:0 8:0 9:1 10:0 11:0 12:1 13:0 14:0 15:0 16:1 17:0 18:0 19:1 20:0 21:0 22:1 23:0 24:0 25:1 26:0.32529846 27:0.2 28:0 
-512 1:1 2:1 3:0 4:0 5:1 6:0 7:0 8:0 9:0 10:1 11:0 12:0 13:1 14:0 15:0 16:1 17:0 18:0 19:1 20:0 21:0 22:1 23:0 24:0 25:1 26:0.048691217 27:1 28:0 
-512 1:1 2:1 3:0 4:0 5:1 6:0 7:0 8:0 9:0 10:1 11:0 12:0 13:1 14:0 15:0 16:1 17:0 18:0 19:1 20:0 21:0 22:1 23:0 24:0 25:1 26:0.12007541 27:1 28:0 
-512 1:1 2:1 3:0 4:0 5:1 6:0 7:0 8:0 9:0 10:1 11:0 12:0 13:1 14:0 15:0 16:1 17:0 18:0 19:1 20:0 21:0 22:1 23:0 24:0 25:1 26:0.0081896484 27:1 28:-0.062857143 
