svm_type c_svc
kernel_type rbf
gamma 1
nr_class 2
total_sv 332
rho 0.372654
label 1 -1
probA -1.94035
probB -1.1891
nr_sv 221 111
SV
4096 1:0.97342657 2:1 3:0 4:0 5:1 6:0 7:0 8:0 9:1 10:1 
0.7801263476740993 1:0.45454545 2:0 3:0 4:0 5:1 6:0 7:0 8:0 9:-1 10:1 
0.03008545358572672 1:0.5 2:1 3:0 4:0 5:0 6:0 7:0 8:1 9:-1 10:0 
0.2585689764980692 1:0.93333333 2:1 3:0 4:0 5:0 6:0 7:0 8:1 9:0.6 10:1 
1.23424689512497 1:0.83928571 2:1 3:0 4:0 5:0.5 6:0.5 7:0 8:0 9:1 10:1 
185.6220596583636 1:0.69333333 2:1 3:0 4:0 5:0.4 6:0 7:0 8:0.6 9:0 10:0 
2949.679706531389 1:0.88888889 2:0 3:0 4:1 5:0.16666667 6:0 7:0 8:0.83333333 9:0 10:0 
1475.477488785089 1:0.68 2:0 3:0 4:1 5:1 6:0 7:0 8:0 9:0 10:0 
3019.503079905422 1:0.48888889 2:1 3:0 4:0 5:0 6:0 7:0 8:1 9:0 10:0 
12.22077345310035 1:1 2:0 3:0 4:1 5:0.6 6:0 7:0 8:0.4 9:0 10:0 
1.388184271406866 1:0.12190476 2:1 3:0 4:0 5:0 6:0 7:0 8:1 9:-1 10:1 
3693.899949711066 1:0.81944444 2:1 3:0 4:0 5:0.66666667 6:0 7:0 8:0.33333333 9:1 10:1 
4096 1:0.15555556 2:0.5 3:0 4:0 5:0 6:0 7:0 8:1 9:0 10:0 
21.55611979236913 1:0.82857143 2:1 3:0 4:0 5:1 6:0 7:0 8:0 9:1 10:1 
2.949273325557711 1:0.71428571 2:1 3:0 4:0 5:1 6:0 7:0 8:0 9:1 10:-0.31428571 
4096 1:0.13333333 2:0.5 3:0 4:0 5:0 6:0 7:0 8:1 9:0 10:0 
4096 1:0.26666667 2:0.5 3:0 4:0 5:0 6:0 7:0 8:1 9:0 10:0 
2014.167623827949 1:0.33333333 2:0 3:0 4:1 5:0 6:0 7:0 8:1 9:0 10:0 
4096 1:0.5 2:0.5 3:0 4:0 5:0 6:0 7:0 8:1 9:0 10:0 
468.9466507185111 1:0.5 2:0 3:0 4:0 5:0.5 6:0 7:0 8:0.5 9:0 10:0 
284.3859922717339 1:0.88888889 2:0 3:0 4:1 5:0.25 6:0 7:0 8:0.75 9:0 10:0 
50.20188822685962 1:0.9030303 2:1 3:0 4:0 5:0.83333333 6:0 7:0 8:0.16666667 9:1 10:1 
0.101786960654034 1:0.8962963 2:1 3:0 4:0 5:1 6:0 7:0 8:0 9:0.066666667 10:1 
4096 1:0.46666667 2:0.5 3:0 4:0.5 5:0 6:0 7:0 8:1 9:0 10:0 
261.8939633698832 1:0.93699634 2:1 3:0 4:0 5:0.75 6:0 7:0 8:0.25 9:1 10:1 
4096 1:0.57142857 2:0 3:0 4:0.5 5:0.090909091 6:0 7:0 8:0.90909091 9:0 10:0 
2073.546962013495 1:1 2:0 3:0 4:1 5:0.4 6:0 7:0 8:0.6 9:0 10:0 
11.71851252441288 1:0.62666667 2:0 3:0 4:1 5:0.25 6:0 7:0.25 8:0.5 9:0 10:0 
4096 1:0.5 2:0.5 3:0 4:0 5:0 6:0 7:0 8:1 9:0 10:0 
284.5631826124125 1:0.5968254 2:1 3:0 4:0 5:0 6:0 7:1 8:0 9:0 10:0 
49.98837007867932 1:0.85714286 2:1 3:0 4:0 5:0 6:0 7:0 8:1 9:0 10:0 
0.7139106938305039 1:1 2:0.5 3:0.5 4:0 5:0 6:0 7:0 8:1 9:0 10:0 
235.5860463846541 1:0.91428571 2:1 3:0 4:0 5:1 6:0 7:0 8:0 9:1 10:1 
4096 1:0.8969697 2:1 3:0 4:0 5:0 6:0 7:0 8:1 9:0 10:0 
305.6118937451963 1:0.94949495 2:0.5 3:0 4:0.5 5:1 6:0 7:0 8:0 9:0 10:0 
0.01518161155363468 1:0.5 2:1 3:0 4:0 5:0 6:0 7:0 8:1 9:-1 10:0 
4096 1:0.33333333 2:0 3:0 4:1 5:0 6:0 7:0 8:1 9:0 10:0 
4096 1:0.66666667 2:0.5 3:0 4:0.5 5:0 6:0 7:0 8:1 9:0 10:0 
29.774028622455 1:0.83333333 2:1 3:0 4:0 5:1 6:0 7:0 8:0 9:1 10:0 
4096 1:0.5 2:0.5 3:0 4:0 5:0 6:0 7:0 8:1 9:0 10:0 
1195.545822733717 1:0.73333333 2:0 3:0 4:1 5:0.2 6:0 7:0 8:0.8 9:0 10:0 
0.009984124100522932 1:1 2:0.5 3:0 4:0.5 5:1 6:0 7:0 8:0 9:0 10:0 
21.9597329905508 1:0.98333333 2:1 3:0 4:0 5:0.83333333 6:0.16666667 7:0 8:0 9:1 10:1 
0.4752495116360969 1:0.85 2:1 3:0 4:0 5:0 6:0 7:0 8:1 9:1 10:0 
1162.149281311829 1:0.88888889 2:1 3:0 4:0 5:1 6:0 7:0 8:0 9:1 10:0 
1340.605524333493 1:0.83333333 2:1 3:0 4:0 5:0 6:0 7:0 8:1 9:0 10:0 
918.8626060190569 1:0.6 2:0 3:0 4:1 5:0.28571429 6:0 7:0 8:0.71428571 9:0 10:0 
3476.654452270083 1:0.99259259 2:1 3:0 4:0 5:1 6:0 7:0 8:0 9:1 10:0 
7.333763313965802 1:0.75 2:0.5 3:0 4:0.5 5:0 6:0 7:0 8:1 9:1 10:0 
0.2394287194078834 1:1 2:1 3:0 4:0 5:0 6:0 7:0 8:1 9:1 10:1 
4.872994591770862 1:-0.083333333 2:0.5 3:0.5 4:0 5:0 6:0 7:0 8:1 9:-1 10:0 
0.03256424768412221 1:1 2:1 3:0 4:0 5:0 6:0 7:0 8:0 9:1 10:1 
3401.832647276754 1:0.98333333 2:1 3:0 4:0 5:0 6:0 7:0 8:1 9:1 10:0 
1133.621129373968 1:0.51851852 2:0.5 3:0 4:0 5:1 6:0 7:0 8:0 9:0 10:0 
10.33689718848308 1:0.625 2:0 3:0 4:0.5 5:0.5 6:0 7:0 8:0.5 9:1 10:1 
0.1813860942163625 1:1 2:1 3:0 4:0 5:0 6:0 7:0 8:1 9:1 10:1 
0.04012526518922686 1:1 2:1 3:0 4:0 5:1 6:0 7:0 8:0 9:1 10:0 
0.00204707279125663 1:1 2:1 3:0 4:0 5:0 6:0 7:0 8:0 9:1 10:0 
31.28628146491889 1:0.61818182 2:1 3:0 4:0 5:1 6:0 7:0 8:0 9:-1 10:0 
411.0647532228351 1:0.61818182 2:1 3:0 4:0 5:1 6:0 7:0 8:0 9:-1 10:0 
16.88830489505053 1:1 2:1 3:0 4:0 5:0 6:0 7:0 8:1 9:0 10:0 
469.2851943261003 1:0.88333333 2:1 3:0 4:0 5:0 6:0 7:0 8:1 9:0 10:0 
159.328225967315 1:0.5 2:0 3:0 4:0 5:1 6:0 7:0 8:0 9:0 10:0 
12.63566063554296 1:1 2:0 3:0 4:1 5:1 6:0 7:0 8:0 9:0 10:0 
0.8476520477454484 1:0.5 2:1 3:0 4:0 5:0 6:0 7:0 8:1 9:-1 10:0 
1022.102617014481 1:0.66666667 2:0 3:0 4:1 5:0.2 6:0 7:0 8:0.8 9:0 10:0 
2044.733493510898 1:0.93333333 2:1 3:0 4:0 5:0 6:0 7:0 8:1 9:1 10:0 
85.48251273803106 1:0.83888889 2:1 3:0 4:0 5:0 6:0 7:0 8:1 9:1 10:0 
2127.653135129491 1:0.88888889 2:0 3:0 4:1 5:0.25 6:0 7:0 8:0.75 9:0 10:0 
4096 1:0.98575499 2:1 3:0 4:0 5:1 6:0 7:0 8:0 9:1 10:1 
38.33874564579823 1:0.66666667 2:0.5 3:0 4:0.5 5:0 6:0 7:1 8:0 9:0 10:0 
20.92197884043371 1:0.22222222 2:0.5 3:0 4:0.5 5:0.33333333 6:0 7:0 8:0.66666667 9:0 10:0 
2091.602274471326 1:0.94444444 2:1 3:0 4:0 5:1 6:0 7:0 8:0 9:1 10:0 
0.02950823028944792 1:0 2:1 3:0 4:0 5:0 6:0 7:0 8:1 9:-1 10:0 
1309.216324455757 1:0.6 2:1 3:0 4:0 5:1 6:0 7:0 8:0 9:-1 10:0 
877.9634771111743 1:0.75 2:0 3:0 4:0 5:1 6:0 7:0 8:0 9:1 10:1 
4096 1:0.16666667 2:0.5 3:0 4:0 5:0 6:0 7:0 8:1 9:0 10:0 
23.34573347775122 1:1 2:1 3:0 4:0 5:0 6:0 7:0 8:1 9:0 10:0 
52.28519144810144 1:0.91151515 2:0.5 3:0 4:0.5 5:0.88888889 6:0 7:0 8:0.11111111 9:0 10:0 
4096 1:0.33333333 2:0.5 3:0 4:0.5 5:0 6:0 7:0 8:1 9:0 10:0 
292.3288571453746 1:0.86666667 2:0 3:0 4:1 5:1 6:0 7:0 8:0 9:0 10:0 
842.6181290703294 1:0.8 2:0.5 3:0 4:0.5 5:0 6:0 7:0 8:1 9:0 10:0 
4096 1:0.33333333 2:0 3:0 4:0 5:0.16666667 6:0 7:0 8:0.83333333 9:0 10:0 
447.7878721984018 1:0.96296296 2:1 3:0 4:0 5:0 6:0 7:0 8:1 9:0 10:0 
915.49029615653 1:0.8 2:1 3:0 4:0 5:1 6:0 7:0 8:0 9:0 10:0 
0.5301501639069256 1:0.94444444 2:1 3:0 4:0 5:0.5 6:0.5 7:0 8:0 9:1 10:0 
2.32810654305155 1:1 2:1 3:0 4:0 5:0 6:0 7:0 8:0 9:1 10:0 
0.004701593731615878 1:1 2:0.5 3:0 4:0.5 5:0 6:0 7:0 8:0 9:0 10:0 
0.001037184743305727 1:0.87609428 2:1 3:0 4:0 5:1 6:0 7:0 8:0 9:0.066666667 10:1 
3975.221194855442 1:0.79365079 2:1 3:0 4:0 5:1 6:0 7:0 8:0 9:0 10:0 
726.6200531579273 1:0.6 2:0.5 3:0 4:0 5:1 6:0 7:0 8:0 9:0 10:0 
4096 1:0.25333333 2:0.5 3:0 4:0.5 5:0 6:0 7:0 8:1 9:0 10:0 
1887.569963445062 1:0.6 2:1 3:0 4:0 5:0 6:0 7:1 8:0 9:0 10:0 
2346.198725864487 1:0.6 2:0 3:0 4:1 5:0 6:0 7:0.33333333 8:0.66666667 9:0 10:0 
0.08435612044204217 1:1 2:1 3:0 4:0 5:0 6:0 7:0 8:1 9:1 10:0 
123.1339080373418 1:0.66666667 2:0 3:0 4:0 5:0.5 6:0 7:0 8:0.5 9:1 10:0 
3.430667234214993 1:1 2:1 3:0 4:0 5:0 6:0 7:0 8:1 9:0 10:0 
2.855557297359234 1:0 2:1 3:0 4:0 5:0 6:0 7:0 8:1 9:-1 10:0 
7.612766897242238 1:0.5 2:0.5 3:0 4:0.5 5:0 6:0 7:0 8:0 9:0 10:0 
0.002986435931945056 1:1 2:1 3:0 4:0 5:0 6:0 7:0 8:0 9:1 10:0 
0.03940970055430026 1:0.84 2:1 3:0 4:0 5:0.25 6:0 7:0 8:0.75 9:1 10:0 
27.07773842307433 1:1 2:1 3:0 4:0 5:0 6:0 7:0 8:1 9:0 10:0 
590.2915299378047 1:0.58333333 2:1 3:0 4:0 5:0 6:0 7:1 8:0 9:0 10:0 
0.005339225726150486 1:1 2:0.5 3:0 4:0.5 5:0 6:0 7:0 8:0 9:0 10:0 
1202.436534417088 1:1 2:1 3:0 4:0 5:0 6:0 7:0 8:1 9:1 10:0 
2.033708549419261 1:0.4 2:0.5 3:0 4:0.5 5:0.3 6:0 7:0 8:0.7 9:-1 10:1 
0.04196968689864151 1:1 2:1 3:0 4:0 5:0 6:0 7:0 8:0 9:1 10:0 
0.3912891719435912 1:1 2:0.5 3:0 4:0.5 5:1 6:0 7:0 8:0 9:0 10:0 
681.5261339399785 1:0.80833333 2:1 3:0 4:0 5:1 6:0 7:0 8:0 9:1 10:0 
1324.989362831523 1:0.48888889 2:1 3:0 4:0 5:0 6:0 7:1 8:0 9:0 10:0 
15.33355477793397 1:0.46666667 2:1 3:0 4:0 5:0.83333333 6:0 7:0 8:0.16666667 9:1 10:-0.12 
2891.469566238789 1:0.99959596 2:1 3:0 4:0 5:1 6:0 7:0 8:0 9:1 10:1 
478.3245201382684 1:0.55555556 2:0.5 3:0 4:0 5:1 6:0 7:0 8:0 9:0 10:0 
0.8997701483165031 1:0.95238095 2:0.5 3:0.5 4:0 5:0 6:0 7:0 8:1 9:1 10:1 
0.02456382747104425 1:1 2:1 3:0 4:0 5:0 6:0 7:0 8:0 9:1 10:1 
0.06951543522997977 1:1 2:1 3:0 4:0 5:0 6:0 7:0 8:0 9:1 10:1 
1.375253247391722 1:0.93846154 2:1 3:0 4:0 5:0.85714286 6:0.14285714 7:0 8:0 9:1 10:1 
15.23637222990807 1:0.94444444 2:1 3:0 4:0 5:0 6:0 7:0 8:1 9:1 10:1 
0.2585378475612038 1:1 2:1 3:0 4:0 5:1 6:0 7:0 8:0 9:1 10:0 
541.0443384824664 1:0.66507937 2:1 3:0 4:0 5:1 6:0 7:0 8:0 9:-1 10:0 
4096 1:0.83771044 2:1 3:0 4:0 5:1 6:0 7:0 8:0 9:0 10:0 
2.845820180313043 1:1 2:1 3:0 4:0 5:0 6:0 7:0 8:1 9:1 10:1 
1108.33390360417 1:0.88888889 2:1 3:0 4:0 5:0.75 6:0 7:0 8:0.25 9:1 10:1 
0.00907070214236249 1:1 2:1 3:0 4:0 5:0 6:0 7:0 8:0 9:1 10:1 
23.20738732898092 1:1 2:1 3:0 4:0 5:0 6:0 7:0 8:0 9:1 10:0 
1941.88751287023 1:0.85822935 2:1 3:0 4:0 5:1 6:0 7:0 8:0 9:1 10:1 
661.226919842402 1:0.93333333 2:1 3:0 4:0 5:0.375 6:0 7:0 8:0.625 9:0 10:0 
2.988680309124774 1:0.77142857 2:0.5 3:0 4:0.5 5:0.9 6:0 7:0.1 8:0 9:-0.33333333 10:0 
19.30778117086347 1:1 2:1 3:0 4:0 5:0 6:0 7:0 8:1 9:1 10:1 
556.5475551252082 1:0.9991342 2:1 3:0 4:0 5:1 6:0 7:0 8:0 9:0 10:0 
268.6255993482659 1:0.67 2:1 3:0 4:0 5:1 6:0 7:0 8:0 9:1 10:1 
0.2607768665054778 1:0.84761905 2:1 3:0 4:0 5:1 6:0 7:0 8:0 9:-0.066666667 10:1 
59.05995454343649 1:0.88888889 2:1 3:0 4:0 5:1 6:0 7:0 8:0 9:1 10:0 
16.20519641557959 1:1 2:1 3:0 4:0 5:0 6:0 7:0 8:1 9:1 10:1 
13.55148493360364 1:1 2:1 3:0 4:0 5:0 6:0 7:0 8:1 9:1 10:1 
32.52938693155452 1:1 2:0 3:0 4:1 5:0.6 6:0 7:0 8:0.4 9:0 10:0 
4066.142513751152 1:0.93846154 2:1 3:0 4:0 5:0.85714286 6:0.14285714 7:0 8:0 9:1 10:1 
3.387443421915167 1:1 2:0.5 3:0 4:0.5 5:1 6:0 7:0 8:0 9:0 10:0 
4080.890682940272 1:0.46666667 2:1 3:0 4:0 5:0.83333333 6:0 7:0 8:0.16666667 9:1 10:-0.12 
0.5223389555891171 1:0.91666667 2:1 3:0 4:0 5:0 6:0 7:0 8:1 9:0.66666667 10:0 
1851.321793998106 1:0.77777778 2:1 3:0 4:0 5:1 6:0 7:0 8:0 9:-1 10:1 
4096 1:0.9962963 2:1 3:0 4:0 5:1 6:0 7:0 8:0 9:1 10:1 
405.2369473451664 1:0.61111111 2:1 3:0 4:0 5:0.25 6:0 7:0 8:0.75 9:0 10:0 
467.2965840148236 1:0.9991342 2:1 3:0 4:0 5:1 6:0 7:0 8:0 9:0 10:0 
483.272364614454 1:0.93809524 2:1 3:0 4:0 5:0.8 6:0 7:0 8:0.2 9:1 10:1 
1366.941829866756 1:0.48888889 2:0.5 3:0 4:0 5:1 6:0 7:0 8:0 9:0 10:0 
134.0864907799777 1:0.79166667 2:1 3:0 4:0 5:1 6:0 7:0 8:0 9:1 10:1 
4.637137829569823 1:1 2:1 3:0 4:0 5:0 6:0 7:0 8:1 9:1 10:1 
4.153595370456456 1:0.85714286 2:1 3:0 4:0 5:1 6:0 7:0 8:0 9:1 10:0 
3562.869871797197 1:1 2:1 3:0 4:0 5:0 6:0 7:0 8:1 9:1 10:0 
7.139843732354101 1:1 2:1 3:0 4:0 5:0 6:0 7:0 8:0 9:1 10:0 
514.2710604486532 1:0.75 2:0 3:0 4:0.5 5:0.28571429 6:0 7:0 8:0.71428571 9:0 10:0 
4096 1:0.61038961 2:1 3:0 4:0 5:1 6:0 7:0 8:0 9:-1 10:0 
2831.110239933447 1:0.91666667 2:1 3:0 4:0 5:0.33333333 6:0 7:0 8:0.66666667 9:0 10:0 
1.238901640036321 1:1 2:1 3:0 4:0 5:0 6:0 7:0 8:1 9:1 10:1 
323.5654895971375 1:0.96296296 2:1 3:0 4:0 5:1 6:0 7:0 8:0 9:1 10:1 
17.32284703651566 1:0.85714286 2:1 3:0 4:0 5:1 6:0 7:0 8:0 9:1 10:0 
293.6418758964933 1:0.88888889 2:1 3:0 4:0 5:0.75 6:0 7:0 8:0.25 9:1 10:1 
361.0329181143947 1:0 2:0 3:0 4:0.5 5:0 6:0 7:0.16666667 8:0.83333333 9:0 10:0 
2020.167843702751 1:0.96694215 2:1 3:0 4:0 5:0.83333333 6:0 7:0 8:0.16666667 9:1 10:1 
2.447371223315301 1:1 2:1 3:0 4:0 5:0 6:0 7:0 8:1 9:1 10:1 
462.8968460920635 1:0.80555556 2:1 3:0 4:0 5:1 6:0 7:0 8:0 9:-1 10:1 
246.8491008070824 1:0.84444444 2:1 3:0 4:0 5:1 6:0 7:0 8:0 9:0 10:0 
3900.976067436849 1:0.57142857 2:0.5 3:0 4:0 5:1 6:0 7:0 8:0 9:0 10:0 
1802.388817296427 1:0.63398693 2:1 3:0 4:0 5:1 6:0 7:0 8:0 9:-1 10:0 
130.4007158872549 1:0.86666667 2:1 3:0 4:0 5:1 6:0 7:0 8:0 9:0 10:0 
430.9865100960876 1:0.77777778 2:1 3:0 4:0 5:1 6:0 7:0 8:0 9:-1 10:1 
22.96952751971439 1:0.82222222 2:1 3:0 4:0 5:1 6:0 7:0 8:0 9:0.066666667 10:0 
2158.149657538744 1:0.98467023 2:1 3:0 4:0 5:1 6:0 7:0 8:0 9:1 10:1 
4096 1:0.66666667 2:0 3:0 4:0.5 5:0.14285714 6:0 7:0 8:0.85714286 9:0 10:0 
0.09880222186873763 1:1 2:1 3:0 4:0 5:0 6:0 7:0 8:0 9:1 10:1 
32.77264189829468 1:1 2:0.5 3:0 4:0.5 5:1 6:0 7:0 8:0 9:0 10:0 
1245.370279379656 1:0.85714286 2:1 3:0 4:0 5:1 6:0 7:0 8:0 9:1 10:0 
3905.617076334188 1:1 2:1 3:0 4:0 5:0 6:0 7:0 8:1 9:1 10:0 
4079.594415628607 1:1 2:1 3:0 4:0 5:0 6:0 7:0 8:0 9:1 10:0 
624.8433378586211 1:0.78888889 2:1 3:0 4:0 5:1 6:0 7:0 8:0 9:1 10:0 
3045.463742232439 1:1 2:1 3:0 4:0 5:0 6:0 7:0 8:1 9:0 10:0 
3967.702085495486 1:1 2:1 3:0 4:0 5:0 6:0 7:0 8:1 9:0 10:0 
4096 1:0.89090909 2:1 3:0 4:0 5:1 6:0 7:0 8:0 9:1 10:1 
4027.036408447485 1:1 2:1 3:0 4:0 5:1 6:0 7:0 8:0 9:1 10:0 
329.7611427873522 1:0.86060606 2:1 3:0 4:0 5:0.71428571 6:0 7:0 8:0.28571429 9:1 10:1 
349.6243611825426 1:0.94444444 2:1 3:0 4:0 5:1 6:0 7:0 8:0 9:1 10:0 
6.113244610315108 1:0.33333333 2:0 3:0.5 4:0 5:1 6:0 7:0 8:0 9:0 10:0 
4096 1:0.13333333 2:0.5 3:0 4:0 5:0 6:0 7:0 8:1 9:0 10:0 
0.01326984564446764 1:0.99959596 2:1 3:0 4:0 5:1 6:0 7:0 8:0 9:1 10:1 
0.01180225699437253 1:1 2:0 3:0 4:1 5:1 6:0 7:0 8:0 9:0 10:0 
4096 1:0.85185185 2:1 3:0 4:0 5:1 6:0 7:0 8:0 9:0 10:0 
55.47166338917422 1:1 2:0 3:0 4:1 5:1 6:0 7:0 8:0 9:0 10:0 
551.4365310960671 1:0.97222222 2:1 3:0 4:0 5:1 6:0 7:0 8:0 9:0.66666667 10:0 
1256.714708019716 1:0.80833333 2:1 3:0 4:0 5:1 6:0 7:0 8:0 9:0 10:0 
0.5688763310946191 1:0.68666667 2:0.5 3:0 4:0.5 5:1 6:0 7:0 8:0 9:0.93333333 10:-0.04 
3770.617136871866 1:1 2:0.5 3:0 4:0.5 5:1 6:0 7:0 8:0 9:0 10:0 
4073.15322126129 1:1 2:1 3:0 4:0 5:0 6:0 7:0 8:0 9:1 10:0 
0.01669970124383134 1:1 2:1 3:0 4:0 5:0 6:0 7:0 8:0 9:1 10:1 
4.274656309544791 1:0.41111111 2:1 3:0 4:0 5:0 6:0 7:0 8:0 9:1 10:0.043478261 
2.633613836492517 1:0 2:1 3:0 4:0 5:0 6:0 7:0 8:0 9:-1 10:0 
0.499228259413358 1:1 2:1 3:0 4:0 5:0 6:0 7:0 8:1 9:1 10:1 
0.005655884575407661 1:1 2:1 3:0 4:0 5:0 6:0 7:0 8:0 9:1 10:1 
174.6094957093083 1:0.95238095 2:1 3:0 4:0 5:1 6:0 7:0 8:0 9:1 10:1 
8.714641137518916 1:0.37142857 2:1 3:0 4:0 5:0.42857143 6:0 7:0.14285714 8:0.42857143 9:0 10:0 
11.25044178017071 1:0.66666667 2:0 3:0 4:0.5 5:0 6:0 7:1 8:0 9:0 10:0 
606.9086352222795 1:0.86666667 2:1 3:0 4:0 5:1 6:0 7:0 8:0 9:0 10:0 
17.49844259702843 1:0.83232323 2:1 3:0 4:0 5:1 6:0 7:0 8:0 9:-1 10:1 
3540.435548926497 1:0.97222222 2:1 3:0 4:0 5:1 6:0 7:0 8:0 9:0.66666667 10:0 
5.582630364496549 1:1 2:0 3:0 4:1 5:1 6:0 7:0 8:0 9:0 10:0 
2036.506002356558 1:1 2:1 3:0 4:0 5:1 6:0 7:0 8:0 9:1 10:0 
1033.382134557327 1:0.85714286 2:1 3:0 4:0 5:1 6:0 7:0 8:0 9:1 10:0 
0.9772767950026253 1:0.875 2:1 3:0 4:0 5:1 6:0 7:0 8:0 9:-1 10:0 
1334.174427199676 1:0.8 2:1 3:0 4:0 5:1 6:0 7:0 8:0 9:-1 10:1 
2458.77899827904 1:1 2:1 3:0 4:0 5:0 6:0 7:0 8:1 9:1 10:0 
2363.625791798906 1:0.63809524 2:0 3:0 4:1 5:1 6:0 7:0 8:0 9:0 10:0 
3974.005753578062 1:1 2:0 3:0 4:1 5:1 6:0 7:0 8:0 9:0 10:0 
4096 1:1 2:1 3:0 4:0 5:1 6:0 7:0 8:0 9:1 10:0 
4096 1:1 2:1 3:0 4:0 5:1 6:0 7:0 8:0 9:1 10:0 
8.517706896193989 1:0.84615385 2:1 3:0 4:0 5:1 6:0 7:0 8:0 9:1 10:0.043478261 
3632.566377743896 1:1 2:1 3:0 4:0 5:1 6:0 7:0 8:0 9:1 10:0 
4096 1:1 2:1 3:0 4:0 5:0 6:0 7:0 8:1 9:1 10:0 
1554.281842897098 1:0.44761905 2:1 3:0 4:0 5:0 6:0 7:0.16666667 8:0.83333333 9:0 10:0 
3820.589972818635 1:1 2:1 3:0 4:0 5:0 6:0 7:0 8:1 9:1 10:0 
536.5855627102583 1:0.55555556 2:0.5 3:0 4:0 5:1 6:0 7:0 8:0 9:0 10:0 
4021.367303454568 1:1 2:1 3:0 4:0 5:0 6:0 7:0 8:1 9:1 10:1 
-1.957111974064234 1:0.13333333 2:0.5 3:0 4:0 5:0 6:0 7:0 8:1 9:0 10:0 
-123.2183123434487 1:0.6 2:0 3:0 4:0 5:0.5 6:0 7:0 8:0.5 9:1 10:0 
-271.6515176045671 1:0.33333333 2:0 3:0 4:0 5:0.16666667 6:0 7:0 8:0.83333333 9:0 10:0 
-4.123837537639246 1:-0.32 2:0.5 3:0 4:0 5:0 6:0 7:0 8:1 9:-1 10:0 
-0.2880782392588926 1:0 2:0 3:0.5 4:0.5 5:0 6:0 7:0 8:1 9:0 10:0 
-11.70070986649962 1:0 2:0.5 3:0 4:0 5:0 6:0 7:1 8:0 9:0 10:0 
-97.200105233286 1:0.55555556 2:0 3:0 4:1 5:0 6:0.11111111 7:0 8:0.88888889 9:0 10:0 
-2774.67529616127 1:0.66666667 2:0 3:0 4:0.5 5:0.11111111 6:0 7:0 8:0.88888889 9:0 10:0 
-4096 1:0.66666667 2:0 3:0 4:0.5 5:0.11111111 6:0 7:0 8:0.88888889 9:0 10:0 
-4096 1:0.63581267 2:1 3:0 4:0 5:1 6:0 7:0 8:0 9:-1 10:0 
-36.80824976302277 1:0.33333333 2:0 3:0 4:0 5:1 6:0 7:0 8:0 9:0 10:0 
-3.887483579243581 1:0.63333333 2:0.5 3:0 4:0 5:0 6:0 7:0 8:1 9:0.53333333 10:0 
-4096 1:0.66666667 2:0.5 3:0 4:0.5 5:0 6:0 7:0 8:1 9:0 10:0 
-4096 1:0.81944444 2:1 3:0 4:0 5:0.66666667 6:0 7:0 8:0.33333333 9:1 10:1 
-1417.519598912777 1:0.7 2:0 3:0 4:1 5:0 6:0 7:0.4 8:0.6 9:0 10:0 
-4047.658365595095 1:0.25714286 2:0 3:0 4:1 5:0 6:0 7:0 8:1 9:0 10:0 
-35.94826644198597 1:0.28571429 2:0 3:0 4:0 5:0 6:0 7:0.16666667 8:0.83333333 9:0 10:0 
-112.0990645857767 1:0 2:0 3:0 4:0.5 5:0 6:0 7:0 8:1 9:0 10:0 
-4096 1:0.83111111 2:1 3:0 4:0 5:1 6:0 7:0 8:0 9:1 10:0 
-39.84721513773967 1:0.5 2:0.5 3:0 4:0 5:0 6:0 7:0 8:1 9:0 10:0 
-4096 1:1 2:1 3:0 4:0 5:0 6:0 7:0 8:1 9:0 10:0 
-319.5881286875377 1:0.5 2:0.5 3:0 4:0 5:0 6:0 7:0 8:1 9:0 10:0 
-4096 1:0.2 2:0.5 3:0 4:0 5:0 6:0 7:0 8:1 9:0 10:0 
-0.9664438238989231 1:0.71428571 2:0 3:0 4:0 5:1 6:0 7:0 8:0 9:1 10:1 
-110.7729678222358 1:0.5 2:0.5 3:0 4:0 5:0 6:0 7:0 8:1 9:0 10:0 
-7.854936934170586 1:0.33333333 2:0 3:0 4:0 5:1 6:0 7:0 8:0 9:0 10:0 
-3302.299523009398 1:0.33333333 2:0.5 3:0 4:0.5 5:0 6:0 7:0 8:1 9:0 10:0 
-7.263514666399722 1:0.5 2:0.5 3:0 4:0.5 5:0 6:0 7:0 8:1 9:1 10:0 
-41.70006688909636 1:0.33333333 2:0 3:0 4:0 5:1 6:0 7:0 8:0 9:0 10:0 
-5.523543325662752 1:0.25 2:0 3:0.5 4:0.5 5:0 6:0 7:0 8:0 9:0 10:0 
-4096 1:1 2:1 3:0 4:0 5:1 6:0 7:0 8:0 9:1 10:0 
-16.46294367242076 1:0.33333333 2:0 3:0 4:0 5:1 6:0 7:0 8:0 9:0 10:0 
-2281.789664629425 1:0.33333333 2:0 3:0 4:0 5:0.2 6:0 7:0 8:0.8 9:0 10:0 
-0.8347930173238776 1:-0.1 2:0.5 3:0 4:0.5 5:0 6:0 7:0 8:0 9:-1 10:1 
-630.7048254224121 1:0.25 2:0.5 3:0 4:0 5:0 6:0 7:0 8:1 9:0 10:0 
-34.20192528350978 1:-0.11111111 2:0.5 3:0 4:0 5:0 6:0 7:0 8:1 9:0 10:0 
-880.6691311290665 1:0.71428571 2:0 3:0 4:0 5:1 6:0 7:0 8:0 9:1 10:1 
-4096 1:0.98666667 2:1 3:0 4:0 5:1 6:0 7:0 8:0 9:1 10:0 
-4096 1:1 2:1 3:0 4:0 5:0 6:0 7:0 8:1 9:0 10:0 
-4096 1:1 2:1 3:0 4:0 5:0 6:0 7:0 8:0 9:1 10:0 
-31.21502943278771 1:0.33333333 2:0 3:0 4:0 5:1 6:0 7:0 8:0 9:0 10:0 
-4096 1:1 2:0 3:0 4:1 5:1 6:0 7:0 8:0 9:0 10:0 
-4096 1:0.9 2:1 3:0 4:0 5:0 6:0 7:0 8:1 9:0 10:0 
-26.4233278249456 1:0.5 2:0.5 3:0 4:0 5:0 6:0 7:0 8:1 9:0 10:0 
-4096 1:1 2:0 3:0 4:1 5:0.33333333 6:0 7:0 8:0.66666667 9:0 10:0 
-4096 1:0.56555556 2:1 3:0 4:0 5:0 6:0 7:1 8:0 9:0 10:0 
-6.056520854656926 1:0.3 2:0.5 3:0 4:0 5:0 6:0 7:0 8:1 9:-0.8 10:0 
-4096 1:0.95 2:1 3:0 4:0 5:0 6:0 7:0 8:1 9:1 10:0 
-7.477354908269333 1:0.71428571 2:0 3:0 4:0 5:0.2 6:0 7:0 8:0.8 9:1 10:1 
-4096 1:1 2:1 3:0 4:0 5:0 6:0 7:0 8:1 9:1 10:0 
-1882.215561009471 1:0.33333333 2:0 3:0 4:0 5:0.2 6:0 7:0 8:0.8 9:0 10:0 
-59.68477026486107 1:0.28571429 2:0 3:0 4:0 5:0 6:0 7:0.16666667 8:0.83333333 9:0 10:0 
-4096 1:0.6 2:1 3:0 4:0 5:0 6:0 7:0 8:1 9:0 10:0 
-1042.644545382995 1:0.5 2:0 3:0 4:0.5 5:0 6:0 7:0 8:1 9:0 10:0 
-115.2601054577389 1:0 2:0 3:0 4:0.5 5:0 6:0 7:0 8:1 9:0 10:0 
-163.3902736744756 1:0.5 2:0 3:0 4:0.5 5:0 6:0 7:0 8:1 9:0 10:0 
-4096 1:1 2:1 3:0 4:0 5:0 6:0 7:0 8:1 9:1 10:0 
-4096 1:0.97222222 2:1 3:0 4:0 5:1 6:0 7:0 8:0 9:1 10:1 
-0.5940493073620299 1:-0.14285714 2:0.5 3:0 4:0.5 5:0 6:0 7:1 8:0 9:-1 10:1 
-1686.152135815309 1:0.33333333 2:1 3:0 4:0 5:0 6:0 7:0.14285714 8:0.85714286 9:0 10:0 
-3747.759380487105 1:0.5 2:0.5 3:0 4:0 5:0 6:0 7:0 8:1 9:0 10:0 
-195.9834574151402 1:0.6 2:0.5 3:0 4:0.5 5:0 6:0 7:0.25 8:0.75 9:0 10:0 
-4096 1:1 2:1 3:0 4:0 5:1 6:0 7:0 8:0 9:1 10:0 
-4096 1:0.91313131 2:1 3:0 4:0 5:1 6:0 7:0 8:0 9:0 10:0 
-4096 1:1 2:1 3:0 4:0 5:0 6:0 7:0 8:1 9:1 10:1 
-4096 1:0.97222222 2:1 3:0 4:0 5:1 6:0 7:0 8:0 9:0.66666667 10:0 
-4096 1:1 2:1 3:0 4:0 5:0 6:0 7:0 8:1 9:1 10:0 
-4096 1:0.97587302 2:1 3:0 4:0 5:1 6:0 7:0 8:0 9:1 10:1 
-4096 1:0.8707483 2:1 3:0 4:0 5:1 6:0 7:0 8:0 9:0 10:0 
-4096 1:0.16666667 2:0.5 3:0 4:0 5:0 6:0 7:0 8:1 9:0 10:0 
-4096 1:0.75 2:0 3:0 4:1 5:0.2 6:0 7:0 8:0.8 9:0 10:0 
-0.55062744598963 1:-0.11111111 2:0.5 3:0 4:0 5:0 6:0 7:0 8:1 9:0 10:0 
-2180.860840580725 1:0.28571429 2:0.5 3:0 4:0.5 5:0 6:0 7:0 8:1 9:0 10:0 
-397.4578419882216 1:0.66666667 2:0 3:0 4:0.5 5:0.5 6:0 7:0 8:0.5 9:0 10:0 
-4096 1:0.93809524 2:1 3:0 4:0 5:0.8 6:0 7:0 8:0.2 9:1 10:1 
-4096 1:0.98414918 2:1 3:0 4:0 5:1 6:0 7:0 8:0 9:1 10:1 
-4096 1:0.5 2:0.5 3:0 4:0 5:0 6:0 7:0 8:1 9:0 10:0 
-4096 1:0.16666667 2:0.5 3:0 4:0 5:0 6:0 7:0 8:1 9:0 10:0 
-449.6347018610645 1:0.66666667 2:0 3:0 4:0.5 5:0.5 6:0 7:0 8:0.5 9:0 10:0 
-4096 1:0.78518519 2:1 3:0 4:0 5:1 6:0 7:0 8:0 9:0 10:0 
-4096 1:0.55555556 2:0.5 3:0 4:0 5:1 6:0 7:0 8:0 9:0 10:0 
-4096 1:1 2:1 3:0 4:0 5:1 6:0 7:0 8:0 9:1 10:0 
-12.17061719091893 1:-0.18333333 2:0.5 3:0 4:0.5 5:0 6:0 7:1 8:0 9:0 10:0 
-4096 1:0.97050505 2:1 3:0 4:0 5:1 6:0 7:0 8:0 9:1 10:1 
-4096 1:1 2:1 3:0 4:0 5:1 6:0 7:0 8:0 9:1 10:0 
-42.09451598980426 1:-0.11111111 2:0.5 3:0 4:0 5:0 6:0 7:0 8:1 9:0 10:0 
-4096 1:0.78835104 2:1 3:0 4:0 5:1 6:0 7:0 8:0 9:-1 10:1 
-4096 1:0.77777778 2:1 3:0 4:0 5:1 6:0 7:0 8:0 9:0 10:0 
-3357.44634303769 1:0.55555556 2:0.5 3:0 4:0.5 5:0 6:0 7:0 8:1 9:0 10:0 
-4096 1:0.88888889 2:1 3:0 4:0 5:0.33333333 6:0 7:0 8:0.66666667 9:0 10:0 
-4096 1:0.96363636 2:1 3:0 4:0 5:1 6:0 7:0 8:0 9:1 10:0 
-4096 1:1 2:1 3:0 4:0 5:0 6:0 7:0 8:1 9:1 10:0 
-2.067273330632236 1:-0.014814815 2:0.5 3:0 4:0.5 5:0 6:0 7:0 8:1 9:-1 10:1 
-4096 1:0.6 2:1 3:0 4:0 5:1 6:0 7:0 8:0 9:-1 10:0 
-4096 1:1 2:1 3:0 4:0 5:0 6:0 7:0 8:0 9:1 10:0 
-4096 1:1 2:1 3:0 4:0 5:1 6:0 7:0 8:0 9:1 10:1 
-4096 1:0.64444444 2:0 3:0 4:1 5:0.11111111 6:0 7:0 8:0.88888889 9:0 10:0 
-4048.780514161319 1:0.5 2:0.5 3:0 4:0 5:0 6:0 7:0 8:1 9:0 10:0 
-4096 1:0.16666667 2:0.5 3:0 4:0 5:0 6:0 7:0 8:1 9:0 10:0 
-4096 1:0.3 2:0.5 3:0 4:0.5 5:0 6:0 7:0 8:1 9:0 10:0 
-4096 1:0.66666667 2:0 3:0 4:1 5:1 6:0 7:0 8:0 9:0 10:0 
-4096 1:0.83333333 2:1 3:0 4:0 5:1 6:0 7:0 8:0 9:1 10:1 
-4096 1:1 2:1 3:0 4:0 5:0 6:0 7:0 8:1 9:1 10:0 
-4096 1:1 2:0.5 3:0 4:0.5 5:1 6:0 7:0 8:0 9:0 10:0 
-3229.778110185082 1:0.13333333 2:0.5 3:0 4:0 5:0 6:0 7:0 8:1 9:0 10:0 
-4096 1:0.55555556 2:0.5 3:0 4:0 5:1 6:0 7:0 8:0 9:0 10:0 
-4096 1:0.46666667 2:1 3:0 4:0 5:0.83333333 6:0 7:0 8:0.16666667 9:1 10:-0.12 
-4096 1:0.93846154 2:1 3:0 4:0 5:0.85714286 6:0.14285714 7:0 8:0 9:1 10:1 
-0.3651290125689268 1:0.3447619 2:0 3:0 4:1 5:0 6:0 7:0.5 8:0.5 9:-1 10:1 
-1171.274781894914 1:0.3452381 2:0 3:0 4:1 5:0 6:0 7:0.22222222 8:0.77777778 9:0 10:0 
-126.3931125168301 1:0 2:0 3:0 4:0.5 5:0 6:0 7:0 8:1 9:0 10:0 
