svm_type c_svc
kernel_type rbf
gamma 0.25
nr_class 2
total_sv 548
rho -0.726696
label 1 -1
probA -2.50186
probB -0.444447
nr_sv 306 242
SV
16 1:0 2:0 3:0 4:0.5 5:0 6:0 7:0.16666667 8:0.83333333 9:0 10:0 11:0 12:0 13:0 
16 1:0 2:0.5 3:0 4:0 5:0 6:0 7:0 8:0 9:-1 10:1 11:0 12:0 13:0 
16 1:0 2:0.5 3:0 4:0 5:0 6:0 7:0 8:1 9:0 10:0 11:0 12:0 13:0 
16 1:0.022222222 2:0.5 3:0 4:0 5:0 6:0 7:0 8:1 9:0 10:0 11:0 12:0 13:0 
16 1:0.038095238 2:0.5 3:0 4:0 5:0 6:0 7:0 8:1 9:0 10:0 11:0 12:0 13:0 
16 1:-0.04 2:0.5 3:0 4:0 5:0 6:0 7:0 8:1 9:-1 10:1 11:0 12:0 13:0 
16 1:-0.083333333 2:0.5 3:0.5 4:0 5:0 6:0 7:0 8:1 9:-1 10:0 11:0 12:0 13:0 
16 1:0.11851852 2:0.5 3:0 4:0 5:0 6:0 7:0 8:1 9:0 10:0 11:0 12:0 13:0 
8.040224070473979 1:0.12190476 2:1 3:0 4:0 5:0 6:0 7:0 8:1 9:-1 10:1 11:0 12:0 13:0 
16 1:0.13333333 2:0.5 3:0 4:0 5:0 6:0 7:0 8:1 9:0 10:0 11:0 12:0 13:0 
16 1:0.15555556 2:0.5 3:0 4:0 5:0 6:0 7:0 8:1 9:0 10:0 11:0 12:0 13:0 
1.436492528342464 1:0.16 2:1 3:0 4:0 5:0 6:0 7:0 8:0 9:-1 10:1 11:0 12:0 13:0 
16 1:0.16666667 2:0.5 3:0 4:0 5:0 6:0 7:0 8:1 9:0 10:0 11:0 12:0 13:0 
16 1:0.18518519 2:0 3:0 4:0 5:0.2 6:0 7:0 8:0.8 9:0 10:0 11:0 12:0 13:0 
16 1:0.18518519 2:0 3:0 4:0 5:0.5 6:0 7:0 8:0.5 9:0 10:0 11:0 12:0 13:0 
16 1:0.2 2:0.5 3:0 4:0 5:0 6:0 7:0 8:1 9:0 10:0 11:0 12:0 13:0 
16 1:0.2 2:1 3:0 4:0 5:0 6:0 7:0 8:0 9:-1 10:1 11:0 12:0 13:0 
7.937551298316657 1:-0.2 2:1 3:0 4:0 5:0 6:0 7:0 8:1 9:-1 10:0.72307692 11:0 12:0 13:0 
16 1:0.22222222 2:0 3:0 4:0 5:1 6:0 7:0 8:0 9:0 10:0 11:0 12:0 13:0 
16 1:0.22222222 2:0.5 3:0 4:0.5 5:0.33333333 6:0 7:0 8:0.66666667 9:0 10:0 11:0 12:0 13:0 
16 1:0.22222222 2:0.5 3:0 4:0.5 5:1 6:0 7:0 8:0 9:0 10:0 11:0 12:0 13:0 
16 1:-0.25 2:0.5 3:0 4:0 5:0 6:0 7:0 8:0 9:-1 10:0 11:0 12:0 13:0 
16 1:0.25 2:0.5 3:0 4:0 5:0 6:0 7:0 8:1 9:0 10:0 11:0 12:0 13:0 
16 1:-0.25 2:0.5 3:0 4:0 5:0 6:0 7:0 8:1 9:-1 10:0 11:0 12:0 13:0 
16 1:0.25 2:0.5 3:0 4:0 5:0 6:0 7:0 8:1 9:-1 10:0 11:0 12:0 13:0 
16 1:0.25333333 2:0.5 3:0 4:0.5 5:0 6:0 7:0 8:1 9:0 10:0 11:0 12:0 13:0 
16 1:0.26666667 2:0.5 3:0 4:0 5:0 6:0 7:0 8:1 9:0 10:0 11:0 12:0 13:0 
16 1:0.27272727 2:0 3:0 4:0 5:0.25 6:0 7:0 8:0.75 9:0 10:0 11:0 12:0 13:0 
16 1:0.27272727 2:0 3:0 4:0 5:1 6:0 7:0 8:0 9:0 10:0 11:0 12:0 13:0 
16 1:0.27777778 2:0.5 3:0 4:0 5:0 6:0 7:0 8:0 9:0 10:0 11:0 12:0 13:0 
16 1:0.31717172 2:0.5 3:0 4:0.5 5:0 6:0 7:0 8:1 9:0 10:0 11:0 12:0 13:0 
16 1:0.3 2:0 3:0 4:0 5:0.14285714 6:0 7:0 8:0.85714286 9:0 10:0 11:0 12:0 13:0 
16 1:0.3 2:0.5 3:0 4:0 5:0 6:0 7:0 8:0 9:0 10:0 11:0 12:0 13:0 
5.455273067791538 1:0.33131313 2:0 3:0 4:0 5:0.5 6:0 7:0 8:0.5 9:0 10:0 11:0 12:0 13:0 
16 1:0.33333333 2:0 3:0 4:0 5:0.11111111 6:0 7:0 8:0.88888889 9:0 10:0 11:0 12:0 13:0 
16 1:0.33333333 2:0 3:0 4:0 5:0.14285714 6:0 7:0 8:0.85714286 9:0 10:0 11:0 12:0 13:0 
16 1:0.33333333 2:0 3:0 4:0 5:0.16666667 6:0 7:0 8:0.83333333 9:0 10:0 11:0 12:0 13:0 
16 1:0.33333333 2:0 3:0 4:0 5:0.25 6:0 7:0 8:0.75 9:0 10:0 11:0 12:0 13:0 
16 1:0.33333333 2:0 3:0 4:0 5:0.2 6:0 7:0 8:0.8 9:0 10:0 11:0 12:0 13:0 
16 1:0.33333333 2:0 3:0 4:0 5:0.33333333 6:0 7:0 8:0.66666667 9:0 10:0 11:0 12:0 13:0 
16 1:0.33333333 2:0 3:0 4:0 5:1 6:0 7:0 8:0 9:0 10:0 11:0 12:0 13:0 
16 1:0.33333333 2:0 3:0 4:1 5:0 6:0 7:0 8:1 9:0 10:0 11:0 12:0 13:0 
0.7259367579207492 1:0.33333333 2:0 3:0.5 4:0 5:1 6:0 7:0 8:0 9:0 10:0 11:0 12:0 13:0 
16 1:0.33333333 2:0.5 3:0 4:0 5:0 6:0 7:0 8:0 9:0 10:0 11:0 12:0 13:0 
16 1:-0.33333333 2:0.5 3:0 4:0 5:0 6:0 7:0 8:0 9:-1 10:0 11:0 12:0 13:0 
16 1:0.33333333 2:0.5 3:0 4:0 5:0 6:0 7:0 8:1 9:0 10:0 11:0 12:0 13:0 
16 1:0.33333333 2:0.5 3:0 4:0.5 5:0 6:0 7:0 8:1 9:0 10:0 11:0 12:0 13:0 
16 1:0.33333333 2:0.5 3:0 4:0.5 5:0 6:0 7:1 8:0 9:0 10:0 11:0 12:0 13:0 
16 1:0.33333333 2:1 3:0 4:0 5:0 6:0 7:0 8:1 9:0 10:0 11:0 12:0 13:0 
16 1:0.35185185 2:0.5 3:0 4:0 5:0 6:0 7:0 8:0 9:0 10:0 11:0 12:0 13:0 
16 1:0.35185185 2:1 3:0 4:0 5:0 6:0 7:0 8:1 9:0 10:0 11:0 12:0 13:0 
16 1:0.35555556 2:0.5 3:0 4:0 5:1 6:0 7:0 8:0 9:0 10:0 11:0 12:0 13:0 
16 1:0.36666667 2:0.5 3:0 4:0 5:0 6:0 7:0 8:0 9:0 10:0 11:0 12:0 13:0 
4.827880339637022 1:0.37777778 2:0.5 3:0 4:0 5:1 6:0 7:0 8:0 9:0 10:0 11:0 12:0 13:0 
16 1:0.39333333 2:0.5 3:0 4:0 5:0 6:0 7:0 8:1 9:0 10:0 11:0 12:0 13:0 
16 1:0.40909091 2:0.5 3:0 4:0 5:0 6:0 7:0 8:0 9:0 10:0 11:0 12:0 13:0 
16 1:0.41666667 2:0.5 3:0 4:0 5:0.090909091 6:0 7:0 8:0.90909091 9:0 10:0 11:0 12:0 13:0 
16 1:0.41666667 2:0.5 3:0 4:0.5 5:0 6:0 7:0 8:1 9:0 10:0 11:0 12:0 13:0 
16 1:0.4 2:0 3:0 4:0.5 5:0.16666667 6:0 7:0 8:0.83333333 9:0 10:0 11:0 12:0 13:0 
16 1:0.4 2:0.5 3:0 4:0 5:0 6:0 7:0 8:0 9:0 10:0 11:0 12:0 13:0 
16 1:0.4 2:0.5 3:0 4:0 5:0 6:0 7:0 8:1 9:0 10:0 11:0 12:0 13:0 
15.20926374498708 1:0.4 2:0.5 3:0 4:0 5:0 6:0 7:0 8:1 9:1 10:0.72307692 11:0 12:0 13:0 
16 1:0.4 2:0.5 3:0 4:0.5 5:0 6:0 7:0 8:1 9:1 10:0.076923077 11:0 12:0 13:0 
11.17646395025909 1:0.4 2:0.5 3:0 4:0.5 5:0.3 6:0 7:0 8:0.7 9:-1 10:1 11:0 12:0 13:0 
16 1:0.4375 2:0.5 3:0 4:0 5:0 6:0 7:0 8:0 9:0 10:0 11:0 12:0 13:0 
7.897360604469277 1:0.44444444 2:0.5 3:0 4:0.5 5:1 6:0 7:0 8:0 9:1 10:0.25714286 11:0 12:0 13:0 
16 1:0.44761905 2:1 3:0 4:0 5:0 6:0 7:0.16666667 8:0.83333333 9:0 10:0 11:0 12:0 13:0 
6.130811114294553 1:0.45454545 2:0 3:0 4:0 5:1 6:0 7:0 8:0 9:-1 10:1 11:0 12:0 13:0 
16 1:0.45833333 2:0.5 3:0 4:0.5 5:0 6:0 7:0 8:1 9:1 10:0 11:0 12:0 13:0 
16 1:0.46666667 2:0 3:0 4:0 5:0.25 6:0 7:0 8:0.75 9:0.33333333 10:0 11:0 12:0 13:0 
16 1:0.46666667 2:0.5 3:0 4:0.5 5:0 6:0 7:0 8:1 9:0 10:0 11:0 12:0 13:0 
16 1:0.46666667 2:1 3:0 4:0 5:0 6:0 7:0 8:1 9:0 10:0 11:0 12:0 13:0 
16 1:0.48095238 2:0.5 3:0 4:0 5:0 6:0 7:0 8:0 9:0 10:0 11:0 12:0 13:0 
16 1:0.48095238 2:1 3:0 4:0 5:0 6:0 7:0 8:1 9:0 10:0 11:0 12:0 13:0 
16 1:0.48888889 2:1 3:0 4:0 5:0 6:0 7:0 8:1 9:0 10:0 11:0 12:0 13:0 
7.851801663305887 1:0.48888889 2:1 3:0 4:0 5:0 6:0 7:1 8:0 9:0 10:0 11:0 12:0 13:0 
16 1:0.49090909 2:0.5 3:0 4:0 5:0 6:0 7:0 8:1 9:0 10:0 11:0 12:0 13:0 
16 1:0.49393939 2:0.5 3:0 4:0 5:0 6:0 7:0 8:1 9:0 10:0 11:0 12:0 13:0 
16 1:0.4969697 2:0.5 3:0 4:0 5:0 6:0 7:0 8:0 9:0 10:0 11:0 12:0 13:0 
16 1:0.51111111 2:0 3:0 4:1 5:0 6:0 7:0.14285714 8:0.85714286 9:0 10:0 11:0 12:0 13:0 
16 1:0.5 2:0 3:0 4:0 5:0.28571429 6:0 7:0 8:0.71428571 9:0 10:0 11:0 12:0 13:0 
16 1:0.5 2:0 3:0 4:0 5:0.33333333 6:0 7:0 8:0.66666667 9:0 10:0 11:0 12:0 13:0 
16 1:0.5 2:0 3:0 4:0 5:1 6:0 7:0 8:0 9:0 10:0 11:0 12:0 13:0 
16 1:0.5 2:0 3:0 4:0.5 5:0 6:0 7:0 8:1 9:0 10:0 11:0 12:0 13:0 
16 1:0.5 2:0.5 3:0 4:0 5:0 6:0 7:0 8:0 9:0 10:0 11:0 12:0 13:0 
16 1:0.5 2:0.5 3:0 4:0 5:0 6:0 7:0 8:1 9:0 10:0 11:0 12:0 13:0 
16 1:0.5 2:0.5 3:0 4:0.5 5:0 6:0 7:0 8:0 9:0 10:0 11:0 12:0 13:0 
16 1:0.5 2:0.5 3:0 4:0.5 5:0 6:0 7:0 8:1 9:0 10:0 11:0 12:0 13:0 
16 1:0.5 2:0.5 3:0 4:0.5 5:0 6:0 7:0 8:1 9:-1 10:0 11:0 12:0 13:0 
16 1:0.5 2:0.5 3:0 4:0.5 5:0 6:0 7:0 8:1 9:1 10:0 11:0 12:0 13:0 
16 1:0.5 2:0.5 3:0 4:0.5 5:0.1 6:0 7:0 8:0.9 9:0 10:0 11:0 12:0 13:0 
6.394442792351458 1:0.5 2:0.5 3:0 4:0.5 5:1 6:0 7:0 8:0 9:1 10:-0.076923077 11:0 12:0 13:0 
16 1:0.5 2:1 3:0 4:0 5:0 6:0 7:0 8:0 9:0 10:0 11:0 12:0 13:0 
16 1:0.5 2:1 3:0 4:0 5:0 6:0 7:0 8:1 9:0 10:0 11:0 12:0 13:0 
16 1:0.53333333 2:1 3:0 4:0 5:0 6:0 7:0 8:1 9:0 10:0 11:0 12:0 13:0 
16 1:0.53939394 2:1 3:0 4:0 5:0 6:0 7:0 8:1 9:0 10:0 11:0 12:0 13:0 
8.959314796470256 1:0.5537037 2:0.5 3:0 4:0.5 5:1 6:0 7:0 8:0 9:1 10:0.90909091 11:0 12:0 13:0 
16 1:0.55416667 2:1 3:0 4:0 5:0 6:0 7:0 8:0 9:0 10:0 11:0 12:0 13:0 
16 1:0.55555556 2:0.5 3:0 4:0 5:0.14285714 6:0 7:0 8:0.85714286 9:0 10:0 11:0 12:0 13:0 
12.91037728599383 1:0.55555556 2:0.5 3:0 4:0 5:0.25 6:0 7:0 8:0.75 9:0 10:0 11:0 12:0 13:0 
16 1:0.55555556 2:1 3:0 4:0 5:0 6:0 7:0 8:0 9:0 10:0 11:0 12:0 13:0 
4.557376395424416 1:0.55555556 2:1 3:0 4:0 5:1 6:0 7:0 8:0 9:1 10:-0.44827586 11:0 12:0 13:0 
16 1:0.56666667 2:0.5 3:0 4:0.5 5:0 6:0 7:0 8:0 9:0 10:0 11:0 12:0 13:0 
1.632398463195579 1:0.57063492 2:1 3:0 4:0 5:1 6:0 7:0 8:0 9:-0.86666667 10:-0.33333333 11:0 12:0 13:0 
16 1:0.57142857 2:0 3:0 4:0.5 5:0.090909091 6:0 7:0 8:0.90909091 9:0 10:0 11:0 12:0 13:0 
16 1:0.57142857 2:0.5 3:0 4:0.5 5:0.14285714 6:0 7:0 8:0.85714286 9:0 10:0 11:0 12:0 13:0 
1.415428634011811 1:0.58333333 2:0 3:0 4:1 5:0 6:0 7:0 8:1 9:1 10:0 11:0 12:0 13:0 
16 1:0.5952381 2:0.5 3:0 4:0.5 5:0 6:0 7:0 8:1 9:0 10:0 11:0 12:0 13:0 
16 1:0.60740741 2:0.5 3:0 4:0.5 5:0.16666667 6:0 7:0 8:0.83333333 9:0 10:0 11:0 12:0 13:0 
5.543866373994739 1:0.61111111 2:1 3:0 4:0 5:0 6:0 7:0 8:0 9:-1 10:1 11:0 12:0 13:0 
16 1:0.6125 2:0.5 3:0 4:0.5 5:0 6:0 7:0 8:1 9:1 10:0 11:0 12:0 13:0 
12.47053339947099 1:0.6 2:0 3:0 4:0 5:0.071428571 6:0 7:0 8:0.92857143 9:1 10:0 11:0 12:0 13:0 
12.07831500580533 1:0.6 2:0 3:0 4:0 5:0.33333333 6:0 7:0 8:0.66666667 9:0 10:0 11:0 12:0 13:0 
16 1:0.6 2:0 3:0 4:1 5:0 6:0 7:0 8:1 9:0 10:0 11:0 12:0 13:0 
16 1:0.6 2:0 3:0 4:1 5:0 6:0 7:0.33333333 8:0.66666667 9:0 10:0 11:0 12:0 13:0 
16 1:0.6 2:0.5 3:0 4:0.5 5:0 6:0 7:0 8:0 9:0 10:0 11:0 12:0 13:0 
16 1:0.6 2:0.5 3:0 4:0.5 5:0 6:0 7:0 8:1 9:0 10:0 11:0 12:0 13:0 
16 1:0.6 2:1 3:0 4:0 5:0 6:0 7:0 8:0 9:0 10:0 11:0 12:0 13:0 
5.123085244317506 1:0.6 2:1 3:0 4:0 5:0 6:0 7:0.2 8:0.8 9:0 10:0 11:0 12:0 13:0 
16 1:0.6 2:1 3:0 4:0 5:0 6:0 7:0.33333333 8:0.66666667 9:0 10:0 11:0 12:0 13:0 
16 1:0.6 2:1 3:0 4:0 5:0 6:0 7:0.5 8:0.5 9:0 10:0 11:0 12:0 13:0 
16 1:0.62666667 2:0 3:0 4:1 5:0.25 6:0 7:0.25 8:0.5 9:0 10:0 11:0 12:0 13:0 
16 1:0.63492063 2:1 3:0 4:0 5:0 6:0 7:0 8:0 9:0 10:0 11:0 12:0 13:0 
16 1:0.63809524 2:0 3:0 4:1 5:1 6:0 7:0 8:0 9:0 10:0 11:0 12:0 13:0 
9.943477092538991 1:0.65079365 2:0 3:0 4:0 5:0.11111111 6:0 7:0 8:0.88888889 9:1 10:1 11:0 12:0 13:0 
16 1:0.65 2:0.5 3:0 4:0.5 5:0.16666667 6:0 7:0 8:0.83333333 9:0 10:0 11:0 12:0 13:0 
16 1:0.65277778 2:1 3:0 4:0 5:0 6:0 7:0 8:0 9:0 10:0 11:0 12:0 13:0 
11.30379561417167 1:0.66666667 2:0 3:0 4:0.5 5:0 6:0 7:1 8:0 9:0 10:0 11:0 12:0 13:0 
16 1:0.66666667 2:0 3:0 4:0.5 5:0.14285714 6:0 7:0 8:0.85714286 9:0 10:0 11:0 12:0 13:0 
16 1:0.66666667 2:0 3:0 4:0.5 5:0.2 6:0 7:0 8:0.8 9:0 10:0 11:0 12:0 13:0 
16 1:0.66666667 2:0 3:0 4:1 5:0.2 6:0 7:0 8:0.8 9:0 10:0 11:0 12:0 13:0 
16 1:0.66666667 2:0 3:0 4:1 5:1 6:0 7:0 8:0 9:0 10:0 11:0 12:0 13:0 
16 1:0.66666667 2:0.5 3:0 4:0 5:0 6:0 7:0 8:0 9:1 10:0 11:0 12:0 13:0 
16 1:0.66666667 2:0.5 3:0 4:0 5:0 6:0 7:0 8:1 9:1 10:0 11:0 12:0 13:0 
16 1:0.66666667 2:0.5 3:0 4:0 5:0.11111111 6:0 7:0 8:0.88888889 9:0 10:0 11:0 12:0 13:0 
16 1:0.66666667 2:0.5 3:0 4:0 5:0.125 6:0 7:0 8:0.875 9:0 10:0 11:0 12:0 13:0 
16 1:0.66666667 2:0.5 3:0 4:0 5:0.14285714 6:0 7:0 8:0.85714286 9:0 10:0 11:0 12:0 13:0 
16 1:0.66666667 2:0.5 3:0 4:0 5:0.16666667 6:0 7:0 8:0.83333333 9:0 10:0 11:0 12:0 13:0 
16 1:0.66666667 2:0.5 3:0 4:0 5:0.2 6:0 7:0 8:0.8 9:0 10:0 11:0 12:0 13:0 
16 1:0.66666667 2:0.5 3:0 4:0.5 5:0 6:0 7:0 8:0 9:0 10:1 11:0 12:0 13:0 
16 1:0.66666667 2:0.5 3:0 4:0.5 5:0 6:0 7:0 8:1 9:0 10:0 11:0 12:0 13:0 
2.074622095193296 1:0.66666667 2:0.5 3:0 4:0.5 5:0 6:0 7:0 8:1 9:1 10:0 11:0 12:0 13:0 
1.554343620748362 1:0.66666667 2:0.5 3:0 4:0.5 5:0 6:0 7:1 8:0 9:0 10:0 11:0 12:0 13:0 
16 1:0.66666667 2:0.5 3:0 4:0.5 5:0.11111111 6:0 7:0 8:0.88888889 9:0 10:0 11:0 12:0 13:0 
16 1:0.66666667 2:1 3:0 4:0 5:0 6:0 7:0 8:0 9:0 10:0 11:0 12:0 13:0 
16 1:0.66666667 2:1 3:0 4:0 5:0 6:0 7:0 8:0 9:-1 10:1 11:0 12:0 13:0 
16 1:0.67592593 2:0.5 3:0 4:0 5:0 6:0 7:0 8:0 9:1 10:0 11:0 12:0 13:0 
16 1:0.67777778 2:1 3:0 4:0 5:0 6:0 7:0 8:0 9:0 10:0 11:0 12:0 13:0 
16 1:0.68166667 2:0.5 3:0 4:0 5:0 6:0 7:0 8:1 9:1 10:0 11:0 12:0 13:0 
8.730803048029587 1:0.68 2:0 3:0 4:1 5:1 6:0 7:0 8:0 9:0 10:0 11:0 12:0 13:0 
16 1:0.68888889 2:1 3:0 4:0 5:0 6:0 7:0 8:0 9:-0.86666667 10:1 11:0 12:0 13:0 
16 1:0.70222222 2:1 3:0 4:0 5:0 6:0 7:0 8:0 9:0 10:0 11:0 12:0 13:0 
5.65407443806907 1:0.70454545 2:0.5 3:0 4:0 5:0 6:0 7:0 8:0 9:1 10:0 11:0 12:0 13:0 
16 1:0.70833333 2:1 3:0 4:0 5:0 6:0 7:0 8:0 9:0 10:0 11:0 12:0 13:0 
12.67248948591013 1:0.71428571 2:0 3:0 4:0 5:1 6:0 7:0 8:0 9:1 10:1 11:0 12:0 13:0 
5.685595002922581 1:0.71428571 2:1 3:0 4:0 5:0 6:0 7:0 8:0 9:0 10:0 11:0 12:0 13:0 
16 1:0.7 2:0.5 3:0 4:0 5:0 6:0 7:0 8:0 9:1 10:0 11:0 12:0 13:0 
16 1:0.7 2:0.5 3:0 4:0 5:0 6:0 7:0 8:0 9:1 10:1 11:0 12:0 13:0 
16 1:0.7 2:1 3:0 4:0 5:0 6:0 7:0 8:0 9:0 10:0 11:0 12:0 13:0 
16 1:0.72222222 2:0.5 3:0 4:0 5:0 6:0 7:0 8:0 9:1 10:1 11:0 12:0 13:0 
16 1:0.73333333 2:0 3:0 4:1 5:0.14285714 6:0 7:0 8:0.85714286 9:0 10:0 11:0 12:0 13:0 
16 1:0.73333333 2:0.5 3:0 4:0.5 5:0.11111111 6:0 7:0 8:0.88888889 9:0 10:0 11:0 12:0 13:0 
16 1:0.73333333 2:0.5 3:0 4:0.5 5:0.125 6:0 7:0 8:0.875 9:0 10:0 11:0 12:0 13:0 
16 1:0.74444444 2:1 3:0 4:0 5:0 6:0 7:0 8:0 9:-0.53333333 10:1 11:0 12:0 13:0 
16 1:0.74666667 2:1 3:0 4:0 5:0 6:0 7:0.25 8:0.75 9:0.93333333 10:0 11:0 12:0 13:0 
16 1:0.75 2:0.5 3:0 4:0.5 5:0 6:0 7:0 8:1 9:0 10:0 11:0 12:0 13:0 
14.42170685247544 1:0.75 2:0.5 3:0 4:0.5 5:0.83333333 6:0.16666667 7:0 8:0 9:0 10:0 11:0 12:0 13:0 
9.406434228144668 1:0.75 2:1 3:0 4:0 5:0.5 6:0 7:0.5 8:0 9:1 10:0 11:0 12:0 13:0 
11.67829715197817 1:0.75925926 2:0.5 3:0 4:0 5:0 6:0 7:0 8:0 9:1 10:1 11:0 12:0 13:0 
16 1:0.76666667 2:0.5 3:0 4:0.5 5:1 6:0 7:0 8:0 9:-1 10:1 11:0 12:0 13:0 
16 1:0.77777778 2:0.5 3:0 4:0 5:0 6:0 7:0 8:1 9:1 10:1 11:0 12:0 13:0 
16 1:0.80833333 2:1 3:0 4:0 5:0 6:0 7:0 8:0 9:1 10:1 11:0 12:0 13:0 
16 1:0.8 2:0.5 3:0 4:0.5 5:0 6:0 7:0 8:1 9:0 10:0 11:0 12:0 13:0 
1.436452055471558 1:0.8 2:1 3:0 4:0 5:1 6:0 7:0 8:0 9:1 10:0 11:0 12:0 13:0 
1.285895880184267 1:0.82417582 2:1 3:0 4:0 5:1 6:0 7:0 8:0 9:-1 10:0 11:0 12:0 13:0 
0.02979166640819604 1:0.82916667 2:1 3:0 4:0 5:1 6:0 7:0 8:0 9:1 10:0 11:0 12:0 13:0 
15.03820458304395 1:0.83333333 2:0.5 3:0 4:0 5:0 6:0 7:0 8:1 9:1 10:1 11:0 12:0 13:0 
16 1:0.83333333 2:0.5 3:0 4:0.5 5:0 6:0 7:0 8:0 9:1 10:0.41176471 11:0 12:0 13:0 
16 1:0.83333333 2:0.5 3:0 4:0.5 5:0 6:0 7:0 8:1 9:0 10:0 11:0 12:0 13:0 
16 1:0.83333333 2:0.5 3:0 4:0.5 5:0 6:0 7:0 8:1 9:1 10:1 11:0 12:0 13:0 
6.953912328568523 1:0.84444444 2:1 3:0 4:0 5:1 6:0 7:0 8:0 9:-0.86666667 10:0 11:0 12:0 13:0 
1.19499719559552 1:0.84615385 2:1 3:0 4:0 5:1 6:0 7:0 8:0 9:1 10:0.043478261 11:0 12:0 13:0 
0.05865155620557921 1:0.84666667 2:1 3:0 4:0 5:1 6:0 7:0 8:0 9:1 10:0 11:0 12:0 13:0 
12.9961693822258 1:0.85555556 2:0.5 3:0 4:0.5 5:1 6:0 7:0 8:0 9:1 10:1 11:0 12:0 13:0 
0.02666603081325367 1:0.86111111 2:1 3:0 4:0 5:1 6:0 7:0 8:0 9:1 10:0 11:0 12:0 13:0 
11.10066764597888 1:0.86111111 2:1 3:0 4:0 5:1 6:0 7:0 8:0 9:-1 10:1 11:0 12:0 13:0 
16 1:0.86666667 2:0.5 3:0 4:0.5 5:0 6:0 7:0 8:0 9:1 10:1 11:0 12:0 13:0 
16 1:0.86666667 2:0.5 3:0 4:0.5 5:0 6:0 7:0 8:1 9:1 10:1 11:0 12:0 13:0 
16 1:0.86666667 2:1 3:0 4:0 5:0 6:0 7:0 8:0 9:1 10:1 11:0 12:0 13:0 
16 1:0.86666667 2:1 3:0 4:0 5:0.1 6:0 7:0.1 8:0.8 9:1 10:1 11:0 12:0 13:0 
0.2295873982647385 1:0.86666667 2:1 3:0 4:0 5:1 6:0 7:0 8:0 9:1 10:-0.047619048 11:0 12:0 13:0 
14.50624115592512 1:0.86805556 2:1 3:0 4:0 5:0 6:0 7:0 8:0 9:1 10:1 11:0 12:0 13:0 
12.91052729906441 1:0.86862745 2:1 3:0 4:0 5:1 6:0 7:0 8:0 9:1 10:1 11:0 12:0 13:0 
0.07048322137684454 1:0.87037037 2:1 3:0 4:0 5:1 6:0 7:0 8:0 9:1 10:0 11:0 12:0 13:0 
16 1:0.87272727 2:1 3:0 4:0 5:1 6:0 7:0 8:0 9:1 10:1 11:0 12:0 13:0 
10.11797932447936 1:0.87301587 2:1 3:0 4:0 5:1 6:0 7:0 8:0 9:1 10:1 11:0 12:0 13:0 
16 1:0.87345679 2:1 3:0 4:0 5:1 6:0 7:0 8:0 9:1 10:1 11:0 12:0 13:0 
3.082163423124643 1:0.87407407 2:1 3:0 4:0 5:1 6:0 7:0 8:0 9:1 10:0.066666667 11:0 12:0 13:0 
16 1:0.875 2:1 3:0 4:0 5:1 6:0 7:0 8:0 9:-1 10:0 11:0 12:0 13:0 
16 1:0.875 2:1 3:0 4:0 5:1 6:0 7:0 8:0 9:1 10:1 11:0 12:0 13:0 
0.02930819192366764 1:0.87645688 2:1 3:0 4:0 5:1 6:0 7:0 8:0 9:1 10:1 11:0 12:0 13:0 
16 1:0.87867965 2:1 3:0 4:0 5:1 6:0 7:0 8:0 9:1 10:1 11:0 12:0 13:0 
9.920398037790983 1:0.87878788 2:0.5 3:0 4:0.5 5:1 6:0 7:0 8:0 9:1 10:1 11:0 12:0 13:0 
16 1:0.87959184 2:1 3:0 4:0 5:1 6:0 7:0 8:0 9:1 10:1 11:0 12:0 13:0 
16 1:0.88004115 2:1 3:0 4:0 5:1 6:0 7:0 8:0 9:1 10:1 11:0 12:0 13:0 
3.979242273528127 1:0.88253968 2:1 3:0 4:0 5:1 6:0 7:0 8:0 9:1 10:1 11:0 12:0 13:0 
2.920894698691 1:0.88326118 2:1 3:0 4:0 5:1 6:0 7:0 8:0 9:1 10:1 11:0 12:0 13:0 
0.1278888256503769 1:0.88518519 2:1 3:0 4:0 5:1 6:0 7:0 8:0 9:1 10:1 11:0 12:0 13:0 
0.532200623390388 1:0.88571429 2:1 3:0 4:0 5:1 6:0 7:0 8:0 9:1 10:0 11:0 12:0 13:0 
10.9207443618325 1:0.88641975 2:1 3:0 4:0 5:1 6:0 7:0 8:0 9:1 10:1 11:0 12:0 13:0 
15.52713250265293 1:0.88888889 2:1 3:0 4:0 5:1 6:0 7:0 8:0 9:1 10:1 11:0 12:0 13:0 
16 1:0.89090909 2:1 3:0 4:0 5:1 6:0 7:0 8:0 9:1 10:1 11:0 12:0 13:0 
0.6302442093150393 1:0.89238095 2:1 3:0 4:0 5:1 6:0 7:0 8:0 9:1 10:1 11:0 12:0 13:0 
0.2336436578237766 1:0.89333333 2:1 3:0 4:0 5:0 6:1 7:0 8:0 9:1 10:0 11:0 12:0 13:0 
2.98872347907988 1:0.8952381 2:1 3:0 4:0 5:1 6:0 7:0 8:0 9:1 10:0.2244898 11:0 12:0 13:0 
16 1:0.89555556 2:1 3:0 4:0 5:1 6:0 7:0 8:0 9:1 10:1 11:0 12:0 13:0 
1.265666514616687 1:0.8969697 2:1 3:0 4:0 5:1 6:0 7:0 8:0 9:1 10:1 11:0 12:0 13:0 
0.9768714604044492 1:0.90285714 2:1 3:0 4:0 5:1 6:0 7:0 8:0 9:1 10:0 11:0 12:0 13:0 
16 1:0.90505051 2:1 3:0 4:0 5:0.66666667 6:0 7:0.16666667 8:0.16666667 9:1 10:1 11:0 12:0 13:0 
0.6371164921124818 1:0.91168831 2:1 3:0 4:0 5:1 6:0 7:0 8:0 9:1 10:0 11:0 12:0 13:0 
0.5971908473567149 1:0.91454545 2:1 3:0 4:0 5:1 6:0 7:0 8:0 9:1 10:0 11:0 12:0 13:0 
0.1100017873693126 1:0.91927438 2:1 3:0 4:0 5:1 6:0 7:0 8:0 9:1 10:0 11:0 12:0 13:0 
16 1:0.9 2:0.5 3:0 4:0.5 5:0 6:0 7:0 8:0 9:0 10:0 11:0 12:0 13:0 
0.2687269362794158 1:0.92053872 2:1 3:0 4:0 5:1 6:0 7:0 8:0 9:1 10:0 11:0 12:0 13:0 
15.38589920459499 1:0.9 2:1 3:0 4:0 5:0 6:0 7:0 8:1 9:0.6 10:0 11:0 12:0 13:0 
3.01604943860593 1:0.9 2:1 3:0 4:0 5:1 6:0 7:0 8:0 9:1 10:1 11:0 12:0 13:0 
2.862613530596454 1:0.925 2:1 3:0 4:0 5:1 6:0 7:0 8:0 9:1 10:0.066666667 11:0 12:0 13:0 
5.986927887133252 1:0.92857143 2:0 3:0 4:1 5:1 6:0 7:0 8:0 9:1 10:0.19148936 11:0 12:0 13:0 
4.730858556500041 1:0.93333333 2:1 3:0 4:0 5:0 6:0 7:0 8:1 9:0.6 10:1 11:0 12:0 13:0 
0.3282342639956512 1:0.93452381 2:1 3:0 4:0 5:1 6:0 7:0 8:0 9:1 10:0.066666667 11:0 12:0 13:0 
0.8706076108251016 1:0.93535354 2:1 3:0 4:0 5:1 6:0 7:0 8:0 9:1 10:0 11:0 12:0 13:0 
4.550918520726826 1:0.93593074 2:1 3:0 4:0 5:1 6:0 7:0 8:0 9:1 10:0.10344828 11:0 12:0 13:0 
16 1:0.93838384 2:1 3:0 4:0 5:1 6:0 7:0 8:0 9:1 10:0 11:0 12:0 13:0 
1.486639818955019 1:0.94285714 2:0 3:0 4:1 5:0.88888889 6:0 7:0 8:0.11111111 9:1 10:1 11:0 12:0 13:0 
0.03740218128546582 1:0.94345238 2:1 3:0 4:0 5:1 6:0 7:0 8:0 9:1 10:0.24137931 11:0 12:0 13:0 
0.1586526844646337 1:0.95061728 2:1 3:0 4:0 5:1 6:0 7:0 8:0 9:1 10:0.066666667 11:0 12:0 13:0 
6.642701499926557 1:0.95238095 2:1 3:0 4:0 5:0 6:0.33333333 7:0 8:0.66666667 9:1 10:1 11:0 12:0 13:0 
16 1:0.95238095 2:1 3:0 4:0 5:1 6:0 7:0 8:0 9:1 10:0 11:0 12:0 13:0 
1.095817961088841 1:0.95384615 2:1 3:0 4:0 5:1 6:0 7:0 8:0 9:1 10:0 11:0 12:0 13:0 
0.01360171003712028 1:0.95444444 2:1 3:0 4:0 5:1 6:0 7:0 8:0 9:1 10:0 11:0 12:0 13:0 
0.951346340179637 1:0.95690236 2:1 3:0 4:0 5:1 6:0 7:0 8:0 9:1 10:0 11:0 12:0 13:0 
0.2569539184542449 1:0.96296296 2:1 3:0 4:0 5:1 6:0 7:0 8:0 9:1 10:0 11:0 12:0 13:0 
0.03574436904193847 1:0.96380952 2:1 3:0 4:0 5:1 6:0 7:0 8:0 9:1 10:0.21212121 11:0 12:0 13:0 
0.5491072287489617 1:0.97222222 2:1 3:0 4:0 5:1 6:0 7:0 8:0 9:1 10:0 11:0 12:0 13:0 
13.98828073532529 1:0.97662338 2:1 3:0 4:0 5:1 6:0 7:0 8:0 9:1 10:0 11:0 12:0 13:0 
2.293072841939477 1:0.97777778 2:0.5 3:0 4:0.5 5:1 6:0 7:0 8:0 9:1 10:1 11:0 12:0 13:0 
0.2129677263218074 1:0.98181818 2:1 3:0 4:0 5:1 6:0 7:0 8:0 9:1 10:0.17073171 11:0 12:0 13:0 
16 1:0.98232323 2:0.5 3:0 4:0.5 5:1 6:0 7:0 8:0 9:1 10:1 11:0 12:0 13:0 
0.6703957263915143 1:0.98333333 2:1 3:0 4:0 5:0.83333333 6:0.16666667 7:0 8:0 9:1 10:1 11:0 12:0 13:0 
0.9172393697173644 1:0.98333333 2:1 3:0 4:0 5:1 6:0 7:0 8:0 9:1 10:0 11:0 12:0 13:0 
0.2787541015738494 1:0.98461538 2:1 3:0 4:0 5:1 6:0 7:0 8:0 9:1 10:0.052631579 11:0 12:0 13:0 
1.894425700711627 1:0.98511905 2:1 3:0 4:0 5:1 6:0 7:0 8:0 9:1 10:0 11:0 12:0 13:0 
11.1842328941867 1:0.98888889 2:1 3:0 4:0 5:0 6:0 7:0 8:1 9:0.93333333 10:1 11:0 12:0 13:0 
0.1968074136745463 1:0.99090909 2:1 3:0 4:0 5:1 6:0 7:0 8:0 9:1 10:0.2 11:0 12:0 13:0 
8.477860059828057 1:0.99461279 2:1 3:0 4:0 5:1 6:0 7:0 8:0 9:1 10:0.066666667 11:0 12:0 13:0 
15.29953883961448 1:0.99494949 2:1 3:0 4:0 5:0 6:0 7:0 8:0 9:1 10:1 11:0 12:0 13:0 
11.18310301557194 1:0.99506173 2:1 3:0 4:0 5:0 6:0 7:0 8:1 9:1 10:1 11:0 12:0 13:0 
14.22644705010995 1:0.99591837 2:1 3:0 4:0 5:0.88888889 6:0 7:0 8:0.11111111 9:1 10:1 11:0 12:0 13:0 
16 1:0.9959596 2:0.5 3:0 4:0.5 5:1 6:0 7:0 8:0 9:1 10:1 11:0 12:0 13:0 
16 1:0.9959596 2:1 3:0 4:0 5:0 6:0 7:0 8:0 9:1 10:1 11:0 12:0 13:0 
16 1:0.9962963 2:1 3:0 4:0 5:0 6:0 7:0 8:0 9:1 10:1 11:0 12:0 13:0 
16 1:0.9968254 2:1 3:0 4:0 5:0 6:0 7:0 8:1 9:1 10:1 11:0 12:0 13:0 
16 1:0.9969697 2:1 3:0 4:0 5:0 6:0 7:0 8:0 9:1 10:1 11:0 12:0 13:0 
15.29233452571568 1:0.9969697 2:1 3:0 4:0 5:0 6:0 7:0 8:1 9:1 10:0 11:0 12:0 13:0 
16 1:0.9969697 2:1 3:0 4:0 5:0 6:0 7:0 8:1 9:1 10:1 11:0 12:0 13:0 
7.457102735356255 1:0.9973064 2:1 3:0 4:0 5:1 6:0 7:0 8:0 9:1 10:0.066666667 11:0 12:0 13:0 
16 1:0.99772727 2:1 3:0 4:0 5:0.90909091 6:0 7:0 8:0.090909091 9:1 10:1 11:0 12:0 13:0 
16 1:0.9979798 2:1 3:0 4:0 5:0 6:0 7:0 8:0 9:1 10:1 11:0 12:0 13:0 
11.37186915564241 1:0.9982906 2:1 3:0 4:0 5:0.9 6:0 7:0 8:0.1 9:1 10:0 11:0 12:0 13:0 
16 1:0.9984127 2:1 3:0 4:0 5:0 6:0 7:0 8:0 9:1 10:1 11:0 12:0 13:0 
0.8648027799055471 1:0.9984127 2:1 3:0 4:0 5:1 6:0 7:0 8:0 9:1 10:0 11:0 12:0 13:0 
16 1:0.99848485 2:1 3:0 4:0 5:0 6:0 7:0 8:1 9:1 10:0 11:0 12:0 13:0 
16 1:0.9989899 2:1 3:0 4:0 5:0 6:0 7:0 8:0 9:1 10:1 11:0 12:0 13:0 
16 1:0.9989899 2:1 3:0 4:0 5:0 6:0 7:0 8:1 9:1 10:1 11:0 12:0 13:0 
16 1:0.9989899 2:1 3:0 4:0 5:1 6:0 7:0 8:0 9:1 10:0 11:0 12:0 13:0 
9.188820041838326 1:0.9990676 2:1 3:0 4:0 5:0.875 6:0 7:0 8:0.125 9:1 10:1 11:0 12:0 13:0 
9.323408156560623 1:0.9991342 2:1 3:0 4:0 5:1 6:0 7:0 8:0 9:1 10:0 11:0 12:0 13:0 
6.055277737347557 1:0.99924242 2:1 3:0 4:0 5:1 6:0 7:0 8:0 9:0 10:0 11:0 12:0 13:0 
16 1:0.9993266 2:1 3:0 4:0 5:1 6:0 7:0 8:0 9:0 10:0 11:0 12:0 13:0 
16 1:0.99939394 2:1 3:0 4:0 5:1 6:0 7:0 8:0 9:0 10:0 11:0 12:0 13:0 
16 1:0.9995671 2:1 3:0 4:0 5:1 6:0 7:0 8:0 9:1 10:0 11:0 12:0 13:0 
2.708585548204956 1:1 2:0 3:0 4:1 5:1 6:0 7:0 8:0 9:0 10:0 11:0 12:0 13:0 
16 1:1 2:0.5 3:0 4:0.5 5:0 6:0 7:0 8:0 9:0 10:0 11:0 12:0 13:0 
16 1:1 2:0.5 3:0 4:0.5 5:0 6:0 7:0 8:0 9:1 10:1 11:0 12:0 13:0 
16 1:1 2:0.5 3:0 4:0.5 5:0 6:0 7:0 8:1 9:0 10:0 11:0 12:0 13:0 
3.587604319790455 1:1 2:0.5 3:0 4:0.5 5:0 6:0 7:0 8:1 9:1 10:1 11:0 12:0 13:0 
4.04313063676054 1:1 2:0.5 3:0 4:0.5 5:0.66666667 6:0 7:0 8:0.33333333 9:1 10:1 11:0 12:0 13:0 
16 1:1 2:0.5 3:0 4:0.5 5:1 6:0 7:0 8:0 9:1 10:1 11:0 12:0 13:0 
12.7875997301761 1:1 2:0.5 3:0.5 4:0 5:0 6:0 7:0 8:0 9:0 10:0 11:0 12:0 13:0 
15.36158702039138 1:1 2:0.5 3:0.5 4:0 5:0 6:0 7:0 8:1 9:0 10:0 11:0 12:0 13:0 
3.112802382954035 1:1 2:1 3:0 4:0 5:0 6:0 7:0 8:0 9:1 10:0 11:0 12:0 13:0 
16 1:1 2:1 3:0 4:0 5:0 6:0 7:0 8:0 9:1 10:-0.11111111 11:0 12:0 13:0 
16 1:1 2:1 3:0 4:0 5:0 6:0 7:0 8:0 9:1 10:1 11:0 12:0 13:0 
16 1:1 2:1 3:0 4:0 5:0 6:0 7:0 8:1 9:1 10:0 11:0 12:0 13:0 
16 1:1 2:1 3:0 4:0 5:0 6:0 7:0 8:1 9:1 10:1 11:0 12:0 13:0 
16 1:1 2:1 3:0 4:0 5:0.6 6:0 7:0.2 8:0.2 9:1 10:1 11:0 12:0 13:0 
16 1:1 2:1 3:0 4:0 5:0.66666667 6:0 7:0.33333333 8:0 9:1 10:1 11:0 12:0 13:0 
16 1:1 2:1 3:0 4:0 5:0.875 6:0 7:0 8:0.125 9:1 10:1 11:0 12:0 13:0 
16 1:1 2:1 3:0 4:0 5:0.88888889 6:0 7:0 8:0.11111111 9:1 10:1 11:0 12:0 13:0 
16 1:1 2:1 3:0 4:0 5:0.90909091 6:0 7:0 8:0.090909091 9:1 10:1 11:0 12:0 13:0 
16 1:1 2:1 3:0 4:0 5:0.91666667 6:0 7:0 8:0.083333333 9:1 10:1 11:0 12:0 13:0 
16 1:1 2:1 3:0 4:0 5:0.9 6:0 7:0 8:0.1 9:1 10:1 11:0 12:0 13:0 
16 1:1 2:1 3:0 4:0 5:1 6:0 7:0 8:0 9:0 10:0 11:0 12:0 13:0 
15.77784563754195 1:1 2:1 3:0 4:0 5:1 6:0 7:0 8:0 9:1 10:0 11:0 12:0 13:0 
6.791631508937989 1:1 2:1 3:0 4:0 5:1 6:0 7:0 8:0 9:1 10:0.090909091 11:0 12:0 13:0 
4.328808932077067 1:1 2:1 3:0 4:0 5:1 6:0 7:0 8:0 9:1 10:0.10344828 11:0 12:0 13:0 
-16 1:0 2:0.5 3:0 4:0 5:0 6:0 7:0 8:0 9:-1 10:1 11:0 12:0 13:0 
-16 1:0 2:0.5 3:0 4:0 5:0 6:0 7:0 8:1 9:-1 10:1 11:0 12:0 13:0 
-13.96510750482735 1:0 2:0.5 3:0 4:0 5:0 6:0 7:1 8:0 9:0 10:0 11:0 12:0 13:0 
-16 1:-0.025 2:0.5 3:0 4:0.5 5:0 6:0 7:0 8:1 9:-1 10:0 11:0 12:0 13:0 
-14.03183838804848 1:-0.033333333 2:0.5 3:0 4:0 5:0 6:0 7:0 8:0 9:-1 10:0.46341463 11:0 12:0 13:0 
-7.84439686490225 1:-0.08 2:0.5 3:0 4:0 5:0 6:0 7:0 8:1 9:-1 10:1 11:0 12:0 13:0 
-0.7165724958441244 1:-0.14285714 2:0.5 3:0 4:0.5 5:0 6:0 7:1 8:0 9:-1 10:1 11:0 12:0 13:0 
-5.64334008844406 1:-0.15 2:0.5 3:0 4:0 5:0 6:0 7:0 8:0 9:-1 10:1 11:0 12:0 13:0 
-7.630606993815244 1:0.16666667 2:0.5 3:0 4:0 5:0 6:0 7:0 8:0 9:0 10:0 11:0 12:0 13:0 
-6.584631046835158 1:0.2125 2:0.5 3:0 4:0.5 5:0 6:0 7:0 8:1 9:0 10:0 11:0 12:0 13:0 
-16 1:0.21428571 2:0.5 3:0 4:0.5 5:0 6:0 7:0 8:1 9:0 10:0 11:0 12:0 13:0 
-16 1:0.2 2:1 3:0 4:0 5:0 6:0 7:0 8:1 9:-1 10:1 11:0 12:0 13:0 
-3.278217251687592 1:0.22222222 2:0 3:0 4:0 5:0.125 6:0 7:0 8:0.875 9:0 10:0 11:0 12:0 13:0 
-16 1:0.22222222 2:0 3:0 4:0 5:1 6:0 7:0 8:0 9:0 10:0 11:0 12:0 13:0 
-16 1:0.22222222 2:0.5 3:0 4:0 5:0 6:0 7:0 8:1 9:0 10:0 11:0 12:0 13:0 
-16 1:0.22222222 2:1 3:0 4:0 5:0 6:0 7:0 8:1 9:0 10:0 11:0 12:0 13:0 
-16 1:0.23333333 2:0.5 3:0 4:0.5 5:0 6:0 7:0 8:1 9:0 10:0 11:0 12:0 13:0 
-16 1:0.24166667 2:0.5 3:0 4:0.5 5:0 6:0 7:0 8:1 9:0 10:0 11:0 12:0 13:0 
-16 1:-0.24 2:0.5 3:0 4:0 5:0 6:0 7:0 8:1 9:-1 10:0 11:0 12:0 13:0 
-16 1:0.25 2:0.5 3:0 4:0 5:0 6:0 7:0 8:1 9:0 10:0 11:0 12:0 13:0 
-9.067687127696148 1:-0.25 2:0.5 3:0 4:0 5:0 6:0 7:0 8:1 9:-1 10:0 11:0 12:0 13:0 
-16 1:0.25 2:0.5 3:0 4:0.5 5:0 6:0 7:0 8:1 9:0 10:0 11:0 12:0 13:0 
-16 1:0.26262626 2:0.5 3:0 4:0 5:0 6:0 7:0 8:1 9:0 10:0 11:0 12:0 13:0 
-16 1:0.26666667 2:0 3:0 4:0 5:0.14285714 6:0 7:0 8:0.85714286 9:0 10:0 11:0 12:0 13:0 
-16 1:0.26666667 2:0 3:0 4:0 5:0.25 6:0 7:0 8:0.75 9:0 10:0 11:0 12:0 13:0 
-16 1:0.26666667 2:0 3:0 4:0 5:1 6:0 7:0 8:0 9:0 10:0 11:0 12:0 13:0 
-16 1:0.26666667 2:0 3:0 4:0.5 5:1 6:0 7:0 8:0 9:0 10:0 11:0 12:0 13:0 
-16 1:0.26666667 2:0.5 3:0 4:0 5:0 6:0 7:0 8:1 9:0 10:0 11:0 12:0 13:0 
-16 1:0.26666667 2:0.5 3:0 4:0 5:0 6:0 7:0.090909091 8:0.90909091 9:0 10:0 11:0 12:0 13:0 
-16 1:0.26666667 2:0.5 3:0 4:0 5:0 6:0 7:0.125 8:0.875 9:0 10:0 11:0 12:0 13:0 
-2.150194848896936 1:0.26666667 2:0.5 3:0 4:0 5:0 6:0 7:0.16666667 8:0.83333333 9:0 10:0 11:0 12:0 13:0 
-16 1:0.26666667 2:0.5 3:0 4:0.5 5:0 6:0 7:0.33333333 8:0.66666667 9:0 10:0 11:0 12:0 13:0 
-16 1:0.27777778 2:0 3:0 4:0 5:0.2 6:0 7:0 8:0.8 9:0 10:0 11:0 12:0 13:0 
-16 1:0.27777778 2:0.5 3:0 4:0 5:0 6:0 7:0 8:0 9:0 10:0 11:0 12:0 13:0 
-16 1:0.27777778 2:0.5 3:0 4:0 5:0 6:0 7:0 8:1 9:0 10:0 11:0 12:0 13:0 
-16 1:0.28571429 2:0.5 3:0 4:0.5 5:0 6:0 7:0 8:1 9:0 10:0 11:0 12:0 13:0 
-16 1:0.29166667 2:0.5 3:0 4:0 5:0 6:0 7:0 8:1 9:0 10:0 11:0 12:0 13:0 
-16 1:0.2962963 2:0 3:0 4:0 5:1 6:0 7:0 8:0 9:0 10:0 11:0 12:0 13:0 
-16 1:0.30666667 2:0.5 3:0 4:0 5:0 6:0 7:0 8:1 9:0 10:0 11:0 12:0 13:0 
-16 1:0.3 2:0.5 3:0 4:0 5:0 6:0 7:0 8:0 9:0 10:0 11:0 12:0 13:0 
-16 1:0.3 2:0.5 3:0 4:0 5:0 6:0 7:0 8:1 9:0 10:0 11:0 12:0 13:0 
-16 1:0.3 2:0.5 3:0 4:0 5:0 6:0 7:0 8:1 9:-0.8 10:0 11:0 12:0 13:0 
-16 1:0.3 2:0.5 3:0 4:0.5 5:0 6:0 7:0 8:1 9:0 10:0 11:0 12:0 13:0 
-16 1:0.32 2:1 3:0 4:0 5:0 6:0 7:0 8:0 9:-0.4 10:-0.11111111 11:0 12:0 13:0 
-16 1:0.33333333 2:0 3:0 4:0 5:0.11111111 6:0 7:0 8:0.88888889 9:0 10:0 11:0 12:0 13:0 
-16 1:0.33333333 2:0 3:0 4:0 5:0.125 6:0 7:0 8:0.875 9:0 10:0 11:0 12:0 13:0 
-16 1:0.33333333 2:0 3:0 4:0 5:0.14285714 6:0 7:0 8:0.85714286 9:0 10:0 11:0 12:0 13:0 
-16 1:0.33333333 2:0 3:0 4:0 5:0.16666667 6:0 7:0 8:0.83333333 9:0 10:0 11:0 12:0 13:0 
-16 1:0.33333333 2:0 3:0 4:0 5:0.25 6:0 7:0 8:0.75 9:0 10:0 11:0 12:0 13:0 
-16 1:0.33333333 2:0 3:0 4:0 5:0.2 6:0 7:0 8:0.8 9:0 10:0 11:0 12:0 13:0 
-16 1:0.33333333 2:0 3:0 4:0 5:0.33333333 6:0 7:0 8:0.66666667 9:0 10:0 11:0 12:0 13:0 
-16 1:0.33333333 2:0 3:0 4:0 5:0.5 6:0 7:0 8:0.5 9:0 10:0 11:0 12:0 13:0 
-16 1:0.33333333 2:0 3:0 4:0 5:1 6:0 7:0 8:0 9:0 10:0 11:0 12:0 13:0 
-16 1:0.33333333 2:0 3:0 4:1 5:0.2 6:0 7:0 8:0.8 9:0 10:0 11:0 12:0 13:0 
-16 1:0.33333333 2:0 3:0 4:1 5:0.33333333 6:0 7:0 8:0.66666667 9:0 10:0 11:0 12:0 13:0 
-16 1:0.33333333 2:0.5 3:0 4:0 5:0 6:0 7:0 8:0 9:0 10:0 11:0 12:0 13:0 
-16 1:0.33333333 2:0.5 3:0 4:0 5:0 6:0 7:0 8:1 9:0 10:0 11:0 12:0 13:0 
-16 1:0.33333333 2:0.5 3:0 4:0.5 5:0 6:0 7:0 8:1 9:0 10:0 11:0 12:0 13:0 
-16 1:0.33333333 2:0.5 3:0 4:0.5 5:0 6:0 7:0 8:1 9:1 10:0 11:0 12:0 13:0 
-16 1:0.33333333 2:0.5 3:0 4:0.5 5:0 6:0 7:0.14285714 8:0.85714286 9:0 10:0 11:0 12:0 13:0 
-16 1:0.33333333 2:1 3:0 4:0 5:0 6:0 7:0.14285714 8:0.85714286 9:0 10:0 11:0 12:0 13:0 
-9.512376583343848 1:0.3452381 2:0 3:0 4:1 5:0 6:0 7:0.22222222 8:0.77777778 9:0 10:0 11:0 12:0 13:0 
-16 1:0.35714286 2:0.5 3:0 4:0 5:0 6:0 7:0 8:0 9:0 10:0 11:0 12:0 13:0 
-16 1:0.35714286 2:0.5 3:0 4:0 5:0 6:0 7:0 8:1 9:0 10:0 11:0 12:0 13:0 
-16 1:0.36666667 2:0.5 3:0 4:0 5:0 6:0 7:0 8:1 9:0 10:0 11:0 12:0 13:0 
-16 1:0.375 2:0.5 3:0 4:0 5:0 6:0 7:0 8:0 9:0 10:0 11:0 12:0 13:0 
-16 1:0.375 2:0.5 3:0 4:0 5:0 6:0 7:0 8:1 9:0 10:0 11:0 12:0 13:0 
-16 1:0.38888889 2:0.5 3:0 4:0 5:0 6:0 7:0 8:1 9:0 10:0 11:0 12:0 13:0 
-16 1:0.39333333 2:0.5 3:0 4:0 5:0 6:0 7:0 8:1 9:0 10:0 11:0 12:0 13:0 
-16 1:0.40909091 2:0.5 3:0 4:0 5:0 6:0 7:0 8:0 9:0 10:0 11:0 12:0 13:0 
-16 1:0.40909091 2:0.5 3:0 4:0 5:0 6:0 7:0 8:1 9:0 10:0 11:0 12:0 13:0 
-16 1:0.41666667 2:0.5 3:0 4:0.5 5:0 6:0 7:0 8:1 9:0 10:0 11:0 12:0 13:0 
-16 1:0.4 2:0.5 3:0 4:0 5:0 6:0 7:0 8:0 9:0 10:0 11:0 12:0 13:0 
-12.85041859650934 1:-0.4 2:0.5 3:0 4:0 5:0 6:0 7:0 8:0 9:-1 10:-0.2 11:0 12:0 13:0 
-16 1:0.4 2:0.5 3:0 4:0 5:0 6:0 7:0 8:1 9:0 10:0 11:0 12:0 13:0 
-16 1:0.4 2:0.5 3:0 4:0.5 5:0 6:0 7:0 8:1 9:0 10:0 11:0 12:0 13:0 
-16 1:0.4375 2:0.5 3:0 4:0 5:0 6:0 7:0 8:0 9:0 10:0 11:0 12:0 13:0 
-16 1:0.4375 2:0.5 3:0 4:0 5:0 6:0 7:0 8:1 9:0 10:0 11:0 12:0 13:0 
-16 1:0.4375 2:0.5 3:0 4:0.5 5:0 6:0 7:0 8:1 9:0 10:0 11:0 12:0 13:0 
-16 1:0.44444444 2:0.5 3:0 4:0 5:0 6:0 7:0.25 8:0.75 9:0 10:0 11:0 12:0 13:0 
-16 1:0.45 2:0.5 3:0 4:0 5:0 6:0 7:0 8:1 9:0 10:0 11:0 12:0 13:0 
-16 1:0.45238095 2:0.5 3:0 4:0 5:0 6:0 7:0 8:1 9:0 10:0 11:0 12:0 13:0 
-16 1:0.46060606 2:0.5 3:0 4:0 5:0 6:0 7:0 8:0 9:0 10:0 11:0 12:0 13:0 
-16 1:0.46060606 2:0.5 3:0 4:0 5:0 6:0 7:0 8:1 9:0 10:0 11:0 12:0 13:0 
-16 1:0.46190476 2:0.5 3:0 4:0 5:0 6:0 7:0 8:0 9:0 10:0 11:0 12:0 13:0 
-16 1:0.46666667 2:1 3:0 4:0 5:0.83333333 6:0 7:0 8:0.16666667 9:1 10:-0.12 11:0 12:0 13:0 
-9.915539217111967 1:0.47142857 2:0.5 3:0 4:0.5 5:0 6:0 7:0 8:0 9:0 10:0 11:0 12:0 13:0 
-16 1:0.47142857 2:1 3:0 4:0 5:0 6:0 7:0 8:0 9:0 10:0 11:0 12:0 13:0 
-16 1:0.47878788 2:0.5 3:0 4:0 5:0 6:0 7:0 8:1 9:0 10:0 11:0 12:0 13:0 
-16 1:0.49393939 2:0.5 3:0 4:0 5:0 6:0 7:0 8:0 9:0 10:0 11:0 12:0 13:0 
-16 1:0.4969697 2:0.5 3:0 4:0 5:0 6:0 7:0 8:0 9:0 10:0 11:0 12:0 13:0 
-16 1:0.4969697 2:0.5 3:0 4:0 5:0 6:0 7:0 8:1 9:0 10:0 11:0 12:0 13:0 
-16 1:0.5 2:0 3:0 4:0.5 5:0 6:0 7:0 8:1 9:0 10:0 11:0 12:0 13:0 
-8.578701552129381 1:0.5 2:0 3:0.5 4:0 5:0 6:0 7:0 8:0 9:0 10:0 11:0 12:0 13:0 
-10.75586878084542 1:0.5 2:0 3:0.5 4:0 5:0 6:0 7:0 8:1 9:0 10:0 11:0 12:0 13:0 
-16 1:0.5 2:0.5 3:0 4:0 5:0 6:0 7:0 8:0 9:0 10:0 11:0 12:0 13:0 
-16 1:0.5 2:0.5 3:0 4:0 5:0 6:0 7:0 8:1 9:0 10:0 11:0 12:0 13:0 
-16 1:0.5 2:0.5 3:0 4:0.5 5:0 6:0 7:0 8:0 9:0 10:0 11:0 12:0 13:0 
-16 1:0.5 2:0.5 3:0 4:0.5 5:0 6:0 7:0 8:1 9:0 10:0 11:0 12:0 13:0 
-16 1:0.5 2:0.5 3:0 4:0.5 5:0 6:0 7:0 8:1 9:1 10:0 11:0 12:0 13:0 
-16 1:0.5 2:0.5 3:0 4:0.5 5:0 6:0 7:0.14285714 8:0.85714286 9:0 10:0 11:0 12:0 13:0 
-16 1:0.5 2:0.5 3:0 4:0.5 5:1 6:0 7:0 8:0 9:1 10:0.5 11:0 12:0 13:0 
-16 1:0.5 2:1 3:0 4:0 5:0 6:0 7:0 8:0 9:0 10:0 11:0 12:0 13:0 
-16 1:0.53333333 2:0 3:0 4:1 5:0 6:0.16666667 7:0 8:0.83333333 9:0 10:0 11:0 12:0 13:0 
-16 1:0.55555556 2:0 3:0 4:1 5:0 6:0.11111111 7:0 8:0.88888889 9:0 10:0 11:0 12:0 13:0 
-16 1:0.55555556 2:0.5 3:0 4:0 5:1 6:0 7:0 8:0 9:0 10:0 11:0 12:0 13:0 
-16 1:0.55555556 2:0.5 3:0 4:0.5 5:0 6:0 7:0 8:1 9:0 10:0 11:0 12:0 13:0 
-16 1:0.56555556 2:1 3:0 4:0 5:0 6:0 7:1 8:0 9:0 10:0 11:0 12:0 13:0 
-16 1:0.57777778 2:1 3:0 4:0 5:0 6:0 7:0 8:0 9:-0.73333333 10:1 11:0 12:0 13:0 
-16 1:0.6 2:0 3:0 4:0 5:0.16666667 6:0 7:0 8:0.83333333 9:1 10:0 11:0 12:0 13:0 
-16 1:0.6 2:0 3:0 4:0 5:0.5 6:0 7:0 8:0.5 9:1 10:0 11:0 12:0 13:0 
-16 1:0.6 2:0.5 3:0 4:0.5 5:0 6:0 7:0 8:0 9:0 10:0 11:0 12:0 13:0 
-16 1:0.6 2:0.5 3:0 4:0.5 5:0 6:0 7:0 8:0 9:1 10:0.3877551 11:0 12:0 13:0 
-16 1:0.6 2:0.5 3:0 4:0.5 5:0 6:0 7:0.25 8:0.75 9:0 10:0 11:0 12:0 13:0 
-16 1:0.6 2:1 3:0 4:0 5:0 6:0 7:0 8:0 9:0 10:0 11:0 12:0 13:0 
-16 1:0.6 2:1 3:0 4:0 5:0 6:0 7:0 8:1 9:0 10:0 11:0 12:0 13:0 
-16 1:0.6 2:1 3:0 4:0 5:1 6:0 7:0 8:0 9:-1 10:0 11:0 12:0 13:0 
-16 1:0.625 2:0.5 3:0 4:0.5 5:0 6:0 7:0 8:0 9:0 10:0 11:0 12:0 13:0 
-16 1:0.625 2:1 3:0 4:0 5:0 6:0 7:0 8:0 9:0 10:0 11:0 12:0 13:0 
-16 1:0.63333333 2:0.5 3:0 4:0 5:0 6:0 7:0 8:1 9:0.53333333 10:0 11:0 12:0 13:0 
-16 1:0.63581267 2:1 3:0 4:0 5:1 6:0 7:0 8:0 9:-1 10:0 11:0 12:0 13:0 
-16 1:0.64444444 2:0 3:0 4:1 5:0.11111111 6:0 7:0 8:0.88888889 9:0 10:0 11:0 12:0 13:0 
-16 1:0.66666667 2:0 3:0 4:0.5 5:0.11111111 6:0 7:0 8:0.88888889 9:0 10:0 11:0 12:0 13:0 
-16 1:0.66666667 2:0 3:0 4:0.5 5:0.5 6:0 7:0 8:0.5 9:0 10:0 11:0 12:0 13:0 
-16 1:0.66666667 2:0 3:0 4:0.5 5:1 6:0 7:0 8:0 9:0 10:0 11:0 12:0 13:0 
-16 1:0.66666667 2:0 3:0 4:1 5:1 6:0 7:0 8:0 9:0 10:0 11:0 12:0 13:0 
-16 1:0.66666667 2:0 3:0.5 4:0 5:0 6:0 7:0 8:1 9:0 10:0 11:0 12:0 13:0 
-16 1:0.66666667 2:0.5 3:0 4:0 5:0 6:0 7:0 8:1 9:0 10:0 11:0 12:0 13:0 
-6.915136915955343 1:0.66666667 2:0.5 3:0 4:0.5 5:0 6:0 7:0 8:0 9:-1 10:1 11:0 12:0 13:0 
-16 1:0.66666667 2:0.5 3:0 4:0.5 5:0 6:0 7:0 8:1 9:0 10:0 11:0 12:0 13:0 
-16 1:0.66666667 2:1 3:0 4:0 5:0 6:0 7:0 8:0 9:-1 10:1 11:0 12:0 13:0 
-16 1:0.66666667 2:1 3:0 4:0 5:0 6:0 7:0 8:1 9:0 10:0 11:0 12:0 13:0 
-16 1:0.71428571 2:0 3:0 4:0 5:0.2 6:0 7:0 8:0.8 9:1 10:1 11:0 12:0 13:0 
-16 1:0.71428571 2:0 3:0 4:0 5:1 6:0 7:0 8:0 9:1 10:1 11:0 12:0 13:0 
-16 1:0.71428571 2:0.5 3:0 4:0 5:0.125 6:0 7:0 8:0.875 9:1 10:1 11:0 12:0 13:0 
-16 1:0.7 2:0 3:0 4:1 5:0 6:0 7:0.4 8:0.6 9:0 10:0 11:0 12:0 13:0 
-16 1:0.7 2:0.5 3:0 4:0.5 5:0 6:0 7:0 8:0 9:-0.8 10:1 11:0 12:0 13:0 
-16 1:0.7 2:0.5 3:0 4:0.5 5:0 6:0 7:0 8:1 9:1 10:1 11:0 12:0 13:0 
-16 1:0.7 2:1 3:0 4:0 5:0 6:0 7:0 8:0 9:-0.8 10:1 11:0 12:0 13:0 
-16 1:0.73968254 2:0.5 3:0 4:0.5 5:0 6:0 7:0 8:1 9:0 10:0 11:0 12:0 13:0 
-16 1:0.74285714 2:1 3:0 4:0 5:1 6:0 7:0 8:0 9:1 10:1 11:0 12:0 13:0 
-16 1:0.75151515 2:0.5 3:0 4:0.5 5:1 6:0 7:0 8:0 9:-1 10:1 11:0 12:0 13:0 
-16 1:0.75 2:0 3:0 4:1 5:0.2 6:0 7:0 8:0.8 9:0 10:0 11:0 12:0 13:0 
-16 1:0.75 2:0.5 3:0 4:0 5:0 6:0 7:0 8:0 9:1 10:0 11:0 12:0 13:0 
-16 1:0.75 2:0.5 3:0 4:0 5:0 6:0 7:0 8:1 9:1 10:0 11:0 12:0 13:0 
-16 1:0.75 2:1 3:0 4:0 5:0 6:0 7:0 8:0 9:0 10:0 11:0 12:0 13:0 
-16 1:0.75 2:1 3:0 4:0 5:0 6:0 7:0 8:0 9:1 10:0 11:0 12:0 13:0 
-16 1:0.76484848 2:1 3:0 4:0 5:0.8 6:0 7:0.2 8:0 9:1 10:0 11:0 12:0 13:0 
-16 1:0.77142857 2:0.5 3:0 4:0.5 5:0 6:0 7:0.5 8:0.5 9:1 10:1 11:0 12:0 13:0 
-16 1:0.77666667 2:0.5 3:0 4:0.5 5:0 6:0 7:0 8:0 9:0 10:0 11:0 12:0 13:0 
-16 1:0.77666667 2:1 3:0 4:0 5:0 6:0 7:0 8:0 9:0 10:0 11:0 12:0 13:0 
-16 1:0.77777778 2:0.5 3:0 4:0.5 5:0 6:0 7:0 8:1 9:0 10:0 11:0 12:0 13:0 
-16 1:0.77777778 2:0.5 3:0 4:0.5 5:0 6:0 7:0 8:1 9:1 10:0 11:0 12:0 13:0 
-16 1:0.77777778 2:1 3:0 4:0 5:0 6:0 7:0 8:1 9:0 10:0 11:0 12:0 13:0 
-16 1:0.77777778 2:1 3:0 4:0 5:1 6:0 7:0 8:0 9:0 10:0 11:0 12:0 13:0 
-16 1:0.78518519 2:1 3:0 4:0 5:1 6:0 7:0 8:0 9:0 10:0 11:0 12:0 13:0 
-16 1:0.78835104 2:1 3:0 4:0 5:1 6:0 7:0 8:0 9:-1 10:1 11:0 12:0 13:0 
-16 1:0.79166667 2:0.5 3:0 4:0 5:0 6:0 7:0 8:0 9:1 10:1 11:0 12:0 13:0 
-16 1:0.81944444 2:1 3:0 4:0 5:0.66666667 6:0 7:0 8:0.33333333 9:1 10:1 11:0 12:0 13:0 
-16 1:0.82222222 2:0.5 3:0 4:0.5 5:0.25 6:0 7:0 8:0.75 9:1 10:0 11:0 12:0 13:0 
-16 1:0.83111111 2:1 3:0 4:0 5:1 6:0 7:0 8:0 9:1 10:0 11:0 12:0 13:0 
-16 1:0.83333333 2:0.5 3:0 4:0 5:0 6:0 7:0 8:0 9:1 10:1 11:0 12:0 13:0 
-16 1:0.83333333 2:0.5 3:0 4:0 5:0 6:0 7:0 8:1 9:1 10:1 11:0 12:0 13:0 
-16 1:0.83333333 2:0.5 3:0 4:0.5 5:0 6:0 7:0 8:1 9:0 10:0 11:0 12:0 13:0 
-16 1:0.83333333 2:1 3:0 4:0 5:0 6:0 7:0 8:0 9:1 10:1 11:0 12:0 13:0 
-16 1:0.83333333 2:1 3:0 4:0 5:0 6:0 7:0 8:1 9:1 10:1 11:0 12:0 13:0 
-16 1:0.83333333 2:1 3:0 4:0 5:1 6:0 7:0 8:0 9:1 10:1 11:0 12:0 13:0 
-16 1:0.83506173 2:1 3:0 4:0 5:1 6:0 7:0 8:0 9:1 10:0.29411765 11:0 12:0 13:0 
-16 1:0.84343434 2:1 3:0 4:0 5:0 6:0 7:0 8:1 9:1 10:0 11:0 12:0 13:0 
-16 1:0.86666667 2:0.5 3:0 4:0.5 5:0 6:0 7:0 8:0 9:1 10:1 11:0 12:0 13:0 
-16 1:0.86666667 2:1 3:0 4:0 5:0 6:0 7:0 8:0 9:1 10:1 11:0 12:0 13:0 
-16 1:0.8707483 2:1 3:0 4:0 5:1 6:0 7:0 8:0 9:0 10:0 11:0 12:0 13:0 
-16 1:0.875 2:1 3:0 4:0 5:0 6:0 7:0 8:0 9:1 10:0 11:0 12:0 13:0 
-16 1:0.875 2:1 3:0 4:0 5:0 6:0 7:0 8:0 9:1 10:1 11:0 12:0 13:0 
-16 1:0.88888889 2:1 3:0 4:0 5:0 6:0 7:0 8:0 9:1 10:1 11:0 12:0 13:0 
-16 1:0.88888889 2:1 3:0 4:0 5:0.33333333 6:0 7:0 8:0.66666667 9:0 10:0 11:0 12:0 13:0 
-16 1:0.91111111 2:0.5 3:0 4:0.5 5:1 6:0 7:0 8:0 9:1 10:1 11:0 12:0 13:0 
-16 1:0.91313131 2:1 3:0 4:0 5:1 6:0 7:0 8:0 9:0 10:0 11:0 12:0 13:0 
-16 1:0.91515152 2:0.5 3:0 4:0.5 5:1 6:0 7:0 8:0 9:1 10:1 11:0 12:0 13:0 
-16 1:0.91555556 2:0.5 3:0 4:0.5 5:1 6:0 7:0 8:0 9:1 10:1 11:0 12:0 13:0 
-16 1:0.91623932 2:1 3:0 4:0 5:0.875 6:0 7:0 8:0.125 9:1 10:1 11:0 12:0 13:0 
-16 1:0.91666667 2:1 3:0 4:0 5:0 6:0 7:0 8:0 9:1 10:1 11:0 12:0 13:0 
-16 1:0.9 2:0.5 3:0 4:0.5 5:0 6:0 7:0 8:0 9:0 10:0 11:0 12:0 13:0 
-16 1:0.9 2:1 3:0 4:0 5:0 6:0 7:0 8:0 9:0 10:0 11:0 12:0 13:0 
-16 1:0.9 2:1 3:0 4:0 5:0 6:0 7:0 8:0 9:1 10:1 11:0 12:0 13:0 
-16 1:0.9 2:1 3:0 4:0 5:0 6:0 7:0 8:1 9:0 10:0 11:0 12:0 13:0 
-16 1:0.9 2:1 3:0 4:0 5:1 6:0 7:0 8:0 9:1 10:0 11:0 12:0 13:0 
-16 1:0.92222222 2:1 3:0 4:0 5:0 6:0 7:0 8:0 9:0.53333333 10:1 11:0 12:0 13:0 
-16 1:0.92424242 2:1 3:0 4:0 5:0.8 6:0 7:0.2 8:0 9:1 10:1 11:0 12:0 13:0 
-16 1:0.92592593 2:1 3:0 4:0 5:0 6:0 7:0 8:0 9:1 10:1 11:0 12:0 13:0 
-16 1:0.92592593 2:1 3:0 4:0 5:0 6:0 7:0 8:1 9:1 10:1 11:0 12:0 13:0 
-16 1:0.92987013 2:0.5 3:0 4:0.5 5:1 6:0 7:0 8:0 9:1 10:1 11:0 12:0 13:0 
-16 1:0.93555556 2:1 3:0 4:0 5:1 6:0 7:0 8:0 9:1 10:1 11:0 12:0 13:0 
-16 1:0.93809524 2:1 3:0 4:0 5:0.8 6:0 7:0 8:0.2 9:1 10:1 11:0 12:0 13:0 
-16 1:0.93846154 2:1 3:0 4:0 5:0.85714286 6:0.14285714 7:0 8:0 9:1 10:1 11:0 12:0 13:0 
-16 1:0.94285714 2:1 3:0 4:0 5:1 6:0 7:0 8:0 9:1 10:0 11:0 12:0 13:0 
-16 1:0.94285714 2:1 3:0 4:0 5:1 6:0 7:0 8:0 9:1 10:1 11:0 12:0 13:0 
-16 1:0.94991453 2:1 3:0 4:0 5:0.75 6:0 7:0 8:0.25 9:1 10:1 11:0 12:0 13:0 
-16 1:0.95 2:1 3:0 4:0 5:0 6:0 7:0 8:1 9:1 10:0 11:0 12:0 13:0 
-16 1:0.95812672 2:1 3:0 4:0 5:1 6:0 7:0 8:0 9:1 10:1 11:0 12:0 13:0 
-16 1:0.96102564 2:1 3:0 4:0 5:1 6:0 7:0 8:0 9:1 10:1 11:0 12:0 13:0 
-16 1:0.96296296 2:1 3:0 4:0 5:0 6:0 7:0 8:1 9:1 10:1 11:0 12:0 13:0 
-16 1:0.96363636 2:1 3:0 4:0 5:1 6:0 7:0 8:0 9:1 10:0 11:0 12:0 13:0 
-16 1:0.96616162 2:1 3:0 4:0 5:1 6:0 7:0 8:0 9:1 10:1 11:0 12:0 13:0 
-16 1:0.96666667 2:0.5 3:0 4:0.5 5:0.66666667 6:0 7:0 8:0.33333333 9:1 10:0 11:0 12:0 13:0 
-16 1:0.96666667 2:1 3:0 4:0 5:0 6:0 7:0 8:0 9:1 10:1 11:0 12:0 13:0 
-16 1:0.96666667 2:1 3:0 4:0 5:0 6:0 7:0 8:1 9:1 10:1 11:0 12:0 13:0 
-16 1:0.96969697 2:1 3:0 4:0 5:0 6:0 7:0 8:0 9:1 10:1 11:0 12:0 13:0 
-16 1:0.97050505 2:1 3:0 4:0 5:1 6:0 7:0 8:0 9:1 10:1 11:0 12:0 13:0 
-16 1:0.97222222 2:1 3:0 4:0 5:0.88888889 6:0 7:0 8:0.11111111 9:1 10:0 11:0 12:0 13:0 
-16 1:0.97222222 2:1 3:0 4:0 5:1 6:0 7:0 8:0 9:0.66666667 10:0 11:0 12:0 13:0 
-16 1:0.97222222 2:1 3:0 4:0 5:1 6:0 7:0 8:0 9:1 10:1 11:0 12:0 13:0 
-16 1:0.97587302 2:1 3:0 4:0 5:1 6:0 7:0 8:0 9:1 10:1 11:0 12:0 13:0 
-16 1:0.97961433 2:1 3:0 4:0 5:0.83333333 6:0 7:0 8:0.16666667 9:1 10:1 11:0 12:0 13:0 
-16 1:0.98 2:0.5 3:0 4:0.5 5:0.8 6:0 7:0 8:0.2 9:1 10:1 11:0 12:0 13:0 
-16 1:0.98414918 2:1 3:0 4:0 5:1 6:0 7:0 8:0 9:1 10:1 11:0 12:0 13:0 
-16 1:0.98571429 2:1 3:0 4:0 5:0 6:0 7:0 8:0 9:1 10:1 11:0 12:0 13:0 
-16 1:0.98666667 2:1 3:0 4:0 5:1 6:0 7:0 8:0 9:1 10:0 11:0 12:0 13:0 
-16 1:0.98701299 2:1 3:0 4:0 5:1 6:0 7:0 8:0 9:1 10:1 11:0 12:0 13:0 
-16 1:0.98787879 2:1 3:0 4:0 5:0 6:0 7:0.5 8:0.5 9:1 10:0 11:0 12:0 13:0 
-16 1:0.98888889 2:1 3:0 4:0 5:0 6:0 7:0 8:1 9:0.93333333 10:1 11:0 12:0 13:0 
-16 1:0.99191919 2:1 3:0 4:0 5:1 6:0 7:0 8:0 9:1 10:1 11:0 12:0 13:0 
-16 1:0.99761905 2:1 3:0 4:0 5:0.4 6:0 7:0 8:0.6 9:0 10:0 11:0 12:0 13:0 
-16 1:0.9989899 2:1 3:0 4:0 5:0 6:0 7:0 8:1 9:1 10:1 11:0 12:0 13:0 
-16 1:0.99904762 2:1 3:0 4:0 5:0.75 6:0 7:0.25 8:0 9:1 10:1 11:0 12:0 13:0 
-16 1:1 2:0 3:0 4:1 5:0.33333333 6:0 7:0 8:0.66666667 9:0 10:0 11:0 12:0 13:0 
-16 1:1 2:0 3:0 4:1 5:1 6:0 7:0 8:0 9:0 10:0 11:0 12:0 13:0 
-16 1:1 2:0.5 3:0 4:0.5 5:0 6:0 7:0 8:0 9:0 10:0 11:0 12:0 13:0 
-16 1:1 2:0.5 3:0 4:0.5 5:0 6:0 7:0 8:0 9:1 10:1 11:0 12:0 13:0 
-16 1:1 2:0.5 3:0 4:0.5 5:0 6:0 7:0 8:1 9:0 10:0 11:0 12:0 13:0 
-16 1:1 2:0.5 3:0 4:0.5 5:0 6:0 7:0 8:1 9:1 10:1 11:0 12:0 13:0 
-16 1:1 2:0.5 3:0 4:0.5 5:1 6:0 7:0 8:0 9:0 10:0 11:0 12:0 13:0 
-16 1:1 2:1 3:0 4:0 5:0 6:0 7:0 8:0 9:0 10:0 11:0 12:0 13:0 
-16 1:1 2:1 3:0 4:0 5:0 6:0 7:0 8:0 9:1 10:0 11:0 12:0 13:0 
-16 1:1 2:1 3:0 4:0 5:0 6:0 7:0 8:0 9:1 10:1 11:0 12:0 13:0 
-16 1:1 2:1 3:0 4:0 5:0 6:0 7:0 8:1 9:0 10:0 11:0 12:0 13:0 
-16 1:1 2:1 3:0 4:0 5:0 6:0 7:0 8:1 9:1 10:0 11:0 12:0 13:0 
-16 1:1 2:1 3:0 4:0 5:0 6:0 7:0 8:1 9:1 10:1 11:0 12:0 13:0 
-16 1:1 2:1 3:0 4:0 5:0.2 6:0 7:0 8:0.8 9:0 10:0 11:0 12:0 13:0 
-16 1:1 2:1 3:0 4:0 5:0.375 6:0 7:0 8:0.625 9:1 10:0 11:0 12:0 13:0 
-16 1:1 2:1 3:0 4:0 5:1 6:0 7:0 8:0 9:1 10:0 11:0 12:0 13:0 
-16 1:1 2:1 3:0 4:0 5:1 6:0 7:0 8:0 9:1 10:1 11:0 12:0 13:0 
