svm_type c_svc
kernel_type rbf
gamma 0.25
nr_class 2
total_sv 518
rho -0.779339
label 1 -1
probA -2.58674
probB -0.366242
nr_sv 272 246
SV
1.820492775387225 1:0 2:0 3:0 4:0 5:0.66666667 6:0 7:0 8:0.33333333 9:-1 10:0 11:0 12:0 13:0 
8 1:0 2:0 3:0 4:0.5 5:0 6:0 7:0.16666667 8:0.83333333 9:0 10:0 11:0 12:0 13:0 
8 1:0 2:0.5 3:0 4:0 5:0 6:0 7:0 8:0 9:-1 10:1 11:0 12:0 13:0 
8 1:0 2:0.5 3:0 4:0 5:0 6:0 7:0 8:1 9:0 10:0 11:0 12:0 13:0 
8 1:0.022222222 2:0.5 3:0 4:0 5:0 6:0 7:0 8:1 9:0 10:0 11:0 12:0 13:0 
8 1:0.038095238 2:0.5 3:0 4:0 5:0 6:0 7:0 8:1 9:0 10:0 11:0 12:0 13:0 
8 1:-0.04 2:0.5 3:0 4:0 5:0 6:0 7:0 8:1 9:-1 10:1 11:0 12:0 13:0 
8 1:-0.083333333 2:0.5 3:0.5 4:0 5:0 6:0 7:0 8:1 9:-1 10:0 11:0 12:0 13:0 
8 1:0.11851852 2:0.5 3:0 4:0 5:0 6:0 7:0 8:1 9:0 10:0 11:0 12:0 13:0 
5.408813922945501 1:0.12190476 2:1 3:0 4:0 5:0 6:0 7:0 8:1 9:-1 10:1 11:0 12:0 13:0 
6.189264407099591 1:-0.125 2:1 3:0 4:0 5:0 6:0 7:0 8:0 9:-1 10:0 11:0 12:0 13:0 
8 1:0.13333333 2:0.5 3:0 4:0 5:0 6:0 7:0 8:1 9:0 10:0 11:0 12:0 13:0 
8 1:0.15555556 2:0.5 3:0 4:0 5:0 6:0 7:0 8:1 9:0 10:0 11:0 12:0 13:0 
8 1:0.16 2:1 3:0 4:0 5:0 6:0 7:0 8:0 9:-1 10:1 11:0 12:0 13:0 
8 1:0.16666667 2:0.5 3:0 4:0 5:0 6:0 7:0 8:1 9:0 10:0 11:0 12:0 13:0 
8 1:0.16666667 2:0.5 3:0 4:0.5 5:0.5 6:0 7:0 8:0.5 9:0 10:0 11:0 12:0 13:0 
8 1:0.18518519 2:0 3:0 4:0 5:0.2 6:0 7:0 8:0.8 9:0 10:0 11:0 12:0 13:0 
8 1:0.18518519 2:0 3:0 4:0 5:0.5 6:0 7:0 8:0.5 9:0 10:0 11:0 12:0 13:0 
8 1:0.2 2:0.5 3:0 4:0 5:0 6:0 7:0 8:1 9:0 10:0 11:0 12:0 13:0 
8 1:0.2 2:1 3:0 4:0 5:0 6:0 7:0 8:0 9:-1 10:1 11:0 12:0 13:0 
8 1:-0.2 2:1 3:0 4:0 5:0 6:0 7:0 8:1 9:-1 10:0.72307692 11:0 12:0 13:0 
8 1:0.22222222 2:0 3:0 4:0 5:1 6:0 7:0 8:0 9:0 10:0 11:0 12:0 13:0 
8 1:0.22222222 2:0.5 3:0 4:0.5 5:0.33333333 6:0 7:0 8:0.66666667 9:0 10:0 11:0 12:0 13:0 
8 1:0.22222222 2:0.5 3:0 4:0.5 5:1 6:0 7:0 8:0 9:0 10:0 11:0 12:0 13:0 
8 1:-0.25 2:0.5 3:0 4:0 5:0 6:0 7:0 8:0 9:-1 10:0 11:0 12:0 13:0 
8 1:0.25 2:0.5 3:0 4:0 5:0 6:0 7:0 8:1 9:0 10:0 11:0 12:0 13:0 
8 1:-0.25 2:0.5 3:0 4:0 5:0 6:0 7:0 8:1 9:-1 10:0 11:0 12:0 13:0 
8 1:0.25 2:0.5 3:0 4:0 5:0 6:0 7:0 8:1 9:-1 10:0 11:0 12:0 13:0 
8 1:0.25333333 2:0.5 3:0 4:0.5 5:0 6:0 7:0 8:1 9:0 10:0 11:0 12:0 13:0 
8 1:0.26666667 2:0.5 3:0 4:0 5:0 6:0 7:0 8:1 9:0 10:0 11:0 12:0 13:0 
8 1:0.27272727 2:0 3:0 4:0 5:0.25 6:0 7:0 8:0.75 9:0 10:0 11:0 12:0 13:0 
8 1:0.27272727 2:0 3:0 4:0 5:1 6:0 7:0 8:0 9:0 10:0 11:0 12:0 13:0 
8 1:0.27777778 2:0.5 3:0 4:0 5:0 6:0 7:0 8:0 9:0 10:0 11:0 12:0 13:0 
8 1:0.31717172 2:0.5 3:0 4:0.5 5:0 6:0 7:0 8:1 9:0 10:0 11:0 12:0 13:0 
8 1:0.3 2:0 3:0 4:0 5:0.14285714 6:0 7:0 8:0.85714286 9:0 10:0 11:0 12:0 13:0 
8 1:0.3 2:0.5 3:0 4:0 5:0 6:0 7:0 8:0 9:0 10:0 11:0 12:0 13:0 
8 1:0.33131313 2:0 3:0 4:0 5:0.5 6:0 7:0 8:0.5 9:0 10:0 11:0 12:0 13:0 
8 1:0.33333333 2:0 3:0 4:0 5:0.11111111 6:0 7:0 8:0.88888889 9:0 10:0 11:0 12:0 13:0 
8 1:0.33333333 2:0 3:0 4:0 5:0.14285714 6:0 7:0 8:0.85714286 9:0 10:0 11:0 12:0 13:0 
8 1:0.33333333 2:0 3:0 4:0 5:0.16666667 6:0 7:0 8:0.83333333 9:0 10:0 11:0 12:0 13:0 
8 1:0.33333333 2:0 3:0 4:0 5:0.25 6:0 7:0 8:0.75 9:0 10:0 11:0 12:0 13:0 
8 1:0.33333333 2:0 3:0 4:0 5:0.2 6:0 7:0 8:0.8 9:0 10:0 11:0 12:0 13:0 
8 1:0.33333333 2:0 3:0 4:0 5:0.33333333 6:0 7:0 8:0.66666667 9:0 10:0 11:0 12:0 13:0 
8 1:0.33333333 2:0 3:0 4:0 5:0.5 6:0 7:0 8:0.5 9:0 10:0 11:0 12:0 13:0 
8 1:0.33333333 2:0 3:0 4:0 5:1 6:0 7:0 8:0 9:0 10:0 11:0 12:0 13:0 
8 1:0.33333333 2:0 3:0 4:1 5:0 6:0 7:0 8:1 9:0 10:0 11:0 12:0 13:0 
3.244288276354076 1:0.33333333 2:0 3:0.5 4:0 5:1 6:0 7:0 8:0 9:0 10:0 11:0 12:0 13:0 
8 1:0.33333333 2:0.5 3:0 4:0 5:0 6:0 7:0 8:0 9:0 10:0 11:0 12:0 13:0 
8 1:-0.33333333 2:0.5 3:0 4:0 5:0 6:0 7:0 8:0 9:-1 10:0 11:0 12:0 13:0 
8 1:0.33333333 2:0.5 3:0 4:0 5:0 6:0 7:0 8:1 9:0 10:0 11:0 12:0 13:0 
8 1:0.33333333 2:0.5 3:0 4:0.5 5:0 6:0 7:0 8:1 9:0 10:0 11:0 12:0 13:0 
8 1:0.33333333 2:0.5 3:0 4:0.5 5:0 6:0 7:1 8:0 9:0 10:0 11:0 12:0 13:0 
8 1:0.33333333 2:1 3:0 4:0 5:0 6:0 7:0 8:1 9:0 10:0 11:0 12:0 13:0 
8 1:0.35185185 2:0.5 3:0 4:0 5:0 6:0 7:0 8:0 9:0 10:0 11:0 12:0 13:0 
8 1:0.35185185 2:1 3:0 4:0 5:0 6:0 7:0 8:1 9:0 10:0 11:0 12:0 13:0 
8 1:0.35555556 2:0.5 3:0 4:0 5:1 6:0 7:0 8:0 9:0 10:0 11:0 12:0 13:0 
8 1:0.36666667 2:0.5 3:0 4:0 5:0 6:0 7:0 8:0 9:0 10:0 11:0 12:0 13:0 
3.042571495331582 1:0.37777778 2:0.5 3:0 4:0 5:1 6:0 7:0 8:0 9:0 10:0 11:0 12:0 13:0 
8 1:0.39333333 2:0.5 3:0 4:0 5:0 6:0 7:0 8:1 9:0 10:0 11:0 12:0 13:0 
8 1:0.40909091 2:0.5 3:0 4:0 5:0 6:0 7:0 8:0 9:0 10:0 11:0 12:0 13:0 
3.323758983783549 1:0.41111111 2:1 3:0 4:0 5:0 6:0 7:0 8:0 9:1 10:0.043478261 11:0 12:0 13:0 
8 1:0.41666667 2:0.5 3:0 4:0 5:0.090909091 6:0 7:0 8:0.90909091 9:0 10:0 11:0 12:0 13:0 
8 1:0.41666667 2:0.5 3:0 4:0.5 5:0 6:0 7:0 8:1 9:0 10:0 11:0 12:0 13:0 
8 1:0.4 2:0 3:0 4:0.5 5:0.16666667 6:0 7:0 8:0.83333333 9:0 10:0 11:0 12:0 13:0 
8 1:0.4 2:0.5 3:0 4:0 5:0 6:0 7:0 8:0 9:0 10:0 11:0 12:0 13:0 
8 1:0.4 2:0.5 3:0 4:0 5:0 6:0 7:0 8:1 9:0 10:0 11:0 12:0 13:0 
8 1:0.4 2:0.5 3:0 4:0 5:0 6:0 7:0 8:1 9:1 10:0.72307692 11:0 12:0 13:0 
8 1:0.4 2:0.5 3:0 4:0.5 5:0 6:0 7:0 8:1 9:1 10:0.076923077 11:0 12:0 13:0 
8 1:0.4 2:0.5 3:0 4:0.5 5:0.3 6:0 7:0 8:0.7 9:-1 10:1 11:0 12:0 13:0 
6.250530910531344 1:0.4 2:1 3:0 4:0 5:0 6:0 7:0 8:0 9:1 10:0.72307692 11:0 12:0 13:0 
8 1:0.4375 2:0.5 3:0 4:0 5:0 6:0 7:0 8:0 9:0 10:0 11:0 12:0 13:0 
5.970546129448059 1:0.44444444 2:0.5 3:0 4:0.5 5:1 6:0 7:0 8:0 9:1 10:0.25714286 11:0 12:0 13:0 
8 1:0.44761905 2:1 3:0 4:0 5:0 6:0 7:0.16666667 8:0.83333333 9:0 10:0 11:0 12:0 13:0 
5.28000252116282 1:0.45454545 2:0 3:0 4:0 5:1 6:0 7:0 8:0 9:-1 10:1 11:0 12:0 13:0 
8 1:0.45833333 2:0.5 3:0 4:0.5 5:0 6:0 7:0 8:1 9:1 10:0 11:0 12:0 13:0 
8 1:0.46666667 2:0 3:0 4:0 5:0.25 6:0 7:0 8:0.75 9:0.33333333 10:0 11:0 12:0 13:0 
8 1:0.46666667 2:0.5 3:0 4:0.5 5:0 6:0 7:0 8:1 9:0 10:0 11:0 12:0 13:0 
8 1:0.46666667 2:1 3:0 4:0 5:0 6:0 7:0 8:1 9:0 10:0 11:0 12:0 13:0 
8 1:0.48095238 2:0.5 3:0 4:0 5:0 6:0 7:0 8:0 9:0 10:0 11:0 12:0 13:0 
8 1:0.48095238 2:1 3:0 4:0 5:0 6:0 7:0 8:1 9:0 10:0 11:0 12:0 13:0 
8 1:0.48888889 2:1 3:0 4:0 5:0 6:0 7:0 8:1 9:0 10:0 11:0 12:0 13:0 
6.313274312972539 1:0.48888889 2:1 3:0 4:0 5:0 6:0 7:1 8:0 9:0 10:0 11:0 12:0 13:0 
8 1:0.49090909 2:0.5 3:0 4:0 5:0 6:0 7:0 8:1 9:0 10:0 11:0 12:0 13:0 
8 1:0.49393939 2:0.5 3:0 4:0 5:0 6:0 7:0 8:1 9:0 10:0 11:0 12:0 13:0 
8 1:0.4969697 2:0.5 3:0 4:0 5:0 6:0 7:0 8:0 9:0 10:0 11:0 12:0 13:0 
8 1:0.51111111 2:0 3:0 4:1 5:0 6:0 7:0.14285714 8:0.85714286 9:0 10:0 11:0 12:0 13:0 
8 1:0.5 2:0 3:0 4:0 5:0.28571429 6:0 7:0 8:0.71428571 9:0 10:0 11:0 12:0 13:0 
8 1:0.5 2:0 3:0 4:0 5:0.33333333 6:0 7:0 8:0.66666667 9:0 10:0 11:0 12:0 13:0 
8 1:0.5 2:0 3:0 4:0 5:0.4 6:0 7:0 8:0.6 9:0 10:0 11:0 12:0 13:0 
8 1:0.5 2:0 3:0 4:0.5 5:0 6:0 7:0 8:1 9:0 10:0 11:0 12:0 13:0 
8 1:0.5 2:0.5 3:0 4:0 5:0 6:0 7:0 8:0 9:0 10:0 11:0 12:0 13:0 
8 1:0.5 2:0.5 3:0 4:0 5:0 6:0 7:0 8:1 9:0 10:0 11:0 12:0 13:0 
8 1:0.5 2:0.5 3:0 4:0.5 5:0 6:0 7:0 8:0 9:0 10:0 11:0 12:0 13:0 
8 1:0.5 2:0.5 3:0 4:0.5 5:0 6:0 7:0 8:1 9:0 10:0 11:0 12:0 13:0 
8 1:0.5 2:0.5 3:0 4:0.5 5:0 6:0 7:0 8:1 9:-1 10:0 11:0 12:0 13:0 
8 1:0.5 2:0.5 3:0 4:0.5 5:0 6:0 7:0 8:1 9:1 10:0 11:0 12:0 13:0 
8 1:0.5 2:0.5 3:0 4:0.5 5:0.1 6:0 7:0 8:0.9 9:0 10:0 11:0 12:0 13:0 
3.41566773954089 1:0.5 2:0.5 3:0 4:0.5 5:1 6:0 7:0 8:0 9:0 10:0 11:0 12:0 13:0 
1.934985320472894 1:0.5 2:0.5 3:0 4:0.5 5:1 6:0 7:0 8:0 9:1 10:-0.076923077 11:0 12:0 13:0 
8 1:0.5 2:1 3:0 4:0 5:0 6:0 7:0 8:0 9:0 10:0 11:0 12:0 13:0 
8 1:0.5 2:1 3:0 4:0 5:0 6:0 7:0 8:1 9:0 10:0 11:0 12:0 13:0 
4.548430620975226 1:0.53333333 2:1 3:0 4:0 5:0 6:0 7:0 8:0 9:1 10:-0.44827586 11:0 12:0 13:0 
8 1:0.53333333 2:1 3:0 4:0 5:0 6:0 7:0 8:1 9:0 10:0 11:0 12:0 13:0 
8 1:0.53939394 2:1 3:0 4:0 5:0 6:0 7:0 8:1 9:0 10:0 11:0 12:0 13:0 
7.760363514753161 1:0.5537037 2:0.5 3:0 4:0.5 5:1 6:0 7:0 8:0 9:1 10:0.90909091 11:0 12:0 13:0 
8 1:0.55416667 2:1 3:0 4:0 5:0 6:0 7:0 8:0 9:0 10:0 11:0 12:0 13:0 
8 1:0.55555556 2:0.5 3:0 4:0 5:0.14285714 6:0 7:0 8:0.85714286 9:0 10:0 11:0 12:0 13:0 
8 1:0.55555556 2:0.5 3:0 4:0 5:0.25 6:0 7:0 8:0.75 9:0 10:0 11:0 12:0 13:0 
8 1:0.55555556 2:1 3:0 4:0 5:0 6:0 7:0 8:0 9:0 10:0 11:0 12:0 13:0 
8 1:0.55555556 2:1 3:0 4:0 5:0 6:0 7:0 8:1 9:0 10:0 11:0 12:0 13:0 
8 1:0.56666667 2:0.5 3:0 4:0.5 5:0 6:0 7:0 8:0 9:0 10:0 11:0 12:0 13:0 
8 1:0.57142857 2:0 3:0 4:0.5 5:0.090909091 6:0 7:0 8:0.90909091 9:0 10:0 11:0 12:0 13:0 
8 1:0.57142857 2:0.5 3:0 4:0.5 5:0.14285714 6:0 7:0 8:0.85714286 9:0 10:0 11:0 12:0 13:0 
2.667300638195702 1:0.58333333 2:0 3:0 4:1 5:0 6:0 7:0 8:1 9:1 10:0 11:0 12:0 13:0 
8 1:0.58518519 2:1 3:0 4:0 5:0 6:0 7:0 8:0 9:-1 10:1 11:0 12:0 13:0 
8 1:0.5952381 2:0.5 3:0 4:0.5 5:0 6:0 7:0 8:1 9:0 10:0 11:0 12:0 13:0 
8 1:0.60740741 2:0.5 3:0 4:0.5 5:0.16666667 6:0 7:0 8:0.83333333 9:0 10:0 11:0 12:0 13:0 
8 1:0.6125 2:0.5 3:0 4:0.5 5:0 6:0 7:0 8:1 9:1 10:0 11:0 12:0 13:0 
4.113326644681378 1:0.6 2:0 3:0 4:0 5:0.33333333 6:0 7:0 8:0.66666667 9:0 10:0 11:0 12:0 13:0 
8 1:0.6 2:0 3:0 4:1 5:0 6:0 7:0 8:1 9:0 10:0 11:0 12:0 13:0 
8 1:0.6 2:0 3:0 4:1 5:0 6:0 7:0.33333333 8:0.66666667 9:0 10:0 11:0 12:0 13:0 
3.987646372872661 1:0.6 2:0 3:0 4:1 5:0.28571429 6:0 7:0 8:0.71428571 9:0 10:0 11:0 12:0 13:0 
8 1:0.6 2:0.5 3:0 4:0.5 5:0 6:0 7:0 8:0 9:0 10:0 11:0 12:0 13:0 
8 1:0.6 2:0.5 3:0 4:0.5 5:0 6:0 7:0 8:1 9:0 10:0 11:0 12:0 13:0 
8 1:0.6 2:1 3:0 4:0 5:0 6:0 7:0 8:0 9:0 10:0 11:0 12:0 13:0 
0.6221569407110129 1:0.6 2:1 3:0 4:0 5:0 6:0 7:0 8:0 9:-1 10:1 11:0 12:0 13:0 
5.052964269513494 1:0.6 2:1 3:0 4:0 5:0 6:0 7:0.16666667 8:0.83333333 9:0 10:0 11:0 12:0 13:0 
8 1:0.6 2:1 3:0 4:0 5:0 6:0 7:0.2 8:0.8 9:0 10:0 11:0 12:0 13:0 
8 1:0.6 2:1 3:0 4:0 5:0 6:0 7:0.33333333 8:0.66666667 9:0 10:0 11:0 12:0 13:0 
5.910225227446373 1:0.6 2:1 3:0 4:0 5:0 6:0 7:0.5 8:0.5 9:0 10:0 11:0 12:0 13:0 
8 1:0.62666667 2:0 3:0 4:1 5:0.25 6:0 7:0.25 8:0.5 9:0 10:0 11:0 12:0 13:0 
8 1:0.63492063 2:1 3:0 4:0 5:0 6:0 7:0 8:0 9:0 10:0 11:0 12:0 13:0 
8 1:0.63809524 2:0 3:0 4:1 5:1 6:0 7:0 8:0 9:0 10:0 11:0 12:0 13:0 
7.761698730619383 1:0.65079365 2:0 3:0 4:0 5:0.11111111 6:0 7:0 8:0.88888889 9:1 10:1 11:0 12:0 13:0 
8 1:0.65 2:0.5 3:0 4:0.5 5:0.16666667 6:0 7:0 8:0.83333333 9:0 10:0 11:0 12:0 13:0 
8 1:0.65277778 2:1 3:0 4:0 5:0 6:0 7:0 8:0 9:0 10:0 11:0 12:0 13:0 
8 1:0.66666667 2:0 3:0 4:0.5 5:0 6:0 7:1 8:0 9:0 10:0 11:0 12:0 13:0 
8 1:0.66666667 2:0 3:0 4:0.5 5:0.14285714 6:0 7:0 8:0.85714286 9:0 10:0 11:0 12:0 13:0 
8 1:0.66666667 2:0 3:0 4:0.5 5:0.2 6:0 7:0 8:0.8 9:0 10:0 11:0 12:0 13:0 
8 1:0.66666667 2:0 3:0 4:1 5:0.2 6:0 7:0 8:0.8 9:0 10:0 11:0 12:0 13:0 
8 1:0.66666667 2:0 3:0 4:1 5:1 6:0 7:0 8:0 9:0 10:0 11:0 12:0 13:0 
8 1:0.66666667 2:0.5 3:0 4:0 5:0 6:0 7:0 8:0 9:1 10:0 11:0 12:0 13:0 
8 1:0.66666667 2:0.5 3:0 4:0 5:0 6:0 7:0 8:1 9:1 10:0 11:0 12:0 13:0 
8 1:0.66666667 2:0.5 3:0 4:0 5:0.11111111 6:0 7:0 8:0.88888889 9:0 10:0 11:0 12:0 13:0 
8 1:0.66666667 2:0.5 3:0 4:0 5:0.125 6:0 7:0 8:0.875 9:0 10:0 11:0 12:0 13:0 
8 1:0.66666667 2:0.5 3:0 4:0 5:0.14285714 6:0 7:0 8:0.85714286 9:0 10:0 11:0 12:0 13:0 
8 1:0.66666667 2:0.5 3:0 4:0 5:0.16666667 6:0 7:0 8:0.83333333 9:0 10:0 11:0 12:0 13:0 
8 1:0.66666667 2:0.5 3:0 4:0 5:0.2 6:0 7:0 8:0.8 9:0 10:0 11:0 12:0 13:0 
8 1:0.66666667 2:0.5 3:0 4:0.5 5:0 6:0 7:0 8:0 9:0 10:1 11:0 12:0 13:0 
8 1:0.66666667 2:0.5 3:0 4:0.5 5:0 6:0 7:0 8:1 9:0 10:0 11:0 12:0 13:0 
0.9034545612636943 1:0.66666667 2:0.5 3:0 4:0.5 5:0 6:0 7:0 8:1 9:1 10:0 11:0 12:0 13:0 
0.8424950477404257 1:0.66666667 2:0.5 3:0 4:0.5 5:0 6:0 7:1 8:0 9:0 10:0 11:0 12:0 13:0 
8 1:0.66666667 2:0.5 3:0 4:0.5 5:0.11111111 6:0 7:0 8:0.88888889 9:0 10:0 11:0 12:0 13:0 
8 1:0.66666667 2:1 3:0 4:0 5:0 6:0 7:0 8:0 9:0 10:0 11:0 12:0 13:0 
8 1:0.67592593 2:0.5 3:0 4:0 5:0 6:0 7:0 8:0 9:1 10:0 11:0 12:0 13:0 
8 1:0.67777778 2:1 3:0 4:0 5:0 6:0 7:0 8:0 9:0 10:0 11:0 12:0 13:0 
8 1:0.68166667 2:0.5 3:0 4:0 5:0 6:0 7:0 8:1 9:1 10:0 11:0 12:0 13:0 
4.718696450726134 1:0.68 2:0 3:0 4:1 5:1 6:0 7:0 8:0 9:0 10:0 11:0 12:0 13:0 
8 1:0.70222222 2:1 3:0 4:0 5:0 6:0 7:0 8:0 9:0 10:0 11:0 12:0 13:0 
5.918026719377283 1:0.70454545 2:0.5 3:0 4:0 5:0 6:0 7:0 8:0 9:1 10:0 11:0 12:0 13:0 
4.83602975003171 1:0.70454545 2:0.5 3:0 4:0 5:0 6:0 7:0 8:1 9:1 10:0 11:0 12:0 13:0 
5.331339601335153 1:0.70833333 2:1 3:0 4:0 5:0 6:0 7:0 8:0 9:0 10:0 11:0 12:0 13:0 
3.865989641618834 1:0.71428571 2:0 3:0 4:0 5:1 6:0 7:0 8:0 9:1 10:1 11:0 12:0 13:0 
7.905062024538853 1:0.71587302 2:1 3:0 4:0 5:0 6:0 7:0 8:0 9:-0.13333333 10:1 11:0 12:0 13:0 
8 1:0.7 2:0.5 3:0 4:0 5:0 6:0 7:0 8:0 9:1 10:0 11:0 12:0 13:0 
8 1:0.7 2:0.5 3:0 4:0 5:0 6:0 7:0 8:0 9:1 10:1 11:0 12:0 13:0 
8 1:0.7 2:0.5 3:0 4:0 5:0 6:0 7:0 8:1 9:1 10:0 11:0 12:0 13:0 
8 1:0.7 2:1 3:0 4:0 5:0 6:0 7:0 8:0 9:0 10:0 11:0 12:0 13:0 
8 1:0.72222222 2:0.5 3:0 4:0 5:0 6:0 7:0 8:0 9:1 10:1 11:0 12:0 13:0 
8 1:0.73333333 2:0 3:0 4:1 5:0.14285714 6:0 7:0 8:0.85714286 9:0 10:0 11:0 12:0 13:0 
8 1:0.73333333 2:0.5 3:0 4:0.5 5:0.11111111 6:0 7:0 8:0.88888889 9:0 10:0 11:0 12:0 13:0 
4.877072722444684 1:0.73333333 2:0.5 3:0 4:0.5 5:0.125 6:0 7:0 8:0.875 9:0 10:0 11:0 12:0 13:0 
8 1:0.74666667 2:1 3:0 4:0 5:0 6:0 7:0.25 8:0.75 9:0.93333333 10:0 11:0 12:0 13:0 
8 1:0.75 2:0.5 3:0 4:0.5 5:0 6:0 7:0 8:1 9:0 10:0 11:0 12:0 13:0 
1.630088350646258 1:0.75 2:1 3:0 4:0 5:0.5 6:0 7:0.5 8:0 9:1 10:0 11:0 12:0 13:0 
7.054969201521262 1:0.75925926 2:0.5 3:0 4:0 5:0 6:0 7:0 8:0 9:1 10:1 11:0 12:0 13:0 
2.770218025963474 1:0.76666667 2:0.5 3:0 4:0.5 5:1 6:0 7:0 8:0 9:-1 10:1 11:0 12:0 13:0 
8 1:0.77777778 2:0.5 3:0 4:0 5:0 6:0 7:0 8:1 9:1 10:1 11:0 12:0 13:0 
7.283673852482365 1:0.80833333 2:1 3:0 4:0 5:0 6:0 7:0 8:0 9:1 10:1 11:0 12:0 13:0 
8 1:0.8 2:0.5 3:0 4:0.5 5:0 6:0 7:0 8:1 9:0 10:0 11:0 12:0 13:0 
4.667113681617874 1:0.83333333 2:0.5 3:0 4:0 5:0 6:0 7:0 8:1 9:1 10:1 11:0 12:0 13:0 
8 1:0.83333333 2:0.5 3:0 4:0.5 5:0 6:0 7:0 8:0 9:1 10:0.41176471 11:0 12:0 13:0 
8 1:0.83333333 2:0.5 3:0 4:0.5 5:0 6:0 7:0 8:1 9:0 10:0 11:0 12:0 13:0 
8 1:0.83333333 2:0.5 3:0 4:0.5 5:0 6:0 7:0 8:1 9:1 10:1 11:0 12:0 13:0 
1.058582379785855 1:0.84444444 2:1 3:0 4:0 5:1 6:0 7:0 8:0 9:-0.86666667 10:0 11:0 12:0 13:0 
0.8577417593469773 1:0.85333333 2:1 3:0 4:0 5:1 6:0 7:0 8:0 9:-1 10:1 11:0 12:0 13:0 
8 1:0.85555556 2:0.5 3:0 4:0.5 5:1 6:0 7:0 8:0 9:1 10:1 11:0 12:0 13:0 
8 1:0.86111111 2:1 3:0 4:0 5:1 6:0 7:0 8:0 9:-1 10:1 11:0 12:0 13:0 
8 1:0.86666667 2:0.5 3:0 4:0.5 5:0 6:0 7:0 8:0 9:1 10:1 11:0 12:0 13:0 
8 1:0.86666667 2:0.5 3:0 4:0.5 5:0 6:0 7:0 8:1 9:1 10:1 11:0 12:0 13:0 
6.329654721968192 1:0.86666667 2:1 3:0 4:0 5:0.1 6:0 7:0.1 8:0.8 9:1 10:1 11:0 12:0 13:0 
8 1:0.875 2:1 3:0 4:0 5:1 6:0 7:0 8:0 9:-1 10:0 11:0 12:0 13:0 
8 1:0.87878788 2:0.5 3:0 4:0.5 5:1 6:0 7:0 8:0 9:1 10:1 11:0 12:0 13:0 
0.6265502011178792 1:0.89333333 2:1 3:0 4:0 5:0 6:1 7:0 8:0 9:1 10:0 11:0 12:0 13:0 
0.9222178590896565 1:0.89777778 2:0.5 3:0 4:0.5 5:1 6:0 7:0 8:0 9:1 10:1 11:0 12:0 13:0 
8 1:0.90505051 2:1 3:0 4:0 5:0.66666667 6:0 7:0.16666667 8:0.16666667 9:1 10:1 11:0 12:0 13:0 
2.272313218177112 1:0.91578483 2:1 3:0 4:0 5:1 6:0 7:0 8:0 9:1 10:1 11:0 12:0 13:0 
8 1:0.91717172 2:1 3:0 4:0 5:1 6:0 7:0 8:0 9:1 10:1 11:0 12:0 13:0 
8 1:0.91785714 2:1 3:0 4:0 5:1 6:0 7:0 8:0 9:1 10:1 11:0 12:0 13:0 
1.740206447345522 1:0.91794872 2:1 3:0 4:0 5:1 6:0 7:0 8:0 9:1 10:1 11:0 12:0 13:0 
8 1:0.91944444 2:1 3:0 4:0 5:1 6:0 7:0 8:0 9:1 10:1 11:0 12:0 13:0 
8 1:0.9 2:0.5 3:0 4:0.5 5:0 6:0 7:0 8:0 9:0 10:0 11:0 12:0 13:0 
8 1:0.92063492 2:1 3:0 4:0 5:1 6:0 7:0 8:0 9:1 10:1 11:0 12:0 13:0 
8 1:0.92099567 2:1 3:0 4:0 5:1 6:0 7:0 8:0 9:1 10:1 11:0 12:0 13:0 
5.679370038492263 1:0.92323232 2:1 3:0 4:0 5:1 6:0 7:0 8:0 9:1 10:1 11:0 12:0 13:0 
8 1:0.92424242 2:1 3:0 4:0 5:1 6:0 7:0 8:0 9:1 10:1 11:0 12:0 13:0 
2.604729545848731 1:0.92727273 2:0 3:0 4:1 5:1 6:0 7:0 8:0 9:1 10:1 11:0 12:0 13:0 
0.256415423087278 1:0.92727273 2:1 3:0 4:0 5:1 6:0 7:0 8:0 9:1 10:1 11:0 12:0 13:0 
8 1:0.92730463 2:1 3:0 4:0 5:1 6:0 7:0 8:0 9:1 10:1 11:0 12:0 13:0 
8 1:0.92848485 2:1 3:0 4:0 5:1 6:0 7:0 8:0 9:1 10:1 11:0 12:0 13:0 
0.742078282812626 1:0.92857143 2:0 3:0 4:1 5:1 6:0 7:0 8:0 9:1 10:0.19148936 11:0 12:0 13:0 
8 1:0.92857143 2:1 3:0 4:0 5:1 6:0 7:0 8:0 9:1 10:1 11:0 12:0 13:0 
4.350723685971295 1:0.92944833 2:1 3:0 4:0 5:1 6:0 7:0 8:0 9:1 10:1 11:0 12:0 13:0 
8 1:0.93030303 2:1 3:0 4:0 5:1 6:0 7:0 8:0 9:1 10:1 11:0 12:0 13:0 
0.8423260217787002 1:0.93212121 2:1 3:0 4:0 5:1 6:0 7:0 8:0 9:1 10:1 11:0 12:0 13:0 
8 1:0.93232323 2:1 3:0 4:0 5:1 6:0 7:0 8:0 9:1 10:1 11:0 12:0 13:0 
1.131860497413518 1:0.93636364 2:1 3:0 4:0 5:1 6:0 7:0 8:0 9:1 10:1 11:0 12:0 13:0 
7.488491383677919 1:0.93884298 2:1 3:0 4:0 5:1 6:0 7:0 8:0 9:1 10:1 11:0 12:0 13:0 
0.2951741269885059 1:0.95238095 2:0.5 3:0.5 4:0 5:0 6:0 7:0 8:1 9:1 10:1 11:0 12:0 13:0 
2.761037795469993 1:0.95238095 2:1 3:0 4:0 5:0 6:0.33333333 7:0 8:0.66666667 9:1 10:1 11:0 12:0 13:0 
3.544318674208296 1:0.96717172 2:0.5 3:0 4:0.5 5:1 6:0 7:0 8:0 9:1 10:1 11:0 12:0 13:0 
8 1:0.98148148 2:1 3:0 4:0 5:0.84615385 6:0 7:0.076923077 8:0.076923077 9:1 10:1 11:0 12:0 13:0 
3.348727186175739 1:0.98333333 2:1 3:0 4:0 5:0.83333333 6:0.16666667 7:0 8:0 9:1 10:1 11:0 12:0 13:0 
8 1:0.98888889 2:1 3:0 4:0 5:0 6:0 7:0 8:1 9:0.93333333 10:1 11:0 12:0 13:0 
1.093865486846827 1:0.99206349 2:1 3:0 4:0 5:0 6:0 7:0 8:0 9:1 10:1 11:0 12:0 13:0 
8 1:0.99393939 2:1 3:0 4:0 5:0 6:0 7:0 8:0 9:1 10:1 11:0 12:0 13:0 
3.914130351885562 1:0.99393939 2:1 3:0 4:0 5:0 6:0 7:0 8:1 9:1 10:1 11:0 12:0 13:0 
8 1:0.99494949 2:1 3:0 4:0 5:0 6:0 7:0 8:0 9:1 10:1 11:0 12:0 13:0 
8 1:0.99506173 2:1 3:0 4:0 5:0 6:0 7:0 8:1 9:1 10:1 11:0 12:0 13:0 
7.469766044117193 1:0.99575758 2:1 3:0 4:0 5:1 6:0 7:0 8:0 9:1 10:0 11:0 12:0 13:0 
4.973988876429503 1:0.9959596 2:0.5 3:0 4:0.5 5:1 6:0 7:0 8:0 9:1 10:1 11:0 12:0 13:0 
8 1:0.9959596 2:1 3:0 4:0 5:0 6:0 7:0 8:0 9:1 10:1 11:0 12:0 13:0 
8 1:0.9962963 2:1 3:0 4:0 5:0 6:0 7:0 8:0 9:1 10:1 11:0 12:0 13:0 
8 1:0.99659864 2:1 3:0 4:0 5:1 6:0 7:0 8:0 9:1 10:0 11:0 12:0 13:0 
8 1:0.996633 2:1 3:0 4:0 5:1 6:0 7:0 8:0 9:1 10:0 11:0 12:0 13:0 
8 1:0.9968254 2:1 3:0 4:0 5:0 6:0 7:0 8:1 9:1 10:1 11:0 12:0 13:0 
8 1:0.9969697 2:1 3:0 4:0 5:0 6:0 7:0 8:0 9:1 10:1 11:0 12:0 13:0 
3.855993891346265 1:0.9969697 2:1 3:0 4:0 5:0 6:0 7:0 8:1 9:1 10:0 11:0 12:0 13:0 
8 1:0.9969697 2:1 3:0 4:0 5:0 6:0 7:0 8:1 9:1 10:1 11:0 12:0 13:0 
8 1:0.9969697 2:1 3:0 4:0 5:1 6:0 7:0 8:0 9:1 10:0 11:0 12:0 13:0 
8 1:0.9970696 2:1 3:0 4:0 5:1 6:0 7:0 8:0 9:1 10:0 11:0 12:0 13:0 
8 1:0.99772727 2:1 3:0 4:0 5:0.90909091 6:0 7:0 8:0.090909091 9:1 10:1 11:0 12:0 13:0 
8 1:0.9979798 2:1 3:0 4:0 5:0 6:0 7:0 8:0 9:1 10:1 11:0 12:0 13:0 
8 1:0.9984127 2:1 3:0 4:0 5:0 6:0 7:0 8:0 9:1 10:1 11:0 12:0 13:0 
8 1:0.9984127 2:1 3:0 4:0 5:1 6:0 7:0 8:0 9:1 10:0 11:0 12:0 13:0 
8 1:0.99848485 2:1 3:0 4:0 5:0 6:0 7:0 8:1 9:1 10:0 11:0 12:0 13:0 
8 1:0.9989899 2:1 3:0 4:0 5:0 6:0 7:0 8:0 9:1 10:1 11:0 12:0 13:0 
8 1:0.9989899 2:1 3:0 4:0 5:0 6:0 7:0 8:1 9:1 10:1 11:0 12:0 13:0 
8 1:0.9989899 2:1 3:0 4:0 5:1 6:0 7:0 8:0 9:1 10:0 11:0 12:0 13:0 
8 1:0.9991342 2:1 3:0 4:0 5:1 6:0 7:0 8:0 9:1 10:0 11:0 12:0 13:0 
1.979149023459654 1:0.99924242 2:1 3:0 4:0 5:1 6:0 7:0 8:0 9:0 10:0 11:0 12:0 13:0 
8 1:0.9993266 2:1 3:0 4:0 5:1 6:0 7:0 8:0 9:0 10:0 11:0 12:0 13:0 
8 1:0.9993266 2:1 3:0 4:0 5:1 6:0 7:0 8:0 9:1 10:0 11:0 12:0 13:0 
8 1:0.99939394 2:1 3:0 4:0 5:1 6:0 7:0 8:0 9:0 10:0 11:0 12:0 13:0 
8 1:0.9995671 2:1 3:0 4:0 5:1 6:0 7:0 8:0 9:1 10:0 11:0 12:0 13:0 
8 1:1 2:0.5 3:0 4:0.5 5:0 6:0 7:0 8:0 9:0 10:0 11:0 12:0 13:0 
8 1:1 2:0.5 3:0 4:0.5 5:0 6:0 7:0 8:0 9:1 10:1 11:0 12:0 13:0 
8 1:1 2:0.5 3:0 4:0.5 5:1 6:0 7:0 8:0 9:1 10:1 11:0 12:0 13:0 
8 1:1 2:0.5 3:0.5 4:0 5:0 6:0 7:0 8:0 9:0 10:0 11:0 12:0 13:0 
8 1:1 2:0.5 3:0.5 4:0 5:0 6:0 7:0 8:1 9:0 10:0 11:0 12:0 13:0 
8 1:1 2:1 3:0 4:0 5:0 6:0 7:0 8:0 9:1 10:1 11:0 12:0 13:0 
8 1:1 2:1 3:0 4:0 5:0 6:0 7:0 8:1 9:1 10:0 11:0 12:0 13:0 
8 1:1 2:1 3:0 4:0 5:0 6:0 7:0 8:1 9:1 10:1 11:0 12:0 13:0 
8 1:1 2:1 3:0 4:0 5:0.6 6:0 7:0.2 8:0.2 9:1 10:1 11:0 12:0 13:0 
8 1:1 2:1 3:0 4:0 5:0.66666667 6:0 7:0.33333333 8:0 9:1 10:1 11:0 12:0 13:0 
0.2102159356939431 1:1 2:1 3:0 4:0 5:0.75 6:0 7:0.25 8:0 9:1 10:1 11:0 12:0 13:0 
0.8501043541836995 1:1 2:1 3:0 4:0 5:0.88888889 6:0 7:0 8:0.11111111 9:1 10:1 11:0 12:0 13:0 
8 1:1 2:1 3:0 4:0 5:0.90909091 6:0 7:0 8:0.090909091 9:1 10:1 11:0 12:0 13:0 
8 1:1 2:1 3:0 4:0 5:0.91666667 6:0 7:0 8:0.083333333 9:1 10:1 11:0 12:0 13:0 
8 1:1 2:1 3:0 4:0 5:0.9 6:0 7:0 8:0.1 9:1 10:1 11:0 12:0 13:0 
8 1:1 2:1 3:0 4:0 5:1 6:0 7:0 8:0 9:0 10:0 11:0 12:0 13:0 
8 1:1 2:1 3:0 4:0 5:1 6:0 7:0 8:0 9:1 10:0 11:0 12:0 13:0 
-8 1:0 2:0.5 3:0 4:0 5:0 6:0 7:0 8:0 9:-1 10:1 11:0 12:0 13:0 
-8 1:0 2:0.5 3:0 4:0 5:0 6:0 7:0 8:1 9:-1 10:1 11:0 12:0 13:0 
-8 1:0 2:0.5 3:0 4:0 5:0 6:0 7:1 8:0 9:0 10:0 11:0 12:0 13:0 
-8 1:-0.025 2:0.5 3:0 4:0.5 5:0 6:0 7:0 8:1 9:-1 10:0 11:0 12:0 13:0 
-8 1:-0.033333333 2:0.5 3:0 4:0 5:0 6:0 7:0 8:0 9:-1 10:0.46341463 11:0 12:0 13:0 
-5.746620117028966 1:-0.08 2:0.5 3:0 4:0 5:0 6:0 7:0 8:1 9:-1 10:1 11:0 12:0 13:0 
-5.852240462497701 1:0.095238095 2:0.5 3:0 4:0.5 5:0 6:0 7:0.2 8:0.8 9:-1 10:1 11:0 12:0 13:0 
-0.0761020059151027 1:-0.14285714 2:0.5 3:0 4:0.5 5:0 6:0 7:1 8:0 9:-1 10:1 11:0 12:0 13:0 
-7.844210215327569 1:-0.15 2:0.5 3:0 4:0 5:0 6:0 7:0 8:0 9:-1 10:1 11:0 12:0 13:0 
-3.020524643683231 1:0.16666667 2:0.5 3:0 4:0 5:0 6:0 7:0 8:0 9:0 10:0 11:0 12:0 13:0 
-6.483240069283643 1:0.19393939 2:0.5 3:0 4:0 5:0 6:0 7:0 8:1 9:0 10:0 11:0 12:0 13:0 
-1.459773108950292 1:0.2125 2:0.5 3:0 4:0.5 5:0 6:0 7:0 8:1 9:0 10:0 11:0 12:0 13:0 
-8 1:0.21428571 2:0.5 3:0 4:0.5 5:0 6:0 7:0 8:1 9:0 10:0 11:0 12:0 13:0 
-8 1:0.2 2:0.5 3:0 4:0 5:0 6:0 7:0 8:1 9:0 10:0 11:0 12:0 13:0 
-8 1:0.2 2:1 3:0 4:0 5:0 6:0 7:0 8:1 9:-1 10:1 11:0 12:0 13:0 
-2.392625422174168 1:0.22222222 2:0 3:0 4:0 5:0.125 6:0 7:0 8:0.875 9:0 10:0 11:0 12:0 13:0 
-8 1:0.22222222 2:0 3:0 4:0 5:1 6:0 7:0 8:0 9:0 10:0 11:0 12:0 13:0 
-8 1:0.22222222 2:0.5 3:0 4:0 5:0 6:0 7:0 8:1 9:0 10:0 11:0 12:0 13:0 
-8 1:0.22222222 2:1 3:0 4:0 5:0 6:0 7:0 8:1 9:0 10:0 11:0 12:0 13:0 
-8 1:0.23333333 2:0.5 3:0 4:0.5 5:0 6:0 7:0 8:1 9:0 10:0 11:0 12:0 13:0 
-8 1:0.24166667 2:0.5 3:0 4:0.5 5:0 6:0 7:0 8:1 9:0 10:0 11:0 12:0 13:0 
-8 1:-0.24 2:0.5 3:0 4:0 5:0 6:0 7:0 8:1 9:-1 10:0 11:0 12:0 13:0 
-7.023806029436673 1:0.24444444 2:0.5 3:0 4:0.5 5:0 6:0 7:0.16666667 8:0.83333333 9:0 10:0 11:0 12:0 13:0 
-8 1:-0.25 2:0.5 3:0 4:0 5:0 6:0 7:0 8:0 9:-1 10:0 11:0 12:0 13:0 
-8 1:0.25 2:0.5 3:0 4:0 5:0 6:0 7:0 8:1 9:0 10:0 11:0 12:0 13:0 
-3.914952554920163 1:-0.25 2:0.5 3:0 4:0 5:0 6:0 7:0 8:1 9:-1 10:0 11:0 12:0 13:0 
-8 1:0.25 2:0.5 3:0 4:0.5 5:0 6:0 7:0 8:1 9:0 10:0 11:0 12:0 13:0 
-8 1:0.26262626 2:0.5 3:0 4:0 5:0 6:0 7:0 8:1 9:0 10:0 11:0 12:0 13:0 
-8 1:0.26666667 2:0 3:0 4:0 5:0.14285714 6:0 7:0 8:0.85714286 9:0 10:0 11:0 12:0 13:0 
-8 1:0.26666667 2:0 3:0 4:0 5:0.25 6:0 7:0 8:0.75 9:0 10:0 11:0 12:0 13:0 
-8 1:0.26666667 2:0 3:0 4:0 5:1 6:0 7:0 8:0 9:0 10:0 11:0 12:0 13:0 
-8 1:0.26666667 2:0 3:0 4:0.5 5:1 6:0 7:0 8:0 9:0 10:0 11:0 12:0 13:0 
-8 1:0.26666667 2:0.5 3:0 4:0 5:0 6:0 7:0 8:1 9:0 10:0 11:0 12:0 13:0 
-8 1:0.26666667 2:0.5 3:0 4:0 5:0 6:0 7:0.090909091 8:0.90909091 9:0 10:0 11:0 12:0 13:0 
-8 1:0.26666667 2:0.5 3:0 4:0 5:0 6:0 7:0.125 8:0.875 9:0 10:0 11:0 12:0 13:0 
-8 1:0.26666667 2:0.5 3:0 4:0 5:0 6:0 7:0.16666667 8:0.83333333 9:0 10:0 11:0 12:0 13:0 
-8 1:0.26666667 2:0.5 3:0 4:0.5 5:0 6:0 7:0.33333333 8:0.66666667 9:0 10:0 11:0 12:0 13:0 
-8 1:0.27777778 2:0 3:0 4:0 5:0.2 6:0 7:0 8:0.8 9:0 10:0 11:0 12:0 13:0 
-8 1:0.27777778 2:0.5 3:0 4:0 5:0 6:0 7:0 8:0 9:0 10:0 11:0 12:0 13:0 
-8 1:0.27777778 2:0.5 3:0 4:0 5:0 6:0 7:0 8:1 9:0 10:0 11:0 12:0 13:0 
-8 1:0.27777778 2:0.5 3:0 4:0.5 5:0 6:0 7:0 8:0 9:0 10:0 11:0 12:0 13:0 
-8 1:0.28571429 2:0.5 3:0 4:0.5 5:0 6:0 7:0 8:1 9:0 10:0 11:0 12:0 13:0 
-8 1:0.29166667 2:0.5 3:0 4:0 5:0 6:0 7:0 8:1 9:0 10:0 11:0 12:0 13:0 
-8 1:0.2962963 2:0 3:0 4:0 5:1 6:0 7:0 8:0 9:0 10:0 11:0 12:0 13:0 
-8 1:0.30666667 2:0.5 3:0 4:0 5:0 6:0 7:0 8:1 9:0 10:0 11:0 12:0 13:0 
-8 1:0.3 2:0.5 3:0 4:0 5:0 6:0 7:0 8:0 9:0 10:0 11:0 12:0 13:0 
-8 1:0.3 2:0.5 3:0 4:0 5:0 6:0 7:0 8:1 9:0 10:0 11:0 12:0 13:0 
-8 1:0.3 2:0.5 3:0 4:0 5:0 6:0 7:0 8:1 9:-0.8 10:0 11:0 12:0 13:0 
-8 1:0.3 2:0.5 3:0 4:0.5 5:0 6:0 7:0 8:1 9:0 10:0 11:0 12:0 13:0 
-8 1:0.32 2:1 3:0 4:0 5:0 6:0 7:0 8:0 9:-0.4 10:-0.11111111 11:0 12:0 13:0 
-8 1:0.33333333 2:0 3:0 4:0 5:0.11111111 6:0 7:0 8:0.88888889 9:0 10:0 11:0 12:0 13:0 
-8 1:0.33333333 2:0 3:0 4:0 5:0.125 6:0 7:0 8:0.875 9:0 10:0 11:0 12:0 13:0 
-8 1:0.33333333 2:0 3:0 4:0 5:0.14285714 6:0 7:0 8:0.85714286 9:0 10:0 11:0 12:0 13:0 
-8 1:0.33333333 2:0 3:0 4:0 5:0.16666667 6:0 7:0 8:0.83333333 9:0 10:0 11:0 12:0 13:0 
-8 1:0.33333333 2:0 3:0 4:0 5:0.25 6:0 7:0 8:0.75 9:0 10:0 11:0 12:0 13:0 
-8 1:0.33333333 2:0 3:0 4:0 5:0.2 6:0 7:0 8:0.8 9:0 10:0 11:0 12:0 13:0 
-8 1:0.33333333 2:0 3:0 4:0 5:0.33333333 6:0 7:0 8:0.66666667 9:0 10:0 11:0 12:0 13:0 
-8 1:0.33333333 2:0 3:0 4:0 5:0.5 6:0 7:0 8:0.5 9:0 10:0 11:0 12:0 13:0 
-8 1:0.33333333 2:0 3:0 4:0 5:1 6:0 7:0 8:0 9:0 10:0 11:0 12:0 13:0 
-8 1:0.33333333 2:0 3:0 4:1 5:0.2 6:0 7:0 8:0.8 9:0 10:0 11:0 12:0 13:0 
-8 1:0.33333333 2:0 3:0 4:1 5:0.33333333 6:0 7:0 8:0.66666667 9:0 10:0 11:0 12:0 13:0 
-8 1:0.33333333 2:0.5 3:0 4:0 5:0 6:0 7:0 8:0 9:0 10:0 11:0 12:0 13:0 
-8 1:0.33333333 2:0.5 3:0 4:0 5:0 6:0 7:0 8:1 9:0 10:0 11:0 12:0 13:0 
-8 1:0.33333333 2:0.5 3:0 4:0.5 5:0 6:0 7:0 8:1 9:0 10:0 11:0 12:0 13:0 
-8 1:0.33333333 2:0.5 3:0 4:0.5 5:0 6:0 7:0 8:1 9:1 10:0 11:0 12:0 13:0 
-8 1:0.33333333 2:0.5 3:0 4:0.5 5:0 6:0 7:0.14285714 8:0.85714286 9:0 10:0 11:0 12:0 13:0 
-8 1:0.33333333 2:1 3:0 4:0 5:0 6:0 7:0.14285714 8:0.85714286 9:0 10:0 11:0 12:0 13:0 
-1.039491190715051 1:0.3447619 2:0 3:0 4:1 5:0 6:0 7:0.5 8:0.5 9:-1 10:1 11:0 12:0 13:0 
-6.673008888990208 1:0.3452381 2:0 3:0 4:1 5:0 6:0 7:0.22222222 8:0.77777778 9:0 10:0 11:0 12:0 13:0 
-8 1:0.35714286 2:0.5 3:0 4:0 5:0 6:0 7:0 8:0 9:0 10:0 11:0 12:0 13:0 
-8 1:0.35714286 2:0.5 3:0 4:0 5:0 6:0 7:0 8:1 9:0 10:0 11:0 12:0 13:0 
-8 1:0.36666667 2:0.5 3:0 4:0 5:0 6:0 7:0 8:1 9:0 10:0 11:0 12:0 13:0 
-8 1:0.375 2:0.5 3:0 4:0 5:0 6:0 7:0 8:0 9:0 10:0 11:0 12:0 13:0 
-8 1:0.375 2:0.5 3:0 4:0 5:0 6:0 7:0 8:1 9:0 10:0 11:0 12:0 13:0 
-8 1:0.375 2:0.5 3:0 4:0.5 5:0 6:0 7:0 8:0 9:0 10:0 11:0 12:0 13:0 
-8 1:0.38888889 2:0.5 3:0 4:0 5:0 6:0 7:0 8:1 9:0 10:0 11:0 12:0 13:0 
-8 1:0.39333333 2:0.5 3:0 4:0 5:0 6:0 7:0 8:1 9:0 10:0 11:0 12:0 13:0 
-8 1:0.40909091 2:0.5 3:0 4:0 5:0 6:0 7:0 8:0 9:0 10:0 11:0 12:0 13:0 
-8 1:0.40909091 2:0.5 3:0 4:0 5:0 6:0 7:0 8:1 9:0 10:0 11:0 12:0 13:0 
-8 1:0.41666667 2:0.5 3:0 4:0.5 5:0 6:0 7:0 8:1 9:0 10:0 11:0 12:0 13:0 
-8 1:0.4 2:0.5 3:0 4:0 5:0 6:0 7:0 8:0 9:0 10:0 11:0 12:0 13:0 
-1.169240596892218 1:-0.4 2:0.5 3:0 4:0 5:0 6:0 7:0 8:0 9:-1 10:-0.2 11:0 12:0 13:0 
-8 1:0.4 2:0.5 3:0 4:0 5:0 6:0 7:0 8:1 9:0 10:0 11:0 12:0 13:0 
-8 1:0.4 2:0.5 3:0 4:0.5 5:0 6:0 7:0 8:0 9:0 10:0 11:0 12:0 13:0 
-8 1:0.4 2:0.5 3:0 4:0.5 5:0 6:0 7:0 8:1 9:0 10:0 11:0 12:0 13:0 
-8 1:0.43535354 2:0.5 3:0 4:0.5 5:0 6:0 7:0 8:0 9:0 10:0 11:0 12:0 13:0 
-8 1:0.4375 2:0.5 3:0 4:0 5:0 6:0 7:0 8:0 9:0 10:0 11:0 12:0 13:0 
-8 1:0.4375 2:0.5 3:0 4:0 5:0 6:0 7:0 8:1 9:0 10:0 11:0 12:0 13:0 
-8 1:0.4375 2:0.5 3:0 4:0.5 5:0 6:0 7:0 8:1 9:0 10:0 11:0 12:0 13:0 
-8 1:0.44444444 2:0.5 3:0 4:0 5:0 6:0 7:0.25 8:0.75 9:0 10:0 11:0 12:0 13:0 
-8 1:0.45 2:0.5 3:0 4:0 5:0 6:0 7:0 8:1 9:0 10:0 11:0 12:0 13:0 
-8 1:0.45238095 2:0.5 3:0 4:0 5:0 6:0 7:0 8:1 9:0 10:0 11:0 12:0 13:0 
-8 1:0.46060606 2:0.5 3:0 4:0 5:0 6:0 7:0 8:0 9:0 10:0 11:0 12:0 13:0 
-8 1:0.46060606 2:0.5 3:0 4:0 5:0 6:0 7:0 8:1 9:0 10:0 11:0 12:0 13:0 
-8 1:0.46190476 2:0.5 3:0 4:0 5:0 6:0 7:0 8:0 9:0 10:0 11:0 12:0 13:0 
-8 1:0.46666667 2:1 3:0 4:0 5:0.83333333 6:0 7:0 8:0.16666667 9:1 10:-0.12 11:0 12:0 13:0 
-8 1:0.47142857 2:1 3:0 4:0 5:0 6:0 7:0 8:0 9:0 10:0 11:0 12:0 13:0 
-8 1:0.47878788 2:0.5 3:0 4:0 5:0 6:0 7:0 8:1 9:0 10:0 11:0 12:0 13:0 
-8 1:0.49393939 2:0.5 3:0 4:0 5:0 6:0 7:0 8:0 9:0 10:0 11:0 12:0 13:0 
-8 1:0.4969697 2:0.5 3:0 4:0 5:0 6:0 7:0 8:0 9:0 10:0 11:0 12:0 13:0 
-8 1:0.4969697 2:0.5 3:0 4:0 5:0 6:0 7:0 8:1 9:0 10:0 11:0 12:0 13:0 
-7.433847653845654 1:0.5 2:0 3:0 4:0.5 5:0 6:0 7:0 8:0 9:0 10:0 11:0 12:0 13:0 
-8 1:0.5 2:0 3:0 4:0.5 5:0 6:0 7:0 8:1 9:0 10:0 11:0 12:0 13:0 
-8 1:0.5 2:0 3:0.5 4:0 5:0 6:0 7:0 8:0 9:0 10:0 11:0 12:0 13:0 
-7.338952898997542 1:0.5 2:0 3:0.5 4:0 5:0 6:0 7:0 8:1 9:0 10:0 11:0 12:0 13:0 
-8 1:0.5 2:0.5 3:0 4:0 5:0 6:0 7:0 8:0 9:0 10:0 11:0 12:0 13:0 
-8 1:0.5 2:0.5 3:0 4:0 5:0 6:0 7:0 8:1 9:0 10:0 11:0 12:0 13:0 
-8 1:0.5 2:0.5 3:0 4:0.5 5:0 6:0 7:0 8:0 9:0 10:0 11:0 12:0 13:0 
-8 1:0.5 2:0.5 3:0 4:0.5 5:0 6:0 7:0 8:1 9:0 10:0 11:0 12:0 13:0 
-8 1:0.5 2:0.5 3:0 4:0.5 5:0 6:0 7:0 8:1 9:1 10:0 11:0 12:0 13:0 
-8 1:0.5 2:0.5 3:0 4:0.5 5:0 6:0 7:0.14285714 8:0.85714286 9:0 10:0 11:0 12:0 13:0 
-8 1:0.5 2:0.5 3:0 4:0.5 5:1 6:0 7:0 8:0 9:1 10:0.5 11:0 12:0 13:0 
-8 1:0.5 2:1 3:0 4:0 5:0 6:0 7:0 8:0 9:0 10:0 11:0 12:0 13:0 
-8 1:0.53333333 2:0 3:0 4:1 5:0 6:0.16666667 7:0 8:0.83333333 9:0 10:0 11:0 12:0 13:0 
-8 1:0.55555556 2:0 3:0 4:1 5:0 6:0.11111111 7:0 8:0.88888889 9:0 10:0 11:0 12:0 13:0 
-8 1:0.55555556 2:0.5 3:0 4:0 5:1 6:0 7:0 8:0 9:0 10:0 11:0 12:0 13:0 
-8 1:0.55555556 2:0.5 3:0 4:0.5 5:0 6:0 7:0 8:1 9:0 10:0 11:0 12:0 13:0 
-0.953636740166978 1:-0.56 2:0.5 3:0 4:0 5:0 6:0 7:0 8:1 9:-1 10:-0.63636364 11:0 12:0 13:0 
-8 1:0.56555556 2:1 3:0 4:0 5:0 6:0 7:1 8:0 9:0 10:0 11:0 12:0 13:0 
-8 1:0.57777778 2:1 3:0 4:0 5:0 6:0 7:0 8:0 9:-0.73333333 10:1 11:0 12:0 13:0 
-8 1:0.6 2:0 3:0 4:0 5:0.16666667 6:0 7:0 8:0.83333333 9:1 10:0 11:0 12:0 13:0 
-8 1:0.6 2:0 3:0 4:0 5:0.5 6:0 7:0 8:0.5 9:1 10:0 11:0 12:0 13:0 
-8 1:0.6 2:0.5 3:0 4:0.5 5:0 6:0 7:0 8:0 9:1 10:0.3877551 11:0 12:0 13:0 
-8 1:0.6 2:0.5 3:0 4:0.5 5:0 6:0 7:0.25 8:0.75 9:0 10:0 11:0 12:0 13:0 
-8 1:0.6 2:1 3:0 4:0 5:0 6:0 7:0 8:0 9:0 10:0 11:0 12:0 13:0 
-8 1:0.6 2:1 3:0 4:0 5:0 6:0 7:0 8:1 9:0 10:0 11:0 12:0 13:0 
-8 1:0.6 2:1 3:0 4:0 5:1 6:0 7:0 8:0 9:-1 10:0 11:0 12:0 13:0 
-8 1:0.625 2:1 3:0 4:0 5:0 6:0 7:0 8:0 9:0 10:0 11:0 12:0 13:0 
-8 1:0.63333333 2:0.5 3:0 4:0 5:0 6:0 7:0 8:1 9:0.53333333 10:0 11:0 12:0 13:0 
-8 1:0.63581267 2:1 3:0 4:0 5:1 6:0 7:0 8:0 9:-1 10:0 11:0 12:0 13:0 
-8 1:0.64444444 2:0 3:0 4:1 5:0.11111111 6:0 7:0 8:0.88888889 9:0 10:0 11:0 12:0 13:0 
-8 1:0.66666667 2:0 3:0 4:0.5 5:0.11111111 6:0 7:0 8:0.88888889 9:0 10:0 11:0 12:0 13:0 
-8 1:0.66666667 2:0 3:0 4:0.5 5:0.5 6:0 7:0 8:0.5 9:0 10:0 11:0 12:0 13:0 
-8 1:0.66666667 2:0 3:0 4:0.5 5:1 6:0 7:0 8:0 9:0 10:0 11:0 12:0 13:0 
-8 1:0.66666667 2:0 3:0 4:1 5:1 6:0 7:0 8:0 9:0 10:0 11:0 12:0 13:0 
-8 1:0.66666667 2:0 3:0.5 4:0 5:0 6:0 7:0 8:1 9:0 10:0 11:0 12:0 13:0 
-8 1:0.66666667 2:0.5 3:0 4:0 5:0 6:0 7:0 8:1 9:0 10:0 11:0 12:0 13:0 
-8 1:0.66666667 2:0.5 3:0 4:0.5 5:0 6:0 7:0 8:1 9:0 10:0 11:0 12:0 13:0 
-8 1:0.66666667 2:1 3:0 4:0 5:0 6:0 7:0 8:0 9:-1 10:1 11:0 12:0 13:0 
-8 1:0.66666667 2:1 3:0 4:0 5:0 6:0 7:0 8:1 9:0 10:0 11:0 12:0 13:0 
-8 1:0.71428571 2:0 3:0 4:0 5:0.2 6:0 7:0 8:0.8 9:1 10:1 11:0 12:0 13:0 
-8 1:0.71428571 2:0 3:0 4:0 5:1 6:0 7:0 8:0 9:1 10:1 11:0 12:0 13:0 
-8 1:0.71428571 2:0.5 3:0 4:0 5:0.125 6:0 7:0 8:0.875 9:1 10:1 11:0 12:0 13:0 
-8 1:0.7 2:0 3:0 4:1 5:0 6:0 7:0.4 8:0.6 9:0 10:0 11:0 12:0 13:0 
-8 1:0.7 2:0.5 3:0 4:0.5 5:0 6:0 7:0 8:1 9:1 10:1 11:0 12:0 13:0 
-8 1:0.7 2:1 3:0 4:0 5:0 6:0 7:0 8:0 9:-0.8 10:1 11:0 12:0 13:0 
-8 1:0.73968254 2:0.5 3:0 4:0.5 5:0 6:0 7:0 8:1 9:0 10:0 11:0 12:0 13:0 
-8 1:0.74285714 2:1 3:0 4:0 5:1 6:0 7:0 8:0 9:1 10:1 11:0 12:0 13:0 
-8 1:0.75151515 2:0.5 3:0 4:0.5 5:1 6:0 7:0 8:0 9:-1 10:1 11:0 12:0 13:0 
-8 1:0.75 2:0 3:0 4:1 5:0.2 6:0 7:0 8:0.8 9:0 10:0 11:0 12:0 13:0 
-8 1:0.75 2:0.5 3:0 4:0 5:0 6:0 7:0 8:0 9:1 10:0 11:0 12:0 13:0 
-8 1:0.75 2:0.5 3:0 4:0 5:0 6:0 7:0 8:1 9:1 10:0 11:0 12:0 13:0 
-8 1:0.75 2:1 3:0 4:0 5:0 6:0 7:0 8:0 9:0 10:0 11:0 12:0 13:0 
-8 1:0.75 2:1 3:0 4:0 5:0 6:0 7:0 8:0 9:1 10:0 11:0 12:0 13:0 
-8 1:0.76484848 2:1 3:0 4:0 5:0.8 6:0 7:0.2 8:0 9:1 10:0 11:0 12:0 13:0 
-8 1:0.77142857 2:0.5 3:0 4:0.5 5:0 6:0 7:0.5 8:0.5 9:1 10:1 11:0 12:0 13:0 
-8 1:0.77666667 2:1 3:0 4:0 5:0 6:0 7:0 8:0 9:0 10:0 11:0 12:0 13:0 
-8 1:0.77777778 2:0.5 3:0 4:0.5 5:0 6:0 7:0 8:1 9:1 10:0 11:0 12:0 13:0 
-8 1:0.77777778 2:1 3:0 4:0 5:0 6:0 7:0 8:1 9:0 10:0 11:0 12:0 13:0 
-8 1:0.77777778 2:1 3:0 4:0 5:1 6:0 7:0 8:0 9:0 10:0 11:0 12:0 13:0 
-8 1:0.78518519 2:1 3:0 4:0 5:1 6:0 7:0 8:0 9:0 10:0 11:0 12:0 13:0 
-8 1:0.78835104 2:1 3:0 4:0 5:1 6:0 7:0 8:0 9:-1 10:1 11:0 12:0 13:0 
-8 1:0.79166667 2:0.5 3:0 4:0 5:0 6:0 7:0 8:0 9:1 10:1 11:0 12:0 13:0 
-8 1:0.81944444 2:1 3:0 4:0 5:0.66666667 6:0 7:0 8:0.33333333 9:1 10:1 11:0 12:0 13:0 
-8 1:0.82222222 2:0.5 3:0 4:0.5 5:0.25 6:0 7:0 8:0.75 9:1 10:0 11:0 12:0 13:0 
-8 1:0.83111111 2:1 3:0 4:0 5:1 6:0 7:0 8:0 9:1 10:0 11:0 12:0 13:0 
-8 1:0.83333333 2:0.5 3:0 4:0 5:0 6:0 7:0 8:0 9:1 10:1 11:0 12:0 13:0 
-8 1:0.83333333 2:0.5 3:0 4:0 5:0 6:0 7:0 8:1 9:1 10:1 11:0 12:0 13:0 
-8 1:0.83333333 2:0.5 3:0 4:0.5 5:0 6:0 7:0 8:1 9:0 10:0 11:0 12:0 13:0 
-8 1:0.83333333 2:1 3:0 4:0 5:0 6:0 7:0 8:0 9:1 10:1 11:0 12:0 13:0 
-8 1:0.83333333 2:1 3:0 4:0 5:0 6:0 7:0 8:1 9:1 10:1 11:0 12:0 13:0 
-8 1:0.83333333 2:1 3:0 4:0 5:1 6:0 7:0 8:0 9:1 10:1 11:0 12:0 13:0 
-8 1:0.83506173 2:1 3:0 4:0 5:1 6:0 7:0 8:0 9:1 10:0.29411765 11:0 12:0 13:0 
-8 1:0.84343434 2:1 3:0 4:0 5:0 6:0 7:0 8:1 9:1 10:0 11:0 12:0 13:0 
-8 1:0.86666667 2:0.5 3:0 4:0.5 5:0 6:0 7:0 8:0 9:1 10:1 11:0 12:0 13:0 
-8 1:0.86666667 2:1 3:0 4:0 5:0 6:0 7:0 8:0 9:1 10:1 11:0 12:0 13:0 
-8 1:0.8707483 2:1 3:0 4:0 5:1 6:0 7:0 8:0 9:0 10:0 11:0 12:0 13:0 
-8 1:0.875 2:1 3:0 4:0 5:0 6:0 7:0 8:0 9:1 10:0 11:0 12:0 13:0 
-8 1:0.875 2:1 3:0 4:0 5:0 6:0 7:0 8:0 9:1 10:1 11:0 12:0 13:0 
-8 1:0.88888889 2:1 3:0 4:0 5:0 6:0 7:0 8:0 9:1 10:1 11:0 12:0 13:0 
-8 1:0.88888889 2:1 3:0 4:0 5:0.33333333 6:0 7:0 8:0.66666667 9:0 10:0 11:0 12:0 13:0 
-8 1:0.91111111 2:0.5 3:0 4:0.5 5:1 6:0 7:0 8:0 9:1 10:1 11:0 12:0 13:0 
-8 1:0.91313131 2:1 3:0 4:0 5:1 6:0 7:0 8:0 9:0 10:0 11:0 12:0 13:0 
-8 1:0.91515152 2:0.5 3:0 4:0.5 5:1 6:0 7:0 8:0 9:1 10:1 11:0 12:0 13:0 
-8 1:0.91555556 2:0.5 3:0 4:0.5 5:1 6:0 7:0 8:0 9:1 10:1 11:0 12:0 13:0 
-8 1:0.91623932 2:1 3:0 4:0 5:0.875 6:0 7:0 8:0.125 9:1 10:1 11:0 12:0 13:0 
-8 1:0.91666667 2:1 3:0 4:0 5:0 6:0 7:0 8:0 9:1 10:1 11:0 12:0 13:0 
-8 1:0.9 2:1 3:0 4:0 5:0 6:0 7:0 8:0 9:0 10:0 11:0 12:0 13:0 
-8 1:0.9 2:1 3:0 4:0 5:0 6:0 7:0 8:0 9:1 10:1 11:0 12:0 13:0 
-8 1:0.9 2:1 3:0 4:0 5:0 6:0 7:0 8:1 9:0 10:0 11:0 12:0 13:0 
-8 1:0.9 2:1 3:0 4:0 5:1 6:0 7:0 8:0 9:1 10:0 11:0 12:0 13:0 
-8 1:0.92222222 2:1 3:0 4:0 5:0 6:0 7:0 8:0 9:0.53333333 10:1 11:0 12:0 13:0 
-8 1:0.92424242 2:1 3:0 4:0 5:0.8 6:0 7:0.2 8:0 9:1 10:1 11:0 12:0 13:0 
-8 1:0.92592593 2:1 3:0 4:0 5:0 6:0 7:0 8:0 9:1 10:1 11:0 12:0 13:0 
-8 1:0.92592593 2:1 3:0 4:0 5:0 6:0 7:0 8:1 9:1 10:1 11:0 12:0 13:0 
-8 1:0.92987013 2:0.5 3:0 4:0.5 5:1 6:0 7:0 8:0 9:1 10:1 11:0 12:0 13:0 
-8 1:0.93555556 2:1 3:0 4:0 5:1 6:0 7:0 8:0 9:1 10:1 11:0 12:0 13:0 
-8 1:0.93809524 2:1 3:0 4:0 5:0.8 6:0 7:0 8:0.2 9:1 10:1 11:0 12:0 13:0 
-8 1:0.93846154 2:1 3:0 4:0 5:0.85714286 6:0.14285714 7:0 8:0 9:1 10:1 11:0 12:0 13:0 
-8 1:0.94285714 2:1 3:0 4:0 5:1 6:0 7:0 8:0 9:1 10:0 11:0 12:0 13:0 
-8 1:0.94285714 2:1 3:0 4:0 5:1 6:0 7:0 8:0 9:1 10:1 11:0 12:0 13:0 
-8 1:0.94991453 2:1 3:0 4:0 5:0.75 6:0 7:0 8:0.25 9:1 10:1 11:0 12:0 13:0 
-8 1:0.95 2:1 3:0 4:0 5:0 6:0 7:0 8:1 9:1 10:0 11:0 12:0 13:0 
-8 1:0.95812672 2:1 3:0 4:0 5:1 6:0 7:0 8:0 9:1 10:1 11:0 12:0 13:0 
-8 1:0.96102564 2:1 3:0 4:0 5:1 6:0 7:0 8:0 9:1 10:1 11:0 12:0 13:0 
-8 1:0.96296296 2:1 3:0 4:0 5:0 6:0 7:0 8:1 9:1 10:1 11:0 12:0 13:0 
-8 1:0.96363636 2:1 3:0 4:0 5:1 6:0 7:0 8:0 9:1 10:0 11:0 12:0 13:0 
-8 1:0.96616162 2:1 3:0 4:0 5:1 6:0 7:0 8:0 9:1 10:1 11:0 12:0 13:0 
-8 1:0.96666667 2:0.5 3:0 4:0.5 5:0.66666667 6:0 7:0 8:0.33333333 9:1 10:0 11:0 12:0 13:0 
-8 1:0.96666667 2:1 3:0 4:0 5:0 6:0 7:0 8:0 9:1 10:1 11:0 12:0 13:0 
-8 1:0.96666667 2:1 3:0 4:0 5:0 6:0 7:0 8:1 9:1 10:1 11:0 12:0 13:0 
-8 1:0.96969697 2:1 3:0 4:0 5:0 6:0 7:0 8:0 9:1 10:1 11:0 12:0 13:0 
-8 1:0.97050505 2:1 3:0 4:0 5:1 6:0 7:0 8:0 9:1 10:1 11:0 12:0 13:0 
-8 1:0.97222222 2:1 3:0 4:0 5:0.88888889 6:0 7:0 8:0.11111111 9:1 10:0 11:0 12:0 13:0 
-8 1:0.97222222 2:1 3:0 4:0 5:1 6:0 7:0 8:0 9:0.66666667 10:0 11:0 12:0 13:0 
-8 1:0.97222222 2:1 3:0 4:0 5:1 6:0 7:0 8:0 9:1 10:1 11:0 12:0 13:0 
-8 1:0.97587302 2:1 3:0 4:0 5:1 6:0 7:0 8:0 9:1 10:1 11:0 12:0 13:0 
-8 1:0.97961433 2:1 3:0 4:0 5:0.83333333 6:0 7:0 8:0.16666667 9:1 10:1 11:0 12:0 13:0 
-8 1:0.98 2:0.5 3:0 4:0.5 5:0.8 6:0 7:0 8:0.2 9:1 10:1 11:0 12:0 13:0 
-8 1:0.98414918 2:1 3:0 4:0 5:1 6:0 7:0 8:0 9:1 10:1 11:0 12:0 13:0 
-8 1:0.98571429 2:1 3:0 4:0 5:0 6:0 7:0 8:0 9:1 10:1 11:0 12:0 13:0 
-8 1:0.98666667 2:1 3:0 4:0 5:1 6:0 7:0 8:0 9:1 10:0 11:0 12:0 13:0 
-8 1:0.98701299 2:1 3:0 4:0 5:1 6:0 7:0 8:0 9:1 10:1 11:0 12:0 13:0 
-8 1:0.98787879 2:1 3:0 4:0 5:0 6:0 7:0.5 8:0.5 9:1 10:0 11:0 12:0 13:0 
-8 1:0.98888889 2:1 3:0 4:0 5:0 6:0 7:0 8:1 9:0.93333333 10:1 11:0 12:0 13:0 
-8 1:0.99191919 2:1 3:0 4:0 5:1 6:0 7:0 8:0 9:1 10:1 11:0 12:0 13:0 
-8 1:0.99761905 2:1 3:0 4:0 5:0.4 6:0 7:0 8:0.6 9:0 10:0 11:0 12:0 13:0 
-8 1:0.9989899 2:1 3:0 4:0 5:0 6:0 7:0 8:1 9:1 10:1 11:0 12:0 13:0 
-8 1:0.99904762 2:1 3:0 4:0 5:0.75 6:0 7:0.25 8:0 9:1 10:1 11:0 12:0 13:0 
-8 1:1 2:0 3:0 4:1 5:0.33333333 6:0 7:0 8:0.66666667 9:0 10:0 11:0 12:0 13:0 
-8 1:1 2:0 3:0 4:1 5:1 6:0 7:0 8:0 9:0 10:0 11:0 12:0 13:0 
-8 1:1 2:0.5 3:0 4:0.5 5:0 6:0 7:0 8:0 9:0 10:0 11:0 12:0 13:0 
-8 1:1 2:0.5 3:0 4:0.5 5:0 6:0 7:0 8:0 9:1 10:1 11:0 12:0 13:0 
-8 1:1 2:0.5 3:0 4:0.5 5:0 6:0 7:0 8:1 9:0 10:0 11:0 12:0 13:0 
-8 1:1 2:0.5 3:0 4:0.5 5:0 6:0 7:0 8:1 9:1 10:1 11:0 12:0 13:0 
-8 1:1 2:0.5 3:0 4:0.5 5:1 6:0 7:0 8:0 9:0 10:0 11:0 12:0 13:0 
-8 1:1 2:1 3:0 4:0 5:0 6:0 7:0 8:0 9:0 10:0 11:0 12:0 13:0 
-8 1:1 2:1 3:0 4:0 5:0 6:0 7:0 8:0 9:1 10:0 11:0 12:0 13:0 
-8 1:1 2:1 3:0 4:0 5:0 6:0 7:0 8:0 9:1 10:1 11:0 12:0 13:0 
-8 1:1 2:1 3:0 4:0 5:0 6:0 7:0 8:1 9:0 10:0 11:0 12:0 13:0 
-8 1:1 2:1 3:0 4:0 5:0 6:0 7:0 8:1 9:1 10:0 11:0 12:0 13:0 
-8 1:1 2:1 3:0 4:0 5:0 6:0 7:0 8:1 9:1 10:1 11:0 12:0 13:0 
-8 1:1 2:1 3:0 4:0 5:0.2 6:0 7:0 8:0.8 9:0 10:0 11:0 12:0 13:0 
-8 1:1 2:1 3:0 4:0 5:0.375 6:0 7:0 8:0.625 9:1 10:0 11:0 12:0 13:0 
-8 1:1 2:1 3:0 4:0 5:1 6:0 7:0 8:0 9:1 10:0 11:0 12:0 13:0 
-8 1:1 2:1 3:0 4:0 5:1 6:0 7:0 8:0 9:1 10:1 11:0 12:0 13:0 
