svm_type c_svc
kernel_type rbf
gamma 0.03125
nr_class 2
total_sv 56
rho 6.62904
label 1 -1
probA -2.49761
probB -1.48482
nr_sv 34 22
SV
16.18847889046678 1:0.45454545 2:0 3:0 4:0 5:0.66666667 6:0 7:0.33333333 8:0 9:-1 10:1 
70.62150784513733 1:0.12190476 2:1 3:0 4:0 5:0 6:0 7:0 8:1 9:-1 10:1 
309.8833130636365 1:0.51111111 2:0 3:0 4:1 5:0.14285714 6:0 7:0 8:0.85714286 9:0 10:0 
1024 1:0.15555556 2:0.5 3:0 4:0 5:0 6:0 7:0 8:1 9:0 10:0 
1024 1:0.13333333 2:0.5 3:0 4:0 5:0 6:0 7:0 8:1 9:0 10:0 
1024 1:0.26666667 2:0.5 3:0 4:0 5:0 6:0 7:0 8:1 9:0 10:0 
1024 1:0.33333333 2:0 3:0 4:1 5:0 6:0 7:0 8:1 9:0 10:0 
1024 1:0.33333333 2:0 3:0 4:1 5:0 6:0 7:0 8:1 9:0 10:0 
42.52399908622889 1:0.6962963 2:0.5 3:0 4:0.5 5:1 6:0 7:0 8:0 9:-1 10:1 
1024 1:0.33333333 2:0 3:0 4:0 5:0 6:0 7:0.125 8:0.875 9:0 10:0 
103.1419873410109 1:-0.083333333 2:1 3:0 4:0 5:0 6:0 7:0 8:1 9:-1 10:0 
1.648289020758753 1:0.83333333 2:1 3:0 4:0 5:0 6:0 7:0 8:1 9:1 10:1 
38.54898148551761 1:1 2:0.5 3:0 4:0.5 5:1 6:0 7:0 8:0 9:0 10:0 
1024 1:0 2:0 3:0 4:0 5:0 6:0 7:0 8:1 9:0 10:0 
1024 1:0.26666667 2:0 3:0 4:0 5:0.090909091 6:0 7:0 8:0.90909091 9:0 10:0 
307.955460205246 1:0.33333333 2:1 3:0 4:0 5:1 6:0 7:0 8:0 9:0 10:0 
1024 1:0.16666667 2:0.5 3:0 4:0 5:0 6:0 7:0 8:1 9:0 10:0 
455.1460057840488 1:0.33333333 2:1 3:0 4:0 5:0 6:0 7:0 8:1 9:0 10:0 
1024 1:0.25333333 2:1 3:0 4:0 5:0 6:0 7:0 8:1 9:0 10:0 
1024 1:0.6 2:0 3:0 4:1 5:0 6:0 7:0.33333333 8:0.66666667 9:0 10:0 
382.3820992635768 1:0.62962963 2:1 3:0 4:0 5:0 6:0 7:0.5 8:0.5 9:0 10:0 
664.8794548337448 1:0.6 2:0 3:0 4:1 5:0 6:0 7:0 8:1 9:0 10:0 
163.5162248133385 1:0.22222222 2:0 3:0 4:0 5:0.33333333 6:0 7:0 8:0.66666667 9:0 10:0 
7.178503795590908 1:1 2:0.5 3:0 4:0.5 5:1 6:0 7:0 8:0 9:1 10:1 
352.808172007544 1:0.48888889 2:1 3:0 4:0 5:0 6:0 7:1 8:0 9:0 10:0 
14.17713918329048 1:0.95897436 2:1 3:0 4:0 5:1 6:0 7:0 8:0 9:0.46666667 10:1 
1024 1:0.22222222 2:0 3:0 4:0 5:0.25 6:0 7:0 8:0.75 9:0 10:0 
1024 1:0 2:0 3:0 4:0.5 5:0.16666667 6:0 7:0 8:0.83333333 9:0 10:0 
1024 1:0.19259259 2:0 3:0 4:0 5:0.14285714 6:0 7:0 8:0.85714286 9:0 10:0 
1024 1:0.13333333 2:0.5 3:0 4:0 5:0 6:0 7:0 8:1 9:0 10:0 
11.18689882499127 1:0.15555556 2:0 3:0 4:0 5:1 6:0 7:0 8:0 9:-1 10:0 
85.18040203337634 1:0.41111111 2:1 3:0 4:0 5:0 6:0 7:0 8:0 9:1 10:0.043478261 
43.67869450763153 1:0 2:1 3:0 4:0 5:0 6:0 7:0 8:0 9:-1 10:0 
72.48962522921319 1:0.5 2:1 3:0 4:0 5:1 6:0 7:0 8:0 9:0.66666667 10:-0.37777778 
-1024 1:0.44444444 2:0 3:0 4:1 5:0 6:0 7:0.11111111 8:0.88888889 9:0 10:0 
-599.0129350089146 1:0 2:0.5 3:0 4:0 5:0 6:0 7:0.33333333 8:0.66666667 9:0 10:0 
-1024 1:0.5 2:0.5 3:0 4:0 5:0 6:0 7:0 8:1 9:0 10:0 
-890.9091645693979 1:0.7 2:0 3:0 4:1 5:0 6:0 7:0.4 8:0.6 9:0 10:0 
-1024 1:0 2:0.5 3:0 4:0 5:0 6:0 7:0 8:1 9:0 10:0 
-1024 1:0.44444444 2:0.5 3:0 4:0 5:1 6:0 7:0 8:0 9:0 10:0 
-1024 1:0.38666667 2:0 3:0 4:1 5:0 6:0 7:0.2 8:0.8 9:0 10:0 
-1024 1:0.6 2:1 3:0 4:0 5:0 6:0 7:0 8:1 9:0 10:0 
-53.94926513973299 1:0 2:0 3:0 4:0 5:0 6:0 7:0 8:1 9:0 10:0 
-356.3146575748665 1:0 2:0 3:0 4:0 5:0 6:0 7:0 8:1 9:0 10:0 
-1024 1:0 2:0 3:0 4:0 5:0 6:0 7:0 8:1 9:0 10:0 
-1024 1:0.33333333 2:0.5 3:0 4:0.5 5:0 6:0 7:0.14285714 8:0.85714286 9:0 10:0 
-586.9966426832109 1:0.53333333 2:0 3:0 4:1 5:0 6:0.16666667 7:0 8:0.83333333 9:0 10:0 
-526.2745056803548 1:0.14444444 2:0 3:0 4:0 5:0 6:0.083333333 7:0 8:0.91666667 9:0 10:0 
-1024 1:0.33333333 2:1 3:0 4:0 5:0.2 6:0 7:0 8:0.8 9:0 10:0 
-1024 1:0.55555556 2:1 3:0 4:0 5:0 6:0 7:0 8:1 9:0 10:0 
-129.8504157054488 1:0.095238095 2:0.5 3:0 4:0.5 5:0 6:0 7:0.2 8:0.8 9:-1 10:1 
-1024 1:0.13333333 2:0 3:0 4:0.5 5:0 6:0 7:0 8:1 9:0 10:0 
-1024 1:0 2:0 3:0 4:0 5:0 6:0 7:0 8:1 9:0 10:0 
-1024 1:0 2:0 3:0 4:0 5:0 6:0 7:0 8:1 9:0 10:0 
-1024 1:0 2:0 3:0 4:0 5:0 6:0 7:0 8:1 9:0 10:0 
-1023.827650852423 1:0 2:0 3:0 4:0 5:0 6:0 7:0 8:1 9:0 10:0 
