svm_type c_svc
kernel_type rbf
gamma 0.0625
nr_class 2
total_sv 557
rho 0.743509
label 1 -1
probA -3.9491
probB -0.109035
nr_sv 263 294
SV
256 1:1 2:1 3:1 4:0 5:1 6:-1 7:0 8:1 9:-1 10:0 11:0 12:0 13:0 14:0 15:0 16:0 17:0 18:0.84615385 19:0.40740741 20:0.2 21:0.66222222 
27.29714958553286 1:1 2:1 3:1 4:1 5:0 6:1 7:0 8:1 9:0.93333333 10:1 11:0 12:1 13:1 14:1 15:1 16:1 17:1 18:0.53293871 19:0.38490018 20:0.99393939 21:0 
67.1938315097495 1:1 2:1 3:0.71428571 4:1 5:0 6:1 7:0 8:1 9:1 10:0 11:0 12:0 13:0 14:0 15:0 16:0 17:0 18:0.47140452 19:0.069837707 20:1 21:0 
234.6656153742683 1:0 2:1 3:0.72307692 4:1 5:0 6:1 7:0 8:1 9:0.93333333 10:0 11:1 12:0.16129032 13:0 14:0 15:0 16:0 17:0 18:0.57380458 19:0.37191038 20:0.45333333 21:0.66756614 
16.93369936166394 1:0 2:1 3:0.38888889 4:1 5:0 6:1 7:1 8:0 9:1 10:0 11:1 12:0.16129032 13:1 14:1 15:1 16:1 17:0.16129032 18:0.5666306 19:0.40923321 20:0.41666667 21:0.66756614 
256 1:1 2:1 3:1 4:0 5:1 6:-1 7:0 8:1 9:-1 10:0 11:0 12:0 13:0 14:0 15:0 16:0 17:0 18:0.48112522 19:0.053458358 20:0.2 21:0 
256 1:1 2:1 3:0.95744681 4:1 5:0 6:1 7:0 8:1 9:-1 10:1 11:0 12:0.9 13:0 14:0 15:0 16:0 17:0 18:0.45226702 19:0.30151134 20:0.71428571 21:0 
256 1:0 2:1 3:0.33333333 4:1 5:0 6:1 7:1 8:0 9:1 10:0 11:1 12:-0.22807018 13:0 14:0 15:0 16:0 17:0 18:0.15617376 19:0.02602896 20:0.2 21:0 
75.73429313076046 1:0 2:0 3:-0.14285714 4:1 5:0 6:1 7:1 8:0 9:1 10:1 11:0 12:0.36363636 13:1 14:1 15:1 16:1 17:0.36363636 18:0.62112999 19:0.51760833 20:0.77777778 21:0.70518519 
256 1:0 2:1 3:0.55102041 4:1 5:0 6:1 7:1 8:0 9:1 10:1 11:0 12:0.23076923 13:0 14:0 15:0 16:0 17:0 18:0.43322429 19:0.088249392 20:0.83333333 21:0 
256 1:1 2:1 3:1 4:0 5:1 6:-1 7:0 8:1 9:-1 10:0 11:1 12:0.65517241 13:0 14:0 15:0 16:0 17:0 18:0.62528634 19:0.47475444 20:0 21:0.68333333 
21.71079826474178 1:1 2:1 3:0.92592593 4:0 5:0 6:0 7:0 8:0 9:0 10:0 11:0 12:0 13:1 14:1 15:0 16:1 17:0 18:0.32686023 19:0.036317803 20:1 21:0 
256 1:1 2:1 3:1 4:1 5:0 6:1 7:0 8:1 9:-1 10:0 11:1 12:-0.24324324 13:0 14:0 15:0 16:0 17:0 18:0.4 19:0.18518519 20:0.33333333 21:0 
256 1:1 2:1 3:1 4:0 5:1 6:-1 7:0 8:1 9:-1 10:1 11:0 12:-0.2 13:0 14:0 15:0 16:0 17:0 18:0.79373126 19:0.5438529 20:0.33333333 21:0.93333333 
256 1:1 2:0 3:0.73913043 4:0 5:1 6:-1 7:0 8:1 9:-1 10:0 11:0 12:0 13:0 14:0 15:0 16:0 17:0 18:0.070014004 19:0.0077793338 20:-0.5 21:0 
256 1:1 2:1 3:1 4:0 5:1 6:-1 7:0 8:1 9:-1 10:0 11:0 12:0 13:0 14:0 15:0 16:0 17:0 18:0.68041382 19:0.075601535 20:0.2 21:0 
13.87932007479276 1:1 2:1 3:0.40540541 4:1 5:0 6:1 7:1 8:0 9:1 10:1 11:0 12:1 13:0 14:0 15:0 16:0 17:0 18:0.69034526 19:0.47301434 20:1 21:1 
256 1:1 2:1 3:1 4:1 5:0 6:1 7:0 8:1 9:0.86666667 10:0 11:1 12:-0.24324324 13:0 14:0 15:0 16:0 17:0 18:0.66666667 19:0.11111111 20:0.64444444 21:0 
256 1:1 2:1 3:0.46341463 4:1 5:0 6:1 7:0 8:1 9:0.33333333 10:0 11:0 12:0 13:0 14:0 15:0 16:0 17:0 18:0.26318068 19:0.034116014 20:0.86666667 21:0 
112.8521526865623 1:1 2:1 3:1 4:1 5:0 6:1 7:1 8:0 9:1 10:0 11:1 12:0.375 13:0 14:0 15:0 16:0 17:0 18:0.81818182 19:0.16666667 20:0.66666667 21:0 
138.52263575448 1:1 2:1 3:0.65853659 4:1 5:0 6:1 7:0 8:1 9:1 10:0 11:0 12:0 13:0 14:0 15:0 16:0 17:0 18:0.4330127 19:0.048112522 20:1 21:0 
256 1:1 2:1 3:1 4:0 5:1 6:-1 7:0 8:1 9:-1 10:0 11:0 12:0 13:0 14:0 15:0 16:0 17:0 18:0.68041382 19:0.075601535 20:0.2 21:0 
256 1:1 2:1 3:1 4:0 5:1 6:-1 7:0 8:1 9:-1 10:0 11:0 12:0 13:0 14:0 15:0 16:0 17:0 18:0.32686023 19:0.036317803 20:0.2 21:0 
252.5294985473182 1:0 2:1 3:0.48837209 4:1 5:0 6:1 7:0 8:1 9:-1 10:0 11:1 12:0.65517241 13:0 14:0 15:0 16:0 17:0 18:0.14064217 19:0.0338583 20:-0.2 21:-0.037037037 
256 1:1 2:1 3:1 4:0 5:1 6:-1 7:0 8:1 9:-1 10:1 11:0 12:0.5 13:0 14:0 15:0 16:0 17:0 18:0.60474316 19:0.22397895 20:0.33333333 21:0.51111111 
256 1:1 2:1 3:1 4:0 5:1 6:-1 7:0 8:1 9:-1 10:0 11:0 12:0 13:0 14:0 15:0 16:0 17:0 18:0.37904902 19:0.042116558 20:0.2 21:0 
117.206718329287 1:1 2:1 3:0.85185185 4:1 5:0 6:1 7:1 8:0 9:1 10:1 11:0 12:1 13:0 14:0 15:0 16:0 17:0 18:0.45980049 19:0.36613743 20:1 21:0 
256 1:1 2:1 3:0.78947368 4:0 5:1 6:-1 7:0 8:1 9:-1 10:1 11:0 12:0.15555556 13:0 14:0 15:0 16:0 17:0 18:0.28968273 19:0.2092153 20:0.33333333 21:0 
256 1:1 2:0 3:0.6 4:1 5:0 6:1 7:1 8:0 9:1 10:0 11:1 12:0.65517241 13:0 14:0 15:0 16:0 17:0 18:0.26967994 19:0.074911096 20:0.2 21:0 
256 1:1 2:1 3:1 4:0 5:1 6:-1 7:0 8:1 9:-1 10:0 11:0 12:0 13:0 14:0 15:0 16:0 17:0 18:0.64549722 19:0.071721914 20:0.2 21:0 
256 1:1 2:1 3:0.46938776 4:0 5:1 6:-1 7:0 8:1 9:-1 10:1 11:0 12:1 13:0 14:0 15:0 16:0 17:0 18:0.1833397 19:0.11543611 20:0.33333333 21:0 
256 1:1 2:1 3:0.85365854 4:0 5:1 6:-1 7:0 8:1 9:-1 10:1 11:0 12:0.33333333 13:0 14:0 15:0 16:0 17:0 18:0.22537447 19:0.037562411 20:0.33333333 21:0 
256 1:1 2:1 3:1 4:0 5:1 6:-1 7:0 8:1 9:-1 10:0 11:0 12:0 13:0 14:0 15:0 16:0 17:0 18:0.68041382 19:0.075601535 20:0.2 21:0 
256 1:1 2:1 3:1 4:0 5:1 6:-1 7:0 8:1 9:-1 10:0 11:0 12:0 13:0 14:0 15:0 16:0 17:0 18:0.36661779 19:0.04073531 20:0.2 21:0 
43.90787860539755 1:1 2:1 3:1 4:1 5:0 6:1 7:1 8:0 9:1 10:1 11:0 12:0.54385965 13:0 14:0 15:0 16:0 17:-0.18367347 18:0.9340809 19:0.6227206 20:0.75 21:0.97727273 
25.86219322445391 1:1 2:1 3:0.78947368 4:1 5:0 6:1 7:1 8:0 9:1 10:1 11:0 12:1 13:0 14:0 15:0 16:0 17:0 18:0.41382044 19:0.32952368 20:1 21:0 
21.29896139534601 1:1 2:1 3:1 4:1 5:0 6:1 7:0 8:1 9:-1 10:0 11:1 12:-0.64444444 13:1 14:1 15:1 16:1 17:0 18:0.71611487 19:0.17239803 20:0.5 21:0 
256 1:1 2:1 3:0.93939394 4:1 5:0 6:1 7:0 8:1 9:0.6 10:0 11:0 12:0 13:0 14:0 15:0 16:0 17:0 18:0.36369648 19:0.04714584 20:0.92 21:0 
256 1:1 2:1 3:0.94594595 4:1 5:0 6:1 7:0 8:1 9:0.46666667 10:1 11:0 12:0.33333333 13:0 14:0 15:0 16:0 17:0 18:0.36051834 19:0.086791453 20:0.92380952 21:0 
170.3655732178135 1:1 2:1 3:1 4:0 5:1 6:-1 7:0 8:1 9:-1 10:1 11:0 12:1 13:1 14:1 15:0 16:-1 17:0.65517241 18:0.6 19:0.16666667 20:0.11111111 21:0 
62.14508742671421 1:1 2:1 3:0.68888889 4:1 5:0 6:1 7:1 8:0 9:1 10:1 11:0 12:0.18518519 13:1 14:1 15:1 16:1 17:0.65517241 18:0.44907312 19:0.33264676 20:0.8 21:0 
256 1:1 2:1 3:1 4:0 5:1 6:-1 7:0 8:1 9:-1 10:1 11:0 12:1 13:0 14:0 15:0 16:0 17:0 18:0.66666667 19:0.11111111 20:0.33333333 21:0 
216.4475833876571 1:1 2:1 3:0.86046512 4:1 5:0 6:1 7:0 8:1 9:0.33333333 10:1 11:0 12:0.33333333 13:1 14:1 15:1 16:1 17:1 18:0.48852715 19:0.11760839 20:0.93939394 21:0 
256 1:1 2:1 3:0.93548387 4:0 5:1 6:-1 7:0 8:1 9:-1 10:0 11:1 12:0.65517241 13:0 14:0 15:0 16:0 17:0 18:0.61864711 19:0.49262641 20:0 21:0.68333333 
256 1:1 2:1 3:1 4:0 5:1 6:-1 7:0 8:1 9:-1 10:0 11:0 12:0 13:0 14:0 15:0 16:0 17:0 18:0.56613852 19:0.06290428 20:0.2 21:0 
256 1:1 2:1 3:1 4:0 5:1 6:-1 7:0 8:1 9:-1 10:0 11:0 12:0 13:0 14:0 15:0 16:0 17:0 18:0.36661779 19:0.04073531 20:0.2 21:0 
256 1:0 2:0 3:0.10344828 4:1 5:0 6:1 7:1 8:0 9:1 10:1 11:0 12:0.76744186 13:0 14:0 15:0 16:0 17:0 18:0.6969697 19:0.42592593 20:0.33333333 21:0.83928571 
256 1:1 2:1 3:0.93103448 4:0 5:1 6:-1 7:0 8:1 9:-1 10:0 11:0 12:0 13:0 14:0 15:0 16:0 17:0 18:0.54433105 19:0.060481228 20:0.2 21:0 
256 1:1 2:1 3:1 4:0 5:1 6:-1 7:0 8:1 9:-1 10:0 11:0 12:0 13:0 14:0 15:0 16:0 17:0 18:0.44450044 19:0.065851918 20:0.2 21:0 
256 1:1 2:0 3:0.47826087 4:1 5:0 6:1 7:1 8:0 9:1 10:1 11:0 12:0.41176471 13:0 14:0 15:0 16:0 17:0 18:0.32461723 19:0.090171452 20:0.66666667 21:0 
256 1:1 2:1 3:1 4:0 5:1 6:-1 7:0 8:1 9:-1 10:0 11:0 12:0 13:0 14:0 15:0 16:0 17:0 18:0.36661779 19:0.04073531 20:0.2 21:0 
32.32757037875886 1:1 2:1 3:1 4:1 5:0 6:1 7:1 8:0 9:1 10:1 11:0 12:1 13:1 14:1 15:1 16:1 17:1 18:0.68385409 19:0.29127119 20:1 21:1 
256 1:1 2:1 3:1 4:0 5:1 6:-1 7:0 8:1 9:-1 10:1 11:0 12:0 13:0 14:0 15:0 16:0 17:0 18:0.5547002 19:0.092450033 20:0.33333333 21:0 
256 1:0 2:1 3:0.68421053 4:1 5:0 6:1 7:1 8:0 9:1 10:1 11:0 12:1 13:0 14:0 15:0 16:0 17:0 18:0.87096774 19:0.5 20:0.83333333 21:0.98717949 
5.53949843222116 1:1 2:1 3:0.76 4:1 5:0 6:1 7:0 8:1 9:1 10:0 11:0 12:0 13:0 14:0 15:0 16:0 17:0 18:0.29329423 19:0.032588248 20:1 21:0 
256 1:1 2:1 3:0.71428571 4:1 5:0 6:1 7:0 8:1 9:1 10:0 11:0 12:0 13:0 14:0 15:0 16:0 17:0 18:0.19127301 19:0.021252557 20:1 21:0 
256 1:1 2:1 3:1 4:0 5:1 6:-1 7:0 8:1 9:-1 10:0 11:0 12:0 13:0 14:0 15:0 16:0 17:0 18:0.36661779 19:0.04073531 20:0.2 21:0 
256 1:1 2:1 3:1 4:0 5:1 6:-1 7:0 8:1 9:-1 10:0 11:0 12:0 13:0 14:0 15:0 16:0 17:0 18:0.32686023 19:0.036317803 20:0.2 21:0 
256 1:1 2:1 3:1 4:1 5:0 6:1 7:0 8:1 9:-1 10:1 11:0 12:0.23076923 13:0 14:0 15:0 16:0 17:0 18:0.52486388 19:0.10691672 20:0.71428571 21:0 
38.97895618915126 1:1 2:1 3:1 4:1 5:0 6:1 7:0 8:1 9:1 10:0 11:1 12:-0.31428571 13:1 14:1 15:0 16:1 17:0.33333333 18:0.43452409 19:0.088514167 20:0.8 21:0 
256 1:1 2:1 3:1 4:1 5:0 6:1 7:0 8:1 9:0.6 10:1 11:0 12:0.090909091 13:0 14:0 15:0 16:0 17:0 18:0.42700841 19:0.071168068 20:0.94285714 21:0 
256 1:1 2:1 3:1 4:0 5:1 6:-1 7:0 8:1 9:-1 10:0 11:0 12:0 13:0 14:0 15:0 16:0 17:0 18:0.42562827 19:0.047292029 20:0.2 21:0 
256 1:1 2:1 3:0.93548387 4:0 5:1 6:-1 7:0 8:1 9:-1 10:0 11:1 12:0.74358974 13:0 14:0 15:0 16:0 17:0 18:0.54554473 19:0.28287504 20:0 21:0.66666667 
256 1:1 2:1 3:1 4:0 5:1 6:-1 7:0 8:1 9:-1 10:1 11:0 12:1 13:0 14:0 15:0 16:0 17:0 18:0.83462233 19:0.52550295 20:0.33333333 21:0.99286988 
256 1:1 2:1 3:0.92 4:1 5:0 6:1 7:1 8:0 9:1 10:1 11:0 12:0.9 13:0 14:0 15:0 16:0 17:0 18:0.4383973 19:0.30038333 20:1 21:0 
27.53145680042976 1:1 2:1 3:0.89473684 4:1 5:0 6:1 7:1 8:0 9:1 10:0 11:1 12:0.35135135 13:1 14:1 15:0 16:-1 17:0.4084507 18:0.55906539 19:0.34165107 20:0.33333333 21:0.82142857 
256 1:1 2:1 3:0.86046512 4:1 5:0 6:1 7:1 8:0 9:1 10:0 11:0 12:0 13:0 14:0 15:0 16:0 17:0 18:0.75592895 19:0.097990789 20:1 21:0 
256 1:1 2:1 3:1 4:0 5:1 6:-1 7:0 8:1 9:-1 10:0 11:1 12:-0.22580645 13:0 14:0 15:0 16:0 17:0 18:0.33756998 19:0.062512958 20:0 21:0 
256 1:1 2:0 3:0.69491525 4:1 5:0 6:1 7:0 8:1 9:-1 10:0 11:0 12:0 13:0 14:0 15:0 16:0 17:0 18:0.35533453 19:0.059222421 20:0 21:0 
256 1:1 2:1 3:0.95121951 4:0 5:1 6:-1 7:0 8:1 9:-1 10:0 11:0 12:0 13:0 14:0 15:0 16:0 17:0 18:0.56613852 19:0.06290428 20:0.2 21:0 
256 1:1 2:1 3:0.93548387 4:1 5:0 6:1 7:0 8:1 9:1 10:0 11:1 12:0.5483871 13:0 14:0 15:0 16:0 17:0 18:0.40824829 19:0.20412415 20:0.66666667 21:0 
256 1:1 2:1 3:1 4:1 5:0 6:1 7:0 8:1 9:-1 10:1 11:0 12:0.625 13:0 14:0 15:0 16:0 17:0 18:0.44946657 19:0.37455548 20:0.71428571 21:0 
256 1:1 2:1 3:1 4:0 5:1 6:-1 7:0 8:1 9:-1 10:0 11:1 12:0.65517241 13:0 14:0 15:0 16:0 17:0 18:0.31950483 19:0.08875134 20:0 21:0 
128.9371785946701 1:1 2:1 3:1 4:1 5:0 6:1 7:1 8:0 9:1 10:1 11:0 12:0.45454545 13:1 14:1 15:1 16:1 17:0.125 18:0.62017367 19:0.17227046 20:1 21:0 
256 1:1 2:1 3:0.87234043 4:0 5:1 6:-1 7:0 8:1 9:-1 10:0 11:0 12:0 13:0 14:0 15:0 16:0 17:0 18:0.28426762 19:0.031585291 20:0.2 21:0 
256 1:1 2:1 3:0.94285714 4:0 5:1 6:-1 7:0 8:1 9:-1 10:0 11:0 12:0 13:0 14:0 15:0 16:0 17:0 18:0.56613852 19:0.06290428 20:0.2 21:0 
256 1:1 2:1 3:0.93548387 4:1 5:0 6:1 7:1 8:0 9:1 10:1 11:0 12:1 13:0 14:0 15:0 16:0 17:0.11111111 18:0.9340809 19:0.6227206 20:0.75 21:0.95909091 
256 1:1 2:1 3:0.49019608 4:0 5:1 6:-1 7:0 8:1 9:-1 10:1 11:0 12:-0.022222222 13:0 14:0 15:0 16:0 17:0 18:0.66671748 19:0.50621142 20:0.33333333 21:0.86666667 
10.49446496502474 1:1 2:1 3:1 4:1 5:0 6:1 7:1 8:0 9:1 10:1 11:0 12:0.89473684 13:1 14:1 15:1 16:1 17:0.35384615 18:1 19:0.27777778 20:1 21:0 
256 1:1 2:1 3:0.92 4:0 5:1 6:-1 7:0 8:1 9:-1 10:0 11:0 12:0 13:0 14:0 15:0 16:0 17:0 18:0.32686023 19:0.036317803 20:0.2 21:0 
256 1:1 2:1 3:0.93103448 4:0 5:1 6:-1 7:0 8:1 9:-1 10:0 11:0 12:0 13:0 14:0 15:0 16:0 17:0 18:0.68041382 19:0.075601535 20:0.2 21:0 
2.732318981730014 1:1 2:1 3:1 4:1 5:0 6:1 7:1 8:0 9:1 10:1 11:0 12:1 13:0 14:-1 15:0 16:-1 17:0 18:0.81289702 19:0.4967704 20:0.55555556 21:0.89463341 
256 1:1 2:1 3:0.93939394 4:0 5:1 6:-1 7:0 8:1 9:-1 10:0 11:0 12:0 13:0 14:0 15:0 16:0 17:0 18:0.35007002 19:0.038896669 20:0.2 21:0 
256 1:1 2:1 3:0.92 4:1 5:0 6:1 7:0 8:1 9:-1 10:1 11:0 12:0.043478261 13:0 14:0 15:0 16:0 17:0 18:0.42905817 19:0.087400737 20:0.71428571 21:0 
256 1:1 2:1 3:0.63265306 4:1 5:0 6:1 7:1 8:0 9:1 10:0 11:1 12:-0.31914894 13:0 14:0 15:0 16:0 17:0 18:0.3146266 19:0.26218884 20:0.66666667 21:0 
256 1:1 2:1 3:0.95348837 4:1 5:0 6:1 7:0 8:1 9:0.86666667 10:0 11:1 12:-0.24324324 13:0 14:0 15:0 16:0 17:0 18:0.32025631 19:0.053376051 20:0.64444444 21:0 
256 1:0 2:1 3:0.90909091 4:1 5:0 6:1 7:1 8:0 9:1 10:1 11:0 12:1 13:0 14:0 15:0 16:0 17:0 18:0.80025012 19:0.57795842 20:0.66666667 21:0.95238095 
179.6140910796583 1:1 2:1 3:0.73913043 4:1 5:0 6:1 7:1 8:0 9:1 10:1 11:0 12:1 13:1 14:1 15:1 16:1 17:1 18:0.68716455 19:0.31813174 20:1 21:1 
63.09259982499161 1:1 2:1 3:1 4:1 5:0 6:1 7:1 8:0 9:1 10:0 11:1 12:0.8974359 13:0 14:0 15:0 16:0 17:0 18:0.88040627 19:0.5706337 20:0.66666667 21:0.85555556 
256 1:1 2:1 3:0.94285714 4:0 5:1 6:-1 7:0 8:1 9:-1 10:0 11:0 12:0 13:0 14:0 15:0 16:0 17:0 18:0.56613852 19:0.06290428 20:0.2 21:0 
256 1:1 2:1 3:1 4:1 5:0 6:1 7:0 8:1 9:-0.13333333 10:0 11:0 12:0 13:0 14:0 15:0 16:0 17:0 18:0.46420708 19:0.28368211 20:0.77333333 21:0 
69.54565513841625 1:1 2:1 3:0.86046512 4:1 5:0 6:1 7:1 8:0 9:1 10:0 11:1 12:-0.47368421 13:1 14:1 15:0 16:0.86666667 17:0.24137931 18:0.43937478 19:0.30105309 20:0.78666667 21:0 
138.6235366645894 1:1 2:1 3:1 4:1 5:0 6:1 7:1 8:0 9:1 10:1 11:0 12:0.6 13:1 14:1 15:1 16:1 17:-0.15384615 18:0.63671454 19:0.17686515 20:1 21:0 
212.0720148602924 1:1 2:1 3:1 4:1 5:0 6:1 7:1 8:0 9:1 10:1 11:0 12:0.6 13:1 14:1 15:1 16:1 17:1 18:0.59062442 19:0.47031204 20:1 21:0 
256 1:1 2:1 3:0.93939394 4:0 5:1 6:-1 7:0 8:1 9:-1 10:1 11:0 12:1 13:0 14:0 15:0 16:0 17:0 18:0.86965655 19:0.54756153 20:0.33333333 21:0.98834499 
3.498678663690232 1:1 2:1 3:0.93103448 4:1 5:0 6:1 7:1 8:0 9:1 10:0 11:0 12:0 13:1 14:1 15:0 16:0.93333333 17:1 18:0.9 19:0.16666667 20:0.99259259 21:0 
202.0693034562202 1:1 2:1 3:0.95348837 4:1 5:0 6:1 7:1 8:0 9:1 10:1 11:0 12:0.57142857 13:0 14:0 15:0 16:0 17:0 18:0.45980049 19:0.36613743 20:1 21:0 
256 1:1 2:1 3:0.86666667 4:0 5:1 6:-1 7:0 8:1 9:-1 10:0 11:0 12:0 13:0 14:0 15:0 16:0 17:0 18:0.54433105 19:0.060481228 20:0.2 21:0 
256 1:0 2:1 3:0.62962963 4:1 5:0 6:1 7:1 8:0 9:1 10:1 11:0 12:0.9047619 13:0 14:0 15:0 16:0 17:0 18:0.81559087 19:0.49841664 20:0.66666667 21:0.94444444 
256 1:1 2:1 3:0.9047619 4:1 5:0 6:1 7:0 8:1 9:-1 10:0 11:0 12:0 13:0 14:0 15:0 16:0 17:0 18:0.62994079 19:0.10499013 20:0.6 21:0 
256 1:1 2:1 3:0.92592593 4:0 5:1 6:-1 7:0 8:1 9:-1 10:0 11:0 12:0 13:0 14:0 15:0 16:0 17:0 18:0.35533453 19:0.039481614 20:0.2 21:0 
256 1:1 2:1 3:1 4:1 5:0 6:1 7:0 8:1 9:-1 10:0 11:0 12:0 13:0 14:0 15:0 16:0 17:0 18:0.75592895 19:0.12598816 20:0.6 21:0 
77.32933241245178 1:1 2:1 3:0.89473684 4:1 5:0 6:1 7:1 8:0 9:1 10:0 11:0 12:0 13:0 14:0 15:0 16:0 17:0 18:0.83333333 19:0.092592593 20:1 21:0 
193.9862719624576 1:1 2:1 3:0.86666667 4:1 5:0 6:1 7:1 8:0 9:1 10:1 11:0 12:0.86046512 13:0 14:0 15:0 16:0 17:0 18:0.51320024 19:0.25660012 20:1 21:0 
164.6308586024918 1:0 2:1 3:0.6744186 4:1 5:0 6:1 7:1 8:0 9:1 10:1 11:0 12:1 13:1 14:1 15:1 16:1 17:1 18:0.79504639 19:0.66253866 20:0.9 21:0.98047619 
256 1:1 2:1 3:0.95121951 4:1 5:0 6:1 7:1 8:0 9:1 10:1 11:0 12:0.625 13:0 14:0 15:0 16:0 17:0 18:0.45749571 19:0.36430214 20:1 21:0 
256 1:1 2:1 3:0.95918367 4:1 5:0 6:1 7:0 8:1 9:1 10:0 11:0 12:0 13:0 14:0 15:0 16:0 17:0 18:0.3913119 19:0.28986066 20:1 21:0 
256 1:1 2:1 3:0.88235294 4:1 5:0 6:1 7:0 8:1 9:1 10:0 11:0 12:0 13:0 14:0 15:0 16:0 17:0 18:0.51604685 19:0.21979773 20:1 21:0 
192.0368276688197 1:1 2:1 3:0.9047619 4:1 5:0 6:1 7:1 8:0 9:1 10:0 11:1 12:0.38181818 13:1 14:1 15:1 16:1 17:1 18:0.8 19:0.22222222 20:0.8 21:0 
256 1:1 2:1 3:0.88888889 4:0 5:1 6:-1 7:0 8:1 9:-1 10:1 11:0 12:0.50943396 13:0 14:0 15:0 16:0 17:0 18:0.71804912 19:0.50529383 20:0.33333333 21:0.9047619 
256 1:1 2:1 3:0.84615385 4:1 5:0 6:1 7:0 8:1 9:-1 10:0 11:0 12:0 13:0 14:0 15:0 16:0 17:0 18:0.70352647 19:0.11725441 20:0.6 21:0 
18.14573028665766 1:1 2:1 3:0.93939394 4:1 5:0 6:1 7:1 8:0 9:1 10:1 11:0 12:0.41538462 13:0 14:-1 15:0 16:-1 17:-0.25925926 18:0.90697674 19:0.72222222 20:0.4 21:0.98333333 
256 1:0 2:1 3:0.42857143 4:1 5:0 6:1 7:1 8:0 9:1 10:1 11:0 12:1 13:1 14:1 15:0 16:1 17:0.5 18:0.8160721 19:0.55916051 20:0.8 21:0.98333333 
176.7262752343755 1:1 2:1 3:0.88235294 4:1 5:0 6:1 7:1 8:0 9:1 10:0 11:0 12:0 13:0 14:0 15:0 16:0 17:0 18:0.30578831 19:0.19819613 20:1 21:0 
69.30266815041087 1:1 2:1 3:0.96078431 4:0 5:1 6:-1 7:0 8:1 9:-1 10:1 11:0 12:1 13:1 14:1 15:1 16:1 17:-0.12195122 18:0.40323892 19:0.30616288 20:0.33333333 21:0 
88.07429049692999 1:1 2:1 3:0.88235294 4:1 5:0 6:1 7:0 8:1 9:0.6 10:0 11:0 12:0 13:0 14:0 15:0 16:0 17:0 18:0.52414242 19:0.067944388 20:0.92 21:0 
256 1:1 2:1 3:0.42857143 4:1 5:0 6:1 7:0 8:1 9:0.33333333 10:0 11:0 12:0 13:0 14:0 15:0 16:0 17:0 18:0.24525574 19:0.03179241 20:0.86666667 21:0 
256 1:1 2:1 3:0.94285714 4:0 5:1 6:-1 7:0 8:1 9:-1 10:0 11:0 12:0 13:0 14:0 15:0 16:0 17:0 18:0.32686023 19:0.036317803 20:0.2 21:0 
256 1:1 2:1 3:0.85365854 4:0 5:1 6:-1 7:0 8:1 9:-1 10:0 11:1 12:-0.22580645 13:0 14:0 15:0 16:0 17:0 18:0.5 19:0.092592593 20:0 21:0 
256 1:1 2:1 3:0.33333333 4:1 5:0 6:1 7:0 8:1 9:-1 10:1 11:0 12:0.41176471 13:0 14:0 15:0 16:0 17:0 18:0.31234752 19:0.052057921 20:0.71428571 21:0 
256 1:1 2:1 3:0.71428571 4:0 5:1 6:-1 7:0 8:1 9:-1 10:1 11:0 12:0.37142857 13:0 14:0 15:0 16:0 17:0 18:0.22537447 19:0.037562411 20:0.33333333 21:0 
31.05971273738423 1:1 2:1 3:0.87234043 4:1 5:0 6:1 7:0 8:1 9:0.86666667 10:0 11:0 12:0 13:0 14:0 15:0 16:0 17:0 18:0.2478408 19:0.16981684 20:0.97333333 21:0 
216.1386797881287 1:1 2:1 3:0.93939394 4:1 5:0 6:1 7:1 8:0 9:1 10:0 11:0 12:0 13:0 14:0 15:0 16:0 17:0 18:0.49130368 19:0.063687515 20:1 21:0 
256 1:1 2:1 3:1 4:0 5:1 6:-1 7:0 8:1 9:-1 10:1 11:0 12:0.90909091 13:0 14:0 15:0 16:0 17:0 18:0.76932182 19:0.45589441 20:0.33333333 21:0.90505051 
158.1730857376859 1:0 2:1 3:0.76470588 4:1 5:0 6:1 7:1 8:0 9:1 10:1 11:0 12:0.43283582 13:0 14:0 15:0 16:0 17:0 18:0.78729582 19:0.48112522 20:0.83333333 21:0.98484848 
256 1:1 2:1 3:0.94285714 4:0 5:1 6:-1 7:0 8:1 9:-1 10:0 11:0 12:0 13:0 14:0 15:0 16:0 17:0 18:0.72168784 19:0.10691672 20:0.2 21:0 
256 1:1 2:0 3:0.81818182 4:1 5:0 6:1 7:0 8:1 9:-0.2 10:0 11:1 12:-0.4 13:0 14:0 15:0 16:0 17:0 18:0.33333333 19:0.055555556 20:-0.04 21:0 
256 1:1 2:0 3:0.6 4:0 5:1 6:-1 7:0 8:1 9:-1 10:0 11:0 12:0 13:0 14:0 15:0 16:0 17:0 18:0.077151675 19:0.0085724083 20:-0.5 21:0 
45.6100175876629 1:1 2:1 3:0.85714286 4:1 5:0 6:1 7:1 8:0 9:1 10:1 11:0 12:0.71428571 13:1 14:1 15:0 16:1 17:0.86046512 18:0.65044364 19:0.26499556 20:1 21:0 
256 1:0 2:1 3:0.66666667 4:1 5:0 6:1 7:1 8:0 9:1 10:0 11:0 12:0 13:0 14:0 15:0 16:0 17:0 18:0.32879797 19:0.054799662 20:0.75 21:0 
214.0806900450457 1:1 2:1 3:0.82857143 4:1 5:0 6:1 7:1 8:0 9:1 10:1 11:0 12:0.5483871 13:0 14:0 15:0 16:0 17:0 18:0.4383973 19:0.30038333 20:1 21:0 
256 1:1 2:1 3:0.43589744 4:0 5:1 6:-1 7:0 8:1 9:-1 10:0 11:0 12:0 13:0 14:0 15:0 16:0 17:0 18:0.31622777 19:0.087841046 20:0.2 21:0 
256 1:1 2:1 3:0.93939394 4:0 5:1 6:-1 7:0 8:1 9:-1 10:0 11:1 12:0.74358974 13:0 14:0 15:0 16:0 17:0 18:0.78067087 19:0.4047923 20:0 21:0.77283951 
256 1:1 2:1 3:0.77777778 4:0 5:1 6:-1 7:0 8:1 9:-1 10:0 11:0 12:0 13:0 14:0 15:0 16:0 17:0 18:0.45291081 19:0.050323424 20:0.2 21:0 
256 1:1 2:1 3:0.73333333 4:1 5:0 6:1 7:1 8:0 9:1 10:1 11:0 12:0.86046512 13:0 14:0 15:0 16:0 17:0 18:0.47894747 19:0.27495133 20:1 21:0 
256 1:1 2:1 3:0.95348837 4:0 5:1 6:-1 7:0 8:1 9:-1 10:0 11:0 12:0 13:0 14:0 15:0 16:0 17:0 18:0.42562827 19:0.18128611 20:0.2 21:0 
256 1:1 2:1 3:0.93939394 4:0 5:1 6:-1 7:0 8:1 9:-1 10:0 11:0 12:0 13:0 14:0 15:0 16:0 17:0 18:0.68041382 19:0.075601535 20:0.2 21:0 
8.452180585599162 1:1 2:1 3:0.81818182 4:1 5:0 6:1 7:1 8:0 9:1 10:0 11:0 12:0 13:0 14:0 15:0 16:0 17:0 18:0.60246408 19:0.10041068 20:1 21:0 
256 1:1 2:1 3:0.91666667 4:0 5:1 6:-1 7:0 8:1 9:-1 10:1 11:0 12:-0.18644068 13:0 14:0 15:0 16:0 17:0 18:0.80130933 19:0.54904528 20:0.33333333 21:0.81777778 
256 1:1 2:1 3:0.86666667 4:0 5:1 6:-1 7:0 8:1 9:-1 10:0 11:1 12:0.17647059 13:0 14:0 15:0 16:0 17:0 18:0.29488391 19:0.1255987 20:0 21:0 
256 1:1 2:1 3:0.94285714 4:1 5:0 6:1 7:0 8:1 9:0.6 10:1 11:0 12:-0.18181818 13:0 14:0 15:0 16:0 17:0 18:0.43259046 19:0.072098409 20:0.94285714 21:0 
256 1:1 2:1 3:0.94285714 4:1 5:0 6:1 7:0 8:1 9:-1 10:1 11:0 12:0.33333333 13:0 14:0 15:0 16:0 17:0 18:0.47894747 19:0.27495133 20:0.71428571 21:0 
256 1:1 2:1 3:0.93548387 4:1 5:0 6:1 7:0 8:1 9:-0.86666667 10:1 11:0 12:0.16129032 13:0 14:0 15:0 16:0 17:0 18:0.73960026 19:0.12326671 20:0.73333333 21:0 
256 1:0 2:1 3:0 4:1 5:0 6:1 7:1 8:0 9:1 10:1 11:0 12:0.22222222 13:0 14:0 15:0 16:0 17:0 18:0.27399831 19:0.045666385 20:0.66666667 21:0 
256 1:1 2:1 3:0.92592593 4:1 5:0 6:1 7:0 8:1 9:-1 10:1 11:0 12:0.57142857 13:0 14:0 15:0 16:0 17:0 18:0.43033148 19:0.35860957 20:0.71428571 21:0 
6.572638977145546 1:1 2:0 3:0.41666667 4:1 5:0 6:1 7:1 8:0 9:1 10:0 11:1 12:-0.26315789 13:0 14:0 15:0 16:0 17:0 18:0.68560344 19:0.40628352 20:0.2 21:0.4 
256 1:1 2:1 3:0.89473684 4:0 5:1 6:-1 7:0 8:1 9:-1 10:1 11:0 12:1 13:0 14:0 15:0 16:0 17:0 18:0.7130241 19:0.4489411 20:0.33333333 21:0.84126984 
8.195726540905723 1:1 2:1 3:1 4:1 5:0 6:1 7:1 8:0 9:1 10:0 11:1 12:-0.090909091 13:0 14:0 15:0 16:0 17:0 18:0.81818182 19:0.16666667 20:0.66666667 21:0 
256 1:0 2:1 3:0.65853659 4:1 5:0 6:1 7:1 8:0 9:1 10:1 11:0 12:0.45454545 13:0 14:0 15:0 16:0 17:0 18:0.69026849 19:0.57522374 20:0.83333333 21:0.98484848 
256 1:1 2:1 3:0.79310345 4:1 5:0 6:1 7:0 8:1 9:1 10:0 11:0 12:0 13:0 14:0 15:0 16:0 17:0 18:0.29361011 19:0.054372243 20:1 21:0 
60.85375483241878 1:1 2:1 3:0.71428571 4:1 5:0 6:1 7:1 8:0 9:1 10:1 11:0 12:0.62962963 13:1 14:1 15:1 16:1 17:0 18:0.52372294 19:0.33945005 20:0.8 21:0 
5.118210057817124 1:1 2:1 3:0.5 4:1 5:0 6:1 7:1 8:0 9:1 10:1 11:0 12:1 13:0 14:-1 15:0 16:-1 17:1 18:0.46423835 19:0.24931319 20:0.6 21:0 
25.09543474316931 1:1 2:1 3:0.65853659 4:1 5:0 6:1 7:1 8:0 9:1 10:1 11:0 12:0.43283582 13:1 14:1 15:1 16:1 17:0 18:0.50937163 19:0.3490139 20:1 21:0 
256 1:1 2:1 3:0.76 4:0 5:1 6:-1 7:0 8:1 9:-1 10:1 11:0 12:1 13:0 14:0 15:0 16:0 17:0 18:0.30949223 19:0.051582038 20:0.33333333 21:0 
35.3169302116397 1:1 2:1 3:0.85185185 4:1 5:0 6:1 7:1 8:0 9:1 10:0 11:1 12:-0.41463415 13:0 14:0 15:0 16:0 17:0 18:0.36740472 19:0.2245251 20:0.66666667 21:0 
224.8996622647679 1:1 2:1 3:0.86046512 4:1 5:0 6:1 7:0 8:1 9:1 10:1 11:0 12:0.2972973 13:0 14:0 15:0 16:0 17:0 18:0.46169026 19:0.085498196 20:1 21:0 
256 1:1 2:1 3:0.92592593 4:1 5:0 6:1 7:1 8:0 9:1 10:1 11:0 12:0.80821918 13:0 14:0 15:0 16:0 17:0 18:0.42192651 19:0.27347088 20:1 21:0 
162.8940406374938 1:1 2:1 3:0.79310345 4:1 5:0 6:1 7:1 8:0 9:1 10:1 11:0 12:1 13:0 14:0 15:0 16:0 17:0 18:0.5639259 19:0.24019066 20:1 21:1 
256 1:1 2:1 3:0.92592593 4:0 5:1 6:-1 7:0 8:1 9:-1 10:0 11:0 12:0 13:0 14:0 15:0 16:0 17:0 18:0.40824829 19:0.045360921 20:0.2 21:0 
256 1:1 2:1 3:0.92592593 4:1 5:0 6:1 7:0 8:1 9:-1 10:1 11:0 12:0.47826087 13:0 14:0 15:0 16:0 17:0 18:0.80064077 19:0.19274685 20:0.71428571 21:0 
256 1:1 2:1 3:0.95744681 4:0 5:1 6:-1 7:0 8:1 9:-1 10:1 11:0 12:0.23076923 13:0 14:0 15:0 16:0 17:0 18:0.84046064 19:0.51361483 20:0.33333333 21:0.96078431 
256 1:1 2:1 3:0.73913043 4:1 5:0 6:1 7:0 8:1 9:1 10:0 11:0 12:0 13:0 14:0 15:0 16:0 17:0 18:0.63900965 19:0.17750268 20:1 21:0 
256 1:1 2:1 3:0.65853659 4:1 5:0 6:1 7:0 8:1 9:0.46666667 10:1 11:0 12:0.33333333 13:0 14:0 15:0 16:0 17:0 18:0.72727273 19:0.14814815 20:0.92380952 21:0 
215.7653823650827 1:0 2:1 3:0.51724138 4:0 5:1 6:-1 7:0 8:1 9:-1 10:1 11:0 12:0.36 13:1 14:1 15:1 16:1 17:1 18:0.842397 19:0.57719795 20:0.5 21:0.93917749 
256 1:1 2:1 3:0.6 4:1 5:0 6:1 7:1 8:0 9:1 10:0 11:1 12:-0.26666667 13:0 14:0 15:0 16:0 17:0 18:0.44095855 19:0.22864518 20:0.66666667 21:0 
229.3707017449399 1:1 2:1 3:0.6 4:1 5:0 6:1 7:0 8:1 9:-1 10:1 11:0 12:0.68 13:1 14:1 15:1 16:1 17:1 18:0.48280455 19:0.29504722 20:0.81818182 21:0 
256 1:1 2:0 3:0.23636364 4:1 5:0 6:1 7:1 8:0 9:1 10:0 11:0 12:0 13:0 14:0 15:0 16:0 17:0 18:0.51724138 19:0.27777778 20:0.5 21:0.5 
216.2077943413914 1:1 2:1 3:0.94594595 4:1 5:0 6:1 7:1 8:0 9:1 10:1 11:0 12:0.49019608 13:1 14:1 15:1 16:1 17:0.53333333 18:0.57735027 19:0.41697519 20:1 21:0 
200.1894658802828 1:1 2:1 3:0.93548387 4:1 5:0 6:1 7:0 8:1 9:-1 10:1 11:0 12:1 13:0 14:0 15:0 16:0 17:0 18:0.47894747 19:0.27495133 20:0.71428571 21:0 
81.97681552947567 1:1 2:1 3:0.91304348 4:1 5:0 6:1 7:1 8:0 9:1 10:0 11:1 12:-0.022222222 13:0 14:0 15:0 16:0 17:0 18:0.39440532 19:0.25563308 20:0.66666667 21:0 
256 1:1 2:1 3:0.88235294 4:1 5:0 6:1 7:1 8:0 9:1 10:1 11:0 12:0.95744681 13:0 14:0 15:0 16:0 17:0 18:0.46265195 19:0.19705546 20:1 21:0 
256 1:1 2:0 3:0.30909091 4:1 5:0 6:1 7:1 8:0 9:1 10:0 11:1 12:0.11627907 13:0 14:0 15:0 16:0 17:0 18:0.35805744 19:0.086199013 20:0.2 21:0 
256 1:1 2:1 3:0.93939394 4:1 5:0 6:1 7:1 8:0 9:1 10:0 11:1 12:-0.25423729 13:0 14:0 15:0 16:0 17:0 18:0.37363236 19:0.26984559 20:0.66666667 21:0 
256 1:1 2:1 3:0.95121951 4:1 5:0 6:1 7:0 8:1 9:-1 10:0 11:0 12:0 13:0 14:0 15:0 16:0 17:0 18:0.43643578 19:0.21821789 20:0.6 21:0 
3.292184009384316 1:1 2:1 3:0.93939394 4:1 5:0 6:1 7:1 8:0 9:1 10:0 11:1 12:0.33333333 13:0 14:-1 15:0 16:-1 17:0.68421053 18:0.74726472 19:0.53969119 20:0.33333333 21:0.775 
256 1:1 2:1 3:0.3559322 4:0 5:1 6:-1 7:0 8:1 9:-1 10:0 11:1 12:0.33333333 13:0 14:0 15:0 16:0 17:0 18:0.73529412 19:0.46296296 20:0 21:0.75555556 
115.4471434255311 1:1 2:1 3:0.63265306 4:1 5:0 6:1 7:1 8:0 9:1 10:0 11:1 12:-0.13513514 13:0 14:0 15:0 16:0 17:0 18:0.35675303 19:0.23122882 20:0.66666667 21:0 
256 1:1 2:1 3:0.9 4:0 5:1 6:-1 7:0 8:1 9:-1 10:0 11:0 12:0 13:0 14:0 15:0 16:0 17:0 18:0.23570226 19:0.034918853 20:0.2 21:0 
256 1:1 2:1 3:0.93939394 4:0 5:1 6:-1 7:0 8:1 9:-1 10:0 11:0 12:0 13:1 14:1 15:0 16:-1 17:0.6 18:0.43386092 19:0.080344614 20:0.33333333 21:0 
256 1:1 2:1 3:1 4:1 5:0 6:1 7:0 8:1 9:-1 10:1 11:0 12:0.65079365 13:0 14:0 15:0 16:0 17:0 18:0.52486388 19:0.32075015 20:0.71428571 21:0 
84.57696905391842 1:1 2:1 3:0.81818182 4:1 5:0 6:1 7:1 8:0 9:1 10:0 11:1 12:-0.12 13:1 14:1 15:0 16:1 17:0.64705882 18:0.65759595 19:0.4383973 20:0.55555556 21:0.46666667 
127.3624293354831 1:1 2:1 3:0.48148148 4:1 5:0 6:1 7:1 8:0 9:1 10:1 11:0 12:1 13:0 14:0 15:0 16:0 17:0 18:0.72929053 19:0.41866678 20:1 21:1 
256 1:1 2:1 3:1 4:0 5:1 6:-1 7:0 8:1 9:-1 10:1 11:0 12:1 13:0 14:0 15:0 16:0 17:0 18:0.74456944 19:0.51016795 20:0.33333333 21:0.96078431 
57.40685549018561 1:0 2:1 3:0.90909091 4:1 5:0 6:1 7:1 8:0 9:1 10:1 11:0 12:0.35384615 13:1 14:1 15:1 16:1 17:0.66233766 18:0.77330889 19:0.50121873 20:0.9 21:0.98 
44.44078378742877 1:1 2:1 3:0.95555556 4:1 5:0 6:1 7:1 8:0 9:1 10:0 11:0 12:0 13:0 14:0 15:0 16:0 17:0 18:0.34697712 19:0.23774358 20:1 21:0 
256 1:1 2:1 3:0.95121951 4:0 5:1 6:-1 7:0 8:1 9:-1 10:1 11:0 12:0.39130435 13:0 14:-1 15:0 16:-1 17:0.39130435 18:0.36740472 19:0.2245251 20:0.11111111 21:0 
256 1:1 2:1 3:0.6744186 4:0 5:1 6:-1 7:0 8:1 9:-1 10:0 11:0 12:0 13:0 14:0 15:0 16:0 17:0 18:0.31622777 19:0.087841046 20:0.2 21:0 
256 1:1 2:1 3:0.93548387 4:0 5:1 6:-1 7:0 8:1 9:-1 10:1 11:0 12:0.77777778 13:0 14:0 15:0 16:0 17:0 18:0.66666667 19:0.11111111 20:0.33333333 21:0 
256 1:1 2:1 3:0.90909091 4:0 5:1 6:-1 7:0 8:1 9:-1 10:0 11:0 12:0 13:0 14:0 15:0 16:0 17:0 18:0.33333333 19:0.055555556 20:0.2 21:0 
256 1:0 2:1 3:0.58139535 4:1 5:0 6:1 7:1 8:0 9:1 10:1 11:0 12:1 13:0 14:0 15:0 16:0 17:0 18:0.78840451 19:0.48180276 20:0.83333333 21:0.98148148 
256 1:0 2:1 3:0.52 4:1 5:0 6:1 7:1 8:0 9:1 10:1 11:0 12:1 13:0 14:0 15:0 16:0 17:0 18:0.72057669 19:0.5204165 20:0.83333333 21:0.97916667 
256 1:1 2:1 3:0.875 4:1 5:0 6:1 7:1 8:0 9:1 10:1 11:0 12:0.86046512 13:0 14:0 15:0 16:0 17:0 18:0.46420708 19:0.23210354 20:1 21:0 
256 1:1 2:1 3:0.88888889 4:1 5:0 6:1 7:1 8:0 9:1 10:0 11:1 12:0.066666667 13:0 14:0 15:0 16:0 17:0 18:0.72727273 19:0.14814815 20:0.66666667 21:0 
93.7311392139006 1:1 2:1 3:0.86666667 4:1 5:0 6:1 7:0 8:1 9:-1 10:0 11:1 12:0.42222222 13:0 14:0 15:0 16:0 17:0 18:0.74285714 19:0.48148148 20:0.33333333 21:0.33333333 
256 1:0 2:1 3:0.11111111 4:1 5:0 6:1 7:1 8:0 9:1 10:0 11:1 12:0.65517241 13:0 14:0 15:0 16:0 17:0 18:0.77340208 19:0.54424591 20:0.5 21:0.77109788 
161.9851056233407 1:1 2:1 3:0.43589744 4:1 5:0 6:1 7:0 8:1 9:-1 10:1 11:0 12:0.2972973 13:0 14:0 15:0 16:0 17:0 18:0.71566005 19:0.35783003 20:0.71428571 21:0.97142857 
256 1:1 2:1 3:0.93548387 4:1 5:0 6:1 7:0 8:1 9:1 10:0 11:0 12:0 13:0 14:0 15:0 16:0 17:0 18:0.39223227 19:0.28327886 20:1 21:0 
107.3522352421972 1:0 2:1 3:0.052631579 4:1 5:0 6:1 7:1 8:0 9:1 10:1 11:0 12:0.66666667 13:0 14:0 15:0 16:0 17:0 18:0.76043124 19:0.38021562 20:1 21:0.97575758 
11.63108331332848 1:1 2:1 3:0.93939394 4:1 5:0 6:1 7:1 8:0 9:1 10:1 11:0 12:0.88235294 13:1 14:1 15:1 16:1 17:0.63636364 18:0.57735027 19:0.13899173 20:1 21:0 
256 1:1 2:1 3:0.83783784 4:1 5:0 6:1 7:1 8:0 9:1 10:0 11:0 12:0 13:0 14:0 15:0 16:0 17:0 18:0.6289709 19:0.081533265 20:1 21:0 
256 1:0 2:1 3:0.6 4:1 5:0 6:1 7:1 8:0 9:1 10:1 11:0 12:0.62711864 13:1 14:1 15:1 16:1 17:0.62711864 18:0.87179487 19:0.62962963 20:0.8 21:0.93846154 
237.7663232585102 1:1 2:1 3:0.36170213 4:1 5:0 6:1 7:0 8:1 9:1 10:0 11:0 12:0 13:0 14:0 15:0 16:0 17:0 18:0.39223227 19:0.094426287 20:1 21:0 
177.3080504723088 1:0 2:1 3:0.20930233 4:1 5:0 6:1 7:0 8:1 9:0.33333333 10:1 11:0 12:1 13:0 14:0 15:0 16:0 17:0 18:0.7949963 19:0.45638676 20:0.86666667 21:0.98888889 
19.17742069077285 1:1 2:1 3:0.3 4:1 5:0 6:1 7:1 8:0 9:1 10:1 11:0 12:0.48148148 13:1 14:1 15:1 16:1 17:0.48148148 18:0.73924932 19:0.46545328 20:1 21:1 
256 1:1 2:1 3:0.94285714 4:0 5:1 6:-1 7:0 8:1 9:-1 10:1 11:0 12:1 13:0 14:0 15:0 16:0 17:0 18:0.60848698 19:0.43946282 20:0.33333333 21:0.77142857 
33.19136392255705 1:1 2:1 3:0.84615385 4:1 5:0 6:1 7:1 8:0 9:1 10:1 11:0 12:1 13:1 14:1 15:1 16:1 17:0 18:0.70490738 19:0.30023833 20:1 21:0.93333333 
37.71539108025923 1:1 2:1 3:0.51111111 4:1 5:0 6:1 7:1 8:0 9:1 10:0 11:1 12:0.84615385 13:0 14:0 15:0 16:0 17:0 18:0.70124089 19:0.40256422 20:0.66666667 21:0.78888889 
256 1:1 2:1 3:0.94594595 4:0 5:1 6:-1 7:0 8:1 9:-1 10:0 11:0 12:0 13:0 14:0 15:0 16:0 17:0 18:0.68041382 19:0.1134023 20:0.2 21:0 
15.14185277604089 1:1 2:1 3:0.64705882 4:1 5:0 6:1 7:0 8:1 9:1 10:0 11:1 12:0.6 13:0 14:0 15:0 16:0 17:0 18:0.47140452 19:0.069837707 20:0.66666667 21:0 
75.82262274422119 1:0 2:1 3:0.052631579 4:1 5:0 6:1 7:1 8:0 9:1 10:1 11:0 12:0.66666667 13:0 14:0 15:0 16:0 17:0 18:0.76043124 19:0.38021562 20:1 21:0.97575758 
4.765197651121818 1:1 2:1 3:0.88235294 4:1 5:0 6:1 7:0 8:1 9:0.13333333 10:1 11:0 12:0.57142857 13:0 14:0 15:0 16:0 17:0 18:0.77777778 19:0.12962963 20:0.87619048 21:0 
256 1:1 2:1 3:0.9 4:0 5:1 6:-1 7:0 8:1 9:-1 10:0 11:0 12:0 13:0 14:0 15:0 16:0 17:0 18:0.45291081 19:0.10903408 20:0.2 21:0 
256 1:1 2:1 3:0.79310345 4:0 5:1 6:-1 7:0 8:1 9:-1 10:0 11:0 12:0 13:0 14:0 15:0 16:0 17:0 18:0.29012943 19:0.14506471 20:0.2 21:0.4 
36.06960049264922 1:1 2:1 3:0.89473684 4:1 5:0 6:1 7:1 8:0 9:1 10:1 11:0 12:1 13:1 14:1 15:1 16:1 17:0.53191489 18:0.7477565 19:0.42926762 20:0.8 21:0.98666667 
256 1:1 2:1 3:0.66153846 4:1 5:0 6:1 7:1 8:0 9:1 10:1 11:0 12:1 13:1 14:1 15:1 16:1 17:0.6 18:0.80526272 19:0.56666636 20:0.8 21:0.96333333 
141.3001966683439 1:1 2:1 3:0.94285714 4:1 5:0 6:1 7:0 8:1 9:1 10:0 11:1 12:-0.25925926 13:0 14:0 15:0 16:0 17:0 18:0.65648795 19:0.21882932 20:0.66666667 21:0.93333333 
256 1:1 2:1 3:1 4:1 5:0 6:1 7:0 8:1 9:-1 10:1 11:0 12:0.9 13:0 14:0 15:0 16:0 17:0 18:0.4956816 19:0.10097218 20:0.71428571 21:0 
256 1:1 2:1 3:0.43589744 4:1 5:0 6:1 7:0 8:1 9:1 10:0 11:0 12:0 13:0 14:0 15:0 16:0 17:0 18:0.42163702 19:0.11712139 20:1 21:0 
54.31463910373033 1:1 2:1 3:0.88235294 4:1 5:0 6:1 7:1 8:0 9:1 10:1 11:0 12:0.79591837 13:1 14:1 15:1 16:1 17:0.48148148 18:0.89708523 19:0.24919034 20:1 21:0 
256 1:0 2:1 3:-0.14285714 4:1 5:0 6:1 7:1 8:0 9:1 10:1 11:0 12:1 13:0 14:0 15:0 16:0 17:0 18:0.74278135 19:0.3989011 20:1 21:1 
256 1:1 2:1 3:0.89473684 4:1 5:0 6:1 7:1 8:0 9:1 10:1 11:0 12:0.86046512 13:0 14:0 15:0 16:0 17:0 18:0.47894747 19:0.27495133 20:1 21:0 
40.19460458788051 1:1 2:1 3:0.64705882 4:1 5:0 6:1 7:1 8:0 9:1 10:0 11:1 12:0.64705882 13:0 14:0 15:0 16:0 17:0 18:0.74753193 19:0.48451144 20:0.66666667 21:0.97460317 
256 1:1 2:1 3:0.92 4:1 5:0 6:1 7:0 8:1 9:0.33333333 10:0 11:0 12:0 13:0 14:0 15:0 16:0 17:0 18:0.42111744 19:0.22615566 20:0.86666667 21:0 
256 1:1 2:1 3:0.93548387 4:0 5:1 6:-1 7:0 8:1 9:-1 10:0 11:0 12:0 13:0 14:0 15:0 16:0 17:0 18:0.72168784 19:0.10691672 20:0.2 21:0 
20.07087967374691 1:1 2:1 3:0.86046512 4:1 5:0 6:1 7:1 8:0 9:1 10:1 11:0 12:1 13:0 14:0 15:0 16:0 17:0 18:0.47894747 19:0.079824579 20:1 21:0 
242.6155356008716 1:1 2:1 3:0.9 4:1 5:0 6:1 7:1 8:0 9:1 10:1 11:0 12:1 13:0 14:0 15:0 16:0 17:0 18:0.41344912 19:0.29860214 20:1 21:0 
239.0938225580796 1:0 2:1 3:-0.33333333 4:1 5:0 6:1 7:1 8:0 9:1 10:1 11:0 12:1 13:0 14:0 15:0 16:0 17:0 18:0.74285714 19:0.48148148 20:1 21:0.96462585 
8.818252713238605 1:1 2:1 3:0.52380952 4:1 5:0 6:1 7:1 8:0 9:1 10:1 11:0 12:0.31343284 13:1 14:1 15:1 16:1 17:0.27659574 18:0.466924 19:0.12970111 20:1 21:0 
256 1:1 2:1 3:0.93939394 4:0 5:1 6:-1 7:0 8:1 9:-1 10:0 11:0 12:0 13:0 14:0 15:0 16:0 17:0 18:0.83333333 19:0.092592593 20:0.2 21:0 
43.77446776238903 1:1 2:1 3:0.5 4:1 5:0 6:1 7:1 8:0 9:1 10:1 11:0 12:1 13:1 14:1 15:0 16:0.66666667 17:1 18:0.78163175 19:0.44871452 20:0.96969697 21:0.95286195 
23.4025107345887 1:1 2:1 3:0.94594595 4:1 5:0 6:1 7:0 8:1 9:-1 10:1 11:0 12:0.33333333 13:1 14:1 15:1 16:1 17:0.7254902 18:0.92307692 19:0.22222222 20:0.81818182 21:0 
27.64394930365627 1:1 2:1 3:0.94594595 4:1 5:0 6:1 7:1 8:0 9:1 10:1 11:0 12:0.68421053 13:1 14:1 15:1 16:1 17:0.49019608 18:1 19:0.24074074 20:1 21:0 
55.37285008797658 1:1 2:1 3:0.73913043 4:0 5:0 6:0 7:0 8:0 9:0 10:0 11:0 12:0 13:0 14:0 15:0 16:0 17:0.63636364 18:0.50964719 19:0.33032688 20:1 21:0.75 
256 1:0 2:1 3:0.6 4:1 5:0 6:1 7:1 8:0 9:1 10:1 11:0 12:1 13:0 14:0 15:0 16:0 17:0 18:0.68313005 19:0.34156503 20:0.66666667 21:0.98148148 
256 1:1 2:1 3:0.77777778 4:0 5:1 6:-1 7:0 8:1 9:-1 10:0 11:0 12:0 13:0 14:0 15:0 16:0 17:0 18:0.2236068 19:0.0372678 20:0.2 21:0 
56.40345157905835 1:1 2:1 3:0.9 4:1 5:0 6:1 7:1 8:0 9:1 10:1 11:0 12:1 13:0 14:0 15:0 16:0 17:0 18:0.41344912 19:0.29860214 20:1 21:0 
256 1:1 2:1 3:0.57575758 4:0 5:1 6:-1 7:0 8:1 9:-1 10:0 11:0 12:0 13:0 14:0 15:0 16:0 17:0 18:0.70777607 19:0.43252982 20:0.2 21:0.88571429 
256 1:1 2:1 3:0.93548387 4:0 5:1 6:-1 7:0 8:1 9:-1 10:0 11:0 12:0 13:0 14:0 15:0 16:0 17:0 18:0.42562827 19:0.18128611 20:0.2 21:0 
256 1:1 2:1 3:0.96491228 4:1 5:0 6:1 7:0 8:1 9:1 10:1 11:0 12:0.28571429 13:0 14:0 15:0 16:0 17:0 18:0.45573272 19:0.32914029 20:1 21:0 
87.0599513401968 1:1 2:1 3:0.93548387 4:1 5:0 6:1 7:0 8:1 9:1 10:0 11:0 12:0 13:0 14:0 15:0 16:0 17:0 18:0.56195149 19:0.19772367 20:1 21:0 
256 1:0 2:1 3:0.58730159 4:1 5:0 6:1 7:1 8:0 9:1 10:1 11:0 12:0.91304348 13:1 14:1 15:1 16:1 17:0.90909091 18:0.75637877 19:0.4902455 20:0.9 21:0.99285714 
256 1:1 2:1 3:0.80645161 4:0 5:1 6:-1 7:0 8:1 9:-1 10:0 11:0 12:0 13:0 14:0 15:0 16:0 17:0 18:0.34050261 19:0.14502889 20:0.2 21:0 
59.14817845120676 1:1 2:1 3:0.93103448 4:1 5:0 6:1 7:1 8:0 9:1 10:0 11:1 12:0.65853659 13:1 14:1 15:1 16:1 17:1 18:0.531085 19:0.32455195 20:0.8 21:0 
256 1:1 2:1 3:0.9 4:0 5:1 6:-1 7:0 8:1 9:-1 10:1 11:0 12:0.82608696 13:0 14:0 15:0 16:0 17:0 18:0.62994079 19:0.40829496 20:0.33333333 21:0.88571429 
256 1:0 2:0 3:-0.53488372 4:1 5:0 6:1 7:1 8:0 9:1 10:1 11:0 12:0.71428571 13:0 14:0 15:0 16:0 17:0 18:0.68431914 19:0.3801773 20:0.6 21:0.67111111 
9.44298387492346 1:1 2:1 3:0.95121951 4:1 5:0 6:1 7:1 8:0 9:1 10:0 11:1 12:0.65517241 13:1 14:1 15:0 16:0.93333333 17:1 18:0.70021885 19:0.50571362 20:0.79333333 21:0.70717949 
256 1:1 2:1 3:0.83783784 4:1 5:0 6:1 7:0 8:1 9:1 10:0 11:0 12:0 13:0 14:0 15:0 16:0 17:0 18:0.36369648 19:0.18184824 20:1 21:0 
256 1:1 2:1 3:0.8 4:1 5:0 6:1 7:0 8:1 9:0.93333333 10:1 11:0 12:0.40740741 13:0 14:0 15:0 16:0 17:0 18:0.38490018 19:0.19245009 20:0.99047619 21:0 
256 1:1 2:1 3:0.92592593 4:1 5:0 6:1 7:1 8:0 9:1 10:0 11:1 12:-0.2 13:0 14:0 15:0 16:0 17:0 18:0.39440532 19:0.25563308 20:0.66666667 21:0 
2.905004151969486 1:1 2:1 3:0.93103448 4:1 5:0 6:1 7:1 8:0 9:1 10:0 11:0 12:0 13:1 14:1 15:0 16:-1 17:0.24137931 18:0.83624201 19:0.20131752 20:0.77777778 21:0 
0.6457291518199105 1:1 2:1 3:0.76470588 4:1 5:0 6:1 7:1 8:0 9:1 10:1 11:0 12:0.48148148 13:1 14:1 15:0 16:-1 17:0.48148148 18:0.83365502 19:0.57120807 20:0.81818182 21:0.96314162 
67.9107284833276 1:1 2:1 3:0.80645161 4:1 5:0 6:1 7:1 8:0 9:1 10:1 11:0 12:1 13:0 14:0 15:0 16:0 17:0 18:0.88888889 19:0.14814815 20:1 21:0 
256 1:1 2:1 3:0.77777778 4:1 5:0 6:1 7:1 8:0 9:1 10:1 11:0 12:0.82857143 13:0 14:0 15:0 16:0 17:0 18:0.45074894 19:0.29215209 20:1 21:0 
256 1:1 2:1 3:0.85365854 4:1 5:0 6:1 7:1 8:0 9:1 10:1 11:0 12:1 13:0 14:0 15:0 16:0 17:0 18:0.43401854 19:0.34560736 20:1 21:0 
256 1:1 2:1 3:0.95555556 4:0 5:1 6:-1 7:0 8:1 9:-1 10:1 11:0 12:0.85365854 13:0 14:0 15:0 16:0 17:0 18:0.66666667 19:0.11111111 20:0.33333333 21:0 
1.222928455694043 1:1 2:1 3:0.66666667 4:1 5:0 6:1 7:1 8:0 9:1 10:1 11:0 12:0.38461538 13:1 14:1 15:0 16:-1 17:0.38461538 18:0.54794903 19:0.31456333 20:0.81818182 21:0 
12.46344151322635 1:0 2:1 3:0.80392157 4:1 5:0 6:1 7:1 8:0 9:1 10:1 11:0 12:1 13:1 14:1 15:0 16:0.33333333 17:0.9047619 18:0.80403025 19:0.53602017 20:0.83333333 21:0.98958333 
60.90347939933612 1:1 2:1 3:0.88235294 4:1 5:0 6:1 7:1 8:0 9:1 10:1 11:0 12:1 13:0 14:0 15:0 16:0 17:0 18:0.42163702 19:0.070272837 20:1 21:0 
162.6247225253042 1:1 2:1 3:0.82857143 4:1 5:0 6:1 7:1 8:0 9:1 10:1 11:0 12:1 13:0 14:0 15:0 16:0 17:0 18:0.73960026 19:0.12326671 20:1 21:0 
256 1:0 2:1 3:0.58139535 4:1 5:0 6:1 7:1 8:0 9:1 10:1 11:0 12:1 13:1 14:1 15:0 16:-0.46666667 17:1 18:0.695978 19:0.45109685 20:0.75333333 21:0.80153846 
256 1:1 2:1 3:0.56521739 4:0 5:1 6:-1 7:0 8:1 9:-1 10:0 11:0 12:0 13:0 14:-1 15:0 16:-1 17:1 18:0.44095855 19:0.11432259 20:0 21:0 
16.77712522544676 1:1 2:0 3:0.3877551 4:1 5:0 6:1 7:1 8:0 9:1 10:1 11:0 12:0.45454545 13:0 14:0 15:0 16:0 17:0 18:0.37099112 19:0.21297638 20:0.66666667 21:0 
190.8565584910198 1:1 2:1 3:0.77777778 4:1 5:0 6:1 7:1 8:0 9:1 10:1 11:0 12:0.95918367 13:0 14:0 15:0 16:0 17:0 18:0.42700841 19:0.21350421 20:1 21:0 
-92.98842342712751 1:1 2:0 3:0.625 4:0 5:1 6:-1 7:0 8:1 9:-1 10:0 11:0 12:0 13:0 14:0 15:0 16:0 17:0 18:0.11744404 19:0.021748897 20:-0.5 21:0 
-11.96619842298164 1:1 2:1 3:1 4:0 5:0 6:0 7:0 8:0 9:0 10:1 11:0 12:1 13:0 14:0 15:0 16:0 17:0 18:0.80580663 19:0.5968938 20:1 21:0.96424242 
-256 1:1 2:1 3:0.95121951 4:1 5:0 6:1 7:0 8:1 9:-1 10:1 11:0 12:0.56097561 13:0 14:0 15:0 16:0 17:0 18:0.47894747 19:0.079824579 20:0.71428571 21:0 
-102.2238219942508 1:0 2:1 3:0.47368421 4:1 5:0 6:1 7:1 8:0 9:1 10:1 11:0 12:1 13:1 14:1 15:0 16:0.86666667 17:1 18:0.78493134 19:0.56689486 20:0.78666667 21:1 
-256 1:0 2:1 3:0.51351351 4:1 5:0 6:1 7:1 8:0 9:1 10:1 11:0 12:1 13:1 14:1 15:0 16:0.86666667 17:1 18:0.78378378 19:0.53703704 20:0.78666667 21:1 
-256 1:1 2:1 3:0.94871795 4:1 5:0 6:1 7:1 8:0 9:1 10:1 11:0 12:1 13:0 14:0 15:0 16:0 17:0 18:0.7972271 19:0.45766741 20:1 21:0.88888889 
-204.6116436507841 1:1 2:1 3:0.94285714 4:0 5:1 6:-1 7:0 8:1 9:-1 10:1 11:0 12:0.42222222 13:0 14:-1 15:0 16:-1 17:1 18:0.53846154 19:0.12962963 20:0.11111111 21:0 
-256 1:1 2:1 3:0.95744681 4:1 5:0 6:1 7:1 8:0 9:1 10:1 11:0 12:0.65079365 13:0 14:0 15:0 16:0 17:0 18:0.466924 19:0.3199294 20:1 21:0 
-256 1:1 2:1 3:1 4:1 5:0 6:1 7:0 8:1 9:0.26666667 10:0 11:1 12:-0.15384615 13:0 14:0 15:0 16:0 17:0 18:0.34426519 19:0.22951012 20:0.54444444 21:0 
-256 1:1 2:1 3:0.94285714 4:1 5:0 6:1 7:0 8:1 9:-0.26666667 10:0 11:0 12:0 13:0 14:0 15:0 16:0 17:0 18:0.36927447 19:0.16412199 20:0.74666667 21:0 
-38.98986685890289 1:1 2:1 3:0.92592593 4:0 5:1 6:-1 7:0 8:1 9:-1 10:0 11:0 12:0 13:0 14:0 15:0 16:0 17:0 18:0.45643546 19:0.050715052 20:0.2 21:0 
-256 1:1 2:1 3:0.79310345 4:1 5:0 6:1 7:0 8:1 9:-0.4 10:1 11:0 12:0.36363636 13:0 14:0 15:0 16:0 17:0 18:0.33394721 19:0.21644726 20:0.8 21:0.0069444444 
-130.4326479977522 1:1 2:1 3:0.76470588 4:1 5:0 6:1 7:0 8:1 9:1 10:0 11:1 12:-0.375 13:0 14:0 15:0 16:0 17:0 18:0.49029034 19:0.072635606 20:0.66666667 21:0 
-145.7676786425346 1:1 2:1 3:0.94285714 4:0 5:1 6:-1 7:0 8:1 9:-1 10:1 11:0 12:1 13:0 14:0 15:0 16:0 17:0 18:0.55777335 19:0.18592445 20:0.33333333 21:0.66666667 
-5.508950567133102 1:1 2:1 3:1 4:0 5:1 6:-1 7:0 8:1 9:-1 10:0 11:1 12:-0.86666667 13:0 14:0 15:0 16:0 17:0 18:0.63636364 19:0.12962963 20:0 21:0 
-20.37658220266608 1:0 2:1 3:0.052631579 4:0 5:1 6:-1 7:0 8:1 9:-1 10:0 11:1 12:-0.33333333 13:1 14:1 15:1 16:1 17:0.35211268 18:0.21968739 19:0.056955989 20:0.11111111 21:0 
-256 1:1 2:1 3:0.95555556 4:0 5:1 6:-1 7:0 8:1 9:-1 10:1 11:0 12:1 13:0 14:0 15:0 16:0 17:0 18:0.58834841 19:0.087162727 20:0.33333333 21:0 
-121.619632742403 1:0 2:1 3:0.24137931 4:1 5:0 6:1 7:1 8:0 9:1 10:1 11:0 12:1 13:0 14:0 15:0 16:0 17:0 18:0.71710879 19:0.35855439 20:0.66666667 21:0.66666667 
-256 1:1 2:1 3:0.56097561 4:1 5:0 6:1 7:0 8:1 9:0.46666667 10:1 11:0 12:0.48837209 13:0 14:0 15:0 16:0 17:0 18:0.42761799 19:0.079188516 20:0.92380952 21:0 
-47.81511789643621 1:1 2:1 3:0.92 4:0 5:1 6:-1 7:0 8:1 9:-1 10:0 11:0 12:0 13:0 14:0 15:0 16:0 17:0 18:0.33942212 19:0.043999163 20:0.2 21:0 
-51.07536275997924 1:1 2:1 3:0.40540541 4:1 5:0 6:1 7:0 8:1 9:-0.4 10:0 11:0 12:0 13:0 14:0 15:0 16:0 17:0 18:0.26832816 19:0.099380799 20:0.72 21:-0.26 
-256 1:1 2:1 3:0.61904762 4:0 5:1 6:-1 7:0 8:1 9:-1 10:0 11:0 12:0 13:0 14:0 15:0 16:0 17:0 18:0.48007936 19:0.22225896 20:0.2 21:0.13333333 
-39.15709816424107 1:1 2:1 3:1 4:0 5:1 6:-1 7:0 8:1 9:-1 10:0 11:0 12:0 13:0 14:0 15:0 16:0 17:0 18:0.74620251 19:0.15200421 20:0.2 21:0 
-39.68998920673934 1:1 2:1 3:0.94285714 4:0 5:1 6:-1 7:0 8:1 9:-1 10:0 11:0 12:0 13:0 14:0 15:0 16:0 17:0 18:0.68041382 19:0.075601535 20:0.2 21:0 
-256 1:1 2:1 3:0.94285714 4:1 5:0 6:1 7:0 8:1 9:1 10:0 11:0 12:0 13:0 14:0 15:0 16:0 17:0 18:0.81649658 19:0.090721842 20:1 21:0 
-256 1:1 2:1 3:0.92592593 4:0 5:1 6:-1 7:0 8:1 9:-1 10:0 11:0 12:0 13:0 14:0 15:0 16:0 17:0 18:0.33407655 19:0.04330622 20:0.2 21:0 
-56.37071595628542 1:1 2:1 3:-0.12195122 4:0 5:1 6:-1 7:0 8:1 9:-1 10:1 11:0 12:1 13:0 14:0 15:0 16:0 17:0 18:0.58034329 19:0.39764263 20:0.33333333 21:0.80555556 
-256 1:0 2:1 3:0.66666667 4:1 5:0 6:1 7:1 8:0 9:1 10:1 11:0 12:1 13:0 14:0 15:0 16:0 17:0 18:0.8196886 19:0.53127965 20:0.66666667 21:1 
-256 1:1 2:1 3:0.95555556 4:1 5:0 6:1 7:1 8:0 9:1 10:0 11:1 12:-0.13043478 13:0 14:0 15:0 16:0 17:0 18:0.44905021 19:0.2245251 20:0.66666667 21:0 
-256 1:1 2:1 3:0.38181818 4:1 5:0 6:1 7:1 8:0 9:1 10:1 11:0 12:1 13:0 14:0 15:0 16:0 17:0 18:0.81236239 19:0.54157493 20:1 21:1 
-25.6432981966219 1:0 2:1 3:0.61904762 4:1 5:0 6:1 7:0 8:1 9:-1 10:0 11:1 12:0.021276596 13:0 14:0 15:0 16:0 17:0 18:0.2478408 19:0.050486089 20:0 21:0 
-256 1:1 2:1 3:0.93103448 4:1 5:0 6:1 7:1 8:0 9:1 10:1 11:0 12:1 13:0 14:0 15:0 16:0 17:0 18:0.48038446 19:0.24019223 20:1 21:0 
-147.6459072799376 1:0 2:1 3:0.51724138 4:1 5:0 6:1 7:1 8:0 9:1 10:0 11:0 12:0 13:0 14:0 15:0 16:0 17:0 18:0.36927447 19:0.041030497 20:0.5 21:0 
-52.04409984158799 1:1 2:1 3:0.51724138 4:0 5:0 6:0 7:0 8:0 9:0 10:0 11:0 12:0 13:0 14:0 15:0 16:0 17:0 18:0.6681531 19:0.25983732 20:1 21:1 
-256 1:0 2:1 3:0.15789474 4:1 5:0 6:1 7:1 8:0 9:1 10:1 11:0 12:1 13:0 14:0 15:0 16:0 17:0 18:0.76431571 19:0.48123582 20:1 21:0.96296296 
-2.636449726737881 1:1 2:0 3:0.51351351 4:0 5:1 6:-1 7:0 8:1 9:-1 10:0 11:1 12:-0.22222222 13:1 14:1 15:1 16:1 17:-0.22222222 18:0.14712247 19:0.095357158 20:-0.25 21:-0.72142857 
-256 1:1 2:1 3:1 4:1 5:0 6:1 7:1 8:0 9:1 10:0 11:0 12:0 13:0 14:0 15:0 16:0 17:0 18:0.53881591 19:0.30932024 20:1 21:0 
-256 1:1 2:1 3:0.89090909 4:1 5:0 6:1 7:1 8:0 9:1 10:1 11:0 12:0.66666667 13:0 14:0 15:0 16:0 17:0 18:0.4637389 19:0.26622048 20:1 21:0 
-256 1:1 2:1 3:1 4:1 5:0 6:1 7:1 8:0 9:1 10:1 11:0 12:0.66666667 13:0 14:0 15:0 16:0 17:0 18:0.5956834 19:0.34196639 20:1 21:0 
-256 1:1 2:1 3:0.77777778 4:1 5:0 6:1 7:1 8:0 9:1 10:0 11:0 12:0 13:0 14:0 15:0 16:0 17:0 18:0.32491822 19:0.18652712 20:1 21:0 
-256 1:1 2:1 3:0.94594595 4:1 5:0 6:1 7:1 8:0 9:1 10:1 11:0 12:-0.085714286 13:0 14:0 15:0 16:0 17:0 18:0.39466488 19:0.25580131 20:1 21:-0.26666667 
-256 1:1 2:1 3:0.72972973 4:1 5:0 6:1 7:1 8:0 9:1 10:1 11:0 12:0.41176471 13:0 14:0 15:0 16:0 17:0 18:0.31088091 19:0.2245251 20:1 21:0 
-99.96999535247542 1:1 2:1 3:0.13043478 4:0 5:1 6:-1 7:0 8:1 9:-1 10:0 11:0 12:0 13:0 14:0 15:0 16:0 17:0 18:0.22677868 19:0.11758895 20:0.2 21:0.16666667 
-256 1:1 2:1 3:0.81818182 4:1 5:0 6:1 7:0 8:1 9:-1 10:1 11:0 12:0.46666667 13:0 14:0 15:0 16:0 17:0 18:0.64715023 19:0.10785837 20:0.71428571 21:0 
-256 1:0 2:1 3:0.47368421 4:1 5:0 6:1 7:1 8:0 9:1 10:1 11:0 12:0.71428571 13:1 14:1 15:1 16:1 17:0.71428571 18:0.64864865 19:0.44444444 20:0.8 21:0.93333333 
-256 1:0 2:1 3:0.47368421 4:1 5:0 6:1 7:1 8:0 9:1 10:1 11:0 12:0.71428571 13:1 14:1 15:1 16:1 17:0.71428571 18:0.64864865 19:0.44444444 20:0.8 21:0.93333333 
-0.2479045886234449 1:1 2:1 3:0.94871795 4:1 5:0 6:1 7:0 8:1 9:-1 10:1 11:0 12:0.71428571 13:1 14:1 15:0 16:-1 17:0.71428571 18:0.67567568 19:0.46296296 20:0.63636364 21:0.93333333 
-23.3302540475018 1:1 2:1 3:0.94871795 4:1 5:0 6:1 7:0 8:1 9:-1 10:1 11:0 12:0.71428571 13:1 14:1 15:0 16:-1 17:0.71428571 18:0.67567568 19:0.46296296 20:0.63636364 21:0.93333333 
-209.7643808094913 1:1 2:1 3:0.33333333 4:0 5:1 6:-1 7:0 8:1 9:-1 10:0 11:0 12:0 13:0 14:-1 15:0 16:-1 17:0.78723404 18:0.23249528 19:0.15930232 20:0 21:-0.13605442 
-150.8478961976735 1:1 2:1 3:0.93939394 4:0 5:1 6:-1 7:0 8:1 9:-1 10:0 11:1 12:0.15789474 13:0 14:0 15:0 16:0 17:0 18:0.29934217 19:0.049890362 20:0 21:0 
-256 1:1 2:1 3:0.71428571 4:1 5:0 6:1 7:1 8:0 9:1 10:1 11:0 12:1 13:1 14:1 15:1 16:1 17:0.15942029 18:0.81537425 19:0.1962938 20:1 21:0 
-256 1:1 2:1 3:0.53846154 4:1 5:0 6:1 7:1 8:0 9:1 10:1 11:0 12:0.46666667 13:0 14:0 15:0 16:0 17:0 18:0.64715023 19:0.10785837 20:1 21:0 
-256 1:1 2:1 3:0.80952381 4:1 5:0 6:1 7:1 8:0 9:1 10:0 11:1 12:-0.24137931 13:1 14:1 15:0 16:0.66666667 17:0.63265306 18:0.73333333 19:0.2037037 20:0.76666667 21:0 
-58.76366840305063 1:1 2:1 3:0.93939394 4:0 5:1 6:-1 7:0 8:1 9:-1 10:1 11:0 12:0.24137931 13:0 14:0 15:0 16:0 17:0 18:0.52388352 19:0.26194176 20:0.33333333 21:0.36111111 
-1.247887838590517 1:1 2:1 3:0.9 4:0 5:1 6:-1 7:0 8:1 9:-0.066666667 10:1 11:0 12:0.33333333 13:0 14:0 15:0 16:0 17:0 18:0.27788501 19:0.19040269 20:0.48888889 21:-0.053174603 
-256 1:1 2:1 3:1 4:1 5:0 6:1 7:1 8:0 9:1 10:1 11:0 12:1 13:0 14:0 15:0 16:0 17:0 18:0.86809229 19:0.5787282 20:1 21:0.96296296 
-256 1:1 2:1 3:0.90909091 4:1 5:0 6:1 7:1 8:0 9:1 10:1 11:0 12:1 13:0 14:0 15:0 16:0 17:0 18:0.44946657 19:0.27467402 20:1 21:0 
-256 1:1 2:1 3:0.89473684 4:1 5:0 6:1 7:1 8:0 9:1 10:1 11:0 12:1 13:0 14:0 15:0 16:0 17:0 18:0.52486388 19:0.32075015 20:1 21:0 
-256 1:1 2:1 3:0.94594595 4:1 5:0 6:1 7:0 8:1 9:-1 10:1 11:0 12:0.36170213 13:0 14:0 15:0 16:0 17:0 18:0.54133196 19:0.35086331 20:0.71428571 21:-0.083531746 
-256 1:1 2:1 3:0.94285714 4:1 5:0 6:1 7:0 8:1 9:-0.26666667 10:1 11:0 12:0.39130435 13:0 14:0 15:0 16:0 17:0 18:0.3555795 19:0.21729858 20:0.81904762 21:-0.078095238 
-256 1:1 2:1 3:0.94594595 4:1 5:0 6:1 7:1 8:0 9:1 10:1 11:0 12:1 13:0 14:0 15:0 16:0 17:0 18:0.43452409 19:0.2655425 20:1 21:0 
-256 1:1 2:0 3:0.35849057 4:1 5:0 6:1 7:1 8:0 9:1 10:0 11:1 12:-0.11111111 13:0 14:0 15:0 16:0 17:0 18:0.38569461 19:0.15713484 20:0.2 21:0 
-0.02250346877228637 1:0 2:0 3:-0.16666667 4:1 5:0 6:1 7:1 8:0 9:1 10:1 11:0 12:0.50724638 13:1 14:1 15:0 16:0.73333333 17:0.50724638 18:0.75675676 19:0.51851852 20:0.57333333 21:0.82115942 
-62.5778913219903 1:0 2:0 3:-0.16666667 4:1 5:0 6:1 7:1 8:0 9:1 10:1 11:0 12:0.50724638 13:1 14:1 15:0 16:0.73333333 17:0.50724638 18:0.75675676 19:0.51851852 20:0.57333333 21:0.82115942 
-1.466350668010306 1:1 2:0 3:0.8 4:0 5:1 6:-1 7:0 8:1 9:-1 10:1 11:0 12:0.50724638 13:0 14:-1 15:0 16:-1 17:0.50724638 18:0.72972973 19:0.5 20:-0.25 21:0.82115942 
-0.5059226623441183 1:1 2:0 3:0.8 4:0 5:1 6:-1 7:0 8:1 9:-1 10:1 11:0 12:0.50724638 13:0 14:-1 15:0 16:-1 17:0.50724638 18:0.72972973 19:0.5 20:-0.25 21:0.82115942 
-256 1:1 2:1 3:1 4:1 5:0 6:1 7:0 8:1 9:1 10:0 11:1 12:-0.26315789 13:0 14:0 15:0 16:0 17:0 18:0.44038551 19:0.26912448 20:0.66666667 21:0 
-256 1:1 2:1 3:0.94285714 4:1 5:0 6:1 7:0 8:1 9:1 10:0 11:0 12:0 13:0 14:0 15:0 16:0 17:0 18:0.50295569 19:0.21422187 20:1 21:0.66666667 
-256 1:1 2:1 3:0.93548387 4:1 5:0 6:1 7:0 8:1 9:-1 10:1 11:0 12:0.39534884 13:0 14:0 15:0 16:0 17:0 18:0.40929374 19:0.22738541 20:0.71428571 21:0.3447619 
-256 1:1 2:1 3:0.94871795 4:0 5:1 6:-1 7:0 8:1 9:-1 10:0 11:1 12:0.64705882 13:0 14:0 15:0 16:0 17:0 18:0.63913552 19:0.4142545 20:0 21:0.65833333 
-256 1:1 2:1 3:0.94871795 4:0 5:1 6:-1 7:0 8:1 9:-1 10:0 11:0 12:0 13:0 14:0 15:0 16:0 17:0 18:0.47434165 19:0.28109135 20:0.2 21:0.4 
-22.22356837452004 1:1 2:1 3:0.94285714 4:1 5:0 6:1 7:0 8:1 9:-1 10:0 11:1 12:0.64705882 13:0 14:-1 15:0 16:-1 17:0 18:0.63179775 19:0.45629838 20:0 21:0.72432099 
-2.327300331825306 1:1 2:0 3:0.61904762 4:0 5:0 6:0 7:0 8:0 9:0 10:0 11:0 12:0 13:0 14:0 15:0 16:0 17:0 18:0.49377072 19:0.32003658 20:0 21:0.55555556 
-256 1:1 2:1 3:0.96078431 4:1 5:0 6:1 7:1 8:0 9:1 10:0 11:1 12:0.40540541 13:0 14:0 15:0 16:0 17:0 18:0.44791401 19:0.24054641 20:0.66666667 21:0 
-229.1064923120451 1:1 2:1 3:0.83783784 4:0 5:1 6:-1 7:0 8:1 9:-1 10:0 11:0 12:0 13:1 14:1 15:0 16:-1 17:0.35135135 18:0.37115374 19:0.14433757 20:0.33333333 21:-0.22222222 
-256 1:1 2:1 3:0.94285714 4:1 5:0 6:1 7:1 8:0 9:1 10:1 11:0 12:1 13:0 14:0 15:0 16:0 17:0 18:0.53881591 19:0.30932024 20:1 21:0 
-38.61416537227074 1:1 2:1 3:0.94285714 4:0 5:1 6:-1 7:0 8:1 9:-1 10:1 11:0 12:0.26315789 13:0 14:-1 15:0 16:-1 17:0.090909091 18:0.33282012 19:0.15408339 20:-0.11111111 21:0 
-1.160029447579232 1:0 2:1 3:0.47826087 4:1 5:0 6:1 7:1 8:0 9:1 10:1 11:0 12:1 13:1 14:1 15:0 16:-1 17:1 18:0.78493134 19:0.5087518 20:0.6 21:1 
-157.2414541457615 1:0 2:1 3:0.47826087 4:1 5:0 6:1 7:1 8:0 9:1 10:1 11:0 12:1 13:1 14:1 15:0 16:-1 17:1 18:0.78493134 19:0.5087518 20:0.6 21:1 
-132.4825734024302 1:0 2:1 3:0.23076923 4:1 5:0 6:1 7:1 8:0 9:1 10:0 11:1 12:0.65517241 13:0 14:0 15:0 16:0 17:0 18:0.61324414 19:0.44289855 20:0.2 21:0.53425926 
-254.68279535215 1:0 2:1 3:0.23076923 4:1 5:0 6:1 7:1 8:0 9:1 10:0 11:1 12:0.65517241 13:0 14:0 15:0 16:0 17:0 18:0.61324414 19:0.44289855 20:0.2 21:0.53425926 
-256 1:1 2:1 3:1 4:0 5:1 6:-1 7:0 8:1 9:-1 10:1 11:0 12:1 13:0 14:0 15:0 16:0 17:0 18:0.87294348 19:0.59812794 20:0.33333333 21:1 
-256 1:0 2:1 3:0.45454545 4:1 5:0 6:1 7:1 8:0 9:1 10:1 11:0 12:0.86046512 13:0 14:0 15:0 16:0 17:0 18:0.70352647 19:0.35176324 20:0.66666667 21:0.92261905 
-3.092786253635762 1:1 2:1 3:0.94594595 4:1 5:0 6:1 7:0 8:1 9:0.4 10:1 11:0 12:0.66666667 13:0 14:-1 15:0 16:-1 17:-0.54285714 18:0.35186578 19:0.22806115 20:0.34 21:-0.1887037 
-256 1:1 2:1 3:0.94285714 4:1 5:0 6:1 7:0 8:1 9:0.4 10:1 11:0 12:0.58333333 13:1 14:1 15:1 16:1 17:1 18:0.59776258 19:0.34316 20:0.94545455 21:0 
-247.5976406641421 1:1 2:1 3:0.94285714 4:1 5:0 6:1 7:0 8:1 9:-1 10:0 11:0 12:0 13:0 14:0 15:0 16:0 17:0 18:0.75592895 19:0.097990789 20:0.6 21:0 
-121.9092229912836 1:1 2:1 3:0.5 4:0 5:1 6:-1 7:0 8:1 9:-1 10:0 11:1 12:0.65517241 13:0 14:0 15:0 16:0 17:0 18:0.54131623 19:0.35085311 20:0 21:0.70717949 
-256 1:1 2:1 3:0.67741935 4:0 5:1 6:-1 7:0 8:1 9:-1 10:0 11:1 12:0.65517241 13:0 14:0 15:0 16:0 17:0 18:0.58076005 19:0.37641855 20:0 21:0.70717949 
-256 1:1 2:1 3:0.71428571 4:1 5:0 6:1 7:1 8:0 9:1 10:1 11:0 12:1 13:0 14:0 15:0 16:0 17:0 18:0.37796447 19:0.25197632 20:1 21:-0.16388889 
-256 1:1 2:1 3:0.84615385 4:1 5:0 6:1 7:0 8:1 9:0.86666667 10:1 11:0 12:-0.10447761 13:0 14:0 15:0 16:0 17:0 18:0.30358837 19:0.19677024 20:0.98095238 21:-0.27746032 
-7.05777525265651 1:1 2:1 3:0.94594595 4:0 5:1 6:-1 7:0 8:1 9:-1 10:0 11:1 12:0.54545455 13:0 14:-1 15:0 16:-1 17:1 18:0.69230769 19:0.5 20:-0.11111111 21:0.78222222 
-256 1:1 2:1 3:0.93548387 4:1 5:0 6:1 7:1 8:0 9:1 10:0 11:1 12:0.54545455 13:1 14:1 15:1 16:1 17:1 18:0.58713656 19:0.29356828 20:0.8 21:0 
-256 1:0 2:1 3:0.3 4:1 5:0 6:1 7:1 8:0 9:1 10:1 11:0 12:1 13:0 14:0 15:0 16:0 17:0 18:0.59016889 19:0.22951012 20:0.83333333 21:1 
-256 1:0 2:1 3:0.26829268 4:1 5:0 6:1 7:1 8:0 9:1 10:1 11:0 12:1 13:0 14:0 15:0 16:0 17:0 18:0.55908525 19:0.21742204 20:0.83333333 21:1 
-256 1:1 2:1 3:0.95348837 4:0 5:1 6:-1 7:0 8:1 9:-1 10:0 11:1 12:0.52727273 13:0 14:0 15:0 16:0 17:0 18:0.83906454 19:0.54383813 20:0 21:0.87393939 
-256 1:1 2:1 3:0.94285714 4:0 5:1 6:-1 7:0 8:1 9:-1 10:1 11:0 12:1 13:0 14:0 15:0 16:0 17:0 18:0.74407295 19:0.45471125 20:0.33333333 21:0.89768271 
-256 1:1 2:1 3:1 4:0 5:1 6:-1 7:0 8:1 9:-1 10:1 11:0 12:1 13:0 14:0 15:0 16:0 17:0 18:0.78378378 19:0.53703704 20:0.33333333 21:0.98701299 
-256 1:1 2:1 3:0.93548387 4:1 5:0 6:1 7:0 8:1 9:-1 10:1 11:0 12:0.56097561 13:0 14:0 15:0 16:0 17:0 18:0.47894747 19:0.079824579 20:0.71428571 21:0 
-64.55451634341034 1:1 2:1 3:0.92592593 4:0 5:1 6:-1 7:0 8:1 9:-1 10:1 11:0 12:1 13:0 14:0 15:0 16:0 17:0 18:0.34815531 19:0.058025885 20:0.33333333 21:0 
-256 1:1 2:1 3:0.94594595 4:1 5:0 6:1 7:1 8:0 9:1 10:1 11:0 12:1 13:1 14:1 15:1 16:1 17:1 18:0.60633906 19:0.38176904 20:1 21:0.66666667 
-74.7429716716517 1:1 2:1 3:0.38461538 4:1 5:0 6:1 7:0 8:1 9:0.4 10:0 11:1 12:-0.058823529 13:0 14:0 15:0 16:0 17:0 18:0.26804385 19:0.10920305 20:0.56666667 21:-0.14444444 
-256 1:1 2:1 3:0.95348837 4:1 5:0 6:1 7:1 8:0 9:1 10:1 11:0 12:0.45454545 13:1 14:1 15:1 16:1 17:0 18:0.67767185 19:0.28863801 20:1 21:0.66666667 
-256 1:1 2:1 3:0.93103448 4:1 5:0 6:1 7:1 8:0 9:1 10:0 11:1 12:-0.2 13:0 14:0 15:0 16:0 17:0 18:0.54997194 19:0.09166199 20:0.66666667 21:0 
-256 1:1 2:1 3:0.94871795 4:1 5:0 6:1 7:1 8:0 9:1 10:1 11:0 12:0.42222222 13:1 14:1 15:1 16:1 17:0.5 18:0.57735027 19:0.41697519 20:1 21:0 
-78.93318229224006 1:1 2:1 3:0.57894737 4:0 5:1 6:-1 7:0 8:1 9:-1 10:1 11:0 12:1 13:1 14:1 15:0 16:-1 17:1 18:0.80975336 19:0.61481274 20:0.4 21:0.80909091 
-160.0596660138851 1:1 2:1 3:0.93103448 4:0 5:1 6:-1 7:0 8:1 9:-1 10:0 11:0 12:0 13:0 14:0 15:0 16:0 17:0 18:0.35082321 19:0.25337232 20:0.2 21:0.18333333 
-256 1:1 2:1 3:0.93548387 4:1 5:0 6:1 7:1 8:0 9:1 10:1 11:0 12:1 13:0 14:0 15:0 16:0 17:0 18:0.83205029 19:0.13867505 20:1 21:0 
-4.522376467111537 1:0 2:1 3:0.41935484 4:0 5:1 6:-1 7:0 8:1 9:-1 10:0 11:1 12:0.65853659 13:1 14:1 15:0 16:-1 17:1 18:0.5768179 19:0.3311362 20:-0.11111111 21:0.75166667 
-13.59418832336949 1:0 2:1 3:0.33333333 4:1 5:0 6:1 7:0 8:1 9:-1 10:0 11:1 12:0.081081081 13:0 14:0 15:0 16:0 17:0 18:0.35245369 19:0.15011916 20:-0.2 21:0.6 
-213.3103484718393 1:0 2:1 3:0.44 4:1 5:0 6:1 7:1 8:0 9:1 10:1 11:0 12:0.66233766 13:0 14:0 15:0 16:0 17:0 18:0.77269114 19:0.47220014 20:0.66666667 21:1 
-112.1882718656507 1:1 2:1 3:1 4:0 5:1 6:-1 7:0 8:1 9:-1 10:1 11:0 12:0.20634921 13:0 14:0 15:0 16:0 17:0 18:0.77849894 19:0.47574935 20:0.33333333 21:0.96290727 
-256 1:1 2:1 3:0.81818182 4:0 5:1 6:-1 7:0 8:1 9:-1 10:0 11:0 12:0 13:0 14:0 15:0 16:0 17:0 18:0.26846242 19:0.029829158 20:0.2 21:0 
-54.71392419632767 1:1 2:1 3:0.81818182 4:0 5:1 6:-1 7:0 8:1 9:-1 10:0 11:0 12:0 13:0 14:0 15:0 16:0 17:0 18:0.29329423 19:0.032588248 20:0.2 21:0 
-32.87526279066295 1:1 2:1 3:1 4:0 5:1 6:-1 7:0 8:1 9:-1 10:0 11:1 12:-0.47169811 13:0 14:0 15:0 16:0 17:0 18:0.45818979 19:0.19515491 20:0 21:0.33333333 
-114.3275520405654 1:1 2:1 3:0.86666667 4:0 5:1 6:-1 7:0 8:1 9:-1 10:0 11:0 12:0 13:0 14:0 15:0 16:0 17:0 18:0.70014004 19:0.44082892 20:0.2 21:1 
-26.32515014439481 1:1 2:0 3:0.15789474 4:1 5:0 6:1 7:1 8:0 9:1 10:0 11:1 12:0.1 13:0 14:0 15:0 16:0 17:0 18:0.28426762 19:0.047377937 20:0.2 21:0 
-221.3839825282866 1:1 2:1 3:0.94285714 4:1 5:0 6:1 7:0 8:1 9:-1 10:1 11:0 12:0.42222222 13:0 14:0 15:0 16:0 17:0 18:0.36851387 19:0.18425693 20:0.71428571 21:0.022222222 
-256 1:1 2:1 3:0.93548387 4:1 5:0 6:1 7:0 8:1 9:1 10:0 11:0 12:0 13:0 14:0 15:0 16:0 17:0 18:0.47140452 19:0.23570226 20:1 21:0 
-107.1802348311519 1:1 2:1 3:0.94871795 4:0 5:1 6:-1 7:0 8:1 9:-1 10:1 11:0 12:0.51724138 13:1 14:1 15:0 16:-1 17:0.46666667 18:0.38769906 19:0.16513108 20:0.4 21:-0.2 
-64.84464764320991 1:0 2:0 3:-0.53488372 4:1 5:0 6:1 7:1 8:0 9:1 10:1 11:0 12:0.95121951 13:0 14:0 15:0 16:0 17:0 18:0.60474316 19:0.39196316 20:0.33333333 21:0.84848485 
-256 1:0 2:0 3:-0.34883721 4:1 5:0 6:1 7:1 8:0 9:1 10:1 11:0 12:0.95121951 13:0 14:0 15:0 16:0 17:0 18:0.60474316 19:0.39196316 20:0.33333333 21:0.84848485 
-256 1:1 2:1 3:0.94285714 4:0 5:1 6:-1 7:0 8:1 9:-1 10:1 11:0 12:0.13333333 13:0 14:0 15:0 16:0 17:0 18:0.85714286 19:0.55555556 20:0.33333333 21:0.97611408 
-256 1:1 2:1 3:0.95555556 4:0 5:1 6:-1 7:0 8:1 9:-1 10:1 11:0 12:1 13:0 14:0 15:0 16:0 17:0 18:0.5547002 19:0.092450033 20:0.33333333 21:0 
-256 1:0 2:1 3:0.17073171 4:1 5:0 6:1 7:1 8:0 9:1 10:1 11:0 12:0.39534884 13:0 14:0 15:0 16:0 17:0 18:0.83624201 19:0.51103678 20:1 21:0.75 
-143.8456260776117 1:1 2:1 3:0.93548387 4:0 5:1 6:-1 7:0 8:1 9:-1 10:0 11:1 12:0.84615385 13:0 14:0 15:0 16:0 17:0 18:0.38655567 19:0.20759471 20:0 21:-0.018181818 
-256 1:1 2:1 3:0.93548387 4:1 5:0 6:1 7:0 8:1 9:0.066666667 10:1 11:0 12:0.46666667 13:0 14:0 15:0 16:0 17:0 18:0.40061681 19:0.2003084 20:0.86666667 21:-2.7755576e-17 
-256 1:1 2:1 3:1 4:0 5:1 6:-1 7:0 8:1 9:-1 10:1 11:0 12:1 13:0 14:0 15:0 16:0 17:0 18:0.87294348 19:0.59812794 20:0.33333333 21:1 
-180.0068292071865 1:1 2:1 3:0.94285714 4:0 5:1 6:-1 7:0 8:1 9:-1 10:1 11:0 12:0 13:0 14:0 15:0 16:0 17:0 18:0.66666667 19:0.11111111 20:0.33333333 21:0 
-256 1:1 2:1 3:0.94285714 4:0 5:1 6:-1 7:0 8:1 9:-1 10:1 11:0 12:0 13:0 14:0 15:0 16:0 17:0 18:0.66666667 19:0.11111111 20:0.33333333 21:0 
-256 1:1 2:1 3:0.93939394 4:0 5:1 6:-1 7:0 8:1 9:-1 10:1 11:0 12:1 13:0 14:0 15:0 16:0 17:0 18:0.37450294 19:0.15951051 20:0.33333333 21:0.11111111 
-256 1:1 2:1 3:0.93939394 4:0 5:1 6:-1 7:0 8:1 9:-1 10:1 11:0 12:1 13:0 14:0 15:0 16:0 17:0 18:0.37450294 19:0.15951051 20:0.33333333 21:0.11111111 
-256 1:1 2:1 3:0.94285714 4:0 5:1 6:-1 7:0 8:1 9:-1 10:1 11:0 12:0.13333333 13:0 14:0 15:0 16:0 17:0 18:0.81199794 19:0.58644296 20:0.33333333 21:0.97611408 
-62.00683632061481 1:1 2:1 3:0.94285714 4:0 5:1 6:-1 7:0 8:1 9:-1 10:1 11:0 12:0.1147541 13:0 14:0 15:0 16:0 17:0 18:0.87294348 19:0.66279042 20:0.33333333 21:0.98701299 
-169.4383472851816 1:1 2:1 3:0.94285714 4:0 5:1 6:-1 7:0 8:1 9:-1 10:1 11:0 12:0.1147541 13:0 14:0 15:0 16:0 17:0 18:0.87294348 19:0.66279042 20:0.33333333 21:0.98701299 
-42.63937118376108 1:1 2:1 3:0.94285714 4:0 5:1 6:-1 7:0 8:1 9:-1 10:1 11:0 12:0.1147541 13:0 14:0 15:0 16:0 17:0 18:0.87294348 19:0.66279042 20:0.33333333 21:0.98701299 
-256 1:1 2:1 3:0.83783784 4:1 5:0 6:1 7:1 8:0 9:1 10:0 11:1 12:-0.30769231 13:0 14:0 15:0 16:0 17:0 18:0.38490018 19:0.06415003 20:0.66666667 21:0 
-6.120778049430266 1:1 2:1 3:0.92592593 4:0 5:1 6:-1 7:0 8:1 9:-1 10:1 11:0 12:0.33333333 13:0 14:-1 15:0 16:-1 17:1 18:0.8 19:0.51851852 20:0.11111111 21:1 
-48.84377008511756 1:1 2:1 3:0.94285714 4:0 5:1 6:-1 7:0 8:1 9:-1 10:0 11:0 12:0 13:0 14:0 15:0 16:0 17:0 18:0.68041382 19:0.075601535 20:0.2 21:0 
-256 1:1 2:1 3:0.94285714 4:0 5:1 6:-1 7:0 8:1 9:-1 10:0 11:0 12:0 13:0 14:0 15:0 16:0 17:0 18:0.80582296 19:0.20891706 20:0.2 21:0.4 
-179.89408787271 1:1 2:1 3:0.94285714 4:0 5:1 6:-1 7:0 8:1 9:-1 10:1 11:0 12:-0.1 13:0 14:0 15:0 16:0 17:0 18:0.48148148 19:0.24074074 20:0.33333333 21:0.15555556 
-256 1:0 2:1 3:0.85365854 4:1 5:0 6:1 7:0 8:1 9:0.93333333 10:1 11:0 12:0.56521739 13:0 14:0 15:0 16:0 17:0 18:0.84848485 19:0.51851852 20:0.82222222 21:1 
-256 1:1 2:1 3:0.96491228 4:1 5:0 6:1 7:1 8:0 9:1 10:1 11:0 12:1 13:1 14:1 15:1 16:1 17:1 18:0.91076511 19:0.59031072 20:1 21:1 
-256 1:1 2:1 3:0.94285714 4:1 5:0 6:1 7:0 8:1 9:-1 10:0 11:0 12:0 13:0 14:0 15:0 16:0 17:0 18:0.75592895 19:0.12598816 20:0.6 21:0 
-101.8664601509628 1:0 2:1 3:0.42222222 4:1 5:0 6:1 7:1 8:0 9:1 10:1 11:0 12:0.66666667 13:0 14:0 15:0 16:0 17:0 18:0.7407972 19:0.54873866 20:0.66666667 21:0.95833333 
-156.6790432949248 1:1 2:1 3:1 4:0 5:1 6:-1 7:0 8:1 9:-1 10:0 11:1 12:0.53191489 13:0 14:0 15:0 16:0 17:0 18:0.77269114 19:0.47220014 20:0 21:0.63398693 
-256 1:1 2:1 3:0.95555556 4:1 5:0 6:1 7:0 8:1 9:1 10:0 11:1 12:0 13:0 14:0 15:0 16:0 17:0 18:0.57735027 19:0.096225045 20:0.66666667 21:0 
-256 1:1 2:1 3:1 4:1 5:0 6:1 7:0 8:1 9:-1 10:1 11:0 12:0.56521739 13:0 14:0 15:0 16:0 17:0 18:0.40895891 19:0.15903957 20:0.71428571 21:-0.095238095 
-30.17188285797507 1:1 2:1 3:0.43589744 4:0 5:1 6:-1 7:0 8:1 9:-1 10:0 11:1 12:-0.090909091 13:0 14:0 15:0 16:0 17:0 18:0.61631563 19:0.49076986 20:0 21:1 
-47.48997505856944 1:1 2:1 3:0.92 4:0 5:1 6:-1 7:0 8:1 9:-1 10:0 11:1 12:-0.17948718 13:0 14:0 15:0 16:0 17:0 18:0.7477565 19:0.54004636 20:0 21:1 
-256 1:1 2:1 3:0.93548387 4:0 5:1 6:-1 7:0 8:1 9:-1 10:0 11:0 12:0 13:0 14:0 15:0 16:0 17:0 18:0.68041382 19:0.075601535 20:0.2 21:0 
-52.07511717399017 1:1 2:1 3:0.95348837 4:0 5:1 6:-1 7:0 8:1 9:-1 10:1 11:0 12:0.36363636 13:0 14:0 15:0 16:0 17:0 18:0.36490022 19:0.15542047 20:0.33333333 21:0.44444444 
-135.746080793156 1:1 2:1 3:0.62162162 4:0 5:1 6:-1 7:0 8:1 9:-1 10:1 11:0 12:1 13:0 14:0 15:0 16:0 17:0 18:0.42163702 19:0.07808093 20:0.33333333 21:0 
-256 1:0 2:1 3:0.52 4:1 5:0 6:1 7:1 8:0 9:1 10:1 11:0 12:1 13:0 14:0 15:0 16:0 17:0 18:0.84008256 19:0.60672629 20:0.66666667 21:1 
-125.848869603648 1:1 2:1 3:0.68 4:1 5:0 6:1 7:0 8:1 9:-0.73333333 10:1 11:0 12:0.084745763 13:0 14:0 15:0 16:0 17:0 18:0.51428571 19:0.33333333 20:0.75238095 21:0.019047619 
-256 1:1 2:1 3:0.65853659 4:1 5:0 6:1 7:0 8:1 9:1 10:0 11:0 12:0 13:0 14:0 15:0 16:0 17:0 18:0.28306926 19:0.041936186 20:1 21:0 
-88.03648204595139 1:0 2:1 3:0.45454545 4:1 5:0 6:1 7:0 8:1 9:-1 10:1 11:0 12:0.69230769 13:0 14:0 15:0 16:0 17:0 18:0.73246702 19:0.47474714 20:0.33333333 21:1 
-99.16960796569302 1:1 2:1 3:0.93103448 4:0 5:1 6:-1 7:0 8:1 9:-1 10:0 11:0 12:0 13:0 14:0 15:0 16:0 17:0 18:0.52026598 19:0.26976755 20:0.2 21:0.038888889 
-256 1:1 2:1 3:0.94285714 4:1 5:0 6:1 7:1 8:0 9:1 10:1 11:0 12:0.95744681 13:0 14:0 15:0 16:0 17:0 18:0.55708601 19:0.092847669 20:1 21:0 
-49.29471643552712 1:1 2:1 3:0.85714286 4:0 5:1 6:-1 7:0 8:1 9:-1 10:0 11:1 12:0.51111111 13:0 14:0 15:0 16:0 17:0 18:0.72861209 19:0.41827731 20:0 21:0.93333333 
-228.0788126475918 1:0 2:1 3:0.57575758 4:0 5:1 6:-1 7:0 8:1 9:-1 10:1 11:0 12:0.66666667 13:1 14:1 15:1 16:1 17:0.66666667 18:0.78487301 19:0.56685273 20:0.33333333 21:0.79393939 
-164.2479943729132 1:1 2:1 3:0.93548387 4:0 5:1 6:-1 7:0 8:1 9:-1 10:0 11:1 12:0.53846154 13:0 14:0 15:0 16:0 17:0 18:0.26207121 19:0.13588878 20:0 21:0 
-256 1:1 2:1 3:0.95348837 4:1 5:0 6:1 7:0 8:1 9:1 10:0 11:0 12:0 13:0 14:0 15:0 16:0 17:0 18:0.38031941 19:0.19720266 20:1 21:0.33333333 
-2.58901244363095 1:1 2:1 3:0.51724138 4:1 5:0 6:1 7:0 8:1 9:-1 10:1 11:0 12:0.53191489 13:0 14:0 15:0 16:0 17:0 18:0.64715023 19:0.10785837 20:0.71428571 21:0 
-256 1:1 2:1 3:0.93939394 4:0 5:1 6:-1 7:0 8:1 9:-1 10:1 11:0 12:0.26666667 13:0 14:0 15:0 16:0 17:0 18:0.55708601 19:0.29917582 20:0.33333333 21:0.44444444 
-256 1:1 2:1 3:0.94871795 4:1 5:0 6:1 7:1 8:0 9:1 10:1 11:0 12:1 13:0 14:0 15:0 16:0 17:0 18:0.55708601 19:0.29917582 20:1 21:0 
-256 1:1 2:1 3:0.64705882 4:0 5:1 6:-1 7:0 8:1 9:-1 10:1 11:0 12:-0.068493151 13:0 14:0 15:0 16:0 17:0 18:0.42817442 19:0.15858312 20:0.33333333 21:0.22222222 
-110.8563422103567 1:1 2:0 3:0.42222222 4:1 5:0 6:1 7:0 8:1 9:0.93333333 10:1 11:0 12:1 13:0 14:0 15:0 16:0 17:0 18:0.29713345 19:0.20359144 20:0.65555556 21:0 
-256 1:0 2:1 3:0.33333333 4:1 5:0 6:1 7:1 8:0 9:1 10:1 11:0 12:0.63636364 13:1 14:1 15:1 16:1 17:0.63636364 18:0.8974359 19:0.64814815 20:0.8 21:1 
-256 1:0 2:1 3:0.16666667 4:1 5:0 6:1 7:1 8:0 9:1 10:1 11:0 12:0.44262295 13:0 14:0 15:0 16:0 17:0 18:0.81289702 19:0.4666631 20:1 21:0.96963037 
-46.7856959802173 1:1 2:1 3:0.9047619 4:0 5:1 6:-1 7:0 8:1 9:-1 10:0 11:0 12:0 13:0 14:0 15:0 16:0 17:0 18:0.34684399 19:0.044961258 20:0.2 21:0 
-53.09379934489814 1:1 2:1 3:0.93548387 4:0 5:1 6:-1 7:0 8:1 9:-1 10:0 11:0 12:0 13:0 14:-1 15:0 16:-1 17:0.45454545 18:0.48989795 19:0.13608276 20:0 21:0 
-256 1:1 2:1 3:0.90909091 4:1 5:0 6:1 7:1 8:0 9:1 10:0 11:0 12:0 13:0 14:0 15:0 16:0 17:0 18:0.60302269 19:0.10050378 20:1 21:0 
-34.92517685110011 1:0 2:1 3:0.33333333 4:1 5:0 6:1 7:1 8:0 9:1 10:1 11:0 12:-0.076923077 13:0 14:0 15:0 16:0 17:0 18:0.66666667 19:0.11111111 20:0.66666667 21:0 
-256 1:1 2:1 3:0.93939394 4:0 5:1 6:-1 7:0 8:1 9:-1 10:0 11:0 12:0 13:0 14:0 15:0 16:0 17:0 18:0.34503278 19:0.038336976 20:0.2 21:0 
-46.48269621076417 1:1 2:0 3:0.70212766 4:1 5:0 6:1 7:0 8:1 9:1 10:1 11:0 12:0.33333333 13:0 14:0 15:0 16:0 17:0 18:0.35909242 19:0.066498597 20:0.66666667 21:0 
-63.74978870559908 1:1 2:0 3:0.66037736 4:1 5:0 6:1 7:1 8:0 9:1 10:0 11:0 12:0 13:0 14:0 15:0 16:0 17:0 18:0.24019223 19:0.026688026 20:0.5 21:0 
-256 1:0 2:1 3:0.58333333 4:1 5:0 6:1 7:1 8:0 9:1 10:1 11:0 12:1 13:0 14:0 15:0 16:0 17:0 18:0.78141806 19:0.62224031 20:0.66666667 21:0.99259259 
-172.759984969359 1:1 2:1 3:1 4:0 5:1 6:-1 7:0 8:1 9:-1 10:1 11:0 12:1 13:0 14:0 15:0 16:0 17:0 18:0.82992752 19:0.50717793 20:0.33333333 21:0.98333333 
-198.078506372109 1:0 2:0 3:0.44680851 4:1 5:0 6:1 7:1 8:0 9:1 10:1 11:0 12:0.58139535 13:0 14:0 15:0 16:0 17:0 18:0.25468582 19:0.17450695 20:0.5 21:0 
-0.8431891889110081 1:1 2:1 3:0.94285714 4:0 5:1 6:-1 7:0 8:1 9:-1 10:0 11:0 12:0 13:0 14:0 15:0 16:0 17:0 18:0.31943828 19:0.041408666 20:0.2 21:0 
-256 1:1 2:1 3:0.93548387 4:0 5:1 6:-1 7:0 8:1 9:-1 10:0 11:0 12:0 13:0 14:0 15:0 16:0 17:0 18:0.35714286 19:0.046296296 20:0.2 21:0 
-256 1:1 2:1 3:0.95121951 4:1 5:0 6:1 7:0 8:1 9:-1 10:0 11:0 12:0 13:0 14:0 15:0 16:0 17:0 18:0.75592895 19:0.12598816 20:0.6 21:0 
-0.03537324986267216 1:0 2:1 3:1 4:0 5:0 6:0 7:0 8:0 9:0 10:0 11:0 12:0 13:0 14:0 15:0 16:0 17:0 18:1 19:0.074074074 20:1 21:0 
-256 1:1 2:1 3:0.71428571 4:0 5:1 6:-1 7:0 8:1 9:-1 10:0 11:0 12:0 13:0 14:0 15:0 16:0 17:0 18:0.20701967 19:0.023002185 20:0.2 21:0 
-256 1:1 2:1 3:0.6969697 4:1 5:0 6:1 7:0 8:1 9:1 10:0 11:0 12:0 13:0 14:0 15:0 16:0 17:0 18:0.37904902 19:0.042116558 20:1 21:0 
-1.413191413331556 1:1 2:1 3:0.93939394 4:0 5:1 6:-1 7:0 8:1 9:-1 10:1 11:0 12:0.42222222 13:1 14:1 15:0 16:-0.13333333 17:0.45454545 18:0.38983327 19:0.29598452 20:0.48666667 21:0 
-256 1:1 2:1 3:0.95555556 4:0 5:1 6:-1 7:0 8:1 9:-1 10:0 11:0 12:0 13:0 14:0 15:0 16:0 17:0 18:0.68041382 19:0.075601535 20:0.2 21:0 
-18.77299644086263 1:1 2:1 3:0.95121951 4:0 5:1 6:-1 7:0 8:1 9:-1 10:0 11:0 12:0 13:0 14:0 15:0 16:0 17:0 18:0.68041382 19:0.075601535 20:0.2 21:0 
-0.8199514365359918 1:0 2:1 3:0.023255814 4:1 5:0 6:1 7:1 8:0 9:1 10:1 11:0 12:1 13:0 14:0 15:0 16:0 17:0 18:0.2191785 19:0.12176583 20:0.66666667 21:-0.16666667 
-256 1:1 2:0 3:0.47826087 4:1 5:0 6:1 7:1 8:0 9:1 10:0 11:1 12:-0.18181818 13:0 14:0 15:0 16:0 17:0 18:0.26318068 19:0.10234804 20:0.2 21:0 
-105.5608778666841 1:1 2:1 3:0.78947368 4:0 5:1 6:-1 7:0 8:1 9:-1 10:0 11:0 12:0 13:0 14:0 15:0 16:0 17:0 18:0.27602622 19:0.03066958 20:0.2 21:0 
-256 1:1 2:1 3:0.95121951 4:1 5:0 6:1 7:0 8:1 9:-1 10:0 11:0 12:0 13:0 14:0 15:0 16:0 17:0 18:0.40730654 19:0.23382412 20:0.6 21:0 
-68.0711390969127 1:1 2:1 3:0.94285714 4:0 5:1 6:-1 7:0 8:1 9:-1 10:0 11:0 12:0 13:0 14:0 15:0 16:0 17:0 18:0.71428571 19:0.092592593 20:0.2 21:0 
-256 1:1 2:1 3:0.94594595 4:0 5:1 6:-1 7:0 8:1 9:-1 10:0 11:0 12:0 13:0 14:0 15:0 16:0 17:0 18:0.56613852 19:0.06290428 20:0.2 21:0 
-103.6654824730381 1:1 2:1 3:1 4:0 5:1 6:-1 7:0 8:1 9:-1 10:0 11:0 12:0 13:0 14:0 15:0 16:0 17:0 18:0.70352647 19:0.11725441 20:0.2 21:0 
-256 1:1 2:1 3:0.81818182 4:1 5:0 6:1 7:1 8:0 9:1 10:0 11:0 12:0 13:0 14:0 15:0 16:0 17:0 18:0.29361011 19:0.054372243 20:1 21:0 
-256 1:1 2:1 3:0.95744681 4:1 5:0 6:1 7:0 8:1 9:0.86666667 10:1 11:0 12:0.33333333 13:0 14:0 15:0 16:0 17:0 18:0.30802055 19:0.19393887 20:0.98095238 21:-0.18095238 
-256 1:1 2:1 3:0.93548387 4:0 5:1 6:-1 7:0 8:1 9:-1 10:1 11:0 12:1 13:0 14:0 15:0 16:0 17:0 18:0.56793014 19:0.29448229 20:0.33333333 21:0.70833333 
-256 1:1 2:1 3:0.87234043 4:1 5:0 6:1 7:0 8:1 9:-1 10:1 11:0 12:0.5 13:1 14:1 15:1 16:1 17:1 18:0.5242106 19:0.14561405 20:0.81818182 21:0 
-256 1:1 2:1 3:0.95348837 4:1 5:0 6:1 7:1 8:0 9:1 10:1 11:0 12:0.46666667 13:1 14:1 15:1 16:1 17:0.54385965 18:0.57735027 19:0.41697519 20:1 21:0 
-256 1:1 2:1 3:0.92 4:0 5:1 6:-1 7:0 8:1 9:-1 10:0 11:0 12:0 13:0 14:0 15:0 16:0 17:0 18:0.32686023 19:0.036317803 20:0.2 21:0 
-86.25281041746392 1:1 2:1 3:0.93548387 4:0 5:1 6:-1 7:0 8:1 9:-1 10:0 11:0 12:0 13:0 14:0 15:0 16:0 17:0 18:0.71428571 19:0.092592593 20:0.2 21:0 
-8.793046503095486 1:0 2:1 3:0.65853659 4:1 5:0 6:1 7:0 8:1 9:-1 10:0 11:1 12:-0.27272727 13:1 14:1 15:0 16:1 17:0 18:0.25416428 19:0.20239008 20:0.28571429 21:-0.20992063 
-256 1:1 2:1 3:0.65853659 4:0 5:1 6:-1 7:0 8:1 9:-1 10:0 11:0 12:0 13:0 14:0 15:0 16:0 17:0 18:0.57353933 19:0.20180088 20:0.2 21:0.375 
-0.0003470578322770229 1:0 2:1 3:1 4:0 5:0 6:0 7:0 8:0 9:0 10:0 11:0 12:0 13:0 14:0 15:0 16:0 17:0 18:1 19:0.074074074 20:1 21:0 
-256 1:1 2:1 3:0.93548387 4:0 5:1 6:-1 7:0 8:1 9:-1 10:0 11:0 12:0 13:0 14:0 15:0 16:0 17:0 18:0.41666667 19:0.046296296 20:0.2 21:0 
-256 1:1 2:1 3:0.72972973 4:1 5:0 6:1 7:0 8:1 9:1 10:1 11:0 12:0.45454545 13:0 14:0 15:0 16:0 17:0 18:0.32071349 19:0.059391387 20:1 21:0 
-140.8452996209714 1:1 2:1 3:0.92 4:0 5:1 6:-1 7:0 8:1 9:-1 10:1 11:0 12:0.36363636 13:0 14:0 15:0 16:0 17:0 18:0.32075015 19:0.053458358 20:0.33333333 21:0.16277056 
-30.80254633468853 1:1 2:1 3:0.53846154 4:0 5:1 6:-1 7:0 8:1 9:-1 10:0 11:1 12:0.35483871 13:0 14:0 15:0 16:0 17:0 18:0.18569534 19:0.030949223 20:0 21:0 
-147.085180743159 1:1 2:1 3:1 4:0 5:1 6:-1 7:0 8:1 9:-1 10:0 11:0 12:0 13:0 14:0 15:0 16:0 17:0 18:0.32686023 19:0.036317803 20:0.2 21:0 
-14.71665361262354 1:1 2:0 3:0.71428571 4:0 5:1 6:-1 7:0 8:1 9:-1 10:0 11:1 12:-0.5 13:0 14:0 15:0 16:0 17:0 18:0.093761446 19:0.0225722 20:-0.6 21:0 
-256 1:1 2:1 3:1 4:1 5:0 6:1 7:0 8:1 9:1 10:0 11:1 12:-0.35483871 13:0 14:0 15:0 16:0 17:0 18:0.58834841 19:0.087162727 20:0.66666667 21:0 
-256 1:1 2:1 3:0.77777778 4:1 5:0 6:1 7:0 8:1 9:-1 10:1 11:0 12:0.65217391 13:0 14:0 15:0 16:0 17:0 18:0.48653363 19:0.20722729 20:0.71428571 21:0 
-45.22742367501512 1:1 2:1 3:0.84615385 4:0 5:1 6:-1 7:0 8:1 9:-1 10:0 11:0 12:0 13:0 14:0 15:0 16:0 17:0 18:0.31426968 19:0.034918853 20:0.2 21:0 
-41.07897713383291 1:1 2:1 3:0.69230769 4:0 5:1 6:-1 7:0 8:1 9:-1 10:1 11:0 12:0.28 13:0 14:0 15:0 16:0 17:0 18:0.34900503 19:0.12279807 20:0.33333333 21:0.5 
-3.424839791122106 1:1 2:1 3:1 4:0 5:1 6:-1 7:0 8:1 9:-1 10:0 11:0 12:0 13:0 14:0 15:0 16:0 17:0 18:0.71428571 19:0.092592593 20:0.2 21:0 
-3.721053927194788 1:1 2:0 3:0.54545455 4:0 5:1 6:-1 7:0 8:1 9:-1 10:1 11:0 12:1 13:0 14:0 15:0 16:0 17:0 18:0.78141806 19:0.62224031 20:-0.2 21:0.98666667 
-135.9934530587966 1:1 2:1 3:0.12 4:1 5:0 6:1 7:0 8:1 9:-1 10:1 11:0 12:1 13:0 14:0 15:0 16:0 17:0 18:0.34511839 19:0.24925217 20:0.71428571 21:-0.2202381 
-256 1:1 2:1 3:0.93939394 4:0 5:1 6:-1 7:0 8:1 9:-1 10:0 11:0 12:0 13:0 14:0 15:0 16:0 17:0 18:0.54433105 19:0.060481228 20:0.2 21:0 
-5.148827074948594 1:1 2:1 3:1 4:0 5:1 6:-1 7:0 8:1 9:-1 10:0 11:0 12:0 13:0 14:0 15:0 16:0 17:0 18:0.71428571 19:0.092592593 20:0.2 21:0 
-121.9705717698527 1:0 2:1 3:0.6744186 4:1 5:0 6:1 7:0 8:1 9:-1 10:0 11:1 12:0.025641026 13:0 14:0 15:0 16:0 17:0 18:0.45454545 19:0.092592593 20:0 21:0 
-122.9723526269332 1:1 2:1 3:0.70212766 4:1 5:0 6:1 7:0 8:1 9:-1 10:0 11:1 12:-0.11111111 13:0 14:0 15:0 16:0 17:0 18:0.47031708 19:0.18290109 20:0.33333333 21:0.44444444 
-256 1:1 2:1 3:1 4:1 5:0 6:1 7:0 8:1 9:-1 10:0 11:0 12:0 13:0 14:0 15:0 16:0 17:0 18:0.75592895 19:0.097990789 20:0.6 21:0 
-222.6344820796677 1:1 2:1 3:0.4 4:0 5:1 6:-1 7:0 8:1 9:-1 10:1 11:0 12:0.071428571 13:0 14:0 15:0 16:0 17:0 18:0.70864631 19:0.48555396 20:0.33333333 21:0.97333333 
-256 1:1 2:1 3:0.57142857 4:1 5:0 6:1 7:0 8:1 9:-1 10:1 11:0 12:0.53191489 13:0 14:0 15:0 16:0 17:0 18:0.50917508 19:0.19801253 20:0.71428571 21:0 
-256 1:1 2:1 3:1 4:0 5:1 6:-1 7:0 8:1 9:-1 10:0 11:1 12:0.6 13:0 14:0 15:0 16:0 17:0 18:0.38235956 19:0.063726593 20:0 21:0 
-256 1:1 2:1 3:0.78947368 4:0 5:1 6:-1 7:0 8:1 9:-1 10:0 11:0 12:0 13:0 14:0 15:0 16:0 17:0 18:0.24854791 19:0.032219173 20:0.2 21:0 
-256 1:1 2:1 3:0.85714286 4:0 5:1 6:-1 7:0 8:1 9:-1 10:0 11:0 12:0 13:0 14:0 15:0 16:0 17:0 18:0.25197632 19:0.032663596 20:0.2 21:0 
-256 1:1 2:1 3:0.53846154 4:1 5:0 6:1 7:0 8:1 9:1 10:0 11:0 12:0 13:0 14:0 15:0 16:0 17:0 18:0.68041382 19:0.075601535 20:1 21:0 
-256 1:1 2:1 3:0.88235294 4:0 5:1 6:-1 7:0 8:1 9:-1 10:0 11:0 12:0 13:0 14:0 15:0 16:0 17:0 18:0.29095719 19:0.037716672 20:0.2 21:0 
-256 1:1 2:1 3:1 4:1 5:0 6:1 7:0 8:1 9:0.73333333 10:0 11:0 12:0 13:0 14:0 15:0 16:0 17:0 18:0.38490018 19:0.19245009 20:0.94666667 21:0 
-127.1342066444689 1:1 2:1 3:1 4:0 5:1 6:-1 7:0 8:1 9:-1 10:0 11:0 12:0 13:0 14:0 15:0 16:0 17:0 18:0.70352647 19:0.11725441 20:0.2 21:0 
-256 1:1 2:1 3:1 4:1 5:0 6:1 7:1 8:0 9:1 10:1 11:0 12:0.65853659 13:0 14:0 15:0 16:0 17:0 18:0.40160966 19:0.33467472 20:1 21:-0.25185185 
-57.10555415944736 1:1 2:1 3:0.52941176 4:0 5:1 6:-1 7:0 8:1 9:-1 10:0 11:1 12:-0.33333333 13:0 14:0 15:0 16:0 17:0 18:0.49030429 19:0.17251447 20:0 21:0.66666667 
-256 1:0 2:1 3:0.42857143 4:1 5:0 6:1 7:1 8:0 9:1 10:0 11:1 12:-0.33333333 13:0 14:0 15:0 16:0 17:0 18:0.19178532 19:0.0532737 20:0.2 21:0 
-256 1:1 2:1 3:0.94594595 4:1 5:0 6:1 7:0 8:1 9:-0.8 10:1 11:0 12:0.33333333 13:0 14:0 15:0 16:0 17:0 18:0.44905021 19:0.074841702 20:0.74285714 21:0.16277056 
-5.138521024437048 1:1 2:1 3:0.82857143 4:0 5:1 6:-1 7:0 8:1 9:-1 10:1 11:0 12:0.45454545 13:1 14:1 15:0 16:-0.13333333 17:0.45454545 18:0.71899664 19:0.51927535 20:0.48666667 21:0.97142857 
-190.3136747770467 1:1 2:1 3:1 4:0 5:1 6:-1 7:0 8:1 9:-1 10:1 11:0 12:1 13:0 14:0 15:0 16:0 17:0 18:0.37893237 19:0.27367338 20:0.33333333 21:0.0031746032 
-79.07454726641036 1:1 2:1 3:1 4:0 5:1 6:-1 7:0 8:1 9:-1 10:0 11:1 12:0.62162162 13:0 14:0 15:0 16:0 17:0 18:0.55555556 19:0.092592593 20:0 21:0 
-62.4186279594263 1:1 2:1 3:0.93548387 4:0 5:1 6:-1 7:0 8:1 9:-1 10:0 11:0 12:0 13:0 14:0 15:0 16:0 17:0 18:0.51639778 19:0.057377531 20:0.2 21:0 
-256 1:1 2:1 3:1 4:1 5:0 6:1 7:0 8:1 9:1 10:0 11:0 12:0 13:0 14:0 15:0 16:0 17:0 18:0.42640143 19:0.26057865 20:1 21:0 
-40.07275195789555 1:1 2:1 3:0.84615385 4:0 5:1 6:-1 7:0 8:1 9:-1 10:1 11:0 12:0.25 13:1 14:1 15:0 16:1 17:0.25 18:0.33346201 19:0.22848323 20:0.6 21:-0.18958333 
-32.73403928741602 1:1 2:0 3:-0.23076923 4:1 5:0 6:1 7:0 8:1 9:0.33333333 10:1 11:0 12:0.33333333 13:1 14:1 15:1 16:1 17:0.33333333 18:0.28205128 19:0.2037037 20:0.92592593 21:0.026851852 
-256 1:1 2:1 3:0.52380952 4:1 5:0 6:1 7:0 8:1 9:1 10:0 11:0 12:0 13:0 14:0 15:0 16:0 17:0 18:0.38575837 19:0.042862042 20:1 21:0 
-179.6678212295086 1:1 2:1 3:1 4:0 5:1 6:-1 7:0 8:1 9:-1 10:0 11:1 12:-0.56756757 13:0 14:0 15:0 16:0 17:0 18:0.29012943 19:0.048354904 20:0 21:0 
-256 1:1 2:1 3:0.92 4:0 5:1 6:-1 7:0 8:1 9:-1 10:0 11:0 12:0 13:0 14:0 15:0 16:0 17:0 18:0.24209101 19:0.031382168 20:0.2 21:0 
-29.64842805331705 1:1 2:1 3:1 4:0 5:1 6:-1 7:0 8:1 9:-1 10:0 11:0 12:0 13:0 14:0 15:0 16:0 17:0 18:0.70352647 19:0.11725441 20:0.2 21:0 
-256 1:1 2:1 3:0.93548387 4:1 5:0 6:1 7:1 8:0 9:1 10:0 11:1 12:0.65517241 13:0 14:0 15:0 16:0 17:0 18:0.67020104 19:0.53367861 20:0.66666667 21:0.68333333 
-256 1:1 2:1 3:0.53846154 4:1 5:0 6:1 7:1 8:0 9:1 10:0 11:1 12:0.65517241 13:0 14:0 15:0 16:0 17:0 18:0.58076005 19:0.44094744 20:0.66666667 21:0.68333333 
-256 1:0 2:1 3:0.52380952 4:1 5:0 6:1 7:1 8:0 9:1 10:1 11:0 12:0.36363636 13:0 14:0 15:0 16:0 17:0 18:0.2952693 19:0.20231415 20:0.66666667 21:0.12592593 
-4.490757135412667 1:1 2:1 3:0.023255814 4:0 5:1 6:-1 7:0 8:1 9:-1 10:1 11:0 12:0.24137931 13:0 14:0 15:0 16:0 17:0 18:0.31139958 19:0.063433247 20:0.33333333 21:0 
-156.499368654843 1:1 2:0 3:0.76744186 4:1 5:0 6:1 7:0 8:1 9:-1 10:0 11:0 12:0 13:0 14:0 15:0 16:0 17:0 18:0.50251891 19:0.083753151 20:0 21:0 
-219.6785832463608 1:1 2:1 3:1 4:0 5:1 6:-1 7:0 8:1 9:-1 10:0 11:0 12:0 13:0 14:0 15:0 16:0 17:0 18:0.62994079 19:0.081658991 20:0.2 21:0 
-256 1:1 2:1 3:0.47368421 4:1 5:0 6:1 7:0 8:1 9:1 10:0 11:0 12:0 13:0 14:0 15:0 16:0 17:0 18:0.22645541 19:0.033548949 20:1 21:0 
-256 1:1 2:1 3:0.93103448 4:0 5:1 6:-1 7:0 8:1 9:-1 10:0 11:0 12:0 13:0 14:0 15:0 16:0 17:0 18:0.3928371 19:0.043648567 20:0.2 21:0 
-256 1:1 2:1 3:0.93103448 4:0 5:1 6:-1 7:0 8:1 9:-1 10:0 11:0 12:0 13:0 14:0 15:0 16:0 17:0 18:0.40824829 19:0.045360921 20:0.2 21:0 
-129.8453737533531 1:1 2:1 3:1 4:0 5:1 6:-1 7:0 8:1 9:-1 10:0 11:0 12:0 13:0 14:0 15:0 16:0 17:0 18:0.61545745 19:0.068384162 20:0.2 21:0 
-11.51805453678608 1:1 2:1 3:0.95121951 4:0 5:1 6:-1 7:0 8:1 9:-1 10:0 11:0 12:0 13:0 14:0 15:0 16:0 17:0 18:0.83333333 19:0.092592593 20:0.2 21:0 
-256 1:1 2:1 3:0.93939394 4:0 5:1 6:-1 7:0 8:1 9:-1 10:0 11:0 12:0 13:0 14:0 15:0 16:0 17:0 18:0.32686023 19:0.036317803 20:0.2 21:0 
-172.5340758336049 1:1 2:1 3:0.94285714 4:0 5:1 6:-1 7:0 8:1 9:-1 10:0 11:0 12:0 13:0 14:0 15:0 16:0 17:0 18:0.56613852 19:0.06290428 20:0.2 21:0 
-0.3096707634239731 1:0 2:1 3:1 4:0 5:0 6:0 7:0 8:0 9:0 10:0 11:0 12:0 13:0 14:0 15:0 16:0 17:0 18:1 19:0.074074074 20:1 21:0 
-155.5973010567778 1:1 2:1 3:0.94285714 4:0 5:1 6:-1 7:0 8:1 9:-1 10:0 11:0 12:0 13:0 14:0 15:0 16:0 17:0 18:0.68041382 19:0.075601535 20:0.2 21:0 
-256 1:1 2:1 3:0.95555556 4:0 5:1 6:-1 7:0 8:1 9:-1 10:0 11:0 12:0 13:0 14:0 15:0 16:0 17:0 18:0.56613852 19:0.06290428 20:0.2 21:0 
-256 1:1 2:1 3:0.95348837 4:0 5:1 6:-1 7:0 8:1 9:-1 10:0 11:0 12:0 13:0 14:0 15:0 16:0 17:0 18:0.56613852 19:0.06290428 20:0.2 21:0 
-213.5573072383042 1:1 2:1 3:1 4:0 5:1 6:-1 7:0 8:1 9:-1 10:0 11:0 12:0 13:0 14:0 15:0 16:0 17:0 18:0.77777778 19:0.12962963 20:0.2 21:0 
-256 1:1 2:1 3:0.95121951 4:0 5:1 6:-1 7:0 8:1 9:-1 10:0 11:0 12:0 13:0 14:0 15:0 16:0 17:0 18:0.35007002 19:0.038896669 20:0.2 21:0 
-256 1:1 2:1 3:0.67741935 4:1 5:0 6:1 7:0 8:1 9:1 10:0 11:0 12:0 13:0 14:0 15:0 16:0 17:0 18:0.26846242 19:0.18394647 20:1 21:0 
-256 1:1 2:1 3:0.95121951 4:0 5:1 6:-1 7:0 8:1 9:-1 10:0 11:0 12:0 13:0 14:0 15:0 16:0 17:0 18:0.26148818 19:0.029054242 20:0.2 21:0 
-79.10546998966836 1:1 2:1 3:0.88235294 4:0 5:1 6:-1 7:0 8:1 9:-1 10:0 11:0 12:0 13:0 14:0 15:0 16:0 17:0 18:0.22718473 19:0.042071247 20:0.2 21:0 
-247.451119355489 1:1 2:1 3:1 4:0 5:1 6:-1 7:0 8:1 9:-1 10:0 11:0 12:0 13:0 14:0 15:0 16:0 17:0 18:0.68041382 19:0.075601535 20:0.2 21:0 
-23.67574218005224 1:1 2:1 3:1 4:0 5:1 6:-1 7:0 8:1 9:-1 10:0 11:0 12:0 13:0 14:0 15:0 16:0 17:0 18:0.34503278 19:0.038336976 20:0.2 21:0 
-156.3636238170787 1:1 2:0 3:0.74545455 4:0 5:1 6:-1 7:0 8:1 9:-1 10:0 11:0 12:0 13:0 14:0 15:0 16:0 17:0 18:0.24618298 19:0.036471553 20:-0.5 21:0 
-199.5552739433126 1:1 2:1 3:1 4:0 5:1 6:-1 7:0 8:1 9:-1 10:0 11:0 12:0 13:0 14:0 15:0 16:0 17:0 18:0.56613852 19:0.06290428 20:0.2 21:0 
-227.8147468745896 1:1 2:0 3:0.62962963 4:1 5:0 6:1 7:0 8:1 9:-1 10:0 11:1 12:0.33333333 13:0 14:0 15:0 16:0 17:0 18:0.31139958 19:0.086499883 20:-0.2 21:0 
-256 1:1 2:1 3:0.95121951 4:0 5:1 6:-1 7:0 8:1 9:-1 10:0 11:0 12:0 13:0 14:0 15:0 16:0 17:0 18:0.40824829 19:0.045360921 20:0.2 21:0 
-5.439309788591821 1:0 2:1 3:0.3877551 4:1 5:0 6:1 7:1 8:0 9:1 10:0 11:1 12:-0.5 13:0 14:0 15:0 16:0 17:0 18:0.25476233 19:0.18399502 20:0.4 21:-0.61818182 
-34.02715837062172 1:1 2:1 3:0.15384615 4:1 5:0 6:1 7:0 8:1 9:1 10:0 11:1 12:-0.39393939 13:0 14:0 15:0 16:0 17:0 18:0.1490712 19:0.124226 20:0.66666667 21:0 
-74.02954167047885 1:1 2:1 3:0.86046512 4:0 5:1 6:-1 7:0 8:1 9:-1 10:0 11:0 12:0 13:0 14:0 15:0 16:0 17:0 18:0.34050261 19:0.037833624 20:0.2 21:0 
-3.547447609861197 1:0 2:1 3:1 4:0 5:0 6:0 7:0 8:0 9:0 10:0 11:0 12:0 13:0 14:0 15:0 16:0 17:0 18:1 19:0.074074074 20:1 21:0 
-14.85741899494443 1:1 2:1 3:0.13207547 4:0 5:0 6:0 7:0 8:0 9:0 10:0 11:0 12:0 13:0 14:0 15:0 16:0 17:0 18:0.28226724 19:0.21431402 20:1 21:0.33333333 
-170.5446026647425 1:0 2:1 3:0.54545455 4:1 5:0 6:1 7:0 8:1 9:1 10:0 11:0 12:0 13:0 14:0 15:0 16:0 17:0 18:0.52704628 19:0.087841046 20:0.75 21:0 
-6.701909988546321 1:0 2:1 3:0.36842105 4:1 5:0 6:1 7:1 8:0 9:1 10:0 11:1 12:-0.27272727 13:0 14:0 15:0 16:0 17:0 18:0.375 19:0.055555556 20:0.2 21:0 
-255.3069335763225 1:1 2:1 3:1 4:0 5:1 6:-1 7:0 8:1 9:-1 10:0 11:0 12:0 13:0 14:0 15:0 16:0 17:0 18:0.3928371 19:0.043648567 20:0.2 21:0 
-256 1:1 2:1 3:1 4:0 5:1 6:-1 7:0 8:1 9:-1 10:0 11:0 12:0 13:0 14:0 15:0 16:0 17:0 18:0.82495791 19:0.13749299 20:0.2 21:0 
-151.0154366434194 1:1 2:0 3:0.54545455 4:1 5:0 6:1 7:1 8:0 9:1 10:0 11:0 12:0 13:0 14:0 15:0 16:0 17:0 18:0.4330127 19:0.048112522 20:0.5 21:0 
-254.6179608958102 1:1 2:1 3:1 4:0 5:1 6:-1 7:0 8:1 9:-1 10:0 11:0 12:0 13:0 14:0 15:0 16:0 17:0 18:0.68041382 19:0.075601535 20:0.2 21:0 
-256 1:1 2:1 3:0.92 4:0 5:1 6:-1 7:0 8:1 9:-1 10:0 11:0 12:0 13:0 14:0 15:0 16:0 17:0 18:0.25555063 19:0.033126933 20:0.2 21:0 
-237.7733774236922 1:1 2:1 3:1 4:0 5:1 6:-1 7:0 8:1 9:-1 10:0 11:0 12:0 13:0 14:0 15:0 16:0 17:0 18:0.32686023 19:0.036317803 20:0.2 21:0 
-249.8456179739125 1:1 2:1 3:1 4:0 5:1 6:-1 7:0 8:1 9:-1 10:0 11:0 12:0 13:0 14:0 15:0 16:0 17:0 18:0.68041382 19:0.075601535 20:0.2 21:0 
-237.8285162460054 1:1 2:0 3:-0.14285714 4:1 5:0 6:1 7:1 8:0 9:1 10:0 11:0 12:0 13:0 14:0 15:0 16:0 17:0 18:0.4330127 19:0.048112522 20:1 21:0 
-256 1:1 2:1 3:0.7 4:1 5:0 6:1 7:0 8:1 9:0.4 10:0 11:0 12:0 13:0 14:0 15:0 16:0 17:0 18:0.37796447 19:0.17498355 20:0.88 21:0 
-256 1:1 2:1 3:1 4:1 5:0 6:1 7:0 8:1 9:-0.13333333 10:0 11:1 12:-0.16666667 13:0 14:0 15:0 16:0 17:0 18:0.39654528 19:0.27170695 20:0.47777778 21:0 
-7.0913851822349 1:1 2:1 3:0.052631579 4:0 5:1 6:-1 7:0 8:1 9:-1 10:1 11:0 12:1 13:0 14:0 15:0 16:0 17:0 18:0.15632635 19:0.095532769 20:0.33333333 21:-0.38888889 
-256 1:1 2:0 3:0.76470588 4:0 5:1 6:-1 7:0 8:1 9:-1 10:0 11:0 12:0 13:0 14:0 15:0 16:0 17:0 18:0.11433239 19:0.07198706 20:-0.5 21:0 
