svm_type c_svc
kernel_type rbf
gamma 1
nr_class 2
total_sv 6077
rho 0.337842
label 1 -1
probA -3.97716
probB 0.119276
nr_sv 2607 3470
SV
8 1:0 2:0 3:-0.027027027 4:1 5:0 6:1 7:1 8:0 9:1 10:0 11:0 12:0 13:0 14:0 15:0 16:0 17:0 18:0.3354102 19:0.062112999 20:0.66666667 21:0 
8 1:0 2:0 3:-0.034482759 4:0 5:0 6:0 7:0 8:0 9:0 10:0 11:0 12:0 13:0 14:0 15:0 16:0 17:0 18:0 19:0 20:-1 21:0 
8 1:0 2:0 3:-0.052631579 4:0 5:0 6:0 7:0 8:0 9:0 10:0 11:0 12:0 13:0 14:0 15:0 16:0 17:0 18:0 19:0 20:-1 21:0 
8 1:0 2:0 3:0.058823529 4:1 5:0 6:1 7:0 8:1 9:1 10:1 11:0 12:0.23809524 13:0 14:0 15:0 16:0 17:0 18:0.49009803 19:0.15429012 20:0.55555556 21:0 
2.019120139001939 1:0 2:0 3:0.06122449 4:1 5:0 6:1 7:1 8:0 9:1 10:1 11:0 12:0.6 13:1 14:1 15:1 16:1 17:1 18:0.83604608 19:0.58832872 20:0.7 21:0.87575758 
1.714338773320597 1:0 2:0 3:-0.083333333 4:1 5:0 6:1 7:1 8:0 9:1 10:0 11:1 12:0.48837209 13:1 14:1 15:1 16:1 17:0.48837209 18:0.28571429 19:0.074074074 20:0 21:-0.08 
8 1:0 2:0 3:0.10344828 4:1 5:0 6:1 7:1 8:0 9:1 10:1 11:0 12:0.76744186 13:0 14:0 15:0 16:0 17:0 18:0.6969697 19:0.42592593 20:0.33333333 21:0.83928571 
8 1:0 2:0 3:-0.11111111 4:1 5:0 6:1 7:1 8:0 9:1 10:1 11:0 12:1 13:0 14:0 15:0 16:0 17:0 18:0.43519414 19:0.088650658 20:0.8 21:0 
8 1:0 2:0 3:0.12 4:0 5:0 6:0 7:0 8:0 9:0 10:0 11:0 12:0 13:0 14:0 15:0 16:0 17:0 18:0 19:0 20:-0.33333333 21:0 
8 1:0 2:0 3:-0.1 4:0 5:0 6:0 7:0 8:0 9:0 10:0 11:0 12:0 13:0 14:0 15:0 16:0 17:0 18:0 19:0 20:-0.16666667 21:0 
8 1:0 2:0 3:-0.1 4:0 5:0 6:0 7:0 8:0 9:0 10:0 11:0 12:0 13:0 14:0 15:0 16:0 17:0 18:0 19:0 20:-1 21:0 
1.765144773152123 1:0 2:0 3:-0.14285714 4:1 5:0 6:1 7:1 8:0 9:1 10:1 11:0 12:0.36363636 13:1 14:1 15:1 16:1 17:0.36363636 18:0.62112999 19:0.51760833 20:0.77777778 21:0.70740741 
8 1:0 2:0 3:0.16666667 4:0 5:0 6:0 7:0 8:0 9:0 10:0 11:0 12:0 13:0 14:0 15:0 16:0 17:0 18:0 19:0 20:-0.33333333 21:0 
8 1:0 2:0 3:0.26315789 4:1 5:0 6:1 7:1 8:0 9:1 10:0 11:0 12:0 13:0 14:0 15:0 16:0 17:0 18:0.28867513 19:0.032075015 20:0.33333333 21:0 
6.533417932758809 1:0 2:0 3:0.29411765 4:1 5:0 6:1 7:1 8:0 9:1 10:1 11:0 12:0.25 13:0 14:0 15:0 16:0 17:0 18:0.46709937 19:0.12974982 20:0.8 21:0 
8 1:0 2:0 3:-0.30769231 4:1 5:0 6:1 7:1 8:0 9:1 10:1 11:0 12:1 13:0 14:0 15:0 16:0 17:0 18:0.29250897 19:0.05958516 20:0.33333333 21:0 
8 1:0 2:0 3:-0.32075472 4:0 5:1 6:-1 7:0 8:1 9:-1 10:1 11:0 12:1 13:0 14:0 15:0 16:0 17:0 18:0.077849894 19:0.021624971 20:-0.6 21:0 
1.698156671327791 1:0 2:0 3:0.33333333 4:0 5:0 6:0 7:0 8:0 9:0 10:0 11:0 12:0 13:1 14:1 15:1 16:1 17:0 18:0.36514837 19:0.040572041 20:1 21:0 
2.454259656403045 1:0 2:0 3:0.33333333 4:0 5:1 6:-1 7:0 8:1 9:-1 10:0 11:0 12:0 13:0 14:0 15:0 16:0 17:1 18:0.27216553 19:0.045360921 20:-0.33333333 21:0 
0.05699590285906789 1:0 2:0 3:0.33333333 4:1 5:0 6:1 7:1 8:0 9:1 10:0 11:0 12:0 13:1 14:1 15:1 16:1 17:1 18:0.52704628 19:0.087841046 20:1 21:0 
8 1:0 2:0 3:0.33333333 4:1 5:0 6:1 7:1 8:0 9:1 10:1 11:0 12:1 13:0 14:0 15:0 16:0 17:0 18:0.46709937 19:0.095149871 20:0.5 21:0 
4.144524144248845 1:0 2:0 3:0.33333333 4:1 5:0 6:1 7:1 8:0 9:1 10:1 11:0 12:1 13:0 14:0 15:0 16:0 17:0 18:0.46709937 19:0.095149871 20:0.5 21:0.86111111 
0.2168586518419423 1:0 2:0 3:0.33333333 4:1 5:0 6:1 7:1 8:0 9:1 10:1 11:0 12:1 13:1 14:1 15:1 16:1 17:1 18:0.5728919 19:0.13791842 20:0.6 21:0 
8 1:0 2:0 3:0.36363636 4:1 5:0 6:1 7:1 8:0 9:1 10:1 11:0 12:1 13:0 14:0 15:0 16:0 17:0 18:0.54545455 19:0.11111111 20:0.5 21:0 
8 1:0 2:0 3:-0.39393939 4:0 5:0 6:0 7:0 8:0 9:0 10:0 11:0 12:0 13:0 14:0 15:0 16:0 17:0 18:0 19:0 20:-1 21:0 
8 1:0 2:0 3:-0.42857143 4:0 5:0 6:0 7:0 8:0 9:0 10:0 11:0 12:0 13:0 14:0 15:0 16:0 17:0 18:0 19:0 20:-1 21:0 
8 1:0 2:0 3:-0.44186047 4:1 5:0 6:1 7:1 8:0 9:1 10:0 11:0 12:0 13:1 14:1 15:0 16:1 17:0.55555556 18:0.34815531 19:0.070920527 20:0.5 21:0 
8 1:0 2:0 3:0.45454545 4:1 5:0 6:1 7:1 8:0 9:1 10:1 11:0 12:0.46666667 13:0 14:0 15:0 16:0 17:0 18:0.54545455 19:0.11111111 20:0.5 21:0 
8 1:0 2:0 3:-0.46666667 4:0 5:0 6:0 7:0 8:0 9:0 10:0 11:0 12:0 13:0 14:0 15:0 16:0 17:0 18:0 19:0 20:0 21:0 
8 1:0 2:0 3:0.52380952 4:1 5:0 6:1 7:1 8:0 9:1 10:1 11:0 12:0.54285714 13:0 14:0 15:0 16:0 17:0 18:0.54545455 19:0.11111111 20:0.5 21:0 
7.928022079480225 1:0 2:0 3:-0.53488372 4:1 5:0 6:1 7:1 8:0 9:1 10:1 11:0 12:0.71428571 13:0 14:0 15:0 16:0 17:0 18:0.68431914 19:0.3801773 20:0.5 21:0.66111111 
0.3679374958546127 1:0 2:0 3:0.5 4:0 5:0 6:0 7:0 8:0 9:0 10:0 11:0 12:0 13:1 14:1 15:1 16:1 17:0.39534884 18:0.5 19:0.074074074 20:1 21:0 
0.2733895286202557 1:0 2:0 3:0.5 4:0 5:0 6:0 7:0 8:0 9:0 10:0 11:0 12:0 13:1 14:1 15:1 16:1 17:1 18:0.5 19:0.074074074 20:1 21:0 
8 1:0 2:0 3:0.5 4:0 5:1 6:-1 7:0 8:1 9:-1 10:0 11:0 12:0 13:1 14:1 15:1 16:1 17:0.46341463 18:0.44444444 19:0.074074074 20:0.33333333 21:0 
0.3985775105879074 1:0 2:0 3:0.5 4:1 5:0 6:1 7:1 8:0 9:1 10:0 11:0 12:0 13:1 14:1 15:0 16:1 17:1 18:0.52704628 19:0.097601162 20:1 21:0 
1.318604883959863 1:0 2:0 3:0.5 4:1 5:0 6:1 7:1 8:0 9:1 10:0 11:0 12:0 13:1 14:1 15:1 16:1 17:0.023255814 18:0.4 19:0.074074074 20:0.6 21:0 
1.145234105133327 1:0 2:0 3:-0.55555556 4:1 5:0 6:1 7:1 8:0 9:1 10:1 11:0 12:1 13:1 14:1 15:1 16:1 17:0 18:0.76342228 19:0.55136054 20:1 21:1 
0.5734389148780628 1:0 2:0 3:-0.57142857 4:1 5:0 6:1 7:1 8:0 9:1 10:1 11:0 12:1 13:1 14:1 15:0 16:0.26666667 17:1 18:0.51887452 19:0.12491424 20:0.6962963 21:0 
1.271654093588773 1:0 2:0 3:-0.57142857 4:1 5:0 6:1 7:1 8:0 9:1 10:1 11:0 12:1 13:1 14:1 15:0 16:0.26666667 17:1 18:0.51887452 19:0.12491424 20:0.6962963 21:0.5654321 
8 1:0 2:0 3:-0.61904762 4:0 5:0 6:0 7:0 8:0 9:0 10:0 11:0 12:0 13:0 14:0 15:0 16:0 17:0 18:0 19:0 20:-0.16666667 21:0 
8 1:0 2:0 3:-0.6 4:0 5:0 6:0 7:0 8:0 9:0 10:0 11:0 12:0 13:0 14:0 15:0 16:0 17:0 18:0 19:0 20:-0.16666667 21:0 
1.788246721507571 1:0 2:0 3:0.6 4:0 5:1 6:-1 7:0 8:1 9:-1 10:1 11:0 12:1 13:1 14:1 15:1 16:1 17:1 18:0.48304589 19:0.13417941 20:0.22222222 21:0 
8 1:0 2:0 3:-0.65714286 4:0 5:0 6:0 7:0 8:0 9:0 10:0 11:0 12:0 13:0 14:0 15:0 16:0 17:0 18:0 19:0 20:0 21:0 
4.731575590987696 1:0 2:0 3:-0.7037037 4:0 5:0 6:0 7:0 8:0 9:0 10:0 11:0 12:0 13:1 14:1 15:0 16:0.86666667 17:0 18:0.10540926 19:0.011712139 20:0.93333333 21:0 
8 1:0 2:0 3:0.72972973 4:1 5:0 6:1 7:0 8:1 9:1 10:1 11:0 12:0.57575758 13:0 14:0 15:0 16:0 17:0 18:0.2941742 19:0.043581363 20:0.33333333 21:0 
1.69621100166096 1:0 2:0 3:0.72972973 4:1 5:0 6:1 7:0 8:1 9:1 10:1 11:0 12:0.57575758 13:0 14:0 15:0 16:0 17:0 18:0.2941742 19:0.043581363 20:0.33333333 21:0.8 
8 1:0 2:0 3:-0.74193548 4:0 5:0 6:0 7:0 8:0 9:0 10:0 11:0 12:0 13:0 14:0 15:0 16:0 17:0 18:0.1490712 19:0.013802889 20:0 21:0 
7.060761002383388 1:0 2:0 3:-0.74193548 4:0 5:0 6:0 7:0 8:0 9:0 10:0 11:0 12:0 13:1 14:1 15:1 16:1 17:0.8245614 18:0.39223227 19:0.058108484 20:1 21:0 
3.680560732727941 1:0 2:0 3:0.76470588 4:1 5:0 6:1 7:1 8:0 9:1 10:1 11:0 12:-0.2 13:0 14:0 15:0 16:0 17:0 18:0.44444444 19:0.074074074 20:0.33333333 21:0 
2.703481090002988 1:0 2:0 3:0.76744186 4:1 5:0 6:1 7:0 8:1 9:1 10:1 11:0 12:0.28 13:1 14:1 15:0 16:1 17:0.46666667 18:0.5728919 19:0.15913664 20:0.7 21:0 
0.2008684263530597 1:0 2:0 3:0.76744186 4:1 5:0 6:1 7:0 8:1 9:1 10:1 11:0 12:0.28 13:1 14:1 15:0 16:1 17:0.46666667 18:0.5728919 19:0.15913664 20:0.7 21:0.96666667 
8 1:0 2:0 3:-0.77777778 4:1 5:0 6:1 7:1 8:0 9:1 10:0 11:0 12:0 13:0 14:0 15:0 16:0 17:0 18:0.16666667 19:0.018518519 20:0.33333333 21:0 
8 1:0 2:0 3:-0.80952381 4:0 5:0 6:0 7:0 8:0 9:0 10:0 11:0 12:0 13:0 14:0 15:0 16:0 17:0 18:0 19:0 20:0 21:0 
8 1:0 2:0 3:-0.80952381 4:0 5:0 6:0 7:0 8:0 9:0 10:0 11:0 12:0 13:0 14:0 15:0 16:0 17:0 18:0 19:0 20:-1 21:0 
8 1:0 2:0 3:-0.80952381 4:0 5:0 6:0 7:0 8:0 9:0 10:0 11:0 12:0 13:1 14:1 15:1 16:1 17:1 18:0.44444444 19:0.074074074 20:0.6 21:0 
4.557818401299909 1:0 2:0 3:-0.83333333 4:1 5:0 6:1 7:1 8:0 9:1 10:0 11:0 12:0 13:1 14:1 15:0 16:1 17:0.28 18:0.42163702 19:0.07808093 20:0.71428571 21:0 
6.880124356457678 1:0 2:0 3:-0.83333333 4:1 5:0 6:1 7:1 8:0 9:1 10:0 11:0 12:0 13:1 14:1 15:1 16:1 17:0 18:0.35355339 19:0.07856742 20:0.66666667 21:0 
8 1:0 2:0 3:-0.84615385 4:0 5:0 6:0 7:0 8:0 9:0 10:0 11:0 12:0 13:0 14:0 15:0 16:0 17:0 18:0 19:0 20:0 21:0 
2.582860799138277 1:0 2:0 3:-0.86666667 4:0 5:0 6:0 7:0 8:0 9:0 10:0 11:0 12:0 13:1 14:1 15:1 16:1 17:0 18:0.19518001 19:0.025301113 20:1 21:0 
8 1:0 2:0 3:-0.9 4:0 5:0 6:0 7:0 8:0 9:0 10:0 11:0 12:0 13:0 14:0 15:0 16:0 17:0 18:0 19:0 20:0 21:0 
8 1:0 2:0 3:1 4:0 5:0 6:0 7:0 8:0 9:0 10:0 11:0 12:0 13:0 14:0 15:0 16:0 17:0 18:1 19:0.092592593 20:0 21:0 
8 1:0 2:1 3:0.023255814 4:0 5:0 6:0 7:0 8:0 9:0 10:0 11:0 12:0 13:0 14:0 15:0 16:0 17:0 18:0.18181818 19:0.037037037 20:0 21:0 
8 1:0 2:1 3:0.023255814 4:0 5:0 6:0 7:0 8:0 9:0 10:0 11:0 12:0 13:0 14:0 15:0 16:0 17:0 18:0.18181818 19:0.037037037 20:0 21:0.8 
8 1:0 2:1 3:0.037037037 4:0 5:0 6:0 7:0 8:0 9:0 10:0 11:0 12:0 13:0 14:0 15:0 16:0 17:0 18:0.25819889 19:0.019125844 20:1 21:0 
8 1:0 2:1 3:0 4:0 5:0 6:0 7:0 8:0 9:0 10:0 11:0 12:0 13:1 14:1 15:0 16:-1 17:0 18:0.31622777 19:0.035136418 20:0.33333333 21:0 
8 1:0 2:1 3:0 4:1 5:0 6:1 7:1 8:0 9:1 10:0 11:0 12:0 13:0 14:0 15:0 16:0 17:0 18:0.72456884 19:0.37570236 20:0.5 21:0.74761905 
6.281339795754067 1:0 2:1 3:0 4:1 5:0 6:1 7:1 8:0 9:1 10:1 11:0 12:0.22222222 13:0 14:0 15:0 16:0 17:0 18:0.27399831 19:0.045666385 20:0.66666667 21:0 
2.75013694521092 1:0 2:1 3:0 4:1 5:0 6:1 7:1 8:0 9:1 10:1 11:0 12:0.47368421 13:0 14:0 15:0 16:0 17:0 18:0.54545455 19:0.11111111 20:0.66666667 21:0 
8 1:0 2:1 3:-0.04 4:0 5:0 6:0 7:0 8:0 9:0 10:0 11:0 12:0 13:0 14:0 15:0 16:0 17:0 18:0.3086067 19:0.034289633 20:1 21:0 
8 1:0 2:1 3:0.047619048 4:0 5:0 6:0 7:0 8:0 9:0 10:0 11:0 12:0 13:0 14:0 15:0 16:0 17:0 18:0.24253563 19:0.017965602 20:1 21:0 
8 1:0 2:1 3:0.058823529 4:0 5:0 6:0 7:0 8:0 9:0 10:0 11:0 12:0 13:0 14:0 15:0 16:0 17:0 18:0.13483997 19:0.012485183 20:1 21:0 
8 1:0 2:1 3:-0.076923077 4:0 5:0 6:0 7:0 8:0 9:0 10:0 11:0 12:0 13:0 14:0 15:0 16:0 17:0 18:0.25819889 19:0.019125844 20:1 21:0 
8 1:0 2:1 3:0.076923077 4:0 5:0 6:0 7:0 8:0 9:0 10:0 11:0 12:0 13:0 14:0 15:0 16:0 17:0 18:0.28867513 19:0.021383343 20:1 21:0 
8 1:0 2:1 3:0.076923077 4:0 5:1 6:-1 7:0 8:1 9:-1 10:0 11:0 12:0 13:0 14:0 15:0 16:0 17:0 18:0.23094011 19:0.021383343 20:-0.33333333 21:0 
1.927844211910869 1:0 2:1 3:-0.076923077 4:1 5:0 6:1 7:1 8:0 9:1 10:1 11:0 12:0.18518519 13:0 14:0 15:0 16:0 17:0 18:0.55901699 19:0.10352167 20:0.66666667 21:0 
8 1:0 2:1 3:-0.076923077 4:1 5:0 6:1 7:1 8:0 9:1 10:1 11:0 12:0.18518519 13:0 14:0 15:0 16:0 17:0 18:0.55901699 19:0.10352167 20:0.66666667 21:0.91428571 
8 1:0 2:1 3:-0.076923077 4:1 5:0 6:1 7:1 8:0 9:1 10:1 11:0 12:1 13:0 14:0 15:0 16:0 17:0 18:0.46225016 19:0.11128245 20:0.66666667 21:0.88326118 
8 1:0 2:1 3:-0.090909091 4:0 5:0 6:0 7:0 8:0 9:0 10:0 11:0 12:0 13:1 14:1 15:0 16:-1 17:0 18:0.36927447 19:0.041030497 20:0.33333333 21:0 
1.64850209093545 1:0 2:1 3:-0.090909091 4:1 5:0 6:1 7:1 8:0 9:1 10:0 11:0 12:0 13:1 14:1 15:1 16:1 17:1 18:0.61357199 19:0.19316155 20:1 21:0 
4.651953811762479 1:0 2:1 3:0.090909091 4:1 5:0 6:1 7:1 8:0 9:1 10:1 11:0 12:1 13:0 14:0 15:0 16:0 17:0 18:0.40824829 19:0.090721842 20:0.66666667 21:0 
8 1:0 2:1 3:0.090909091 4:1 5:0 6:1 7:1 8:0 9:1 10:1 11:0 12:1 13:0 14:0 15:0 16:0 17:0 18:0.40824829 19:0.090721842 20:0.66666667 21:0.97222222 
8 1:0 2:1 3:-0.096774194 4:0 5:0 6:0 7:0 8:0 9:0 10:0 11:0 12:0 13:0 14:-1 15:0 16:-1 17:0 18:0.21081851 19:0.023424279 20:-0.16666667 21:0 
8 1:0 2:1 3:-0.096774194 4:1 5:0 6:1 7:0 8:1 9:1 10:1 11:0 12:1 13:0 14:0 15:0 16:0 17:0 18:0.43519414 19:0.088650658 20:0.66666667 21:0 
8 1:0 2:1 3:-0.096774194 4:1 5:0 6:1 7:0 8:1 9:1 10:1 11:0 12:1 13:0 14:0 15:0 16:0 17:0 18:0.43519414 19:0.088650658 20:0.66666667 21:0.825 
0.656177471825197 1:0 2:1 3:0.098039216 4:1 5:0 6:1 7:1 8:0 9:1 10:1 11:0 12:0.89473684 13:0 14:0 15:0 16:0 17:0 18:0.71183213 19:0.38228022 20:0.83333333 21:0.96904762 
8 1:0 2:1 3:0.098039216 4:1 5:0 6:1 7:1 8:0 9:1 10:1 11:0 12:1 13:0 14:0 15:0 16:0 17:0 18:0.52764485 19:0.10748321 20:0.83333333 21:0.95925926 
7.919268408256128 1:0 2:1 3:0.10638298 4:1 5:0 6:1 7:1 8:0 9:1 10:0 11:1 12:0.29032258 13:0 14:0 15:0 16:0 17:0 18:0.43519414 19:0.088650658 20:0.4 21:0 
8 1:0 2:1 3:0.10638298 4:1 5:0 6:1 7:1 8:0 9:1 10:0 11:1 12:0.29032258 13:0 14:0 15:0 16:0 17:0 18:0.43519414 19:0.088650658 20:0.4 21:0.73333333 
8 1:0 2:1 3:0.11111111 4:1 5:0 6:1 7:1 8:0 9:1 10:0 11:1 12:0.65517241 13:0 14:0 15:0 16:0 17:0 18:0.77340208 19:0.54424591 20:0.33333333 21:0.75720899 
6.885443923022152 1:0 2:1 3:-0.11111111 4:1 5:0 6:1 7:1 8:0 9:1 10:1 11:0 12:1 13:0 14:0 15:0 16:0 17:0 18:0.48507125 19:0.15270762 20:0.66666667 21:0 
8 1:0 2:1 3:-0.11111111 4:1 5:0 6:1 7:1 8:0 9:1 10:1 11:0 12:1 13:0 14:0 15:0 16:0 17:0 18:0.48507125 19:0.15270762 20:0.66666667 21:0.76296296 
8 1:0 2:1 3:0.11111111 4:1 5:0 6:1 7:1 8:0 9:1 10:1 11:0 12:1 13:0 14:0 15:0 16:0 17:0 18:0.81081081 19:0.55555556 20:0.83333333 21:0.95429293 
8 1:0 2:1 3:0.11627907 4:0 5:0 6:0 7:0 8:0 9:0 10:0 11:0 12:0 13:0 14:0 15:0 16:0 17:0 18:0.1132277 19:0.012580856 20:1 21:0 
8 1:0 2:1 3:0.11627907 4:1 5:0 6:1 7:1 8:0 9:1 10:1 11:0 12:1 13:0 14:0 15:0 16:0 17:0 18:0.63636364 19:0.12962963 20:0.83333333 21:0.91269841 
8 1:0 2:1 3:0.12 4:1 5:0 6:1 7:1 8:0 9:1 10:1 11:0 12:0.57894737 13:0 14:0 15:0 16:0 17:0 18:0.42257713 19:0.10955703 20:0.66666667 21:0 
8 1:0 2:1 3:0.12 4:1 5:0 6:1 7:1 8:0 9:1 10:1 11:0 12:0.57894737 13:0 14:0 15:0 16:0 17:0 18:0.42257713 19:0.10955703 20:0.66666667 21:0.9 
8 1:0 2:1 3:-0.125 4:1 5:0 6:1 7:1 8:0 9:1 10:1 11:0 12:1 13:1 14:1 15:1 16:1 17:1 18:0.74124932 19:0.17844891 20:0.8 21:0 
8 1:0 2:1 3:-0.125 4:1 5:0 6:1 7:1 8:0 9:1 10:1 11:0 12:1 13:1 14:1 15:1 16:1 17:1 18:0.74124932 19:0.17844891 20:0.8 21:0.96 
8 1:0 2:1 3:0.12820513 4:1 5:0 6:1 7:0 8:1 9:1 10:0 11:0 12:0 13:0 14:0 15:0 16:0 17:0 18:0.36927447 19:0.041030497 20:0.5 21:0 
8 1:0 2:1 3:0.12820513 4:1 5:0 6:1 7:0 8:1 9:1 10:0 11:0 12:0 13:0 14:0 15:0 16:0 17:0 18:0.36927447 19:0.041030497 20:0.5 21:0.9 
7.740363168670723 1:0 2:1 3:0.12820513 4:1 5:0 6:1 7:1 8:0 9:1 10:1 11:0 12:0.39534884 13:0 14:0 15:0 16:0 17:0 18:0.90909091 19:0.55555556 20:0.83333333 21:0.72916667 
4.85743967263553 1:0 2:1 3:0.1 4:1 5:0 6:1 7:1 8:0 9:1 10:1 11:0 12:1 13:1 14:1 15:1 16:1 17:1 18:0.69436507 19:0.15430335 20:0.8 21:0 
1.845846026804236 1:0 2:1 3:0.1 4:1 5:0 6:1 7:1 8:0 9:1 10:1 11:0 12:1 13:1 14:1 15:1 16:1 17:1 18:0.69436507 19:0.15430335 20:0.8 21:0.9399449 
8 1:0 2:1 3:-0.14285714 4:1 5:0 6:1 7:1 8:0 9:1 10:1 11:0 12:1 13:0 14:0 15:0 16:0 17:0 18:0.74278135 19:0.3989011 20:0.83333333 21:0.98888889 
4.667266906654264 1:0 2:1 3:-0.15789474 4:0 5:0 6:0 7:0 8:0 9:0 10:0 11:0 12:0 13:1 14:1 15:1 16:1 17:0 18:0.45291081 19:0.050323424 20:1 21:0 
5.839039198755452 1:0 2:1 3:0.15789474 4:1 5:0 6:1 7:1 8:0 9:1 10:1 11:0 12:0.96721311 13:0 14:0 15:0 16:0 17:0 18:0.76320314 19:0.40986835 20:0.83333333 21:0.95 
8 1:0 2:1 3:0.16129032 4:0 5:0 6:0 7:0 8:0 9:0 10:0 11:0 12:0 13:0 14:0 15:0 16:0 17:0 18:0.3086067 19:0.040004572 20:1 21:0 
8 1:0 2:1 3:0.16129032 4:1 5:0 6:1 7:1 8:0 9:1 10:1 11:0 12:0.2 13:0 14:0 15:0 16:0 17:0 18:0.50251891 19:0.083753151 20:0.66666667 21:0 
8 1:0 2:1 3:0.16129032 4:1 5:0 6:1 7:1 8:0 9:1 10:1 11:0 12:0.2 13:0 14:0 15:0 16:0 17:0 18:0.50251891 19:0.083753151 20:0.66666667 21:0.87599206 
8 1:0 2:1 3:0.17073171 4:1 5:0 6:1 7:1 8:0 9:1 10:1 11:0 12:0.44680851 13:0 14:0 15:0 16:0 17:0 18:0.81199794 19:0.58644296 20:0.83333333 21:0.96631016 
8 1:0 2:1 3:0.17073171 4:1 5:0 6:1 7:1 8:0 9:1 10:1 11:0 12:1 13:0 14:0 15:0 16:0 17:0 18:0.73924932 19:0.46545328 20:0.83333333 21:0.94444444 
8 1:0 2:1 3:-0.17241379 4:1 5:0 6:1 7:0 8:1 9:1 10:1 11:0 12:1 13:0 14:0 15:0 16:0 17:0 18:0.42163702 19:0.070272837 20:0.66666667 21:0 
8 1:0 2:1 3:-0.17241379 4:1 5:0 6:1 7:0 8:1 9:1 10:1 11:0 12:1 13:0 14:0 15:0 16:0 17:0 18:0.42163702 19:0.070272837 20:0.66666667 21:0.92222222 
8 1:0 2:1 3:0.18181818 4:1 5:0 6:1 7:1 8:0 9:1 10:1 11:0 12:1 13:0 14:0 15:0 16:0 17:0 18:0.6092718 19:0.12411092 20:0.83333333 21:0.96333333 
8 1:0 2:1 3:0.18518519 4:0 5:0 6:0 7:0 8:0 9:0 10:0 11:0 12:0 13:0 14:0 15:0 16:0 17:0 18:0.24618298 19:0.027353665 20:1 21:0 
8 1:0 2:1 3:0.18518519 4:0 5:0 6:0 7:0 8:0 9:0 10:0 11:0 12:0 13:0 14:0 15:0 16:0 17:0 18:0.25819889 19:0.019125844 20:1 21:0 
0.6729673230808506 1:0 2:1 3:0.18518519 4:1 5:0 6:1 7:0 8:1 9:1 10:1 11:0 12:1 13:1 14:1 15:0 16:1 17:1 18:0.58536941 19:0.14092226 20:0.8 21:0 
4.015645963564983 1:0 2:1 3:0.18518519 4:1 5:0 6:1 7:0 8:1 9:1 10:1 11:0 12:1 13:1 14:1 15:0 16:1 17:1 18:0.58536941 19:0.14092226 20:0.8 21:0.98181818 
4.042906516094752 1:0 2:1 3:0.20930233 4:1 5:0 6:1 7:0 8:1 9:0.33333333 10:1 11:0 12:1 13:0 14:0 15:0 16:0 17:0 18:0.7949963 19:0.45638676 20:0.72222222 21:0.97685185 
1.445058320180159 1:0 2:1 3:0.20930233 4:1 5:0 6:1 7:1 8:0 9:1 10:1 11:0 12:0.69230769 13:0 14:0 15:0 16:0 17:0 18:0.73817324 19:0.42376612 20:0.83333333 21:0.98333333 
3.710715779178125 1:0 2:1 3:0.20930233 4:1 5:0 6:1 7:1 8:0 9:1 10:1 11:0 12:1 13:0 14:0 15:0 16:0 17:0 18:0.88571429 19:0.57407407 20:0.83333333 21:0.96666667 
0.6674539024413828 1:0 2:1 3:0.21212121 4:1 5:0 6:1 7:0 8:1 9:1 10:1 11:0 12:0.7254902 13:1 14:1 15:0 16:1 17:0.7254902 18:0.53846154 19:0.12962963 20:0.8 21:0 
4.684526796611743 1:0 2:1 3:0.22222222 4:1 5:0 6:1 7:0 8:1 9:1 10:1 11:0 12:1 13:1 14:1 15:1 16:1 17:1 18:0.5547002 19:0.13353894 20:0.8 21:0 
4.263450785709517 1:0 2:1 3:0.22222222 4:1 5:0 6:1 7:0 8:1 9:1 10:1 11:0 12:1 13:1 14:1 15:1 16:1 17:1 18:0.5547002 19:0.13353894 20:0.8 21:0.94 
0.1337385906183582 1:0 2:1 3:-0.22580645 4:1 5:0 6:1 7:1 8:0 9:1 10:1 11:0 12:1 13:1 14:1 15:1 16:1 17:0.57575758 18:0.70014004 19:0.15558668 20:1 21:0 
8 1:0 2:1 3:0.23076923 4:1 5:0 6:1 7:0 8:1 9:1 10:1 11:0 12:1 13:0 14:0 15:0 16:0 17:0 18:0.39223227 19:0.094426287 20:0.66666667 21:0 
8 1:0 2:1 3:0.23076923 4:1 5:0 6:1 7:0 8:1 9:1 10:1 11:0 12:1 13:0 14:0 15:0 16:0 17:0 18:0.39223227 19:0.094426287 20:0.66666667 21:0.79365079 
2.022135824881794 1:0 2:1 3:0.23076923 4:1 5:0 6:1 7:0 8:1 9:1 10:1 11:0 12:1 13:1 14:1 15:1 16:1 17:1 18:0.72057669 19:0.17347217 20:0.8 21:0 
1.438775079909639 1:0 2:1 3:0.23076923 4:1 5:0 6:1 7:0 8:1 9:1 10:1 11:0 12:1 13:1 14:1 15:1 16:1 17:1 18:0.72057669 19:0.17347217 20:0.8 21:0.95384615 
8 1:0 2:1 3:0.23076923 4:1 5:0 6:1 7:1 8:0 9:1 10:1 11:0 12:1 13:0 14:0 15:0 16:0 17:0 18:0.46709937 19:0.12974982 20:0.66666667 21:0 
8 1:0 2:1 3:0.23076923 4:1 5:0 6:1 7:1 8:0 9:1 10:1 11:0 12:1 13:0 14:0 15:0 16:0 17:0 18:0.46709937 19:0.12974982 20:0.66666667 21:0.94074074 
8 1:0 2:1 3:-0.2 4:0 5:0 6:0 7:0 8:0 9:0 10:0 11:0 12:0 13:0 14:0 15:0 16:0 17:0 18:0.087038828 19:0.053190395 20:0.16666667 21:0 
8 1:0 2:1 3:0.2 4:0 5:0 6:0 7:0 8:0 9:0 10:0 11:0 12:0 13:0 14:-1 15:0 16:-1 17:0 18:0.21081851 19:0.023424279 20:-0.16666667 21:0 
8 1:0 2:1 3:0.24137931 4:0 5:1 6:-1 7:0 8:1 9:-1 10:0 11:0 12:0 13:1 14:1 15:1 16:1 17:0 18:0.39036003 19:0.10843334 20:0.2 21:0 
8 1:0 2:1 3:0.24137931 4:1 5:0 6:1 7:0 8:1 9:0.93333333 10:1 11:0 12:1 13:0 14:0 15:0 16:0 17:0 18:0.43033148 19:0.071721914 20:0.65555556 21:0 
8 1:0 2:1 3:0.24137931 4:1 5:0 6:1 7:0 8:1 9:0.93333333 10:1 11:0 12:1 13:0 14:0 15:0 16:0 17:0 18:0.43033148 19:0.071721914 20:0.65555556 21:0.92671958 
8 1:0 2:1 3:0.24444444 4:1 5:0 6:1 7:1 8:0 9:1 10:1 11:0 12:0.42372881 13:0 14:0 15:0 16:0 17:0 18:0.87878788 19:0.53703704 20:0.83333333 21:0.97171717 
8 1:0 2:1 3:0.25 4:0 5:0 6:0 7:0 8:0 9:0 10:0 11:0 12:0 13:0 14:0 15:0 16:0 17:0 18:0.25819889 19:0.019125844 20:0.16666667 21:0 
8 1:0 2:1 3:0.25 4:0 5:0 6:0 7:0 8:0 9:0 10:0 11:0 12:0 13:0 14:0 15:0 16:0 17:0 18:0.30151134 19:0.061418978 20:1 21:0 
8 1:0 2:1 3:0.25 4:1 5:0 6:1 7:0 8:1 9:1 10:1 11:0 12:0.39534884 13:0 14:0 15:0 16:0 17:0 18:0.47140452 19:0.07856742 20:0.66666667 21:0 
8 1:0 2:1 3:0.25 4:1 5:0 6:1 7:0 8:1 9:1 10:1 11:0 12:0.39534884 13:0 14:0 15:0 16:0 17:0 18:0.47140452 19:0.07856742 20:0.66666667 21:0.97222222 
8 1:0 2:1 3:0.25 4:1 5:0 6:1 7:1 8:0 9:1 10:0 11:0 12:0 13:0 14:0 15:0 16:0 17:0 18:0.22677868 19:0.10499013 20:0.5 21:0 
0.6119386316359835 1:0 2:1 3:0.26315789 4:1 5:0 6:1 7:1 8:0 9:1 10:0 11:0 12:0 13:1 14:1 15:0 16:1 17:0.46341463 18:0.54772256 19:0.1014301 20:0.75 21:0 
8 1:0 2:1 3:0.27272727 4:1 5:0 6:1 7:0 8:1 9:1 10:1 11:0 12:1 13:0 14:0 15:0 16:0 17:0 18:0.49029034 19:0.11803286 20:0.66666667 21:0 
8 1:0 2:1 3:0.27272727 4:1 5:0 6:1 7:0 8:1 9:1 10:1 11:0 12:1 13:0 14:0 15:0 16:0 17:0 18:0.49029034 19:0.11803286 20:0.66666667 21:0.67380952 
8 1:0 2:1 3:0.27272727 4:1 5:0 6:1 7:0 8:1 9:1 10:1 11:0 12:1 13:0 14:0 15:0 16:0 17:0 18:0.58925565 19:0.087297133 20:0.66666667 21:0 
8 1:0 2:1 3:0.27272727 4:1 5:0 6:1 7:0 8:1 9:1 10:1 11:0 12:1 13:0 14:0 15:0 16:0 17:0 18:0.58925565 19:0.087297133 20:0.66666667 21:0.96717172 
8 1:0 2:1 3:0.28 4:1 5:0 6:1 7:1 8:0 9:1 10:1 11:0 12:1 13:0 14:0 15:0 16:0 17:0 18:0.51031036 19:0.1134023 20:0.66666667 21:0 
8 1:0 2:1 3:0.28 4:1 5:0 6:1 7:1 8:0 9:1 10:1 11:0 12:1 13:0 14:0 15:0 16:0 17:0 18:0.51031036 19:0.1134023 20:0.66666667 21:0.96666667 
8 1:0 2:1 3:0.28571429 4:0 5:0 6:0 7:0 8:0 9:0 10:0 11:0 12:0 13:0 14:0 15:0 16:0 17:0 18:0.31622777 19:0.023424279 20:1 21:0 
8 1:0 2:1 3:0.29032258 4:0 5:0 6:0 7:0 8:0 9:0 10:0 11:0 12:0 13:0 14:0 15:0 16:0 17:0 18:0.25819889 19:0.019125844 20:1 21:0 
0.608986679911981 1:0 2:1 3:0.29032258 4:1 5:0 6:1 7:0 8:1 9:0.93333333 10:0 11:0 12:0 13:1 14:1 15:1 16:1 17:0 18:0.46225016 19:0.077041694 20:0.65555556 21:0 
1.983738415152296 1:0 2:1 3:0.29032258 4:1 5:0 6:1 7:0 8:1 9:0.93333333 10:0 11:0 12:0 13:1 14:1 15:1 16:1 17:0 18:0.46225016 19:0.077041694 20:0.65555556 21:0.90218855 
8 1:0 2:1 3:0.33333333 4:0 5:0 6:0 7:0 8:0 9:0 10:0 11:0 12:0 13:0 14:0 15:0 16:0 17:0 18:0.12909944 19:0.011953652 20:1 21:0 
8 1:0 2:1 3:0.33333333 4:0 5:0 6:0 7:0 8:0 9:0 10:0 11:0 12:0 13:0 14:0 15:0 16:0 17:0 18:0.25819889 19:0.019125844 20:0.16666667 21:0 
8 1:0 2:1 3:0.33333333 4:0 5:0 6:0 7:0 8:0 9:0 10:0 11:0 12:0 13:0 14:0 15:0 16:0 17:0 18:0.25819889 19:0.019125844 20:1 21:0 
8 1:0 2:1 3:0.33333333 4:0 5:0 6:0 7:0 8:0 9:0 10:0 11:0 12:0 13:0 14:0 15:0 16:0 17:0 18:0.2981424 19:0.0496904 20:0 21:0 
8 1:0 2:1 3:0.33333333 4:0 5:0 6:0 7:0 8:0 9:0 10:0 11:0 12:0 13:0 14:0 15:0 16:0 17:0 18:0.2981424 19:0.0496904 20:0 21:0.73015873 
8 1:0 2:1 3:0.33333333 4:0 5:0 6:0 7:0 8:0 9:0 10:0 11:0 12:0 13:0 14:0 15:0 16:0 17:0 18:0.31622777 19:0.023424279 20:1 21:0 
4.833254588105145 1:0 2:1 3:0.33333333 4:0 5:1 6:-1 7:0 8:1 9:-1 10:0 11:0 12:0 13:1 14:1 15:1 16:1 17:1 18:0.45643546 19:0.1014301 20:0.25 21:0 
8 1:0 2:1 3:0.33333333 4:1 5:0 6:1 7:0 8:1 9:1 10:1 11:0 12:0.39534884 13:0 14:0 15:0 16:0 17:0 18:0.47140452 19:0.07856742 20:0.66666667 21:0 
8 1:0 2:1 3:0.33333333 4:1 5:0 6:1 7:0 8:1 9:1 10:1 11:0 12:0.39534884 13:0 14:0 15:0 16:0 17:0 18:0.47140452 19:0.07856742 20:0.66666667 21:0.72474747 
8 1:0 2:1 3:0.33333333 4:1 5:0 6:1 7:0 8:1 9:1 10:1 11:0 12:1 13:0 14:-1 15:0 16:-1 17:0 18:0.48112522 19:0.10691672 20:0.42857143 21:0 
8 1:0 2:1 3:0.33333333 4:1 5:0 6:1 7:1 8:0 9:1 10:0 11:0 12:0 13:0 14:0 15:0 16:0 17:0 18:0.38235956 19:0.063726593 20:0.75 21:0 
8 1:0 2:1 3:0.33333333 4:1 5:0 6:1 7:1 8:0 9:1 10:0 11:0 12:0 13:0 14:0 15:0 16:0 17:0 18:0.38235956 19:0.063726593 20:0.75 21:0.88194444 
8 1:0 2:1 3:0.33333333 4:1 5:0 6:1 7:1 8:0 9:1 10:0 11:1 12:-0.22807018 13:0 14:0 15:0 16:0 17:0 18:0.15617376 19:0.02602896 20:0.16666667 21:0 
8 1:0 2:1 3:0.33333333 4:1 5:0 6:1 7:1 8:0 9:1 10:1 11:0 12:0.76 13:0 14:0 15:0 16:0 17:0 18:0.50709255 19:0.13146844 20:0.66666667 21:0 
8 1:0 2:1 3:0.33333333 4:1 5:0 6:1 7:1 8:0 9:1 10:1 11:0 12:0.76 13:0 14:0 15:0 16:0 17:0 18:0.50709255 19:0.13146844 20:0.66666667 21:0.75128205 
8 1:0 2:1 3:-0.33333333 4:1 5:0 6:1 7:1 8:0 9:1 10:1 11:0 12:1 13:0 14:0 15:0 16:0 17:0 18:0.74285714 19:0.48148148 20:0.83333333 21:0.94081633 
0.8602497178893281 1:0 2:1 3:0.33333333 4:1 5:0 6:1 7:1 8:0 9:1 10:1 11:0 12:1 13:1 14:1 15:0 16:0.33333333 17:-0.33333333 18:0.4868645 19:0.13524014 20:0.59259259 21:0 
2.066288891524235 1:0 2:1 3:0.33333333 4:1 5:0 6:1 7:1 8:0 9:1 10:1 11:0 12:1 13:1 14:1 15:0 16:0.33333333 17:-0.33333333 18:0.4868645 19:0.13524014 20:0.59259259 21:0.48148148 
1.841550678899562 1:0 2:1 3:0.3559322 4:1 5:0 6:1 7:1 8:0 9:1 10:0 11:1 12:0.2173913 13:0 14:0 15:0 16:0 17:0 18:0.36084392 19:0.10691672 20:0.46666667 21:0 
6.817200612316246 1:0 2:1 3:0.36170213 4:1 5:0 6:1 7:1 8:0 9:1 10:1 11:0 12:1 13:1 14:1 15:0 16:0.46666667 17:1 18:0.54772256 19:0.15214515 20:0.84666667 21:0 
5.552327672679407 1:0 2:1 3:0.36842105 4:1 5:0 6:1 7:1 8:0 9:1 10:0 11:1 12:0.48837209 13:0 14:0 15:0 16:0 17:0 18:0.42257713 19:0.10955703 20:0.2 21:0 
8 1:0 2:1 3:0.36842105 4:1 5:0 6:1 7:1 8:0 9:1 10:0 11:1 12:0.48837209 13:0 14:0 15:0 16:0 17:0 18:0.42257713 19:0.10955703 20:0.2 21:0.85619048 
8 1:0 2:1 3:0.37142857 4:1 5:0 6:1 7:1 8:0 9:1 10:1 11:0 12:1 13:0 14:0 15:0 16:0 17:0 18:0.6 19:0.11111111 20:0.83333333 21:0.95833333 
8 1:0 2:1 3:0.375 4:0 5:0 6:0 7:0 8:0 9:0 10:0 11:0 12:0 13:1 14:1 15:1 16:1 17:0 18:0.45584231 19:0.092856766 20:0.5 21:0 
8 1:0 2:1 3:0.375 4:0 5:1 6:-1 7:0 8:1 9:-1 10:0 11:0 12:0 13:1 14:1 15:1 16:1 17:0.7254902 18:0.40032038 19:0.096373426 20:0.25 21:0 
5.638270173356808 1:0 2:1 3:0.375 4:0 5:1 6:-1 7:0 8:1 9:-1 10:0 11:0 12:0 13:1 14:1 15:1 16:1 17:0.7254902 18:0.40032038 19:0.096373426 20:0.25 21:0.81666667 
2.038092713361511 1:0 2:1 3:0.38888889 4:1 5:0 6:1 7:1 8:0 9:1 10:0 11:1 12:0.16129032 13:1 14:1 15:1 16:1 17:0.16129032 18:0.5666306 19:0.40923321 20:0.41666667 21:0.65176367 
8 1:0 2:1 3:0.39130435 4:0 5:0 6:0 7:0 8:0 9:0 10:0 11:0 12:0 13:0 14:0 15:0 16:0 17:0 18:0.2773501 19:0.020544452 20:1 21:0 
8 1:0 2:1 3:0.39130435 4:0 5:0 6:0 7:0 8:0 9:0 10:0 11:0 12:0 13:1 14:1 15:1 16:1 17:0 18:0.45291081 19:0.050323424 20:0.5 21:0 
8 1:0 2:1 3:0.39130435 4:1 5:0 6:1 7:1 8:0 9:1 10:1 11:0 12:1 13:0 14:0 15:0 16:0 17:0 18:0.63636364 19:0.12962963 20:0.83333333 21:0.95833333 
5.709529774602526 1:0 2:1 3:0.39130435 4:1 5:0 6:1 7:1 8:0 9:1 10:1 11:0 12:1 13:1 14:1 15:0 16:0.33333333 17:1 18:0.66666667 19:0.18518519 20:0.83333333 21:0.96866467 
2.067691037029252 1:0 2:1 3:0.39130435 4:1 5:0 6:1 7:1 8:0 9:1 10:1 11:0 12:1 13:1 14:1 15:0 16:0.53333333 17:1 18:0.66712438 19:0.16060402 20:0.94814815 21:0 
4.492716545003206 1:0 2:1 3:0.39130435 4:1 5:0 6:1 7:1 8:0 9:1 10:1 11:0 12:1 13:1 14:1 15:0 16:0.53333333 17:1 18:0.66712438 19:0.16060402 20:0.94814815 21:0.96469456 
3.779133071479394 1:0 2:1 3:0.39534884 4:1 5:0 6:1 7:1 8:0 9:1 10:1 11:0 12:0.46341463 13:0 14:0 15:0 16:0 17:0 18:0.63900965 19:0.11833512 20:0.83333333 21:0.92222222 
8 1:0 2:1 3:0.40540541 4:0 5:0 6:0 7:0 8:0 9:0 10:0 11:0 12:0 13:0 14:0 15:0 16:0 17:0 18:0.23904572 19:0.030987408 20:0 21:0 
8 1:0 2:1 3:0.40540541 4:0 5:0 6:0 7:0 8:0 9:0 10:0 11:0 12:0 13:0 14:0 15:0 16:0 17:0 18:0.23904572 19:0.030987408 20:0 21:0.66666667 
0.07803020321167305 1:0 2:1 3:0.40740741 4:1 5:0 6:1 7:0 8:1 9:1 10:0 11:0 12:0 13:1 14:1 15:1 16:1 17:1 18:0.59628479 19:0.13250773 20:0.875 21:0 
8 1:0 2:1 3:0.41176471 4:1 5:0 6:1 7:0 8:1 9:0.8 10:1 11:0 12:1 13:0 14:0 15:0 16:0 17:0 18:0.60540551 19:0.14574577 20:0.85555556 21:0 
7.175570719847777 1:0 2:1 3:0.41176471 4:1 5:0 6:1 7:0 8:1 9:0.8 10:1 11:0 12:1 13:0 14:0 15:0 16:0 17:0 18:0.60540551 19:0.14574577 20:0.85555556 21:0.97111111 
0.6232740636930039 1:0 2:1 3:0.41666667 4:1 5:0 6:1 7:1 8:0 9:1 10:1 11:0 12:1 13:1 14:1 15:1 16:1 17:1 18:0.71428571 19:0.18518519 20:0.8 21:0.73232323 
8 1:0 2:1 3:0.41935484 4:0 5:0 6:0 7:0 8:0 9:0 10:0 11:0 12:0 13:1 14:1 15:1 16:1 17:0 18:0.39036003 19:0.10843334 20:0.5 21:0 
8 1:0 2:1 3:0.42857143 4:0 5:0 6:0 7:0 8:0 9:0 10:0 11:0 12:0 13:1 14:1 15:1 16:1 17:0 18:0.4330127 19:0.06415003 20:0.5 21:0 
0.9635924916045254 1:0 2:1 3:0.42857143 4:0 5:0 6:0 7:0 8:0 9:0 10:0 11:0 12:0 13:1 14:1 15:1 16:1 17:0 18:0.4330127 19:0.06415003 20:0.5 21:0.95333333 
8 1:0 2:1 3:0.42857143 4:1 5:0 6:1 7:1 8:0 9:1 10:1 11:0 12:0.76 13:1 14:1 15:1 16:1 17:0.76 18:0.71428571 19:0.18518519 20:0.8 21:0.95 
8 1:0 2:1 3:0.42857143 4:1 5:0 6:1 7:1 8:0 9:1 10:1 11:0 12:1 13:0 14:0 15:0 16:0 17:0 18:0.5547002 19:0.13353894 20:0.66666667 21:0 
8 1:0 2:1 3:0.42857143 4:1 5:0 6:1 7:1 8:0 9:1 10:1 11:0 12:1 13:0 14:0 15:0 16:0 17:0 18:0.5547002 19:0.13353894 20:0.66666667 21:0.96862745 
8 1:0 2:1 3:0.42857143 4:1 5:0 6:1 7:1 8:0 9:1 10:1 11:0 12:1 13:1 14:1 15:0 16:1 17:0.5 18:0.8160721 19:0.55916051 20:0.8 21:0.98333333 
8 1:0 2:1 3:0.4 4:0 5:0 6:0 7:0 8:0 9:0 10:0 11:0 12:0 13:0 14:0 15:0 16:0 17:0 18:0.61237244 19:0.045360921 20:1 21:0 
5.399719225437227 1:0 2:1 3:0.4 4:1 5:0 6:1 7:1 8:0 9:1 10:1 11:0 12:1 13:1 14:1 15:1 16:1 17:1 18:0.78571429 19:0.2037037 20:0.8 21:0 
7.757980858410402 1:0 2:1 3:0.4 4:1 5:0 6:1 7:1 8:0 9:1 10:1 11:0 12:1 13:1 14:1 15:1 16:1 17:1 18:0.78571429 19:0.2037037 20:0.8 21:0.97619048 
8 1:0 2:1 3:0.44 4:0 5:0 6:0 7:0 8:0 9:0 10:0 11:0 12:0 13:0 14:0 15:0 16:0 17:0 18:0.2773501 19:0.020544452 20:1 21:0 
3.379327567386591 1:0 2:1 3:0.44 4:1 5:0 6:1 7:1 8:0 9:1 10:0 11:0 12:0 13:1 14:1 15:1 16:1 17:1 18:0.55555556 19:0.092592593 20:0.75 21:0.55634921 
8 1:0 2:1 3:0.44 4:1 5:0 6:1 7:1 8:0 9:1 10:1 11:0 12:1 13:0 14:0 15:0 16:0 17:0 18:0.66666667 19:0.11111111 20:0.66666667 21:0 
8 1:0 2:1 3:0.44 4:1 5:0 6:1 7:1 8:0 9:1 10:1 11:0 12:1 13:0 14:0 15:0 16:0 17:0 18:0.66666667 19:0.11111111 20:0.66666667 21:0.87959184 
8 1:0 2:1 3:0.44444444 4:1 5:0 6:1 7:1 8:0 9:1 10:1 11:0 12:1 13:0 14:0 15:0 16:0 17:0 18:0.54494926 19:0.15137479 20:0.83333333 21:0.89487179 
8 1:0 2:1 3:0.45454545 4:0 5:1 6:-1 7:0 8:1 9:-1 10:0 11:0 12:0 13:0 14:0 15:0 16:0 17:0 18:0.19518001 19:0.054216671 20:-0.33333333 21:0 
8 1:0 2:1 3:0.45454545 4:1 5:0 6:1 7:0 8:1 9:1 10:1 11:0 12:1 13:0 14:0 15:0 16:0 17:0 18:0.47140452 19:0.07856742 20:0.66666667 21:0 
8 1:0 2:1 3:0.45454545 4:1 5:0 6:1 7:0 8:1 9:1 10:1 11:0 12:1 13:0 14:0 15:0 16:0 17:0 18:0.47140452 19:0.07856742 20:0.66666667 21:0.92380952 
7.906698935583528 1:0 2:1 3:0.45454545 4:1 5:0 6:1 7:1 8:0 9:1 10:1 11:0 12:0.066666667 13:1 14:1 15:0 16:1 17:0.066666667 18:0.64051262 19:0.14233614 20:0.8 21:0 
8 1:0 2:1 3:0.45454545 4:1 5:0 6:1 7:1 8:0 9:1 10:1 11:0 12:1 13:0 14:0 15:0 16:0 17:0 18:0.51031036 19:0.1134023 20:0.66666667 21:0 
8 1:0 2:1 3:0.45454545 4:1 5:0 6:1 7:1 8:0 9:1 10:1 11:0 12:1 13:0 14:0 15:0 16:0 17:0 18:0.51031036 19:0.1134023 20:0.66666667 21:0.95757576 
8 1:0 2:1 3:0.45454545 4:1 5:0 6:1 7:1 8:0 9:1 10:1 11:0 12:1 13:0 14:0 15:0 16:0 17:0 18:0.54494926 19:0.11100818 20:0.83333333 21:0.98512821 
8 1:0 2:1 3:0.45454545 4:1 5:0 6:1 7:1 8:0 9:1 10:1 11:0 12:1 13:0 14:0 15:0 16:0 17:0 18:0.55555556 19:0.092592593 20:0.66666667 21:0 
8 1:0 2:1 3:0.45454545 4:1 5:0 6:1 7:1 8:0 9:1 10:1 11:0 12:1 13:0 14:0 15:0 16:0 17:0 18:0.55555556 19:0.092592593 20:0.66666667 21:0.93333333 
1.03439035359356 1:0 2:1 3:0.46666667 4:1 5:0 6:1 7:1 8:0 9:1 10:0 11:1 12:0.75757576 13:1 14:1 15:1 16:1 17:0.75757576 18:0.37062466 19:0.089224455 20:0.25 21:0.83059022 
8 1:0 2:1 3:0.48148148 4:0 5:0 6:0 7:0 8:0 9:0 10:0 11:0 12:0 13:0 14:0 15:0 16:0 17:0 18:0.2773501 19:0.020544452 20:1 21:0 
8 1:0 2:1 3:0.48148148 4:0 5:0 6:0 7:0 8:0 9:0 10:0 11:0 12:0 13:0 14:0 15:0 16:0 17:0 18:0.45584231 19:0.059090669 20:0 21:0 
8 1:0 2:1 3:0.48148148 4:1 5:0 6:1 7:0 8:1 9:1 10:1 11:0 12:0.39534884 13:0 14:0 15:0 16:0 17:0 18:0.58925565 19:0.098209275 20:1 21:0 
0.9647216938606273 1:0 2:1 3:0.48148148 4:1 5:0 6:1 7:0 8:1 9:-1 10:1 11:0 12:1 13:1 14:1 15:1 16:1 17:1 18:0.75211832 19:0.51534033 20:0.7 21:0.92962963 
8 1:0 2:1 3:0.48148148 4:1 5:0 6:1 7:1 8:0 9:1 10:0 11:0 12:0 13:0 14:0 15:0 16:0 17:0 18:0.38235956 19:0.063726593 20:0.75 21:0 
3.12489299911141 1:0 2:1 3:0.48148148 4:1 5:0 6:1 7:1 8:0 9:1 10:0 11:0 12:0 13:0 14:0 15:0 16:0 17:0 18:0.38235956 19:0.063726593 20:0.75 21:0.88194444 
8 1:0 2:1 3:0.48148148 4:1 5:0 6:1 7:1 8:0 9:1 10:0 11:0 12:0 13:1 14:1 15:1 16:1 17:1 18:0.6 19:0.11111111 20:0.75 21:0.87345679 
8 1:0 2:1 3:0.48571429 4:0 5:0 6:0 7:0 8:0 9:0 10:0 11:0 12:0 13:0 14:0 15:0 16:0 17:0 18:0.15811388 19:0.014640174 20:0 21:0 
0.02493899253009985 1:0 2:1 3:0.48571429 4:1 5:0 6:1 7:1 8:0 9:1 10:0 11:1 12:0.80392157 13:1 14:1 15:1 16:1 17:1 18:0.56044854 19:0.12454412 20:0.55555556 21:0.88547009 
8 1:0 2:1 3:0.48837209 4:1 5:0 6:1 7:0 8:1 9:-1 10:0 11:1 12:0.65517241 13:0 14:0 15:0 16:0 17:0 18:0.14064217 19:0.0338583 20:-0.16666667 21:-0.037037037 
4.530048222006103 1:0 2:1 3:0.48837209 4:1 5:0 6:1 7:1 8:0 9:1 10:1 11:0 12:0.55555556 13:0 14:0 15:0 16:0 17:0 18:0.54494926 19:0.11100818 20:0.83333333 21:0.97210884 
8 1:0 2:1 3:0.51111111 4:0 5:1 6:-1 7:0 8:1 9:-1 10:0 11:0 12:0 13:1 14:1 15:0 16:1 17:0 18:0.43033148 19:0.071721914 20:0.16666667 21:0 
8 1:0 2:1 3:0.51111111 4:1 5:0 6:1 7:0 8:1 9:1 10:1 11:0 12:0.39534884 13:0 14:0 15:0 16:0 17:0 18:0.57154761 19:0.15876322 20:0.83333333 21:0 
5.513900160104296 1:0 2:1 3:0.51724138 4:0 5:1 6:-1 7:0 8:1 9:-1 10:1 11:0 12:0.36 13:1 14:1 15:1 16:1 17:1 18:0.842397 19:0.57719795 20:0.5 21:0.93917749 
8 1:0 2:1 3:0.51724138 4:1 5:0 6:1 7:0 8:1 9:-1 10:1 11:0 12:0.22222222 13:0 14:0 15:0 16:0 17:0 18:0.55555556 19:0.092592593 20:0.33333333 21:0 
1.320014277201419 1:0 2:1 3:0.52380952 4:0 5:0 6:0 7:0 8:0 9:0 10:0 11:0 12:0 13:1 14:1 15:1 16:1 17:1 18:0.625 19:0.092592593 20:1 21:0 
8 1:0 2:1 3:0.52380952 4:1 5:0 6:1 7:1 8:0 9:1 10:1 11:0 12:1 13:1 14:1 15:1 16:1 17:1 18:0.75428902 19:0.65651082 20:0.86666667 21:0.97142857 
7.208584374117955 1:0 2:1 3:0.52 4:1 5:0 6:1 7:1 8:0 9:1 10:1 11:0 12:1 13:0 14:0 15:0 16:0 17:0 18:0.72057669 19:0.5204165 20:0.83333333 21:0.97916667 
5.825353309232087 1:0 2:1 3:0.53846154 4:0 5:1 6:-1 7:0 8:1 9:-1 10:0 11:0 12:0 13:1 14:1 15:1 16:1 17:0.2 18:0.58333333 19:0.12962963 20:0.375 21:0 
3.582639995467027 1:0 2:1 3:0.53846154 4:0 5:1 6:-1 7:0 8:1 9:-1 10:0 11:0 12:0 13:1 14:1 15:1 16:1 17:0.2 18:0.58333333 19:0.12962963 20:0.375 21:0.82175926 
8 1:0 2:1 3:0.53846154 4:1 5:0 6:1 7:0 8:1 9:1 10:0 11:0 12:0 13:0 14:0 15:0 16:0 17:0 18:0.40824829 19:0.068041382 20:0.5 21:0 
8 1:0 2:1 3:0.53846154 4:1 5:0 6:1 7:0 8:1 9:1 10:0 11:0 12:0 13:0 14:0 15:0 16:0 17:0 18:0.40824829 19:0.068041382 20:0.5 21:0.87207792 
8 1:0 2:1 3:0.53846154 4:1 5:0 6:1 7:0 8:1 9:1 10:0 11:0 12:0 13:0 14:-1 15:0 16:-1 17:0 18:0.43033148 19:0.11953652 20:0 21:0 
8 1:0 2:1 3:0.53846154 4:1 5:0 6:1 7:0 8:1 9:1 10:1 11:0 12:0.39534884 13:0 14:0 15:0 16:0 17:0 18:0.51031036 19:0.1134023 20:0.66666667 21:0 
8 1:0 2:1 3:0.53846154 4:1 5:0 6:1 7:0 8:1 9:1 10:1 11:0 12:0.39534884 13:0 14:0 15:0 16:0 17:0 18:0.51031036 19:0.1134023 20:0.66666667 21:0.67238095 
8 1:0 2:1 3:0.5 4:0 5:0 6:0 7:0 8:0 9:0 10:0 11:0 12:0 13:1 14:1 15:1 16:1 17:1 18:0.52623481 19:0.097450891 20:0.66666667 21:0 
0.8115212494136226 1:0 2:1 3:0.5 4:0 5:0 6:0 7:0 8:0 9:0 10:0 11:0 12:0 13:1 14:1 15:1 16:1 17:1 18:0.52623481 19:0.097450891 20:0.66666667 21:0.90376984 
0.9034445511178083 1:0 2:1 3:0.5 4:1 5:0 6:1 7:0 8:1 9:1 10:1 11:0 12:0.21212121 13:1 14:1 15:0 16:1 17:0.21212121 18:0.69436507 19:0.18002057 20:0.8 21:0.98823529 
8 1:0 2:1 3:0.5 4:1 5:0 6:1 7:0 8:1 9:1 10:1 11:0 12:1 13:0 14:0 15:0 16:0 17:0 18:0.57154761 19:0.10584215 20:0.83333333 21:0 
8 1:0 2:1 3:0.5 4:1 5:0 6:1 7:0 8:1 9:1 10:1 11:0 12:1 13:0 14:0 15:0 16:0 17:0 18:0.57154761 19:0.10584215 20:0.83333333 21:0.92666667 
8 1:0 2:1 3:0.5 4:1 5:0 6:1 7:1 8:0 9:1 10:1 11:0 12:1 13:0 14:0 15:0 16:0 17:0 18:0.54494926 19:0.11100818 20:0.83333333 21:0.93636364 
8 1:0 2:1 3:0.5483871 4:0 5:0 6:0 7:0 8:0 9:0 10:0 11:0 12:0 13:0 14:0 15:0 16:0 17:0 18:0.36514837 19:0.033810034 20:0 21:0 
8 1:0 2:1 3:0.55102041 4:1 5:0 6:1 7:1 8:0 9:1 10:1 11:0 12:0.23076923 13:0 14:0 15:0 16:0 17:0 18:0.43322429 19:0.088249392 20:0.83333333 21:0 
8 1:0 2:1 3:0.55555556 4:0 5:0 6:0 7:0 8:0 9:0 10:0 11:0 12:0 13:1 14:1 15:0 16:1 17:0 18:0.55901699 19:0.082817332 20:1 21:0 
7.611969117764836 1:0 2:1 3:0.56521739 4:0 5:1 6:-1 7:0 8:1 9:-1 10:1 11:0 12:1 13:1 14:1 15:0 16:1 17:1 18:0.43519414 19:0.096709809 20:0.33333333 21:0 
8 1:0 2:1 3:0.56521739 4:1 5:0 6:1 7:0 8:1 9:1 10:0 11:0 12:0 13:0 14:0 15:0 16:0 17:0 18:0.40824829 19:0.068041382 20:0.5 21:0 
8 1:0 2:1 3:0.56521739 4:1 5:0 6:1 7:0 8:1 9:1 10:0 11:0 12:0 13:0 14:0 15:0 16:0 17:0 18:0.40824829 19:0.068041382 20:0.5 21:0.82142857 
8 1:0 2:1 3:0.57142857 4:1 5:0 6:1 7:0 8:1 9:1 10:1 11:0 12:0.39534884 13:0 14:0 15:0 16:0 17:0 18:0.50251891 19:0.083753151 20:0.66666667 21:0 
8 1:0 2:1 3:0.57142857 4:1 5:0 6:1 7:0 8:1 9:1 10:1 11:0 12:0.39534884 13:0 14:0 15:0 16:0 17:0 18:0.50251891 19:0.083753151 20:0.66666667 21:0.92444444 
0.5358453243115019 1:0 2:1 3:0.57142857 4:1 5:0 6:1 7:1 8:0 9:1 10:1 11:0 12:0.37931034 13:1 14:1 15:1 16:1 17:0.53191489 18:0.76923077 19:0.18518519 20:0.8 21:0 
8 1:0 2:1 3:0.57142857 4:1 5:0 6:1 7:1 8:0 9:1 10:1 11:0 12:1 13:0 14:0 15:0 16:0 17:0 18:0.625 19:0.092592593 20:0.66666667 21:0 
8 1:0 2:1 3:0.57142857 4:1 5:0 6:1 7:1 8:0 9:1 10:1 11:0 12:1 13:0 14:0 15:0 16:0 17:0 18:0.625 19:0.092592593 20:0.66666667 21:0.87037037 
3.567263601318126 1:0 2:1 3:0.58139535 4:1 5:0 6:1 7:1 8:0 9:1 10:1 11:0 12:1 13:1 14:1 15:0 16:-0.46666667 17:1 18:0.695978 19:0.45109685 20:0.75333333 21:0.80153846 
8 1:0 2:1 3:0.58333333 4:0 5:0 6:0 7:0 8:0 9:0 10:0 11:0 12:0 13:0 14:0 15:0 16:0 17:0 18:0.37796447 19:0.048995395 20:0.5 21:0 
8 1:0 2:1 3:0.58333333 4:0 5:0 6:0 7:0 8:0 9:0 10:0 11:0 12:0 13:0 14:0 15:0 16:0 17:0 18:0.37796447 19:0.048995395 20:0.5 21:0.78395062 
8 1:0 2:1 3:0.58490566 4:1 5:0 6:1 7:1 8:0 9:1 10:0 11:0 12:0 13:0 14:0 15:0 16:0 17:0 18:0.51639778 19:0.086066297 20:0.75 21:0 
8 1:0 2:1 3:0.58490566 4:1 5:0 6:1 7:1 8:0 9:1 10:0 11:1 12:-0.058823529 13:0 14:0 15:0 16:0 17:0 18:0.43519414 19:0.088650658 20:0.4 21:0 
5.961510164879322 1:0 2:1 3:0.58490566 4:1 5:0 6:1 7:1 8:0 9:1 10:0 11:1 12:-0.058823529 13:0 14:0 15:0 16:0 17:0 18:0.43519414 19:0.088650658 20:0.4 21:0.82222222 
6.838576599973815 1:0 2:1 3:0.62962963 4:0 5:0 6:0 7:0 8:0 9:0 10:0 11:0 12:0 13:1 14:1 15:1 16:1 17:0 18:0.3086067 19:0.040004572 20:0.5 21:0 
8 1:0 2:1 3:0.62962963 4:1 5:0 6:1 7:1 8:0 9:1 10:0 11:0 12:0 13:0 14:0 15:0 16:0 17:0 18:0.25819889 19:0.047814609 20:0.5 21:0 
8 1:0 2:1 3:0.62962963 4:1 5:0 6:1 7:1 8:0 9:1 10:0 11:0 12:0 13:0 14:0 15:0 16:0 17:0 18:0.25819889 19:0.047814609 20:0.5 21:0.88787879 
1.640686018844093 1:0 2:1 3:0.62962963 4:1 5:0 6:1 7:1 8:0 9:1 10:0 11:0 12:0 13:1 14:1 15:0 16:1 17:1 18:0.48112522 19:0.10691672 20:0.75 21:0.96875 
8 1:0 2:1 3:0.62962963 4:1 5:0 6:1 7:1 8:0 9:1 10:1 11:0 12:0.9047619 13:0 14:0 15:0 16:0 17:0 18:0.81559087 19:0.49841664 20:0.66666667 21:0.94444444 
8 1:0 2:1 3:0.63265306 4:1 5:0 6:1 7:0 8:1 9:1 10:1 11:0 12:1 13:0 14:0 15:0 16:0 17:0 18:0.57154761 19:0.15876322 20:0.83333333 21:0 
2.017606370893246 1:0 2:1 3:0.63265306 4:1 5:0 6:1 7:0 8:1 9:1 10:1 11:0 12:1 13:0 14:0 15:0 16:0 17:0 18:0.57154761 19:0.15876322 20:0.83333333 21:0.65643939 
3.486715535673651 1:0 2:1 3:0.63265306 4:1 5:0 6:1 7:1 8:0 9:1 10:1 11:0 12:1 13:0 14:0 15:0 16:0 17:0 18:0.54494926 19:0.15137479 20:0.83333333 21:0.94047619 
8 1:0 2:1 3:0.6 4:0 5:0 6:0 7:0 8:0 9:0 10:0 11:0 12:0 13:0 14:0 15:0 16:0 17:0 18:0.22645541 19:0.025161712 20:1 21:0 
8 1:0 2:1 3:0.6 4:0 5:0 6:0 7:0 8:0 9:0 10:0 11:0 12:0 13:0 14:0 15:0 16:0 17:0 18:0.2773501 19:0.020544452 20:1 21:0 
8 1:0 2:1 3:0.6 4:0 5:0 6:0 7:0 8:0 9:0 10:0 11:0 12:0 13:0 14:0 15:0 16:0 17:0 18:0.40824829 19:0.030240614 20:1 21:0 
8 1:0 2:1 3:0.6 4:0 5:0 6:0 7:0 8:0 9:0 10:0 11:0 12:0 13:0 14:0 15:0 16:0 17:0 18:0.67082039 19:0.0496904 20:1 21:0 
3.478401754901296 1:0 2:1 3:0.6 4:1 5:0 6:1 7:1 8:0 9:1 10:0 11:0 12:0 13:0 14:0 15:0 16:0 17:0 18:0.5 19:0.055555556 20:1 21:0 
8 1:0 2:1 3:0.6 4:1 5:0 6:1 7:1 8:0 9:1 10:1 11:0 12:0.62711864 13:1 14:1 15:1 16:1 17:0.62711864 18:0.87179487 19:0.62962963 20:0.8 21:0.93846154 
8 1:0 2:1 3:0.6 4:1 5:0 6:1 7:1 8:0 9:1 10:1 11:0 12:1 13:0 14:0 15:0 16:0 17:0 18:0.68313005 19:0.34156503 20:0.66666667 21:0.98148148 
3.415196565044651 1:0 2:1 3:0.64285714 4:1 5:0 6:1 7:1 8:0 9:1 10:1 11:0 12:0.37931034 13:1 14:1 15:1 16:1 17:0.36363636 18:0.70588235 19:0.22222222 20:0.7037037 21:0 
5.957617550263839 1:0 2:1 3:0.64285714 4:1 5:0 6:1 7:1 8:0 9:1 10:1 11:0 12:0.37931034 13:1 14:1 15:1 16:1 17:0.36363636 18:0.70588235 19:0.22222222 20:0.7037037 21:0.96707819 
8 1:0 2:1 3:0.65853659 4:1 5:0 6:1 7:0 8:1 9:1 10:1 11:0 12:0.28571429 13:0 14:0 15:0 16:0 17:0 18:0.57154761 19:0.10584215 20:0.83333333 21:0 
7.601935058628659 1:0 2:1 3:0.65853659 4:1 5:0 6:1 7:0 8:1 9:1 10:1 11:0 12:0.28571429 13:0 14:0 15:0 16:0 17:0 18:0.57154761 19:0.10584215 20:0.83333333 21:0.95333333 
2.473174775403583 1:0 2:1 3:0.65853659 4:1 5:0 6:1 7:1 8:0 9:1 10:1 11:0 12:0.45454545 13:0 14:0 15:0 16:0 17:0 18:0.69026849 19:0.57522374 20:0.83333333 21:0.96969697 
8 1:0 2:1 3:0.66666667 4:0 5:1 6:-1 7:0 8:1 9:-1 10:0 11:0 12:0 13:0 14:0 15:0 16:0 17:0 18:0.3380617 19:0.062604019 20:-0.25 21:0 
8 1:0 2:1 3:0.66666667 4:1 5:0 6:1 7:0 8:1 9:1 10:0 11:1 12:0 13:0 14:0 15:0 16:0 17:0 18:0.42008403 19:0.13224867 20:0.46666667 21:0 
8 1:0 2:1 3:0.66666667 4:1 5:0 6:1 7:0 8:1 9:1 10:0 11:1 12:0 13:0 14:0 15:0 16:0 17:0 18:0.42008403 19:0.13224867 20:0.46666667 21:0.89333333 
8 1:0 2:1 3:0.66666667 4:1 5:0 6:1 7:1 8:0 9:1 10:0 11:0 12:0 13:0 14:0 15:0 16:0 17:0 18:0.32879797 19:0.054799662 20:0.5 21:0 
3.357506066420054 1:0 2:1 3:0.66666667 4:1 5:0 6:1 7:1 8:0 9:1 10:1 11:0 12:0.39534884 13:1 14:1 15:1 16:1 17:0.17647059 18:0.8 19:0.22222222 20:0.9 21:0 
5.031492036010851 1:0 2:1 3:0.66666667 4:1 5:0 6:1 7:1 8:0 9:1 10:1 11:0 12:1 13:1 14:1 15:1 16:1 17:1 18:0.81749821 19:0.71152622 20:0.93333333 21:0.98666667 
8 1:0 2:1 3:0.68 4:1 5:0 6:1 7:0 8:1 9:1 10:1 11:0 12:0.39534884 13:0 14:0 15:0 16:0 17:0 18:0.57154761 19:0.15876322 20:0.83333333 21:0 
8 1:0 2:1 3:0.68 4:1 5:0 6:1 7:0 8:1 9:1 10:1 11:0 12:0.39534884 13:0 14:0 15:0 16:0 17:0 18:0.57154761 19:0.15876322 20:0.83333333 21:0.98531469 
8 1:0 2:1 3:0.68421053 4:0 5:1 6:-1 7:0 8:1 9:-1 10:0 11:0 12:0 13:0 14:0 15:0 16:0 17:0 18:0.22645541 19:0.025161712 20:-0.5 21:0 
8 1:0 2:1 3:0.68421053 4:0 5:1 6:-1 7:0 8:1 9:-1 10:0 11:0 12:0 13:1 14:1 15:0 16:1 17:1 18:0.47673129 19:0.088283573 20:0.25 21:0 
8 1:0 2:1 3:0.6969697 4:0 5:0 6:0 7:0 8:0 9:0 10:0 11:0 12:0 13:0 14:0 15:0 16:0 17:0 18:0.36514837 19:0.033810034 20:0 21:0 
8 1:0 2:1 3:0.6969697 4:0 5:0 6:0 7:0 8:0 9:0 10:0 11:0 12:0 13:0 14:0 15:0 16:0 17:0 18:0.4 19:0.037037037 20:0 21:0 
8 1:0 2:1 3:0.71428571 4:0 5:0 6:0 7:0 8:0 9:0 10:0 11:0 12:0 13:0 14:0 15:0 16:0 17:0 18:0.81649658 19:0.060481228 20:1 21:0 
0.4314836239830719 1:0 2:1 3:0.71428571 4:0 5:0 6:0 7:0 8:0 9:0 10:0 11:0 12:0 13:1 14:1 15:0 16:0.8 17:0 18:0.46291005 19:0.05143445 20:0.93333333 21:0 
6.717366162744673 1:0 2:1 3:0.71428571 4:0 5:1 6:-1 7:0 8:1 9:-1 10:0 11:0 12:0 13:1 14:1 15:0 16:1 17:1 18:0.52223297 19:0.11605177 20:0.375 21:0 
8 1:0 2:1 3:0.71428571 4:1 5:0 6:1 7:0 8:1 9:1 10:1 11:0 12:0.39534884 13:0 14:0 15:0 16:0 17:0 18:0.66742381 19:0.1359567 20:0.83333333 21:0 
8 1:0 2:1 3:0.71428571 4:1 5:0 6:1 7:0 8:1 9:1 10:1 11:0 12:1 13:0 14:0 15:0 16:0 17:0 18:0.58925565 19:0.098209275 20:0.66666667 21:0 
8 1:0 2:1 3:0.71428571 4:1 5:0 6:1 7:0 8:1 9:1 10:1 11:0 12:1 13:0 14:0 15:0 16:0 17:0 18:0.58925565 19:0.098209275 20:0.66666667 21:0.95555556 
0.01103339566818788 1:0 2:1 3:0.71428571 4:1 5:0 6:1 7:1 8:0 9:1 10:0 11:1 12:-0.44827586 13:1 14:1 15:1 16:1 17:0.95348837 18:0.66666667 19:0.18518519 20:0.66666667 21:0 
8 1:0 2:1 3:0.71428571 4:1 5:0 6:1 7:1 8:0 9:1 10:1 11:0 12:0.30434783 13:0 14:0 15:0 16:0 17:0 18:0.5547002 19:0.092450033 20:0.66666667 21:0 
8 1:0 2:1 3:0.71428571 4:1 5:0 6:1 7:1 8:0 9:1 10:1 11:0 12:0.30434783 13:0 14:0 15:0 16:0 17:0 18:0.5547002 19:0.092450033 20:0.66666667 21:0.86060606 
8 1:0 2:1 3:0.72727273 4:1 5:0 6:1 7:1 8:0 9:1 10:0 11:0 12:0 13:0 14:0 15:0 16:0 17:0 18:0.51639778 19:0.086066297 20:0.75 21:0 
1.397712842632023 1:0 2:1 3:0.73333333 4:1 5:0 6:1 7:1 8:0 9:1 10:0 11:0 12:0 13:1 14:1 15:1 16:1 17:1 18:0.89221782 19:0.62785698 20:1 21:0.93121693 
8 1:0 2:1 3:0.73913043 4:1 5:0 6:1 7:0 8:1 9:0.46666667 10:1 11:0 12:1 13:0 14:0 15:0 16:0 17:0 18:0.54494926 19:0.11100818 20:0.74444444 21:0 
2.548624432910627 1:0 2:1 3:0.73913043 4:1 5:0 6:1 7:1 8:0 9:1 10:1 11:0 12:0.27272727 13:0 14:0 15:0 16:0 17:0 18:0.72727273 19:0.14814815 20:0.83333333 21:0 
8 1:0 2:1 3:0.73913043 4:1 5:0 6:1 7:1 8:0 9:1 10:1 11:0 12:0.30434783 13:0 14:0 15:0 16:0 17:0 18:0.66666667 19:0.11111111 20:0.66666667 21:0 
8 1:0 2:1 3:0.73913043 4:1 5:0 6:1 7:1 8:0 9:1 10:1 11:0 12:0.30434783 13:0 14:0 15:0 16:0 17:0 18:0.66666667 19:0.11111111 20:0.66666667 21:0.91851852 
8 1:0 2:1 3:0.7 4:0 5:0 6:0 7:0 8:0 9:0 10:0 11:0 12:0 13:0 14:0 15:0 16:0 17:0 18:0.4 19:0.037037037 20:0 21:0 
8 1:0 2:1 3:0.7 4:1 5:0 6:1 7:0 8:1 9:1 10:1 11:0 12:0.29411765 13:0 14:0 15:0 16:0 17:0 18:0.57154761 19:0.15876322 20:0.83333333 21:0 
0.3551272249810036 1:0 2:1 3:0.7 4:1 5:0 6:1 7:0 8:1 9:1 10:1 11:0 12:1 13:1 14:1 15:1 16:1 17:0 18:0.67082039 19:0.186339 20:0.875 21:0 
8 1:0 2:1 3:0.75 4:0 5:0 6:0 7:0 8:0 9:0 10:0 11:0 12:0 13:0 14:0 15:0 16:0 17:0 18:0.81649658 19:0.060481228 20:1 21:0 
8 1:0 2:1 3:0.75 4:0 5:0 6:0 7:0 8:0 9:0 10:0 11:0 12:0 13:0 14:0 15:0 16:0 17:0 18:0.8 19:0.074074074 20:1 21:0 
0.6927216748146577 1:0 2:1 3:0.75 4:1 5:0 6:1 7:1 8:0 9:1 10:0 11:0 12:0 13:0 14:0 15:0 16:0 17:0 18:0.91287093 19:0.084525086 20:1 21:0 
1.542162890303304 1:0 2:1 3:0.75609756 4:1 5:0 6:1 7:1 8:0 9:1 10:1 11:0 12:1 13:1 14:1 15:0 16:0.73333333 17:0.25714286 18:0.6 19:0.16666667 20:0.63703704 21:0 
7.595480762226089 1:0 2:1 3:0.76 4:1 5:0 6:1 7:0 8:1 9:1 10:0 11:0 12:0 13:1 14:1 15:0 16:1 17:0.39534884 18:0.5547002 19:0.13353894 20:0.75 21:0.98076923 
8 1:0 2:1 3:0.76 4:1 5:0 6:1 7:0 8:1 9:1 10:1 11:0 12:0.27659574 13:0 14:0 15:0 16:0 17:0 18:0.57154761 19:0.15876322 20:0.83333333 21:0 
7.850319896486073 1:0 2:1 3:0.76 4:1 5:0 6:1 7:1 8:0 9:1 10:0 11:1 12:0.14285714 13:0 14:0 15:0 16:0 17:0 18:0.46709937 19:0.12974982 20:0.4 21:0 
8 1:0 2:1 3:0.76923077 4:1 5:0 6:1 7:0 8:1 9:-0.86666667 10:1 11:0 12:1 13:0 14:0 15:0 16:0 17:0 18:0.66666667 19:0.14814815 20:0.52222222 21:0 
8 1:0 2:1 3:0.76923077 4:1 5:0 6:1 7:0 8:1 9:1 10:1 11:0 12:0.39534884 13:0 14:0 15:0 16:0 17:0 18:0.66742381 19:0.1359567 20:0.83333333 21:0 
8 1:0 2:1 3:0.77777778 4:0 5:0 6:0 7:0 8:0 9:0 10:0 11:0 12:0 13:0 14:0 15:0 16:0 17:0 18:0.81649658 19:0.060481228 20:1 21:0 
8 1:0 2:1 3:0.77777778 4:1 5:0 6:1 7:0 8:1 9:1 10:1 11:0 12:1 13:0 14:0 15:0 16:0 17:0 18:0.66742381 19:0.123597 20:0.83333333 21:0 
4.660152202852165 1:0 2:1 3:0.77777778 4:1 5:0 6:1 7:1 8:0 9:1 10:0 11:0 12:0 13:0 14:-1 15:0 16:-1 17:0.27272727 18:0.52223297 19:0.11605177 20:0.28571429 21:0 
3.736873096929738 1:0 2:1 3:0.77777778 4:1 5:0 6:1 7:1 8:0 9:1 10:1 11:0 12:0.78723404 13:1 14:1 15:0 16:0.86666667 17:1 18:0.73333333 19:0.2037037 20:0.88666667 21:0 
8 1:0 2:1 3:0.77777778 4:1 5:0 6:1 7:1 8:0 9:1 10:1 11:0 12:0.78723404 13:1 14:1 15:0 16:0.86666667 17:1 18:0.73333333 19:0.2037037 20:0.88666667 21:0.95906301 
0.380238009357324 1:0 2:1 3:0.78461538 4:1 5:0 6:1 7:0 8:1 9:1 10:0 11:1 12:0.52941176 13:1 14:1 15:0 16:1 17:1 18:0.56360186 19:0.17743022 20:0.7037037 21:0 
0.3810707017240482 1:0 2:1 3:0.78461538 4:1 5:0 6:1 7:0 8:1 9:1 10:0 11:1 12:0.52941176 13:1 14:1 15:0 16:1 17:1 18:0.56360186 19:0.17743022 20:0.7037037 21:0.61728395 
0.1374378324273147 1:0 2:1 3:0.78947368 4:1 5:0 6:1 7:1 8:0 9:1 10:0 11:0 12:0 13:1 14:1 15:1 16:1 17:-0.31914894 18:0.6172134 19:0.13715853 20:0.875 21:0 
8 1:0 2:1 3:0.79310345 4:1 5:0 6:1 7:1 8:0 9:1 10:0 11:0 12:0 13:0 14:0 15:0 16:0 17:0 18:0.51639778 19:0.086066297 20:0.75 21:0 
0.6739273121141928 1:0 2:1 3:0.79591837 4:1 5:0 6:1 7:0 8:1 9:1 10:1 11:0 12:0.23076923 13:0 14:0 15:0 16:0 17:0 18:0.66742381 19:0.1359567 20:0.83333333 21:0 
8 1:0 2:1 3:0.80392157 4:1 5:0 6:1 7:1 8:0 9:1 10:0 11:1 12:-0.81818182 13:0 14:0 15:0 16:0 17:0 18:0.46709937 19:0.12974982 20:0.4 21:0 
0.944676524754403 1:0 2:1 3:0.80392157 4:1 5:0 6:1 7:1 8:0 9:1 10:0 11:1 12:-0.81818182 13:0 14:0 15:0 16:0 17:0 18:0.46709937 19:0.12974982 20:0.4 21:0.575 
0.5709268065196027 1:0 2:1 3:0.80392157 4:1 5:0 6:1 7:1 8:0 9:1 10:1 11:0 12:1 13:1 14:1 15:0 16:0.33333333 17:0.9047619 18:0.80403025 19:0.53602017 20:0.83333333 21:0.97916667 
1.805192748565531 1:0 2:1 3:0.81818182 4:1 5:0 6:1 7:0 8:1 9:-1 10:1 11:0 12:0.25714286 13:1 14:1 15:1 16:1 17:0 18:0.62622429 19:0.17395119 20:0.66666667 21:0 
0.2388753626493005 1:0 2:1 3:0.81818182 4:1 5:0 6:1 7:0 8:1 9:-1 10:1 11:0 12:0.25714286 13:1 14:1 15:1 16:1 17:0 18:0.62622429 19:0.17395119 20:0.66666667 21:0.84581818 
0.2779604038806153 1:0 2:1 3:0.81818182 4:1 5:0 6:1 7:1 8:0 9:1 10:1 11:0 12:0.61538462 13:1 14:1 15:1 16:1 17:0.61538462 18:0.87294348 19:0.66279042 20:0.9 21:0.98888889 
0.7639278669722792 1:0 2:1 3:0.8245614 4:1 5:0 6:1 7:0 8:1 9:1 10:0 11:0 12:0 13:1 14:1 15:0 16:1 17:0 18:0.58501794 19:0.18417231 20:0.88888889 21:0 
1.63345256864659 1:0 2:1 3:0.83333333 4:0 5:0 6:0 7:0 8:0 9:0 10:0 11:0 12:0 13:1 14:1 15:0 16:0.53333333 17:0.33333333 18:0.56407607 19:0.11490439 20:0.75555556 21:0 
5.194489077042495 1:0 2:1 3:0.83333333 4:1 5:0 6:1 7:1 8:0 9:1 10:0 11:0 12:0 13:0 14:0 15:0 16:0 17:0 18:0.58925565 19:0.087297133 20:0.75 21:0 
8 1:0 2:1 3:0.83333333 4:1 5:0 6:1 7:1 8:0 9:1 10:1 11:0 12:0.75609756 13:0 14:0 15:0 16:0 17:0 18:0.5547002 19:0.13353894 20:0.66666667 21:0 
8 1:0 2:1 3:0.83333333 4:1 5:0 6:1 7:1 8:0 9:1 10:1 11:0 12:0.75609756 13:0 14:0 15:0 16:0 17:0 18:0.5547002 19:0.13353894 20:0.66666667 21:0.83333333 
8 1:0 2:1 3:0.8 4:0 5:0 6:0 7:0 8:0 9:0 10:0 11:0 12:0 13:0 14:0 15:0 16:0 17:0 18:0.18650096 19:0.017268608 20:0 21:0 
8 1:0 2:1 3:0.84615385 4:0 5:0 6:0 7:0 8:0 9:0 10:0 11:0 12:0 13:0 14:0 15:0 16:0 17:0 18:0.81649658 19:0.060481228 20:1 21:0 
0.663212731036105 1:0 2:1 3:0.84615385 4:1 5:0 6:1 7:1 8:0 9:1 10:0 11:1 12:0.76 13:1 14:1 15:0 16:0.8 17:0.68 18:0.6 19:0.16666667 20:0.64444444 21:0 
8 1:0 2:1 3:0.86666667 4:0 5:0 6:0 7:0 8:0 9:0 10:0 11:0 12:0 13:0 14:0 15:0 16:0 17:0 18:0.29277002 19:0.081325006 20:0.5 21:0 
5.693190096016065 1:0 2:1 3:0.87096774 4:0 5:0 6:0 7:0 8:0 9:0 10:0 11:0 12:0 13:1 14:1 15:1 16:1 17:1 18:0.64051262 19:0.14233614 20:0.83333333 21:0 
0.5145822826928154 1:0 2:1 3:0.875 4:1 5:0 6:1 7:1 8:0 9:1 10:1 11:0 12:1 13:1 14:1 15:0 16:1 17:0 18:0.61394061 19:0.11369271 20:0.75 21:0.7781746 
2.208715447599617 1:0 2:1 3:0.88235294 4:0 5:0 6:0 7:0 8:0 9:0 10:0 11:0 12:0 13:1 14:1 15:0 16:1 17:0.39534884 18:0.59160798 19:0.15337985 20:0.83333333 21:0 
8 1:0 2:1 3:0.88679245 4:0 5:0 6:0 7:0 8:0 9:0 10:0 11:0 12:0 13:0 14:0 15:0 16:0 17:0 18:0.39036003 19:0.050602226 20:0.5 21:0 
8 1:0 2:1 3:0.88888889 4:0 5:0 6:0 7:0 8:0 9:0 10:0 11:0 12:0 13:0 14:0 15:0 16:0 17:0 18:0.40406102 19:0.10475656 20:0.5 21:0 
8 1:0 2:1 3:0.89473684 4:0 5:0 6:0 7:0 8:0 9:0 10:0 11:0 12:0 13:0 14:0 15:0 16:0 17:0 18:0.53452248 19:0.069289952 20:0.5 21:0 
2.266871177000977 1:0 2:1 3:0.9047619 4:1 5:0 6:1 7:1 8:0 9:1 10:1 11:0 12:0.55555556 13:1 14:1 15:0 16:-1 17:-0.3 18:0.6 19:0.16666667 20:0.44444444 21:0 
2.209233380490814 1:0 2:1 3:0.9047619 4:1 5:0 6:1 7:1 8:0 9:1 10:1 11:0 12:0.55555556 13:1 14:1 15:0 16:-1 17:-0.3 18:0.6 19:0.16666667 20:0.44444444 21:0.88275058 
8 1:0 2:1 3:0.90909091 4:1 5:0 6:1 7:1 8:0 9:1 10:1 11:0 12:1 13:0 14:0 15:0 16:0 17:0 18:0.80025012 19:0.57795842 20:0.66666667 21:0.95238095 
0.5901347382085959 1:0 2:1 3:0.91304348 4:1 5:0 6:1 7:1 8:0 9:1 10:0 11:1 12:0.48837209 13:1 14:1 15:1 16:1 17:0 18:0.5728919 19:0.13791842 20:0.57142857 21:0.6 
8 1:0 2:1 3:0.91666667 4:0 5:1 6:-1 7:0 8:1 9:-1 10:0 11:0 12:0 13:0 14:0 15:0 16:0 17:0 18:0.5 19:0.074074074 20:-0.25 21:0 
1.710961544797287 1:0 2:1 3:0.91666667 4:1 5:0 6:1 7:1 8:0 9:1 10:1 11:0 12:1 13:0 14:0 15:0 16:0 17:0 18:0.72727273 19:0.14814815 20:0.83333333 21:0 
3.464372955609779 1:0 2:1 3:0.91666667 4:1 5:0 6:1 7:1 8:0 9:1 10:1 11:0 12:1 13:0 14:0 15:0 16:0 17:0 18:0.90322581 19:0.51851852 20:0.83333333 21:0.8030303 
0.5110482061706615 1:0 2:1 3:0.92307692 4:1 5:0 6:1 7:0 8:1 9:1 10:0 11:1 12:-0.034482759 13:1 14:1 15:1 16:1 17:0.31034483 18:0.621059 19:0.1610153 20:0.66666667 21:0 
8 1:0 2:1 3:0.92 4:1 5:0 6:1 7:0 8:1 9:1 10:0 11:0 12:0 13:0 14:0 15:0 16:0 17:0 18:0.45643546 19:0.067620069 20:0.75 21:0 
0.4692145509224049 1:0 2:1 3:0.92 4:1 5:0 6:1 7:1 8:0 9:1 10:0 11:1 12:0.84615385 13:1 14:1 15:1 16:1 17:0 18:0.5728919 19:0.15913664 20:0.57142857 21:0 
0.2682267226169306 1:0 2:1 3:0.92 4:1 5:0 6:1 7:1 8:0 9:1 10:1 11:0 12:0.35384615 13:0 14:0 15:0 16:0 17:0 18:0.43322429 19:0.24870283 20:0.83333333 21:0 
8 1:0 2:1 3:0.92 4:1 5:0 6:1 7:1 8:0 9:1 10:1 11:0 12:1 13:0 14:0 15:0 16:0 17:0 18:0.72727273 19:0.14814815 20:0.83333333 21:0 
8 1:0 2:1 3:0.93548387 4:1 5:0 6:1 7:0 8:1 9:1 10:0 11:0 12:0 13:0 14:0 15:0 16:0 17:0 18:0.52764485 19:0.10748321 20:0.83333333 21:0 
0.0348590799930291 1:0 2:1 3:0.93548387 4:1 5:0 6:1 7:0 8:1 9:1 10:0 11:0 12:0 13:0 14:0 15:0 16:0 17:0 18:0.52764485 19:0.10748321 20:0.83333333 21:0.96666667 
1.437240311046948 1:0 2:1 3:0.93939394 4:1 5:0 6:1 7:1 8:0 9:1 10:0 11:0 12:0 13:1 14:1 15:1 16:1 17:1 18:0.69436507 19:0.15430335 20:0.875 21:0.94823232 
1.158975077860862 1:0 2:1 3:0.9 4:1 5:0 6:1 7:1 8:0 9:1 10:1 11:0 12:1 13:1 14:1 15:0 16:-1 17:1 18:0.73333333 19:0.2037037 20:0.7 21:0 
0.06317164854285835 1:0 2:1 3:1 4:0 5:0 6:0 7:0 8:0 9:0 10:0 11:0 12:0 13:1 14:1 15:1 16:1 17:0 18:1 19:0.11111111 20:1 21:0 
8 1:1 2:0 3:-0.022222222 4:1 5:0 6:1 7:1 8:0 9:1 10:0 11:0 12:0 13:0 14:0 15:0 16:0 17:0 18:0.41931393 19:0.05435551 20:1 21:0 
1.662772206278998 1:1 2:0 3:-0.022222222 4:1 5:0 6:1 7:1 8:0 9:1 10:0 11:0 12:0 13:0 14:0 15:0 16:0 17:0 18:0.41931393 19:0.05435551 20:1 21:0.55 
8 1:1 2:0 3:0.025641026 4:1 5:0 6:1 7:0 8:1 9:1 10:1 11:0 12:0.25 13:0 14:0 15:0 16:0 17:0 18:0.36514837 19:0.054096055 20:0.66666667 21:0 
8 1:1 2:0 3:0.028571429 4:0 5:0 6:0 7:0 8:0 9:0 10:0 11:0 12:0 13:0 14:0 15:0 16:0 17:0 18:0.21693046 19:0.020086154 20:1 21:0 
8 1:1 2:0 3:-0.03030303 4:0 5:0 6:0 7:0 8:0 9:0 10:0 11:0 12:0 13:0 14:0 15:0 16:0 17:0 18:0.13483997 19:0.027467402 20:0 21:0 
8 1:1 2:0 3:-0.03030303 4:1 5:0 6:1 7:1 8:0 9:1 10:1 11:0 12:1 13:0 14:0 15:0 16:0 17:0 18:0.55555556 19:0.092592593 20:0.66666667 21:0 
8 1:1 2:0 3:0.032258065 4:1 5:0 6:1 7:0 8:1 9:1 10:1 11:0 12:1 13:0 14:0 15:0 16:0 17:0 18:0.49029034 19:0.11803286 20:0.66666667 21:0 
8 1:1 2:0 3:0.032258065 4:1 5:0 6:1 7:1 8:0 9:1 10:1 11:0 12:0.68421053 13:0 14:0 15:0 16:0 17:0 18:0.5547002 19:0.13353894 20:0.66666667 21:0 
8 1:1 2:0 3:0.037037037 4:0 5:0 6:0 7:0 8:0 9:0 10:0 11:0 12:0 13:0 14:0 15:0 16:0 17:0 18:0.2 19:0.018518519 20:0.16666667 21:0 
7.933844877238212 1:1 2:0 3:0.037037037 4:1 5:0 6:1 7:1 8:0 9:1 10:0 11:1 12:0.80952381 13:0 14:0 15:0 16:0 17:0 18:0.44444444 19:0.074074074 20:0.2 21:0 
7.304620987051941 1:1 2:0 3:0.037037037 4:1 5:0 6:1 7:1 8:0 9:1 10:1 11:0 12:0 13:0 14:0 15:0 16:0 17:0 18:0.66666667 19:0.11111111 20:0.66666667 21:0 
8 1:1 2:0 3:0.037037037 4:1 5:0 6:1 7:1 8:0 9:1 10:1 11:0 12:0.57894737 13:0 14:0 15:0 16:0 17:0 18:0.66666667 19:0.11111111 20:0.66666667 21:0 
1.58558262334835 1:1 2:0 3:0.037037037 4:1 5:0 6:1 7:1 8:0 9:1 10:1 11:0 12:1 13:1 14:1 15:1 16:1 17:1 18:0.76923077 19:0.18518519 20:0.8 21:0 
8 1:1 2:0 3:0 4:0 5:0 6:0 7:0 8:0 9:0 10:0 11:0 12:0 13:0 14:0 15:0 16:0 17:0 18:0.25819889 19:0.057377531 20:0.16666667 21:0 
8 1:1 2:0 3:0 4:0 5:0 6:0 7:0 8:0 9:0 10:0 11:0 12:0 13:0 14:0 15:0 16:0 17:0 18:0.36514837 19:0.040572041 20:1 21:0 
8 1:1 2:0 3:0 4:1 5:0 6:1 7:0 8:1 9:0.66666667 10:1 11:0 12:1 13:0 14:0 15:0 16:0 17:0 18:0.55555556 19:0.092592593 20:0.61111111 21:0 
8 1:1 2:0 3:0 4:1 5:0 6:1 7:1 8:0 9:1 10:1 11:0 12:0.25714286 13:0 14:0 15:0 16:0 17:0 18:0.57735027 19:0.096225045 20:0.66666667 21:0 
8 1:1 2:0 3:0 4:1 5:0 6:1 7:1 8:0 9:1 10:1 11:0 12:0.68421053 13:0 14:0 15:0 16:0 17:0 18:0.5547002 19:0.13353894 20:0.66666667 21:0 
8 1:1 2:0 3:0 4:1 5:0 6:1 7:1 8:0 9:1 10:1 11:0 12:0.68421053 13:0 14:-1 15:0 16:-1 17:0 18:0.52623481 19:0.12668616 20:0.25 21:0 
4.38884976405074 1:1 2:0 3:0 4:1 5:0 6:1 7:1 8:0 9:1 10:1 11:0 12:0.68421053 13:0 14:-1 15:0 16:-1 17:0 18:0.52623481 19:0.12668616 20:0.25 21:0.8702381 
8 1:1 2:0 3:0 4:1 5:0 6:1 7:1 8:0 9:1 10:1 11:0 12:0.9 13:0 14:0 15:0 16:0 17:0 18:0.5547002 19:0.092450033 20:0.66666667 21:0 
8 1:1 2:0 3:-0.04 4:1 5:0 6:1 7:1 8:0 9:1 10:0 11:0 12:0 13:0 14:0 15:0 16:0 17:0 18:0.35355339 19:0.07856742 20:1 21:0 
8 1:1 2:0 3:-0.04 4:1 5:0 6:1 7:1 8:0 9:1 10:1 11:0 12:0.57894737 13:0 14:0 15:0 16:0 17:0 18:0.5547002 19:0.13353894 20:0.66666667 21:0 
8 1:1 2:0 3:-0.047619048 4:0 5:0 6:0 7:0 8:0 9:0 10:0 11:0 12:0 13:0 14:0 15:0 16:0 17:0 18:0.080321933 19:0.007437216 20:0.16666667 21:0 
8 1:1 2:0 3:-0.047619048 4:0 5:0 6:0 7:0 8:0 9:0 10:0 11:0 12:0 13:0 14:0 15:0 16:0 17:0 18:0.13483997 19:0.012485183 20:1 21:0 
7.692159807891619 1:1 2:0 3:0.047619048 4:1 5:0 6:1 7:0 8:1 9:0.93333333 10:1 11:0 12:0.6969697 13:0 14:0 15:0 16:0 17:0 18:0.43876345 19:0.089377741 20:0.98666667 21:0 
8 1:1 2:0 3:-0.047619048 4:1 5:0 6:1 7:1 8:0 9:1 10:0 11:0 12:0 13:0 14:0 15:0 16:0 17:0 18:0.45584231 19:0.059090669 20:1 21:0 
8 1:1 2:0 3:0.047619048 4:1 5:0 6:1 7:1 8:0 9:1 10:1 11:0 12:1 13:0 14:0 15:0 16:0 17:0 18:0.50174521 19:0.12079051 20:0.66666667 21:0 
6.860544863467807 1:1 2:0 3:-0.058823529 4:1 5:0 6:1 7:1 8:0 9:1 10:1 11:0 12:1 13:0 14:0 15:0 16:0 17:0 18:0.51639778 19:0.14344383 20:0.66666667 21:0 
8 1:1 2:0 3:-0.066666667 4:1 5:0 6:1 7:1 8:0 9:1 10:1 11:0 12:1 13:0 14:0 15:0 16:0 17:0 18:0.55555556 19:0.092592593 20:0.66666667 21:0 
0.5479318644416379 1:1 2:0 3:0.066666667 4:1 5:0 6:1 7:1 8:0 9:1 10:1 11:0 12:1 13:1 14:1 15:0 16:0.93333333 17:1 18:0.69230769 19:0.16666667 20:0.79333333 21:0 
0.2272259050812795 1:1 2:0 3:-0.066666667 4:1 5:0 6:1 7:1 8:0 9:1 10:1 11:0 12:1 13:1 14:1 15:1 16:1 17:1 18:0.69230769 19:0.16666667 20:0.8 21:0 
8 1:1 2:0 3:0.076923077 4:1 5:0 6:1 7:0 8:1 9:0.13333333 10:1 11:0 12:1 13:0 14:0 15:0 16:0 17:0 18:0.55555556 19:0.092592593 20:0.52222222 21:0 
0.2622057557176524 1:1 2:0 3:0.076923077 4:1 5:0 6:1 7:0 8:1 9:0.13333333 10:1 11:0 12:1 13:0 14:0 15:0 16:0 17:0 18:0.55555556 19:0.092592593 20:0.52222222 21:0.71717172 
8 1:1 2:0 3:-0.076923077 4:1 5:0 6:1 7:0 8:1 9:1 10:1 11:0 12:0.38461538 13:0 14:0 15:0 16:0 17:0 18:0.45643546 19:0.12678763 20:0.66666667 21:0 
8 1:1 2:0 3:-0.076923077 4:1 5:0 6:1 7:1 8:0 9:1 10:1 11:0 12:0.95348837 13:0 14:0 15:0 16:0 17:0 18:0.46225016 19:0.077041694 20:0.66666667 21:0 
8 1:1 2:0 3:-0.083333333 4:0 5:0 6:0 7:0 8:0 9:0 10:0 11:0 12:0 13:1 14:1 15:1 16:1 17:1 18:0.39223227 19:0.058108484 20:0.66666667 21:0 
8 1:1 2:0 3:-0.090909091 4:0 5:0 6:0 7:0 8:0 9:0 10:0 11:0 12:0 13:0 14:0 15:0 16:0 17:0 18:0.36514837 19:0.033810034 20:0.16666667 21:0 
8 1:1 2:0 3:0.090909091 4:0 5:1 6:-1 7:0 8:1 9:-1 10:0 11:0 12:0 13:1 14:1 15:0 16:1 17:1 18:0.45643546 19:0.084525086 20:0.42857143 21:0 
8 1:1 2:0 3:0.090909091 4:1 5:0 6:1 7:0 8:1 9:1 10:1 11:0 12:0.49019608 13:0 14:0 15:0 16:0 17:0 18:0.47140452 19:0.07856742 20:0.66666667 21:0 
1.864936664103359 1:1 2:0 3:0.090909091 4:1 5:0 6:1 7:0 8:1 9:1 10:1 11:0 12:0.68421053 13:1 14:1 15:1 16:1 17:0.68421053 18:0.72057669 19:0.17347217 20:0.8 21:0 
0.01991165999947537 1:1 2:0 3:0.090909091 4:1 5:0 6:1 7:0 8:1 9:1 10:1 11:0 12:0.68421053 13:1 14:1 15:1 16:1 17:0.68421053 18:0.72057669 19:0.17347217 20:0.8 21:0.83809524 
8 1:1 2:0 3:0.090909091 4:1 5:0 6:1 7:0 8:1 9:1 10:1 11:0 12:1 13:0 14:0 15:0 16:0 17:0 18:0.58925565 19:0.087297133 20:0.66666667 21:0 
8 1:1 2:0 3:-0.090909091 4:1 5:0 6:1 7:1 8:0 9:1 10:0 11:0 12:0 13:0 14:0 15:0 16:0 17:0 18:0.41931393 19:0.10094595 20:0.5 21:0 
8 1:1 2:0 3:-0.090909091 4:1 5:0 6:1 7:1 8:0 9:1 10:0 11:0 12:0 13:0 14:0 15:0 16:0 17:0 18:0.5 19:0.055555556 20:1 21:0 
8 1:1 2:0 3:0.090909091 4:1 5:0 6:1 7:1 8:0 9:1 10:1 11:0 12:0.7037037 13:0 14:0 15:0 16:0 17:0 18:0.5547002 19:0.13353894 20:0.66666667 21:0 
4.341580563058594 1:1 2:0 3:-0.096774194 4:0 5:0 6:0 7:0 8:0 9:0 10:0 11:0 12:0 13:1 14:1 15:1 16:1 17:0.75609756 18:0.51031036 19:0.075601535 20:1 21:0 
4.97365645252226 1:1 2:0 3:-0.096774194 4:1 5:0 6:1 7:1 8:0 9:1 10:1 11:0 12:0.043478261 13:0 14:-1 15:0 16:-1 17:0 18:0.50128041 19:0.12067862 20:0.33333333 21:0 
6.748554478535723 1:1 2:0 3:-0.096774194 4:1 5:0 6:1 7:1 8:0 9:1 10:1 11:0 12:0.043478261 13:0 14:-1 15:0 16:-1 17:0 18:0.50128041 19:0.12067862 20:0.33333333 21:-0.23298611 
8 1:1 2:0 3:0.10344828 4:1 5:0 6:1 7:0 8:1 9:1 10:1 11:0 12:0.57575758 13:0 14:0 15:0 16:0 17:0 18:0.58925565 19:0.098209275 20:0.66666667 21:0 
8 1:1 2:0 3:0.10344828 4:1 5:0 6:1 7:0 8:1 9:1 10:1 11:0 12:1 13:0 14:0 15:0 16:0 17:0 18:0.58925565 19:0.098209275 20:0.66666667 21:0 
8 1:1 2:0 3:-0.11111111 4:0 5:0 6:0 7:0 8:0 9:0 10:0 11:0 12:0 13:0 14:0 15:0 16:0 17:0 18:0.2 19:0.018518519 20:1 21:0 
8 1:1 2:0 3:0.11111111 4:0 5:0 6:0 7:0 8:0 9:0 10:0 11:0 12:0 13:0 14:0 15:0 16:0 17:0 18:0.4 19:0.037037037 20:0.16666667 21:0 
8 1:1 2:0 3:0.11111111 4:0 5:1 6:-1 7:0 8:1 9:-1 10:0 11:0 12:0 13:1 14:1 15:0 16:1 17:0.39534884 18:0.52704628 19:0.097601162 20:0.42857143 21:0 
0.9359728059075242 1:1 2:0 3:-0.11111111 4:1 5:0 6:1 7:1 8:0 9:1 10:0 11:0 12:0 13:1 14:1 15:1 16:1 17:0 18:0.5547002 19:0.092450033 20:0.66666667 21:0 
0.3302396857980117 1:1 2:0 3:-0.11111111 4:1 5:0 6:1 7:1 8:0 9:1 10:0 11:0 12:0 13:1 14:1 15:1 16:1 17:0 18:0.5547002 19:0.092450033 20:0.66666667 21:0.84747475 
0.1933775270971927 1:1 2:0 3:-0.12195122 4:1 5:0 6:1 7:1 8:0 9:1 10:0 11:0 12:0 13:1 14:1 15:1 16:1 17:0.71428571 18:0.62279916 19:0.12686649 20:0.75 21:0.80833333 
8 1:1 2:0 3:-0.12195122 4:1 5:0 6:1 7:1 8:0 9:1 10:1 11:0 12:0.85365854 13:0 14:0 15:0 16:0 17:0 18:0.60302269 19:0.10050378 20:0.66666667 21:0 
8 1:1 2:0 3:-0.125 4:0 5:0 6:0 7:0 8:0 9:0 10:0 11:0 12:0 13:0 14:0 15:0 16:0 17:0 18:0.3380617 19:0.031302009 20:1 21:0 
8 1:1 2:0 3:0.12820513 4:1 5:0 6:1 7:0 8:1 9:1 10:1 11:0 12:0.41935484 13:0 14:0 15:0 16:0 17:0 18:0.57207755 19:0.11653432 20:0.66666667 21:0 
8 1:1 2:0 3:-0.13043478 4:1 5:0 6:1 7:0 8:1 9:0.93333333 10:1 11:0 12:1 13:0 14:0 15:0 16:0 17:0 18:0.55555556 19:0.092592593 20:0.65555556 21:0 
1.544142484520587 1:1 2:0 3:-0.13043478 4:1 5:0 6:1 7:0 8:1 9:0.93333333 10:1 11:0 12:1 13:0 14:0 15:0 16:0 17:0 18:0.55555556 19:0.092592593 20:0.65555556 21:0.73555556 
8 1:1 2:0 3:0.13043478 4:1 5:0 6:1 7:0 8:1 9:1 10:0 11:1 12:0.41176471 13:0 14:0 15:0 16:0 17:0 18:0.43519414 19:0.088650658 20:0.5 21:0 
8 1:1 2:0 3:-0.13043478 4:1 5:0 6:1 7:1 8:0 9:1 10:0 11:0 12:0 13:0 14:0 15:0 16:0 17:0 18:0.35355339 19:0.03928371 20:1 21:0 
8 1:1 2:0 3:0.14285714 4:1 5:0 6:1 7:0 8:1 9:0.93333333 10:1 11:0 12:1 13:0 14:0 15:0 16:0 17:0 18:0.55555556 19:0.092592593 20:0.65555556 21:0 
8 1:1 2:0 3:-0.14285714 4:1 5:0 6:1 7:0 8:1 9:1 10:0 11:0 12:0 13:0 14:0 15:0 16:0 17:0 18:0.31622777 19:0.035136418 20:1 21:0 
8 1:1 2:0 3:0.14285714 4:1 5:0 6:1 7:0 8:1 9:1 10:0 11:0 12:0 13:0 14:0 15:0 16:0 17:0 18:0.33968311 19:0.081775564 20:0.5 21:0 
4.726212365877313 1:1 2:0 3:0.14285714 4:1 5:0 6:1 7:0 8:1 9:1 10:0 11:0 12:0 13:0 14:0 15:0 16:0 17:0 18:0.33968311 19:0.081775564 20:0.5 21:0.64285714 
8 1:1 2:0 3:0.14285714 4:1 5:0 6:1 7:1 8:0 9:1 10:0 11:0 12:0 13:0 14:0 15:0 16:0 17:0 18:0.45584231 19:0.059090669 20:1 21:0 
0.4445884639125653 1:1 2:0 3:0.14285714 4:1 5:0 6:1 7:1 8:0 9:1 10:0 11:0 12:0 13:1 14:1 15:0 16:1 17:1 18:0.60302269 19:0.12283796 20:0.75 21:0 
8 1:1 2:0 3:0.14285714 4:1 5:0 6:1 7:1 8:0 9:1 10:1 11:0 12:0.47368421 13:0 14:0 15:0 16:0 17:0 18:0.66666667 19:0.11111111 20:0.66666667 21:0 
0.1578456273304946 1:1 2:0 3:-0.14285714 4:1 5:0 6:1 7:1 8:0 9:1 10:1 11:0 12:1 13:1 14:1 15:1 16:1 17:0.5483871 18:0.5728919 19:0.13791842 20:0.55555556 21:0 
8 1:1 2:0 3:-0.15789474 4:1 5:0 6:1 7:0 8:1 9:1 10:1 11:0 12:1 13:0 14:0 15:0 16:0 17:0 18:0.51031036 19:0.1134023 20:0.66666667 21:0 
0.2341255390430391 1:1 2:0 3:-0.15789474 4:1 5:0 6:1 7:1 8:0 9:1 10:1 11:0 12:1 13:1 14:1 15:1 16:1 17:1 18:0.66666667 19:0.14814815 20:1 21:0 
8 1:1 2:0 3:0.16129032 4:0 5:0 6:0 7:0 8:0 9:0 10:0 11:0 12:0 13:0 14:0 15:0 16:0 17:0 18:0.29277002 19:0.03795167 20:0.16666667 21:0 
4.336498350484725 1:1 2:0 3:0.16666667 4:1 5:0 6:1 7:0 8:1 9:1 10:0 11:1 12:0.41176471 13:0 14:0 15:0 16:0 17:0 18:0.43519414 19:0.088650658 20:0.5 21:0 
0.4681842706557561 1:1 2:0 3:0.16666667 4:1 5:0 6:1 7:1 8:0 9:1 10:1 11:0 12:0.375 13:0 14:0 15:0 16:0 17:0 18:0.5 19:0.074074074 20:1 21:0 
0.7457090397115387 1:1 2:0 3:0.17073171 4:1 5:0 6:1 7:1 8:0 9:1 10:1 11:0 12:0.37931034 13:1 14:1 15:1 16:1 17:-0.36363636 18:0.39374962 19:0.31354136 20:0.55555556 21:0 
4.81525404732234 1:1 2:0 3:0.17647059 4:1 5:0 6:1 7:1 8:0 9:1 10:0 11:1 12:-0.17647059 13:1 14:1 15:1 16:1 17:-0.17647059 18:0.46666667 19:0.12962963 20:0.25 21:0 
0.5194485589136651 1:1 2:0 3:0.17647059 4:1 5:0 6:1 7:1 8:0 9:1 10:0 11:1 12:-0.17647059 13:1 14:1 15:1 16:1 17:-0.17647059 18:0.46666667 19:0.12962963 20:0.25 21:0.70061728 
8 1:1 2:0 3:0.18032787 4:1 5:0 6:1 7:0 8:1 9:1 10:1 11:0 12:0.46341463 13:0 14:0 15:0 16:0 17:0 18:0.63636364 19:0.12962963 20:0.66666667 21:0 
8 1:1 2:0 3:0.18518519 4:0 5:0 6:0 7:0 8:0 9:0 10:0 11:0 12:0 13:0 14:0 15:0 16:0 17:0 18:0.36514837 19:0.040572041 20:1 21:0 
3.454786801490147 1:1 2:0 3:0.18518519 4:1 5:0 6:1 7:1 8:0 9:1 10:1 11:0 12:0.77777778 13:0 14:0 15:0 16:0 17:0 18:0.5547002 19:0.13353894 20:0.66666667 21:0 
8 1:1 2:0 3:0.18918919 4:1 5:0 6:1 7:0 8:1 9:1 10:0 11:0 12:0 13:0 14:0 15:0 16:0 17:0 18:0.40824829 19:0.045360921 20:0.5 21:0 
8 1:1 2:0 3:0.18918919 4:1 5:0 6:1 7:0 8:1 9:1 10:1 11:0 12:0.49019608 13:0 14:0 15:0 16:0 17:0 18:0.43033148 19:0.071721914 20:0.66666667 21:0 
8 1:1 2:0 3:0.18918919 4:1 5:0 6:1 7:1 8:0 9:1 10:0 11:0 12:0 13:0 14:0 15:0 16:0 17:0 18:0.60302269 19:0.12283796 20:0.5 21:0 
8 1:1 2:0 3:0.19148936 4:1 5:0 6:1 7:1 8:0 9:1 10:1 11:0 12:1 13:0 14:0 15:0 16:0 17:0 18:0.37670529 19:0.076736262 20:0.66666667 21:0 
8 1:1 2:0 3:0.21212121 4:1 5:0 6:1 7:1 8:0 9:1 10:1 11:0 12:0.68421053 13:0 14:0 15:0 16:0 17:0 18:0.50174521 19:0.12079051 20:0.66666667 21:0 
1.477972274268185 1:1 2:0 3:0.21428571 4:1 5:0 6:1 7:0 8:1 9:1 10:1 11:0 12:0.090909091 13:0 14:0 15:0 16:0 17:0 18:0.52981294 19:0.11773621 20:1 21:0 
8 1:1 2:0 3:0.2173913 4:0 5:0 6:0 7:0 8:0 9:0 10:0 11:0 12:0 13:0 14:0 15:0 16:0 17:0 18:0.14322297 19:0.10343882 20:0.16666667 21:0 
8 1:1 2:0 3:0.2173913 4:0 5:0 6:0 7:0 8:0 9:0 10:0 11:0 12:0 13:0 14:0 15:0 16:0 17:0 18:0.3380617 19:0.043822813 20:0.16666667 21:0 
8 1:1 2:0 3:0.2173913 4:1 5:0 6:1 7:0 8:1 9:0.53333333 10:1 11:0 12:0.41176471 13:1 14:1 15:0 16:1 17:0.18518519 18:0.64051262 19:0.15419748 20:0.75333333 21:0 
1.484990057269854 1:1 2:0 3:0.2173913 4:1 5:0 6:1 7:0 8:1 9:0.53333333 10:1 11:0 12:0.41176471 13:1 14:1 15:0 16:1 17:0.18518519 18:0.64051262 19:0.15419748 20:0.75333333 21:0.58444444 
8 1:1 2:0 3:0.22222222 4:1 5:0 6:1 7:0 8:1 9:0.93333333 10:1 11:0 12:0.87755102 13:0 14:0 15:0 16:0 17:0 18:0.54545455 19:0.11111111 20:0.65555556 21:0 
8 1:1 2:0 3:0.22222222 4:1 5:0 6:1 7:0 8:1 9:0.93333333 10:1 11:0 12:1 13:0 14:0 15:0 16:0 17:0 18:0.41812101 19:0.10065876 20:0.65555556 21:0 
0.1325113791300011 1:1 2:0 3:0.22222222 4:1 5:0 6:1 7:1 8:0 9:1 10:0 11:1 12:0.80952381 13:1 14:1 15:1 16:1 17:0.80952381 18:0.46153846 19:0.11111111 20:0.25 21:0.73555556 
8 1:1 2:0 3:0.23636364 4:1 5:0 6:1 7:1 8:0 9:1 10:0 11:0 12:0 13:0 14:0 15:0 16:0 17:0 18:0.51724138 19:0.27777778 20:0.33333333 21:0.38888889 
8 1:1 2:0 3:-0.23809524 4:1 5:0 6:1 7:1 8:0 9:1 10:0 11:0 12:0 13:0 14:0 15:0 16:0 17:0 18:0.41931393 19:0.05435551 20:1 21:0 
8 1:1 2:0 3:-0.2 4:0 5:0 6:0 7:0 8:0 9:0 10:0 11:0 12:0 13:0 14:0 15:0 16:0 17:0 18:0.28284271 19:0.02618914 20:1 21:0 
8 1:1 2:0 3:-0.2 4:0 5:0 6:0 7:0 8:0 9:0 10:0 11:0 12:0 13:0 14:0 15:0 16:0 17:0 18:0.31622777 19:0.029280349 20:1 21:0 
8 1:1 2:0 3:-0.2 4:0 5:0 6:0 7:0 8:0 9:0 10:0 11:0 12:0 13:0 14:0 15:0 16:0 17:0 18:0.3380617 19:0.031302009 20:1 21:0 
8 1:1 2:0 3:0.24137931 4:1 5:0 6:1 7:1 8:0 9:1 10:1 11:0 12:0.21212121 13:0 14:0 15:0 16:0 17:0 18:0.51031036 19:0.1134023 20:0.66666667 21:0 
8 1:1 2:0 3:-0.2 4:1 5:0 6:1 7:1 8:0 9:1 10:1 11:0 12:0.14285714 13:0 14:0 15:0 16:0 17:0 18:0.66666667 19:0.11111111 20:0.66666667 21:0 
8 1:1 2:0 3:0.2 4:1 5:0 6:1 7:1 8:0 9:1 10:1 11:0 12:1 13:0 14:0 15:0 16:0 17:0 18:0.50251891 19:0.083753151 20:0.66666667 21:0 
8 1:1 2:0 3:0.2 4:1 5:0 6:1 7:1 8:0 9:1 10:1 11:0 12:1 13:0 14:0 15:0 16:0 17:0 18:0.51639778 19:0.086066297 20:0.66666667 21:0 
8 1:1 2:0 3:-0.24324324 4:0 5:1 6:-1 7:0 8:1 9:-1 10:0 11:0 12:0 13:0 14:0 15:0 16:0 17:0 18:0.22645541 19:0.025161712 20:-0.33333333 21:0 
8 1:1 2:0 3:0.25714286 4:1 5:0 6:1 7:0 8:1 9:-0.8 10:1 11:0 12:0.9 13:0 14:0 15:0 16:0 17:0 18:0.55555556 19:0.092592593 20:0.36666667 21:0 
1.360921836263098 1:1 2:0 3:0.25714286 4:1 5:0 6:1 7:0 8:1 9:-0.8 10:1 11:0 12:0.9 13:0 14:0 15:0 16:0 17:0 18:0.55555556 19:0.092592593 20:0.36666667 21:0.71717172 
4.667609487118312 1:1 2:0 3:0.26315789 4:1 5:0 6:1 7:1 8:0 9:1 10:1 11:0 12:1 13:1 14:1 15:1 16:1 17:1 18:0.8 19:0.22222222 20:0.8 21:0 
8 1:1 2:0 3:-0.27272727 4:1 5:0 6:1 7:1 8:0 9:1 10:1 11:0 12:1 13:0 14:0 15:0 16:0 17:0 18:0.50174521 19:0.12079051 20:0.66666667 21:0 
8 1:1 2:0 3:0.28 4:0 5:0 6:0 7:0 8:0 9:0 10:0 11:0 12:0 13:0 14:0 15:0 16:0 17:0 18:0.4 19:0.037037037 20:0.16666667 21:0 
8 1:1 2:0 3:-0.28571429 4:0 5:0 6:0 7:0 8:0 9:0 10:0 11:0 12:0 13:0 14:0 15:0 16:0 17:0 18:0.18257419 19:0.020286021 20:0.16666667 21:0 
8 1:1 2:0 3:0.28571429 4:0 5:1 6:-1 7:0 8:1 9:-1 10:0 11:0 12:0 13:1 14:1 15:0 16:1 17:0.46341463 18:0.5 19:0.092592593 20:0.25 21:0 
8 1:1 2:0 3:0.2972973 4:0 5:0 6:0 7:0 8:0 9:0 10:0 11:0 12:0 13:0 14:-1 15:0 16:-1 17:0 18:0.3086067 19:0.034289633 20:-0.5 21:0 
5.890664332570885 1:1 2:0 3:0.30232558 4:1 5:0 6:1 7:1 8:0 9:1 10:1 11:0 12:0.25714286 13:0 14:0 15:0 16:0 17:0 18:0.64465837 19:0.1313193 20:0.66666667 21:0 
8 1:1 2:0 3:0.30434783 4:1 5:0 6:1 7:0 8:1 9:1 10:1 11:0 12:1 13:0 14:0 15:0 16:0 17:0 18:0.42874646 19:0.063517994 20:0.66666667 21:0 
1.121965442739018 1:1 2:0 3:0.30434783 4:1 5:0 6:1 7:0 8:1 9:1 10:1 11:0 12:1 13:0 14:0 15:0 16:0 17:0 18:0.42874646 19:0.063517994 20:0.66666667 21:0.8010101 
8 1:1 2:0 3:0.30909091 4:1 5:0 6:1 7:1 8:0 9:1 10:0 11:1 12:0.11627907 13:0 14:0 15:0 16:0 17:0 18:0.35805744 19:0.086199013 20:0.16666667 21:0 
1.211484080967529 1:1 2:0 3:0.3125 4:1 5:0 6:1 7:0 8:1 9:-1 10:1 11:0 12:1 13:1 14:1 15:1 16:1 17:0 18:0.58834841 19:0.19611614 20:0.5 21:0 
8 1:1 2:0 3:0.33333333 4:0 5:0 6:0 7:0 8:0 9:0 10:0 11:0 12:0 13:0 14:0 15:0 16:0 17:0 18:0.065232807 19:0.0060400748 20:0 21:0 
8 1:1 2:0 3:0.33333333 4:0 5:0 6:0 7:0 8:0 9:0 10:0 11:0 12:0 13:0 14:0 15:0 16:0 17:0 18:0.28284271 19:0.02618914 20:0 21:0 
8 1:1 2:0 3:0.33333333 4:1 5:0 6:1 7:0 8:1 9:0.4 10:0 11:0 12:0 13:0 14:0 15:0 16:0 17:0 18:0.48112522 19:0.10691672 20:0.35 21:0 
8 1:1 2:0 3:0.33333333 4:1 5:0 6:1 7:0 8:1 9:1 10:1 11:0 12:1 13:0 14:0 15:0 16:0 17:0 18:0.58925565 19:0.098209275 20:1 21:0 
8 1:1 2:0 3:0.33333333 4:1 5:0 6:1 7:1 8:0 9:1 10:0 11:0 12:0 13:0 14:0 15:0 16:0 17:0 18:0.2773501 19:0.046225016 20:0.5 21:0 
8 1:1 2:0 3:0.33333333 4:1 5:0 6:1 7:1 8:0 9:1 10:0 11:0 12:0 13:0 14:0 15:0 16:0 17:0 18:0.625 19:0.092592593 20:0.5 21:0 
8 1:1 2:0 3:-0.33333333 4:1 5:0 6:1 7:1 8:0 9:1 10:1 11:0 12:0.27272727 13:0 14:0 15:0 16:0 17:0 18:0.60302269 19:0.10050378 20:0.66666667 21:0 
8 1:1 2:0 3:0.33333333 4:1 5:0 6:1 7:1 8:0 9:1 10:1 11:0 12:0.47368421 13:0 14:0 15:0 16:0 17:0 18:0.51639778 19:0.14344383 20:0.66666667 21:0 
8 1:1 2:0 3:0.33333333 4:1 5:0 6:1 7:1 8:0 9:1 10:1 11:0 12:0.78723404 13:0 14:0 15:0 16:0 17:0 18:0.3146266 19:0.087396278 20:0.66666667 21:0 
0.8818802947246011 1:1 2:0 3:0.33333333 4:1 5:0 6:1 7:1 8:0 9:1 10:1 11:0 12:0.91304348 13:1 14:1 15:0 16:-1 17:0.91304348 18:0.83333333 19:0.37037037 20:0.77777778 21:0.59259259 
8 1:1 2:0 3:0.33333333 4:1 5:0 6:1 7:1 8:0 9:1 10:1 11:0 12:1 13:0 14:0 15:0 16:0 17:0 18:0.43033148 19:0.071721914 20:0.66666667 21:0 
8 1:1 2:0 3:-0.3 4:0 5:0 6:0 7:0 8:0 9:0 10:0 11:0 12:0 13:0 14:0 15:0 16:0 17:0 18:0.24806947 19:0.059720428 20:0 21:0 
8 1:1 2:0 3:-0.34883721 4:1 5:0 6:1 7:1 8:0 9:1 10:1 11:0 12:0.9 13:0 14:0 15:0 16:0 17:0 18:0.47140452 19:0.07856742 20:0.66666667 21:0 
8 1:1 2:0 3:0.36170213 4:0 5:1 6:-1 7:0 8:1 9:-1 10:0 11:1 12:0.16666667 13:0 14:0 15:0 16:0 17:0 18:0.18257419 19:0.050715052 20:-0.6 21:0 
2.775065528677636 1:1 2:0 3:0.36363636 4:1 5:0 6:1 7:0 8:1 9:0.86666667 10:1 11:0 12:0.52 13:0 14:0 15:0 16:0 17:0 18:0.70684542 19:0.43196109 20:0.64444444 21:0.53968254 
8 1:1 2:0 3:0.36363636 4:1 5:0 6:1 7:0 8:1 9:1 10:1 11:0 12:1 13:0 14:0 15:0 16:0 17:0 18:0.53687549 19:0.099421387 20:1 21:0 
1.626367075550813 1:1 2:0 3:0.36585366 4:1 5:0 6:1 7:0 8:1 9:1 10:0 11:0 12:0 13:1 14:1 15:1 16:1 17:0.6969697 18:0.56044854 19:0.1349228 20:0.75 21:0 
0.5774517028152572 1:1 2:0 3:0.36585366 4:1 5:0 6:1 7:0 8:1 9:1 10:0 11:0 12:0 13:1 14:1 15:1 16:1 17:0.6969697 18:0.56044854 19:0.1349228 20:0.75 21:0.97154882 
7.474232880461707 1:1 2:0 3:0.36842105 4:1 5:0 6:1 7:1 8:0 9:1 10:1 11:0 12:1 13:0 14:0 15:0 16:0 17:0 18:0.51639778 19:0.086066297 20:0.66666667 21:0 
1.198141010991626 1:1 2:0 3:0.37142857 4:1 5:0 6:1 7:0 8:1 9:0.66666667 10:0 11:1 12:-0.22807018 13:0 14:0 15:0 16:0 17:0 18:0.57914794 19:0.39682359 20:0.11111111 21:0.73737374 
0.4231736606352774 1:1 2:0 3:0.37142857 4:1 5:0 6:1 7:0 8:1 9:-1 10:1 11:0 12:0.62711864 13:1 14:1 15:1 16:1 17:1 18:0.64450339 19:0.17902872 20:0.6 21:0 
8 1:1 2:0 3:0.375 4:1 5:0 6:1 7:0 8:1 9:1 10:1 11:0 12:0.5483871 13:0 14:0 15:0 16:0 17:0 18:0.66742381 19:0.123597 20:0.66666667 21:0 
8 1:1 2:0 3:0.375 4:1 5:0 6:1 7:1 8:0 9:1 10:0 11:0 12:0 13:0 14:0 15:0 16:0 17:0 18:0.55901699 19:0.082817332 20:1 21:0 
8 1:1 2:0 3:0.375 4:1 5:0 6:1 7:1 8:0 9:1 10:1 11:0 12:0.2 13:0 14:0 15:0 16:0 17:0 18:0.50251891 19:0.083753151 20:0.66666667 21:0 
8 1:1 2:0 3:0.375 4:1 5:0 6:1 7:1 8:0 9:1 10:1 11:0 12:1 13:0 14:0 15:0 16:0 17:0 18:0.39223227 19:0.065372045 20:0.66666667 21:0 
8 1:1 2:0 3:0.3877551 4:1 5:0 6:1 7:0 8:1 9:1 10:1 11:0 12:0.25 13:0 14:0 15:0 16:0 17:0 18:0.57154761 19:0.10584215 20:0.66666667 21:0 
8 1:1 2:0 3:0.3877551 4:1 5:0 6:1 7:0 8:1 9:1 10:1 11:0 12:1 13:0 14:0 15:0 16:0 17:0 18:0.57154761 19:0.15876322 20:0.66666667 21:0 
6.407204943635387 1:1 2:0 3:0.3877551 4:1 5:0 6:1 7:1 8:0 9:1 10:1 11:0 12:0.45454545 13:0 14:0 15:0 16:0 17:0 18:0.37099112 19:0.21297638 20:0.66666667 21:0 
1.271017531225427 1:1 2:0 3:0.39130435 4:1 5:0 6:1 7:1 8:0 9:1 10:0 11:1 12:0.25714286 13:0 14:0 15:0 16:0 17:0 18:0.44444444 19:0.074074074 20:0.5 21:0 
8 1:1 2:0 3:0.39534884 4:1 5:0 6:1 7:1 8:0 9:1 10:0 11:0 12:0 13:0 14:0 15:0 16:0 17:0 18:0.60302269 19:0.12283796 20:0.5 21:0 
4.714739106219454 1:1 2:0 3:-0.40740741 4:1 5:0 6:1 7:1 8:0 9:1 10:1 11:0 12:1 13:0 14:0 15:0 16:0 17:0 18:0.5547002 19:0.13353894 20:0.66666667 21:0 
8 1:1 2:0 3:0.41176471 4:0 5:0 6:0 7:0 8:0 9:0 10:0 11:0 12:0 13:0 14:0 15:0 16:0 17:0 18:0.23904572 19:0.022133863 20:0 21:0 
8 1:1 2:0 3:0.41176471 4:1 5:0 6:1 7:1 8:0 9:1 10:0 11:0 12:0 13:0 14:0 15:0 16:0 17:0 18:0.58925565 19:0.087297133 20:0.5 21:0 
8 1:1 2:0 3:0.41666667 4:1 5:0 6:1 7:1 8:0 9:1 10:0 11:1 12:-0.047619048 13:0 14:-1 15:0 16:-1 17:-0.25925926 18:0.37573457 19:0.10437072 20:-0.25 21:0 
3.181513058992884 1:1 2:0 3:0.41666667 4:1 5:0 6:1 7:1 8:0 9:1 10:0 11:1 12:-0.26315789 13:0 14:0 15:0 16:0 17:0 18:0.68560344 19:0.40628352 20:0.16666667 21:0.38888889 
0.2974006201350795 1:1 2:0 3:0.41935484 4:1 5:0 6:1 7:1 8:0 9:1 10:1 11:0 12:1 13:1 14:1 15:1 16:1 17:1 18:0.82352941 19:0.25925926 20:0.8 21:0 
8 1:1 2:0 3:0.42222222 4:1 5:0 6:1 7:0 8:1 9:0.6 10:0 11:0 12:0 13:0 14:0 15:0 16:0 17:0 18:0.40201513 19:0.08189197 20:0.4 21:0 
0.4732968233234596 1:1 2:0 3:0.42222222 4:1 5:0 6:1 7:0 8:1 9:0.6 10:0 11:0 12:0 13:0 14:0 15:0 16:0 17:0 18:0.40201513 19:0.08189197 20:0.4 21:0.68333333 
8 1:1 2:0 3:0.42857143 4:0 5:1 6:-1 7:0 8:1 9:-1 10:0 11:0 12:0 13:0 14:0 15:0 16:0 17:0 18:0.33333333 19:0.037037037 20:-0.33333333 21:0 
0.1180225867771593 1:1 2:0 3:0.43396226 4:1 5:0 6:1 7:1 8:0 9:1 10:0 11:1 12:-0.35135135 13:1 14:1 15:1 16:1 17:1 18:0.68599434 19:0.21596118 20:0.75 21:0 
8 1:1 2:0 3:0.43589744 4:0 5:1 6:-1 7:0 8:1 9:-1 10:1 11:0 12:0.43589744 13:0 14:0 15:0 16:0 17:0 18:0.31139958 19:0.063433247 20:0 21:0 
8 1:1 2:0 3:0.43589744 4:0 5:1 6:-1 7:0 8:1 9:-1 10:1 11:0 12:0.43589744 13:0 14:0 15:0 16:0 17:0 18:0.31139958 19:0.063433247 20:0 21:0.64285714 
8 1:1 2:0 3:0.43589744 4:1 5:0 6:1 7:1 8:0 9:1 10:1 11:0 12:0.18518519 13:0 14:0 15:0 16:0 17:0 18:0.50174521 19:0.12079051 20:0.66666667 21:0 
8 1:1 2:0 3:0.44 4:1 5:0 6:1 7:0 8:1 9:0.33333333 10:1 11:0 12:0.058823529 13:0 14:0 15:0 16:0 17:0 18:0.54494926 19:0.15137479 20:0.55555556 21:0 
1.129194455778187 1:1 2:0 3:0.44 4:1 5:0 6:1 7:0 8:1 9:0.33333333 10:1 11:0 12:0.058823529 13:0 14:0 15:0 16:0 17:0 18:0.54494926 19:0.15137479 20:0.55555556 21:0.60161616 
8 1:1 2:0 3:0.44444444 4:1 5:0 6:1 7:1 8:0 9:1 10:0 11:0 12:0 13:0 14:0 15:0 16:0 17:0 18:0.66666667 19:0.11111111 20:1 21:0 
8 1:1 2:0 3:0.45454545 4:1 5:0 6:1 7:0 8:1 9:1 10:1 11:0 12:0.18918919 13:0 14:0 15:0 16:0 17:0 18:0.57154761 19:0.10584215 20:0.66666667 21:0 
8 1:1 2:0 3:0.46341463 4:1 5:0 6:1 7:1 8:0 9:1 10:1 11:0 12:0.18518519 13:0 14:0 15:0 16:0 17:0 18:0.50174521 19:0.12079051 20:0.66666667 21:0 
8 1:1 2:0 3:0.46666667 4:0 5:0 6:0 7:0 8:0 9:0 10:0 11:0 12:0 13:0 14:0 15:0 16:0 17:0 18:0.22645541 19:0.025161712 20:0 21:0 
8 1:1 2:0 3:0.47368421 4:0 5:1 6:-1 7:0 8:1 9:-1 10:0 11:0 12:0 13:0 14:0 15:0 16:0 17:0 18:0.23570226 19:0.02618914 20:-0.5 21:0 
8 1:1 2:0 3:0.47368421 4:1 5:0 6:1 7:0 8:1 9:1 10:0 11:0 12:0 13:0 14:0 15:0 16:0 17:0 18:0.2236068 19:0.0248452 20:0.33333333 21:0 
8 1:1 2:0 3:0.47368421 4:1 5:0 6:1 7:0 8:1 9:1 10:0 11:0 12:0 13:0 14:0 15:0 16:0 17:0 18:0.33968311 19:0.037742568 20:0.5 21:0 
0.3295295624463144 1:1 2:0 3:0.47826087 4:1 5:0 6:1 7:1 8:0 9:1 10:0 11:1 12:0.48837209 13:1 14:1 15:0 16:1 17:0.066666667 18:0.58338335 19:0.15124754 20:0.55555556 21:0 
8 1:1 2:0 3:0.47826087 4:1 5:0 6:1 7:1 8:0 9:1 10:1 11:0 12:0.41176471 13:0 14:0 15:0 16:0 17:0 18:0.32461723 19:0.090171452 20:0.66666667 21:0 
8 1:1 2:0 3:0.48571429 4:0 5:0 6:0 7:0 8:0 9:0 10:0 11:0 12:0 13:0 14:0 15:0 16:0 17:0 18:0.24806947 19:0.059720428 20:0 21:0 
7.314932941117954 1:1 2:0 3:0.48571429 4:1 5:0 6:1 7:0 8:1 9:1 10:1 11:0 12:1 13:0 14:0 15:0 16:0 17:0 18:0.57207755 19:0.11653432 20:1 21:0 
8 1:1 2:0 3:0.48571429 4:1 5:0 6:1 7:1 8:0 9:1 10:0 11:1 12:-0.17948718 13:0 14:0 15:0 16:0 17:0 18:0.46709937 19:0.095149871 20:0.5 21:0 
8 1:1 2:0 3:0.48837209 4:1 5:0 6:1 7:0 8:1 9:1 10:0 11:0 12:0 13:0 14:0 15:0 16:0 17:0 18:0.36927447 19:0.075222578 20:0.5 21:0 
8 1:1 2:0 3:0.51111111 4:1 5:0 6:1 7:0 8:1 9:-1 10:1 11:0 12:0.72727273 13:0 14:0 15:0 16:0 17:0 18:0.63636364 19:0.12962963 20:0.33333333 21:0 
8 1:1 2:0 3:0.51351351 4:1 5:0 6:1 7:1 8:0 9:1 10:0 11:0 12:0 13:0 14:0 15:0 16:0 17:0 18:0.60302269 19:0.12283796 20:1 21:0 
1.098054330018618 1:1 2:0 3:0.51351351 4:1 5:0 6:1 7:1 8:0 9:1 10:1 11:0 12:0.25 13:0 14:0 15:0 16:0 17:0 18:0.50174521 19:0.12079051 20:0.66666667 21:0 
8 1:1 2:0 3:0.51351351 4:1 5:0 6:1 7:1 8:0 9:1 10:1 11:0 12:0.39130435 13:0 14:0 15:0 16:0 17:0 18:0.60302269 19:0.10050378 20:0.66666667 21:0 
8 1:1 2:0 3:0.51724138 4:1 5:0 6:1 7:0 8:1 9:1 10:0 11:0 12:0 13:0 14:0 15:0 16:0 17:0 18:0.31622777 19:0.087841046 20:0.5 21:0 
8 1:1 2:0 3:0.51724138 4:1 5:0 6:1 7:0 8:1 9:1 10:0 11:1 12:-0.125 13:0 14:0 15:0 16:0 17:0 18:0.41812101 19:0.085172797 20:0.5 21:0 
2.533183793933629 1:1 2:0 3:0.51724138 4:1 5:0 6:1 7:0 8:1 9:1 10:0 11:1 12:-0.125 13:0 14:0 15:0 16:0 17:0 18:0.41812101 19:0.085172797 20:0.5 21:0.5 
8 1:1 2:0 3:0.52380952 4:0 5:0 6:0 7:0 8:0 9:0 10:0 11:0 12:0 13:0 14:0 15:0 16:0 17:0 18:0.33333333 19:0.037037037 20:0 21:0 
0.08177013837395181 1:1 2:0 3:0.5308642 4:1 5:0 6:1 7:1 8:0 9:1 10:1 11:0 12:1 13:1 14:1 15:0 16:1 17:1 18:0.76603235 19:0.25534412 20:0.8 21:0 
7.713308321104783 1:1 2:0 3:0.53846154 4:0 5:1 6:-1 7:0 8:1 9:-1 10:0 11:0 12:0 13:1 14:1 15:1 16:1 17:1 18:0.42857143 19:0.11111111 20:0.25 21:0 
8 1:1 2:0 3:0.53846154 4:1 5:0 6:1 7:1 8:0 9:1 10:0 11:0 12:0 13:0 14:0 15:0 16:0 17:0 18:0.60302269 19:0.10050378 20:0.5 21:0 
0.3491964430660517 1:1 2:0 3:0.5 4:1 5:0 6:1 7:1 8:0 9:1 10:1 11:0 12:0.37142857 13:1 14:1 15:1 16:1 17:1 18:0.44907312 19:0.12474253 20:1 21:0 
0.322027192091617 1:1 2:0 3:0.5 4:1 5:0 6:1 7:1 8:0 9:1 10:1 11:0 12:1 13:1 14:1 15:0 16:1 17:1 18:0.67082039 19:0.186339 20:0.8 21:0.98461538 
3.358958184148517 1:1 2:0 3:0.54385965 4:0 5:1 6:-1 7:0 8:1 9:-1 10:1 11:0 12:1 13:1 14:1 15:1 16:1 17:1 18:0.59299945 19:0.14275913 20:0.33333333 21:0 
8 1:1 2:0 3:0.54545455 4:0 5:0 6:0 7:0 8:0 9:0 10:0 11:0 12:0 13:0 14:0 15:0 16:0 17:0 18:0.43643578 19:0.056575009 20:0 21:0 
8 1:1 2:0 3:0.5483871 4:1 5:0 6:1 7:1 8:0 9:1 10:0 11:0 12:0 13:0 14:0 15:0 16:0 17:0 18:0.51639778 19:0.086066297 20:1 21:0 
8 1:1 2:0 3:0.55102041 4:1 5:0 6:1 7:0 8:1 9:1 10:0 11:0 12:0 13:0 14:0 15:0 16:0 17:0 18:0.31622777 19:0.087841046 20:0.5 21:0 
0.6100282454010318 1:1 2:0 3:0.55102041 4:1 5:0 6:1 7:0 8:1 9:1 10:0 11:0 12:0 13:0 14:0 15:0 16:0 17:0 18:0.31622777 19:0.087841046 20:0.5 21:0.79166667 
8 1:1 2:0 3:-0.55555556 4:0 5:0 6:0 7:0 8:0 9:0 10:0 11:0 12:0 13:0 14:0 15:0 16:0 17:0 18:0.13483997 19:0.012485183 20:1 21:0 
8 1:1 2:0 3:0.55555556 4:0 5:1 6:-1 7:0 8:1 9:-1 10:0 11:0 12:0 13:0 14:0 15:0 16:0 17:0 18:0.24618298 19:0.027353665 20:-0.5 21:0 
8 1:1 2:0 3:0.55555556 4:1 5:0 6:1 7:0 8:1 9:0.066666667 10:1 11:0 12:0.6 13:0 14:0 15:0 16:0 17:0 18:0.54494926 19:0.11100818 20:0.81333333 21:0 
8 1:1 2:0 3:0.55555556 4:1 5:0 6:1 7:1 8:0 9:1 10:0 11:0 12:0 13:0 14:0 15:0 16:0 17:0 18:0.60302269 19:0.10050378 20:1 21:0 
8 1:1 2:0 3:0.56521739 4:0 5:0 6:0 7:0 8:0 9:0 10:0 11:0 12:0 13:0 14:0 15:0 16:0 17:0 18:0.3380617 19:0.043822813 20:0 21:0 
1.325881197629913 1:1 2:0 3:0.57142857 4:1 5:0 6:1 7:1 8:0 9:1 10:1 11:0 12:0.26315789 13:0 14:0 15:0 16:0 17:0 18:0.5547002 19:0.092450033 20:0.66666667 21:0 
8 1:1 2:0 3:0.57377049 4:0 5:1 6:-1 7:0 8:1 9:-1 10:0 11:0 12:0 13:0 14:0 15:0 16:0 17:0 18:0.32659863 19:0.090721842 20:-0.5 21:0 
8 1:1 2:0 3:0.57575758 4:1 5:0 6:1 7:0 8:1 9:1 10:1 11:0 12:0.6969697 13:0 14:0 15:0 16:0 17:0 18:0.45643546 19:0.12678763 20:0.66666667 21:0 
8 1:1 2:0 3:0.57894737 4:1 5:0 6:1 7:0 8:1 9:1 10:1 11:0 12:1 13:0 14:0 15:0 16:0 17:0 18:0.66742381 19:0.1359567 20:0.66666667 21:0 
3.632661578416281 1:1 2:0 3:0.58139535 4:1 5:0 6:1 7:0 8:1 9:1 10:1 11:0 12:0.13207547 13:0 14:0 15:0 16:0 17:0 18:0.66742381 19:0.1359567 20:1 21:0 
8 1:1 2:0 3:0.58139535 4:1 5:0 6:1 7:0 8:1 9:-1 10:1 11:0 12:1 13:0 14:0 15:0 16:0 17:0 18:0.63636364 19:0.12962963 20:0.6 21:0 
4.812081274967396 1:1 2:0 3:0.58139535 4:1 5:0 6:1 7:0 8:1 9:-1 10:1 11:0 12:1 13:0 14:0 15:0 16:0 17:0 18:0.63636364 19:0.12962963 20:0.6 21:0.53333333 
1.402921513165619 1:1 2:0 3:0.58490566 4:1 5:0 6:1 7:1 8:0 9:1 10:1 11:0 12:1 13:0 14:-1 15:0 16:-1 17:1 18:0.81933658 19:0.63726178 20:0.33333333 21:0.4 
8 1:1 2:0 3:0.5862069 4:1 5:0 6:1 7:0 8:1 9:1 10:0 11:0 12:0 13:0 14:0 15:0 16:0 17:0 18:0.43033148 19:0.11953652 20:0.5 21:0 
8 1:1 2:0 3:0.6119403 4:0 5:1 6:-1 7:0 8:1 9:-1 10:0 11:0 12:0 13:1 14:1 15:0 16:1 17:1 18:0.56044854 19:0.12454412 20:0.25 21:0 
8 1:1 2:0 3:0.61290323 4:1 5:0 6:1 7:0 8:1 9:1 10:1 11:0 12:1 13:0 14:0 15:0 16:0 17:0 18:0.61394061 19:0.14780052 20:0.66666667 21:0 
0.6960569178704107 1:1 2:0 3:0.61702128 4:1 5:0 6:1 7:0 8:1 9:0 10:1 11:0 12:1 13:1 14:1 15:1 16:1 17:0.58139535 18:0.6 19:0.16666667 20:0.625 21:0 
0.01854160529380649 1:1 2:0 3:0.61702128 4:1 5:0 6:1 7:0 8:1 9:0.93333333 10:1 11:0 12:0.95348837 13:1 14:1 15:1 16:1 17:1 18:0.91111111 19:0.75925926 20:0.79333333 21:0.63222222 
8 1:1 2:0 3:0.63636364 4:0 5:0 6:0 7:0 8:0 9:0 10:0 11:0 12:0 13:0 14:-1 15:0 16:-1 17:0.032258065 18:0.28603878 19:0.058267158 20:-0.2 21:0 
8 1:1 2:0 3:0.6 4:0 5:0 6:0 7:0 8:0 9:0 10:0 11:0 12:0 13:0 14:0 15:0 16:0 17:0 18:0.14142136 19:0.01309457 20:0 21:0 
0.1815562654144416 1:1 2:0 3:-0.6 4:0 5:0 6:0 7:0 8:0 9:0 10:0 11:0 12:0 13:1 14:1 15:1 16:1 17:1 18:0.47140452 19:0.069837707 20:1 21:0 
8 1:1 2:0 3:0.6 4:0 5:1 6:-1 7:0 8:1 9:-1 10:0 11:0 12:0 13:0 14:0 15:0 16:0 17:0 18:0.077151675 19:0.0085724083 20:-0.33333333 21:0 
8 1:1 2:0 3:0.64102564 4:0 5:0 6:0 7:0 8:0 9:0 10:0 11:0 12:0 13:0 14:0 15:0 16:0 17:0 18:0.31622777 19:0.029280349 20:0 21:0 
8 1:1 2:0 3:0.6 4:1 5:0 6:1 7:0 8:1 9:1 10:0 11:0 12:0 13:0 14:0 15:0 16:0 17:0 18:0.45643546 19:0.067620069 20:1 21:0 
8 1:1 2:0 3:0.6 4:1 5:0 6:1 7:0 8:1 9:1 10:1 11:0 12:0.46341463 13:0 14:0 15:0 16:0 17:0 18:0.48989795 19:0.13608276 20:0.66666667 21:0 
8 1:1 2:0 3:0.6 4:1 5:0 6:1 7:1 8:0 9:1 10:0 11:0 12:0 13:0 14:0 15:0 16:0 17:0 18:0.51639778 19:0.086066297 20:0.5 21:0 
0.3024151367755019 1:1 2:0 3:0.6 4:1 5:0 6:1 7:1 8:0 9:1 10:0 11:0 12:0 13:0 14:0 15:0 16:0 17:0 18:0.51639778 19:0.086066297 20:0.5 21:0.83333333 
2.065361866648568 1:1 2:0 3:0.6 4:1 5:0 6:1 7:1 8:0 9:1 10:0 11:0 12:0 13:1 14:1 15:0 16:1 17:0.066666667 18:0.63245553 19:0.11712139 20:0.75 21:0 
8 1:1 2:0 3:0.6 4:1 5:0 6:1 7:1 8:0 9:1 10:0 11:1 12:-0.047619048 13:0 14:0 15:0 16:0 17:0.23809524 18:0.35634832 19:0.092386602 20:0.33333333 21:0 
0.4931506713158633 1:1 2:0 3:0.6 4:1 5:0 6:1 7:1 8:0 9:1 10:0 11:1 12:0.9 13:1 14:1 15:1 16:1 17:0.9 18:0.72175497 19:0.46780415 20:0.25 21:0.66111111 
8 1:1 2:0 3:0.64705882 4:0 5:0 6:0 7:0 8:0 9:0 10:0 11:0 12:0 13:0 14:0 15:0 16:0 17:0 18:0.1490712 19:0.013802889 20:0 21:0 
2.888376320014931 1:1 2:0 3:0.64705882 4:1 5:0 6:1 7:1 8:0 9:1 10:0 11:1 12:-0.2 13:1 14:1 15:0 16:-1 17:-0.23076923 18:0.46666667 19:0.12962963 20:0.14285714 21:0 
8 1:1 2:0 3:0.65079365 4:1 5:0 6:1 7:1 8:0 9:1 10:0 11:1 12:-0.04 13:0 14:0 15:0 16:0 17:0 18:0.50174521 19:0.10220736 20:0.2 21:0 
8 1:1 2:0 3:0.65517241 4:1 5:0 6:1 7:0 8:1 9:1 10:1 11:0 12:1 13:0 14:0 15:0 16:0 17:0 18:0.43519414 19:0.088650658 20:0.66666667 21:0 
0.749206136298206 1:1 2:0 3:0.65517241 4:1 5:0 6:1 7:0 8:1 9:1 10:1 11:0 12:1 13:0 14:0 15:0 16:0 17:0 18:0.43519414 19:0.088650658 20:0.66666667 21:0.66666667 
8 1:1 2:0 3:0.66666667 4:0 5:0 6:0 7:0 8:0 9:0 10:0 11:0 12:0 13:0 14:0 15:0 16:0 17:0 18:0.31622777 19:0.046848558 20:1 21:0 
8 1:1 2:0 3:0.6744186 4:0 5:0 6:0 7:0 8:0 9:0 10:0 11:0 12:0 13:0 14:0 15:0 16:0 17:0 18:0.23904572 19:0.022133863 20:0 21:0 
0.9301044957071364 1:1 2:0 3:0.6744186 4:1 5:0 6:1 7:0 8:1 9:-1 10:1 11:0 12:0.86666667 13:0 14:0 15:0 16:0 17:0 18:0.62995969 19:0.36164353 20:0.33333333 21:0.73611111 
8 1:1 2:0 3:0.68888889 4:1 5:0 6:1 7:0 8:1 9:1 10:1 11:0 12:1 13:0 14:0 15:0 16:0 17:0 18:0.45643546 19:0.12678763 20:0.66666667 21:0 
0.00904557514862761 1:1 2:0 3:0.68888889 4:1 5:0 6:1 7:1 8:0 9:1 10:1 11:0 12:1 13:1 14:1 15:0 16:0.53333333 17:1 18:0.80873608 19:0.55413398 20:0.75333333 21:0.87333333 
4.31688989484677 1:1 2:0 3:0.69230769 4:0 5:0 6:0 7:0 8:0 9:0 10:0 11:0 12:0 13:1 14:1 15:1 16:1 17:0.72972973 18:0.55555556 19:0.092592593 20:0.66666667 21:0 
8 1:1 2:0 3:0.69491525 4:1 5:0 6:1 7:0 8:1 9:-1 10:0 11:0 12:0 13:0 14:0 15:0 16:0 17:0 18:0.35533453 19:0.059222421 20:0 21:0 
8 1:1 2:0 3:0.71428571 4:0 5:0 6:0 7:0 8:0 9:0 10:0 11:0 12:0 13:0 14:0 15:0 16:0 17:0 18:0.36514837 19:0.033810034 20:1 21:0 
1.74792560865971 1:1 2:0 3:0.71428571 4:0 5:0 6:0 7:0 8:0 9:0 10:0 11:0 12:0 13:1 14:1 15:0 16:1 17:1 18:0.55555556 19:0.092592593 20:1 21:0 
8 1:1 2:0 3:0.71428571 4:0 5:1 6:-1 7:0 8:1 9:-1 10:0 11:0 12:0 13:0 14:0 15:0 16:0 17:0 18:0.24618298 19:0.050148385 20:-0.5 21:0 
8 1:1 2:0 3:0.71428571 4:1 5:0 6:1 7:0 8:1 9:1 10:1 11:0 12:0.46341463 13:0 14:0 15:0 16:0 17:0 18:0.57154761 19:0.15876322 20:0.66666667 21:0 
8 1:1 2:0 3:0.71428571 4:1 5:0 6:1 7:1 8:0 9:1 10:0 11:0 12:0 13:0 14:0 15:0 16:0 17:0 18:0.375 19:0.055555556 20:0.5 21:0 
7.87070582422198 1:1 2:0 3:0.71428571 4:1 5:0 6:1 7:1 8:0 9:1 10:0 11:1 12:-0.015384615 13:0 14:0 15:0 16:0 17:0 18:0.46709937 19:0.095149871 20:0.5 21:0 
8 1:1 2:0 3:0.71428571 4:1 5:0 6:1 7:1 8:0 9:1 10:1 11:0 12:1 13:0 14:-1 15:0 16:-1 17:0 18:0.52623481 19:0.097450891 20:0.25 21:0 
0.260709649973708 1:1 2:0 3:0.71428571 4:1 5:0 6:1 7:1 8:0 9:1 10:1 11:0 12:1 13:1 14:1 15:1 16:1 17:1 18:0.75 19:0.16666667 20:1 21:0 
8 1:1 2:0 3:0.72972973 4:0 5:0 6:0 7:0 8:0 9:0 10:0 11:0 12:0 13:0 14:0 15:0 16:0 17:0 18:0.3086067 19:0.040004572 20:0 21:0 
8 1:1 2:0 3:0.73913043 4:0 5:0 6:0 7:0 8:0 9:0 10:0 11:0 12:0 13:0 14:0 15:0 16:0 17:0 18:0.36514837 19:0.040572041 20:1 21:0 
8 1:1 2:0 3:0.73913043 4:0 5:1 6:-1 7:0 8:1 9:-1 10:0 11:0 12:0 13:0 14:0 15:0 16:0 17:0 18:0.070014004 19:0.0077793338 20:-0.33333333 21:0 
8 1:1 2:0 3:0.75 4:0 5:0 6:0 7:0 8:0 9:0 10:0 11:0 12:0 13:0 14:0 15:0 16:0 17:0 18:0.31622777 19:0.046848558 20:1 21:0 
8 1:1 2:0 3:0.75 4:0 5:1 6:-1 7:0 8:1 9:-1 10:1 11:0 12:1 13:0 14:0 15:0 16:0 17:0 18:0.45454545 19:0.092592593 20:0 21:0 
8 1:1 2:0 3:0.75 4:0 5:1 6:-1 7:0 8:1 9:-1 10:1 11:0 12:1 13:0 14:0 15:0 16:0 17:0 18:0.45454545 19:0.092592593 20:0 21:0.5 
8 1:1 2:0 3:0.75 4:1 5:0 6:1 7:0 8:1 9:1 10:1 11:0 12:1 13:0 14:0 15:0 16:0 17:0 18:0.45643546 19:0.12678763 20:0.66666667 21:0 
8 1:1 2:0 3:0.75 4:1 5:0 6:1 7:0 8:1 9:-1 10:1 11:0 12:1 13:0 14:0 15:0 16:0 17:0 18:0.54545455 19:0.11111111 20:0.33333333 21:0 
4.872945903645285 1:1 2:0 3:0.75 4:1 5:0 6:1 7:1 8:0 9:1 10:0 11:0 12:0 13:0 14:0 15:0 16:0 17:0 18:0.5 19:0.055555556 20:1 21:0 
2.511759203176138 1:1 2:0 3:0.75 4:1 5:0 6:1 7:1 8:0 9:1 10:1 11:0 12:1 13:0 14:0 15:0 16:0 17:0 18:0.66666667 19:0.11111111 20:0.66666667 21:0 
8 1:1 2:0 3:0.76 4:0 5:1 6:-1 7:0 8:1 9:-1 10:1 11:0 12:0.33333333 13:1 14:1 15:0 16:1 17:0.42222222 18:0.46153846 19:0.11111111 20:0.33333333 21:0 
1.056463258894603 1:1 2:0 3:0.76 4:0 5:1 6:-1 7:0 8:1 9:-1 10:1 11:0 12:0.33333333 13:1 14:1 15:0 16:1 17:0.42222222 18:0.46153846 19:0.11111111 20:0.33333333 21:0.9047619 
2.175649638667693 1:1 2:0 3:0.76744186 4:1 5:0 6:1 7:0 8:1 9:1 10:1 11:0 12:0.64705882 13:1 14:1 15:0 16:1 17:0.37931034 18:0.61538462 19:0.14814815 20:0.8 21:0 
8 1:1 2:0 3:0.77777778 4:1 5:0 6:1 7:0 8:1 9:0.93333333 10:1 11:0 12:1 13:0 14:0 15:0 16:0 17:0 18:0.55555556 19:0.092592593 20:0.65555556 21:0 
0.3462906955999797 1:1 2:0 3:0.77777778 4:1 5:0 6:1 7:1 8:0 9:1 10:1 11:0 12:1 13:1 14:1 15:0 16:1 17:-0.5862069 18:0.72057669 19:0.17347217 20:0.8 21:0 
0.05143315529222964 1:1 2:0 3:0.77777778 4:1 5:0 6:1 7:1 8:0 9:1 10:1 11:0 12:1 13:1 14:1 15:1 16:1 17:1 18:0.88372093 19:0.7037037 20:0.8 21:0.97142857 
2.927330146878059 1:1 2:0 3:0.79591837 4:1 5:0 6:1 7:1 8:0 9:1 10:1 11:0 12:1 13:0 14:0 15:0 16:0 17:0 18:0.72727273 19:0.14814815 20:0.66666667 21:0 
8 1:1 2:0 3:0.80645161 4:0 5:0 6:0 7:0 8:0 9:0 10:0 11:0 12:0 13:0 14:0 15:0 16:0 17:0 18:0.36514837 19:0.040572041 20:0 21:0 
8 1:1 2:0 3:0.81818182 4:0 5:0 6:0 7:0 8:0 9:0 10:0 11:0 12:0 13:0 14:0 15:0 16:0 17:0 18:0.36514837 19:0.033810034 20:1 21:0 
8 1:1 2:0 3:0.81818182 4:0 5:0 6:0 7:0 8:0 9:0 10:0 11:0 12:0 13:0 14:0 15:0 16:0 17:0 18:0.4 19:0.037037037 20:1 21:0 
8 1:1 2:0 3:0.81818182 4:1 5:0 6:1 7:0 8:1 9:-0.2 10:0 11:1 12:-0.4 13:0 14:0 15:0 16:0 17:0 18:0.33333333 19:0.055555556 20:-0.033333333 21:0 
1.570006081812193 1:1 2:0 3:0.81818182 4:1 5:0 6:1 7:0 8:1 9:0.93333333 10:1 11:0 12:1 13:1 14:1 15:0 16:0.8 17:1 18:0.66666667 19:0.18518519 20:0.77333333 21:0 
0.05229982961420541 1:1 2:0 3:0.81818182 4:1 5:0 6:1 7:0 8:1 9:0.93333333 10:1 11:0 12:1 13:1 14:1 15:0 16:0.8 17:1 18:0.66666667 19:0.18518519 20:0.77333333 21:0.93904762 
8 1:1 2:0 3:0.81818182 4:1 5:0 6:1 7:1 8:0 9:1 10:0 11:0 12:0 13:0 14:0 15:0 16:0 17:0 18:0.5 19:0.055555556 20:0.5 21:0 
8 1:1 2:0 3:0.83333333 4:1 5:0 6:1 7:0 8:1 9:1 10:1 11:0 12:0.36842105 13:0 14:0 15:0 16:0 17:0 18:0.49029034 19:0.11803286 20:0.66666667 21:0 
1.097429532272815 1:1 2:0 3:0.83783784 4:1 5:0 6:1 7:0 8:1 9:1 10:0 11:1 12:-0.27272727 13:1 14:1 15:1 16:1 17:0.028571429 18:0.48304589 19:0.13417941 20:0.55555556 21:0 
1.446962288674048 1:1 2:0 3:0.8 4:0 5:0 6:0 7:0 8:0 9:0 10:0 11:0 12:0 13:1 14:1 15:1 16:1 17:0.15789474 18:0.66666667 19:0.11111111 20:1 21:0 
8 1:1 2:0 3:0.8 4:0 5:1 6:-1 7:0 8:1 9:-1 10:0 11:0 12:0 13:0 14:0 15:0 16:0 17:0 18:0.33333333 19:0.037037037 20:-0.33333333 21:0 
1.397781969899554 1:1 2:0 3:0.8 4:0 5:1 6:-1 7:0 8:1 9:-1 10:0 11:0 12:0 13:1 14:1 15:1 16:1 17:0.55555556 18:0.54772256 19:0.1014301 20:0.25 21:0 
0.1487626232590697 1:1 2:0 3:0.8 4:1 5:0 6:1 7:1 8:0 9:1 10:1 11:0 12:0.50724638 13:1 14:1 15:0 16:-0.13333333 17:0.50724638 18:0.86486486 19:0.59259259 20:0.68666667 21:0.81391304 
8 1:1 2:0 3:0.84615385 4:0 5:0 6:0 7:0 8:0 9:0 10:0 11:0 12:0 13:0 14:0 15:0 16:0 17:0 18:0.16329932 19:0.015120307 20:0 21:0 
8 1:1 2:0 3:0.84615385 4:1 5:0 6:1 7:0 8:1 9:1 10:0 11:0 12:0 13:0 14:0 15:0 16:0 17:0 18:0.40824829 19:0.045360921 20:0.5 21:0 
8 1:1 2:0 3:0.84615385 4:1 5:0 6:1 7:1 8:0 9:1 10:0 11:0 12:0 13:0 14:0 15:0 16:0 17:0 18:0.38729833 19:0.071721914 20:0.5 21:0 
8 1:1 2:0 3:0.85185185 4:1 5:0 6:1 7:1 8:0 9:1 10:1 11:0 12:1 13:0 14:0 15:0 16:0 17:0 18:0.72727273 19:0.14814815 20:0.66666667 21:0 
8 1:1 2:0 3:0.86046512 4:0 5:0 6:0 7:0 8:0 9:0 10:0 11:0 12:0 13:0 14:0 15:0 16:0 17:0 18:0.45584231 19:0.059090669 20:0 21:0 
8 1:1 2:0 3:0.86666667 4:0 5:0 6:0 7:0 8:0 9:0 10:0 11:0 12:0 13:0 14:0 15:0 16:0 17:0 18:0.73029674 19:0.067620069 20:1 21:0 
8 1:1 2:0 3:0.86666667 4:0 5:0 6:0 7:0 8:0 9:0 10:0 11:0 12:0 13:0 14:0 15:0 16:0 17:0 18:0.73029674 19:0.081144083 20:1 21:0 
3.024296855249849 1:1 2:0 3:0.86666667 4:1 5:0 6:1 7:1 8:0 9:1 10:1 11:0 12:0.38181818 13:1 14:1 15:1 16:1 17:1 18:0.8 19:0.22222222 20:0.8 21:0 
0.6203684356450269 1:1 2:0 3:0.88235294 4:1 5:0 6:1 7:0 8:1 9:-0.66666667 10:1 11:0 12:0.55555556 13:1 14:1 15:1 16:1 17:1 18:0.70588235 19:0.22222222 20:0.73333333 21:0 
0.04004756211413477 1:1 2:0 3:0.88679245 4:1 5:0 6:1 7:1 8:0 9:1 10:0 11:1 12:0.72307692 13:1 14:1 15:1 16:1 17:1 18:0.66666667 19:0.18518519 20:0.55555556 21:0 
8 1:1 2:0 3:0.89473684 4:0 5:0 6:0 7:0 8:0 9:0 10:0 11:0 12:0 13:0 14:0 15:0 16:0 17:0 18:0.4 19:0.037037037 20:1 21:0 
8 1:1 2:0 3:0.9047619 4:0 5:0 6:0 7:0 8:0 9:0 10:0 11:0 12:0 13:0 14:0 15:0 16:0 17:0 18:0.43643578 19:0.056575009 20:0 21:0 
8 1:1 2:0 3:0.91304348 4:0 5:1 6:-1 7:0 8:1 9:-1 10:0 11:0 12:0 13:0 14:0 15:0 16:0 17:0 18:0.5 19:0.074074074 20:-0.5 21:0 
2.68157097172391 1:1 2:0 3:0.91666667 4:0 5:1 6:-1 7:0 8:1 9:-1 10:1 11:0 12:0.2 13:1 14:1 15:1 16:1 17:0.42857143 18:0.6 19:0.16666667 20:0.33333333 21:0 
8 1:1 2:0 3:0.91666667 4:1 5:0 6:1 7:1 8:0 9:1 10:0 11:0 12:0 13:0 14:0 15:0 16:0 17:0 18:0.66666667 19:0.11111111 20:0.5 21:0 
1.404676327571812 1:1 2:0 3:0.92307692 4:1 5:0 6:1 7:1 8:0 9:1 10:1 11:0 12:1 13:0 14:-1 15:0 16:-1 17:0.97468354 18:0.6 19:0.16666667 20:0.33333333 21:0 
1.152035302288266 1:1 2:0 3:0.92307692 4:1 5:0 6:1 7:1 8:0 9:1 10:1 11:0 12:1 13:0 14:-1 15:0 16:-1 17:0.97468354 18:0.6 19:0.16666667 20:0.33333333 21:0.89333333 
0.2255900380122933 1:1 2:0 3:0.92592593 4:1 5:0 6:1 7:1 8:0 9:1 10:1 11:0 12:1 13:1 14:1 15:1 16:1 17:1 18:0.75 19:0.16666667 20:0.8 21:0 
0.09678993548000803 1:1 2:0 3:0.92857143 4:1 5:0 6:1 7:1 8:0 9:1 10:1 11:0 12:1 13:1 14:1 15:1 16:1 17:-0.48717949 18:0.66666667 19:0.18518519 20:0.55555556 21:0 
0.3807683909517173 1:1 2:0 3:0.92857143 4:1 5:0 6:1 7:1 8:0 9:1 10:1 11:0 12:1 13:1 14:1 15:1 16:1 17:-0.48717949 18:0.66666667 19:0.18518519 20:0.55555556 21:0.76818182 
8 1:1 2:0 3:0.93103448 4:1 5:0 6:1 7:1 8:0 9:1 10:0 11:0 12:0 13:0 14:0 15:0 16:0 17:0 18:0.50174521 19:0.12079051 20:0.5 21:0 
2.59158798501749 1:1 2:0 3:0.94117647 4:1 5:0 6:1 7:1 8:0 9:1 10:0 11:0 12:0 13:0 14:0 15:0 16:0 17:0 18:0.62279916 19:0.17299977 20:0.5 21:0 
8 1:1 2:0 3:0.94871795 4:1 5:0 6:1 7:0 8:1 9:0.93333333 10:1 11:0 12:0.76 13:0 14:0 15:0 16:0 17:0 18:0.63636364 19:0.12962963 20:0.65555556 21:0 
8 1:1 2:0 3:0.94871795 4:1 5:0 6:1 7:0 8:1 9:1 10:0 11:1 12:0.25714286 13:0 14:0 15:0 16:0 17:0 18:0.47673129 19:0.09711193 20:0.2 21:0 
8 1:1 2:0 3:0.95121951 4:0 5:0 6:0 7:0 8:0 9:0 10:0 11:0 12:0 13:0 14:0 15:0 16:0 17:0 18:0.53452248 19:0.069289952 20:0 21:0 
0.1191972394791028 1:1 2:0 3:0.95121951 4:1 5:0 6:1 7:1 8:0 9:1 10:1 11:0 12:1 13:1 14:1 15:1 16:1 17:1 18:0.8 19:0.22222222 20:0.8 21:0.93333333 
8 1:1 2:0 3:0.95348837 4:1 5:0 6:1 7:1 8:0 9:1 10:0 11:0 12:0 13:0 14:0 15:0 16:0 17:0 18:0.51031036 19:0.1134023 20:0.5 21:0 
0.1221334201890659 1:1 2:0 3:0.95744681 4:1 5:0 6:1 7:0 8:1 9:0.33333333 10:1 11:0 12:1 13:1 14:1 15:1 16:1 17:0.95 18:0.73333333 19:0.2037037 20:0.73333333 21:0.90944444 
0.1042390363209657 1:1 2:0 3:0.95744681 4:1 5:0 6:1 7:1 8:0 9:1 10:0 11:1 12:-0.27272727 13:1 14:1 15:1 16:1 17:1 18:0.66666667 19:0.18518519 20:0.55555556 21:0 
2.976313041072546 1:1 2:0 3:0.95744681 4:1 5:0 6:1 7:1 8:0 9:1 10:1 11:0 12:0.81818182 13:0 14:0 15:0 16:0 17:0 18:0.72727273 19:0.14814815 20:0.66666667 21:0 
0.09943606319606048 1:1 2:0 3:0.95918367 4:1 5:0 6:1 7:1 8:0 9:1 10:1 11:0 12:0.69230769 13:1 14:1 15:0 16:0.6 17:0.66666667 18:0.80487805 19:0.61111111 20:0.76 21:0.91266667 
6.260467851383965 1:1 2:0 3:0.96078431 4:1 5:0 6:1 7:0 8:1 9:0.66666667 10:1 11:0 12:1 13:0 14:0 15:0 16:0 17:0 18:0.63636364 19:0.12962963 20:0.61111111 21:0 
5.506632475021436 1:1 2:0 3:0.96363636 4:1 5:0 6:1 7:1 8:0 9:1 10:1 11:0 12:0.76 13:1 14:1 15:1 16:1 17:1 18:0.78571429 19:0.2037037 20:0.8 21:0 
5.880308519533791 1:1 2:0 3:0.96491228 4:1 5:0 6:1 7:1 8:0 9:1 10:0 11:1 12:-0.15151515 13:0 14:0 15:0 16:0 17:0 18:0.61538462 19:0.14814815 20:0.2 21:0 
8 1:1 2:0 3:0.97014925 4:0 5:0 6:0 7:0 8:0 9:0 10:0 11:0 12:0 13:0 14:0 15:0 16:0 17:0 18:0.54545455 19:0.11111111 20:0 21:0 
0.1703198346910207 1:1 2:0 3:1 4:1 5:0 6:1 7:1 8:0 9:1 10:0 11:0 12:0 13:1 14:1 15:1 16:1 17:1 18:1 19:0.18518519 20:1 21:0 
0.4609462784192738 1:1 2:1 3:-0.022222222 4:1 5:0 6:1 7:1 8:0 9:1 10:1 11:0 12:0.066666667 13:1 14:1 15:0 16:1 17:1 18:0.71611487 19:0.1989208 20:1 21:0 
0.6353322630751419 1:1 2:1 3:0.023255814 4:1 5:0 6:1 7:1 8:0 9:1 10:0 11:0 12:0 13:1 14:1 15:1 16:1 17:1 18:0.64051262 19:0.14233614 20:1 21:0.94375 
0.2127098522034076 1:1 2:1 3:-0.024390244 4:1 5:0 6:1 7:1 8:0 9:1 10:1 11:0 12:1 13:1 14:1 15:0 16:1 17:1 18:0.64051262 19:0.14233614 20:1 21:0 
8 1:1 2:1 3:0.025641026 4:0 5:1 6:-1 7:0 8:1 9:-1 10:0 11:0 12:0 13:0 14:0 15:0 16:0 17:0 18:0.33333333 19:0.055555556 20:0.2 21:0 
8 1:1 2:1 3:0.025641026 4:0 5:1 6:-1 7:0 8:1 9:-1 10:0 11:0 12:0 13:0 14:0 15:0 16:0 17:0 18:0.33333333 19:0.055555556 20:0.2 21:0.77333333 
0.2937078272864306 1:1 2:1 3:-0.027027027 4:1 5:0 6:1 7:1 8:0 9:1 10:1 11:0 12:0.2 13:1 14:1 15:1 16:1 17:1 18:0.76271277 19:0.18361604 20:1 21:0.89848485 
2.684350445783412 1:1 2:1 3:0.028571429 4:0 5:1 6:-1 7:0 8:1 9:-1 10:0 11:0 12:0 13:1 14:1 15:1 16:1 17:1 18:0.52223297 19:0.10638079 20:0.55555556 21:0 
1.18540123108234 1:1 2:1 3:-0.037037037 4:0 5:1 6:-1 7:0 8:1 9:-1 10:1 11:0 12:0.11111111 13:1 14:1 15:1 16:1 17:1 18:0.53813824 19:0.1295518 20:0.6 21:0 
0.2691611783447613 1:1 2:1 3:-0.037037037 4:0 5:1 6:-1 7:0 8:1 9:-1 10:1 11:0 12:0.11111111 13:1 14:1 15:1 16:1 17:1 18:0.53813824 19:0.1295518 20:0.6 21:0.9 
0.1757779773496684 1:1 2:1 3:0 4:1 5:0 6:1 7:1 8:0 9:1 10:1 11:0 12:1 13:1 14:1 15:0 16:1 17:1 18:0.64051262 19:0.14233614 20:1 21:0.99300699 
0.1214050814252035 1:1 2:1 3:0.043478261 4:1 5:0 6:1 7:1 8:0 9:1 10:0 11:0 12:0 13:1 14:1 15:1 16:1 17:0.56521739 18:0.48038446 19:0.1067521 20:0.75 21:0.89848485 
7.075383027397684 1:1 2:1 3:0.043478261 4:1 5:0 6:1 7:1 8:0 9:1 10:1 11:0 12:1 13:0 14:0 15:0 16:0 17:0 18:0.56694671 19:0.083992105 20:1 21:0 
6.074110487218309 1:1 2:1 3:-0.043478261 4:1 5:0 6:1 7:1 8:0 9:1 10:1 11:0 12:1 13:0 14:0 15:0 16:0 17:0 18:0.57735027 19:0.096225045 20:1 21:1 
1.125806583122571 1:1 2:1 3:0.04 4:1 5:0 6:1 7:0 8:1 9:1 10:0 11:1 12:0.55102041 13:0 14:0 15:0 16:0 17:0 18:0.48989795 19:0.13608276 20:0.66666667 21:0 
0.1716936073402692 1:1 2:1 3:-0.04 4:1 5:0 6:1 7:1 8:0 9:1 10:1 11:0 12:1 13:1 14:1 15:0 16:1 17:0.25714286 18:0.52297636 19:0.12590172 20:0.8 21:0 
0.1201463591325375 1:1 2:1 3:0.047619048 4:1 5:0 6:1 7:0 8:1 9:1 10:1 11:0 12:1 13:1 14:1 15:1 16:1 17:1 18:0.64450339 19:0.15515822 20:1 21:0 
0.2978178279302905 1:1 2:1 3:0.047619048 4:1 5:0 6:1 7:0 8:1 9:1 10:1 11:0 12:1 13:1 14:1 15:1 16:1 17:1 18:0.64450339 19:0.15515822 20:1 21:0.97222222 
